0,1,2,3,4,5,6,7,8,9,10,11,12,13,14,15,16,17,18,19,20,21,22,23,24,25,26,27,28,29,30,31,32,33,34,35,36,37,38,39,40,41,42,43,44,45,46,47,48,49,50,51,52,53,54,55,56,57,58,59,60,61,62,63,64,65,66,67,68,69,70,71,72,73,74,75,76,77,78,79,80,81,82,83,84,85,86,87,88,89,90,91,92,93,94,95,96,97,98,99,100,101,102,103,104,105,106,107,108,109,110,111,112,113,114,115,116,117,118,119,120,121,122,123,124,125,126,127,128,129,130,131,132,133,134,135,136,137,138,139,140,141,142,143,144,145,146,147,148,149,150,151,152,153,154,155,156,157,158,159,160,161,162,163,164,165,166,167,168,169,170,171,172,173,174,175,176,177,178,179,180,181,182,183,184,185,186,187,188,189,190,191,192,193,194,195,196,197,198,199,200,201,202,203,204,205,206,207,208,209,210,211,212,213,214,215,216,217,218,219,220,221,222,223,224,225,226,227,228,229,230,231,232,233,234,235,236,237,238,239,240,241,242,243,244,245,246,247,248,249
-0.18108936,-0.11923749,0.14582723,0.1565502,0.15273006,0.117521994,0.14226896,-0.142794,-0.17115551,-0.17031942,0.09781406,0.16043454,-0.15163723,-0.14047112,0.14770763,0.17408323,-0.14125808,-0.17380711,-0.10601508,0.17492618,-0.1639386,0.18238625,-0.12479077,-0.20781186,0.19529401,0.19416343,-0.11562638,0.15891042,-0.17599225,-0.17644401,-0.14299126,-0.17539692,0.100229144,-0.11491077,0.12958334,0.12577556,-0.15882336,-0.13892837,0.15418121,-0.16556549,0.17400047,0.1385311,-0.06986478,0.1299655,-0.11384458,-0.18369128,-0.143809,0.12194517,0.11442142,0.114459485,0.16653615,-0.1861252,0.16363294,0.17376943,0.08002908,-0.10750852,0.048242792,-0.115483895,0.12851642,0.10235026,0.14117639,0.13332693,0.08838271,-0.1741899,-0.08758301,-0.08729647,0.18801296,-0.1699544,-0.10030079,-0.16723126,-0.17937502,0.121363476,0.19317292,-0.09217311,0.07020907,-0.10916802,0.10006596,0.21308248,-0.14762875,-0.20748341,0.19057015,-0.09564804,0.12914729,0.16776685,0.014072707,0.17552696,0.0884795,0.13378434,0.13842422,-0.068619594,0.1602486,-0.13562477,0.13781895,0.118686326,0.18078393,0.10895442,-0.10774601,-0.1686079,0.12620158,0.17863551,0.119409636,-0.10818972,0.10272384,-0.17008615,0.11063919,-0.12587322,0.11702641,-0.22572945,-0.17846069,-0.1435141,-0.07594198,0.1907365,-0.106472865,-0.15828907,0.097646765,0.15936624,-0.13822542,-0.17650157,-0.14270395,0.102637656,-0.15501978,-0.099679984,-0.17473891,-0.16379748,-0.11486639,-0.1683975,0.14817837,-0.17431775,0.1516379,0.1599758,0.1623689,-0.17341612,0.07838303,0.14876753,-0.12154192,-0.11257537,-0.13136524,0.17901795,0.10356597,0.17019129,-0.15481387,-0.14747082,-0.13975696,0.11114107,-0.14421959,-0.072388895,0.09653915,0.10143124,0.11369465,-0.16295005,-0.12808028,0.1390205,-0.15542011,-0.16272444,0.11954688,-0.10537594,0.1370656,-0.2046495,0.122473106,0.18816102,0.18563311,0.043494105,-0.13322103,-0.1604029,0.16064894,-0.17071281,0.136347,0.15432747,-0.1825964,0.102023534,0.13709009,0.047269594,-0.16787554,-0.13879107,-0.15567395,0.14493161,0.13971236,-0.17088427,0.12122263,-0.19211419,0.15680936,-0.16969538,0.14170572,0.09370707,0.17382729,-0.13717182,-0.1734239,-0.1646709,0.17459048,-0.12337676,0.12742566,0.12581931,0.16377163,0.14682291,-0.104132615,0.020118807,-0.15264112,-0.14533669,0.11860848,0.13683605,-0.16157706,0.14984685,0.11258773,-0.15030448,-0.13785075,0.19932055,0.1562702,-0.14328289,0.12787437,-0.1722284,-0.1748272,-0.21251638,0.06118464,-0.1709494,-0.105415896,-0.18892533,-0.13044949,0.14708902,-0.11154063,0.18028608,0.18693845,0.19008133,0.06354148,-0.093839675,-0.14977562,-0.1263696,-0.13843992,0.15235601,-0.16881162,-0.07813618,0.19999829,0.17836803,-0.11541105,0.15206361,-0.12310281,-0.19269207,-0.13551977,0.14625041,0.095662355,-0.12944886,-0.14742428,-0.18572545,-0.15457204,0.13921611,0.15536395,-0.095318586,-0.16738416,0.13418235,-0.13955651,-0.12267392
-0.16759825,-0.13101862,0.10773772,0.13037774,0.15080707,0.15740474,0.14173771,-0.18163559,-0.08649898,-0.13415533,0.18278235,0.12569845,-0.122793674,-0.12529776,0.12344318,0.12103534,-0.19754049,-0.13252288,-0.113239825,0.13135387,-0.17345397,0.132557,-0.12507083,-0.14176139,0.115218915,0.10864735,-0.16182847,0.15910172,-0.17698497,-0.14074999,-0.11569551,-0.07976903,0.108145826,-0.16223803,0.15350418,0.14206253,-0.11880628,-0.21689177,0.101417884,-0.15268674,0.15700454,0.1574706,-0.011165599,0.10661352,-0.08754598,-0.089531474,-0.10870815,0.13392769,0.12218496,0.1494221,0.15325668,-0.18125217,0.109050944,0.13719152,0.08600947,-0.09003126,0.025539286,-0.09181296,0.13707319,0.13859944,0.1402393,0.16937234,0.16895044,-0.099206485,-0.16588162,-0.12815998,0.1579621,-0.10285695,-0.17823401,-0.1641306,-0.09810475,0.09952601,0.17801207,-0.11981749,0.09454659,-0.1346294,0.078427166,0.14463477,-0.08588507,-0.120660245,0.14196607,-0.13264385,0.1407995,0.13138774,-0.033109266,0.16359654,0.14971946,0.13775808,0.17510198,-0.08582043,0.14030674,-0.124219745,0.16084974,0.143652,0.15337683,0.14252403,-0.1796504,-0.11100873,0.09954426,0.16709173,0.16400929,-0.14264973,0.043342307,-0.09565932,0.11131228,-0.14320411,0.123092234,-0.12950039,-0.10096655,-0.1751023,-0.07696069,0.13487488,-0.16335467,-0.112227306,0.11651606,0.12497967,-0.18724023,-0.16297674,-0.07622806,0.15631302,-0.18030737,-0.09135644,-0.09524274,-0.09675116,-0.12443929,-0.075361915,0.14324957,-0.11515769,0.1595643,0.11659609,0.10237034,-0.15272969,0.13115996,0.13822404,-0.10868895,-0.07103964,-0.13013887,0.07365913,0.18189143,0.15040572,-0.13647217,-0.12846914,-0.14515404,0.115825824,-0.17942068,-0.07922433,0.01752982,0.12777612,0.09334578,-0.10222882,-0.086612344,0.16930045,-0.15415585,-0.17514998,0.15185818,-0.11138589,0.110239886,-0.18164837,0.12437323,0.1085955,0.17920125,0.10560014,-0.14605811,-0.1439831,0.13364008,-0.14795075,0.09536303,0.17567813,-0.13052115,0.17199372,0.10019788,0.08056315,-0.08742866,-0.1778401,-0.09277247,0.18296681,0.08815171,-0.14025897,0.16111524,-0.17108928,0.1281838,-0.13653639,0.17896722,0.13288577,0.15873647,-0.13721214,-0.1885515,-0.15948851,0.1452626,-0.19253027,0.13999814,0.1827521,0.1660046,0.14936309,-0.16068234,-0.063419916,-0.09529683,-0.10517594,0.10373354,0.12010181,-0.1771423,0.18663363,0.13954295,-0.17430769,-0.1603486,0.1410756,0.17379698,-0.11942613,0.116799586,-0.15197758,-0.17171676,-0.17046654,0.15094233,-0.12331192,-0.15113969,-0.13688748,-0.1420312,0.13540132,-0.1300778,0.17100975,0.112162195,0.093431726,0.15787508,-0.1614131,-0.09260588,-0.101747684,-0.08301898,0.09941192,-0.17173687,-0.10505394,0.16596948,0.17067961,-0.10564537,0.15926518,-0.13604395,-0.13821188,-0.1492343,0.14734145,0.14528045,-0.11876622,-0.1664506,-0.18852176,-0.1522024,0.14169377,0.163903,-0.16903877,-0.15101619,0.13676803,-0.1193896,-0.11909866
-0.09196899,-0.15001073,0.18714266,0.11868199,0.16574049,0.14538965,0.12668738,-0.1780166,-0.12813307,-0.16329208,0.15662396,0.13887233,-0.09870727,-0.1461218,0.11156907,0.09774148,-0.16650432,-0.08205863,-0.1251163,0.13247083,-0.08707879,0.19176283,-0.11942668,-0.15239269,0.17276205,0.15282395,-0.17288895,0.13310915,-0.1446115,-0.14453481,-0.102975205,-0.07599611,0.12570967,-0.12163094,0.18414819,0.1693227,-0.13048118,-0.18937205,0.1347411,-0.1041365,0.07817862,0.13308696,-0.099401295,0.18018416,-0.13674723,-0.16866133,-0.11829139,0.10131887,0.16147704,0.15067206,0.07871095,-0.15816209,0.117953375,0.1651345,0.15266998,-0.14763695,0.05753947,-0.13630222,0.09661819,0.068660654,0.06769595,0.09230625,0.1536019,-0.09512623,-0.14478631,-0.13392407,0.13442712,-0.1305835,-0.17388593,-0.122767895,-0.16569708,0.12170296,0.11043147,-0.10816376,0.14191703,-0.14093685,0.0751356,0.15702972,-0.12863328,-0.17235,0.11824246,-0.12233402,0.113118745,0.13780856,-0.016271193,0.12538108,0.1618224,0.10007503,0.1396546,0.006944316,0.1025058,-0.12956218,0.106452286,0.13570373,0.09404303,0.14803454,-0.13172378,-0.111567885,0.16738261,0.13483052,0.15175626,-0.10712804,0.09715762,-0.14760394,0.14942172,-0.10390205,0.16482577,-0.11791963,-0.17989634,-0.17641324,-0.09378389,0.118152134,-0.1374695,-0.11846146,0.14581642,0.17020687,-0.09048815,-0.17659192,-0.15507907,0.1424436,-0.18843487,-0.13804469,-0.09398549,-0.16060822,-0.08420138,-0.16804428,0.10431074,-0.08689648,0.09114562,0.09924406,0.1748287,-0.08237359,0.118453346,0.15903072,-0.09457525,-0.114138514,-0.13307765,0.1015624,0.11511007,0.1296168,-0.1739946,-0.1273399,-0.14979202,0.09455007,-0.112269476,-0.06691972,0.11063475,0.15405151,0.14821026,-0.08103413,-0.17388144,0.120589755,-0.17735875,-0.11962246,0.13267662,-0.09691023,0.16782911,-0.12038092,0.14276247,0.09022044,0.114401646,0.09589449,-0.0978038,-0.09893269,0.07504377,-0.12641877,0.16994177,0.12552631,-0.19659977,0.1807722,0.12502669,0.055669066,-0.15632269,-0.0776399,-0.08589677,0.113159046,0.16981158,-0.1372315,0.14095943,-0.17599425,0.18642344,-0.12962708,0.12891595,0.15066874,0.09870163,-0.13339628,-0.15451035,-0.12290755,0.13297945,-0.09780985,0.118468806,0.18060368,0.1672018,0.15350251,-0.15751886,-0.07068121,-0.08918146,-0.16938213,0.17703438,0.14983903,-0.19281098,0.16573827,0.098566756,-0.086890504,-0.1058625,0.16253495,0.1307108,-0.08458283,0.15397556,-0.11526103,-0.101261646,-0.19169064,0.10212086,-0.1335968,-0.123238325,-0.18064186,-0.19333115,0.15345941,-0.099503204,0.15861768,0.1063907,0.10936456,0.10408612,-0.13509883,-0.13246526,-0.09631014,-0.10519976,0.106392235,-0.1827598,-0.150422,0.18141271,0.09383426,-0.14614987,0.13964804,-0.1446357,-0.17476565,-0.091999665,0.12354237,0.074177004,-0.08079196,-0.1108678,-0.16327342,-0.15349926,0.116158,0.11922164,-0.10948147,-0.10492675,0.14162795,-0.09472634,-0.15533961
-0.14710335,-0.15627088,0.11988461,0.10122029,0.16166215,0.11103468,0.13165417,-0.16374035,-0.12420792,-0.08838423,0.15081449,0.14273621,-0.0952533,-0.108898565,0.13549067,0.15831059,-0.11161705,-0.1097452,-0.12511668,0.08098286,-0.11248758,0.11378819,-0.087921716,-0.10385084,0.10959544,0.12737101,-0.1263627,0.1528372,-0.0922784,-0.11970295,-0.07488787,-0.09442528,0.1545748,-0.06919181,0.10883948,0.1724721,-0.06708962,-0.18623161,0.13537808,-0.08302057,0.09157688,0.139874,-0.0755104,0.13156241,-0.089930885,-0.08531061,-0.1207885,0.16133653,0.15078023,0.16319631,0.1377211,-0.14219682,0.16794084,0.11046729,0.09418711,-0.14294817,0.022437893,-0.091211274,0.1580873,0.12025924,0.09282995,0.14696461,0.07306318,-0.13196681,-0.10093607,-0.103352666,0.12809624,-0.0907387,-0.07560277,-0.1133734,-0.08087212,0.107798725,0.13752016,-0.10548405,0.14211951,-0.11297193,0.12111817,0.191316,-0.12105743,-0.15263152,0.19822863,-0.10440239,0.07282307,0.14437734,-0.061897986,0.15685402,0.07083588,0.15974858,0.15801315,-0.041538462,0.11395296,-0.099238954,0.11957994,0.14474453,0.1264952,0.13656634,-0.15532045,-0.14070697,0.067656,0.12450027,0.15937507,-0.13437466,0.03554673,-0.1299489,0.12943792,-0.16543436,0.07838572,-0.13481674,-0.09605634,-0.14766726,-0.04648632,0.16191868,-0.07385222,-0.112165675,0.14634462,0.16668901,-0.13950555,-0.112099096,-0.11281145,0.10881761,-0.115266375,-0.15382579,-0.099373735,-0.09412287,-0.12352051,-0.14949903,0.13179514,-0.17549397,0.100687124,0.10489252,0.10124537,-0.114845134,0.16229066,0.12719095,-0.11882601,-0.08285759,-0.101282075,0.124166824,0.056358784,0.10313791,-0.17433584,-0.10042172,-0.16194552,0.10272123,-0.1642193,-0.12949017,0.02265033,0.103925444,0.084389135,-0.15654328,-0.17614299,0.120135784,-0.13680613,-0.116765685,0.08993702,-0.13893612,0.08673435,-0.1649902,0.16608669,0.101510696,0.20491315,0.09891997,-0.15313464,-0.15646805,0.15095888,-0.12565625,0.17739584,0.14254713,-0.16372102,0.11840298,0.17202383,0.053345434,-0.1598558,-0.1143286,-0.08585349,0.13386503,0.11161866,-0.090788834,0.15715978,-0.16197172,0.09790229,-0.1224614,0.17136559,0.09557055,0.15088841,-0.17180228,-0.10447531,-0.17331627,0.12914552,-0.150418,0.09735577,0.16815624,0.19240709,0.10888385,-0.14509283,-0.078619875,-0.1560368,-0.089358576,0.1459077,0.10683902,-0.16416882,0.16615666,0.095042236,-0.16045816,-0.11143781,0.14351927,0.13852213,-0.13324755,0.098500036,-0.12648305,-0.10612385,-0.18747146,0.13481943,-0.09226038,-0.152531,-0.118688956,-0.15749086,0.099712804,-0.11701687,0.085731365,0.09642096,0.16048978,0.14492127,-0.062046804,-0.08175147,-0.15435052,-0.1637269,0.08864748,-0.16863678,-0.14596897,0.15304106,0.17000169,-0.11692106,0.14301527,-0.18059608,-0.12055046,-0.07663847,0.1022849,0.13770393,-0.1610752,-0.16496097,-0.14007053,-0.112713024,0.17988479,0.13225126,-0.12041014,-0.1350679,0.13977507,-0.10372035,-0.083614215
-0.121750735,-0.092059374,0.17683862,0.102035634,0.11133414,0.076643474,0.15331832,-0.15822063,-0.074173145,-0.15931652,0.100143746,0.15777573,-0.113834225,-0.14718737,0.120393276,0.13006012,-0.13769485,-0.10513831,-0.16461793,0.15919748,-0.16757563,0.16439614,-0.13464974,-0.1434604,0.14851312,0.18283482,-0.13856007,0.07252509,-0.091566734,-0.17275126,-0.09786012,-0.14632858,0.07405899,-0.080588415,0.08978248,0.10893687,-0.1574335,-0.17185895,0.07652806,-0.135849,0.13549289,0.07779699,-0.043736093,0.13829021,-0.12581803,-0.107286796,-0.15925664,0.094084635,0.14866747,0.07455907,0.09594599,-0.16178514,0.07533826,0.12062752,0.14967215,-0.11030302,-0.00072595826,-0.13969697,0.12809592,0.11819211,0.07219035,0.10955686,0.0664804,-0.12406137,-0.12353071,-0.08219055,0.12847504,-0.09789009,-0.08019243,-0.09005983,-0.09495172,0.07469696,0.11105821,-0.10092715,0.067957126,-0.15770635,0.10714887,0.10826632,-0.106652685,-0.10531284,0.10877101,-0.12630144,0.09884911,0.08436007,-0.0041358694,0.14853351,0.07287343,0.10514143,0.099656835,-0.06999166,0.119390994,-0.052034598,0.10309551,0.10150068,0.14893131,0.06491218,-0.11387154,-0.13689849,0.16305988,0.12394414,0.08455278,-0.16300328,0.00836586,-0.15244257,0.1464677,-0.0957156,0.116395846,-0.10867145,-0.16747767,-0.075092465,-0.0070475577,0.12780525,-0.12327975,-0.0891789,0.084466875,0.08750614,-0.13852647,-0.11922705,-0.13254543,0.14774577,-0.16969447,-0.12941997,-0.104427174,-0.09020087,-0.16021717,-0.15768375,0.15044822,-0.10061812,0.14577803,0.08996346,0.15266477,-0.12594528,0.14121607,0.16329642,-0.07405411,-0.12949242,-0.11587413,0.13237154,0.1853625,0.09021535,-0.122324914,-0.1180356,-0.12040357,0.146129,-0.14932717,-0.085210934,0.06083231,0.09586264,0.10764414,-0.1199608,-0.117828146,0.18678626,-0.110189736,-0.13762914,0.10207742,-0.1340755,0.07857562,-0.093734875,0.11963129,0.15348485,0.16320881,0.057522353,-0.15115404,-0.14244951,0.09837132,-0.16923034,0.09883117,0.11372655,-0.13516559,0.09466283,0.1394624,0.082056664,-0.089776665,-0.06327143,-0.095751524,0.11263216,0.14573757,-0.09080038,0.13279845,-0.14236866,0.1602551,-0.08193971,0.09828921,0.13221945,0.07538509,-0.110022664,-0.13025337,-0.12761927,0.17403735,-0.09884346,0.12102425,0.15035582,0.19516574,0.14156188,-0.09038657,-0.032934953,-0.1045178,-0.070838995,0.16623566,0.09269372,-0.17985572,0.18561678,0.10942224,-0.18035664,-0.11040302,0.09848207,0.11841689,-0.14560474,0.1748797,-0.086627044,-0.080778405,-0.17415543,0.110930316,-0.110338025,-0.10858606,-0.1273138,-0.123650014,0.079842016,-0.106552266,0.15879415,0.15123254,0.16750923,0.11769251,-0.1601137,-0.15849923,-0.1263216,-0.099840984,0.15429646,-0.14858632,-0.14373912,0.13153048,0.11922055,-0.10636722,0.15746003,-0.18348785,-0.14120424,-0.091205455,0.14897022,0.16202912,-0.13539383,-0.17283012,-0.1545281,-0.08733339,0.10725101,0.0988091,-0.08886599,-0.1381777,0.07598357,-0.13202019,-0.108794205
-0.15119846,-0.11210581,0.1257875,0.17105858,0.066999964,0.14208929,0.15514994,-0.11070792,-0.123341344,-0.07841597,0.11478179,0.14744331,-0.09820769,-0.10194892,0.14028805,0.12251425,-0.15169808,-0.05893646,-0.1383981,0.08225496,-0.110107884,0.19528994,-0.1630335,-0.09722442,0.15690564,0.1475747,-0.08394988,0.06002817,-0.15249838,-0.16311245,-0.08608764,-0.08390238,0.054172996,-0.05116422,0.20297076,0.12305354,-0.11708572,-0.18501583,0.14291961,-0.13733609,0.12684132,0.08227373,-0.11150388,0.10018772,-0.16628183,-0.14044595,-0.16352469,0.076295204,0.13585523,0.14069957,0.072605066,-0.12552798,0.14178908,0.09011285,0.06027926,-0.10167788,-0.012422189,-0.12060485,0.12169612,0.07307001,0.0825574,0.1584022,0.13911058,-0.1360907,-0.08177638,-0.08912596,0.093730345,-0.12194719,-0.111655556,-0.103937045,-0.10380383,0.06966848,0.18677408,-0.11124979,0.121834256,-0.119046554,0.13693096,0.14609389,-0.11904926,-0.11314327,0.08468277,-0.15125181,0.099724166,0.13302927,0.015255084,0.16731952,0.07346628,0.15265845,0.073026426,-0.043732543,0.10499569,-0.079803675,0.11795772,0.12426261,0.18911158,0.11829607,-0.1604013,-0.073503554,0.099765226,0.100834474,0.114280894,-0.086316064,0.10126888,-0.107203424,0.14121513,-0.114033744,0.12637167,-0.18160923,-0.11903783,-0.16758288,-0.05954719,0.15112357,-0.096140385,-0.11264358,0.10496629,0.07571754,-0.15445012,-0.17081612,-0.11644835,0.1259881,-0.15340082,-0.11116334,-0.086718105,-0.15090065,-0.07739034,-0.12852828,0.13278201,-0.11763673,0.08984943,0.087317206,0.1396541,-0.09161859,0.11401839,0.1154966,-0.10830979,-0.123854704,-0.13742664,0.08756576,0.12294727,0.11638052,-0.16429658,-0.11353668,-0.10002678,0.17232396,-0.14265881,-0.08249713,0.1003011,0.14331575,0.09122965,-0.118402526,-0.09515268,0.13972448,-0.13077256,-0.097361386,0.103562176,-0.13806476,0.060056,-0.15414865,0.082201086,0.15524781,0.1616375,0.069278,-0.13283426,-0.11476274,0.08194254,-0.12875305,0.15721153,0.0967547,-0.114859454,0.109203994,0.10865266,0.026758576,-0.12934038,-0.0722048,-0.102427915,0.102815844,0.14122212,-0.1548107,0.11340426,-0.094839536,0.11205941,-0.12873739,0.15780601,0.13766754,0.17092732,-0.06897859,-0.104151666,-0.1217893,0.07543719,-0.17367058,0.10287402,0.13799171,0.1815415,0.07651973,-0.06440413,-0.06049945,-0.15583909,-0.16455032,0.13767512,0.11440761,-0.15858036,0.14543293,0.08305977,-0.108177885,-0.12405994,0.14384094,0.1395486,-0.07080722,0.10645444,-0.080552615,-0.13852222,-0.12428044,0.09377001,-0.12357056,-0.11632328,-0.1108376,-0.15021695,0.16465764,-0.10790343,0.104531385,0.14484815,0.16084668,0.14035922,-0.088338755,-0.0678109,-0.080080196,-0.15017754,0.12014947,-0.09843204,-0.094784014,0.16823958,0.098460585,-0.1084906,0.14094222,-0.10270975,-0.09980313,-0.05800893,0.11329164,0.072562814,-0.10298559,-0.13655122,-0.12271341,-0.06453905,0.098576315,0.10613361,-0.13035983,-0.13970673,0.1448131,-0.1318685,-0.07433762
-0.11261965,-0.14323379,0.13615267,0.1068936,0.15272522,0.1410475,0.1050343,-0.11588385,-0.10382218,-0.067318864,0.12542126,0.13135415,-0.15462133,-0.112977,0.090355486,0.12495656,-0.10914017,-0.07621566,-0.11654375,0.10060658,-0.15187348,0.14489534,-0.14070909,-0.16437319,0.1379335,0.08635097,-0.123625025,0.12974942,-0.14792617,-0.10121834,-0.097005166,-0.068434194,0.06966299,-0.13602814,0.17725772,0.20328173,-0.10253038,-0.117347434,0.101248376,-0.09808225,0.14775176,0.14222427,-0.098203525,0.16490795,-0.1523511,-0.10300775,-0.14150348,0.07394999,0.055033945,0.12165962,0.100964844,-0.08963757,0.16149773,0.11229312,0.12608851,-0.111157015,0.06821274,-0.15085346,0.11327416,0.08756598,0.101245515,0.1378261,0.09857308,-0.07210774,-0.123646915,-0.07112769,0.09481961,-0.07082686,-0.10031139,-0.15609114,-0.11425817,0.1405815,0.2067549,-0.08003401,0.066953555,-0.12041315,0.07738836,0.14224677,-0.16611621,-0.12240202,0.093620546,-0.09704952,0.071509816,0.08997969,0.025808407,0.14613359,0.07184087,0.14873077,0.1018673,-0.03796801,0.11090871,-0.050300058,0.14561054,0.09545414,0.17486858,0.13904509,-0.13326654,-0.112949766,0.1455509,0.12397882,0.15157822,-0.13260546,0.112061076,-0.1359725,0.16330576,-0.089590296,0.09097597,-0.10794269,-0.158476,-0.064842686,-0.06720564,0.16899766,-0.14613843,-0.14982295,0.1322378,0.08435049,-0.094358414,-0.2183219,-0.1432597,0.062645055,-0.18062705,-0.089752175,-0.06692404,-0.058263455,-0.12632385,-0.13553628,0.13673766,-0.17589393,0.09503645,0.107044496,0.071910135,-0.07693614,0.095894136,0.14638913,-0.06634489,-0.1497037,-0.08047604,0.1435075,0.17421871,0.14784135,-0.11861336,-0.1632482,-0.14469354,0.14869398,-0.118758515,-0.06625118,0.019478,0.060997844,0.11229735,-0.097021006,-0.10513855,0.111574106,-0.1381956,-0.117441654,0.097484075,-0.16544981,0.07339842,-0.17883861,0.10196131,0.18023252,0.13461371,0.105628274,-0.07923421,-0.07723686,0.07973329,-0.15307844,0.17897423,0.068385735,-0.1026991,0.1297639,0.13534471,0.029914351,-0.15766393,-0.102477685,-0.0825828,0.11311286,0.1502463,-0.08389008,0.108129635,-0.11115197,0.11416251,-0.15355371,0.099308625,0.076185815,0.11738517,-0.16883537,-0.16292338,-0.16829842,0.13565108,-0.12187183,0.1467553,0.10370707,0.15744394,0.07471252,-0.10170165,-0.013125024,-0.09824996,-0.17391706,0.07880762,0.1356215,-0.18942447,0.10765147,0.1343684,-0.16424526,-0.06803637,0.11564703,0.092411116,-0.12426061,0.08661044,-0.10553165,-0.18042444,-0.17700306,0.13095547,-0.08584151,-0.13408613,-0.081432536,-0.097965434,0.069116645,-0.15562053,0.16239487,0.15159461,0.14195983,0.10659199,-0.12914012,-0.12270799,-0.16867755,-0.14694963,0.09342415,-0.15877381,-0.09433259,0.11081824,0.07935559,-0.15272252,0.108698614,-0.1589571,-0.15496993,-0.13716996,0.0981368,0.098724976,-0.1323527,-0.17935707,-0.078419246,-0.13690273,0.15300561,0.12517062,-0.120605916,-0.10212067,0.11172819,-0.102743246,-0.13005698
-0.13308734,-0.124964155,0.15786573,0.10729924,0.05507967,0.12027511,0.07560286,-0.10974685,-0.17070182,-0.11878367,0.099987775,0.1484478,-0.11505621,-0.13469136,0.11644739,0.12841542,-0.09205812,-0.12929341,-0.10915634,0.062104635,-0.17497367,0.115573086,-0.11332703,-0.083419256,0.16346268,0.14206897,-0.11135612,0.13460086,-0.08283497,-0.11440977,-0.1697906,-0.13669543,0.14114533,-0.08386149,0.11094146,0.15615013,-0.13510624,-0.106262594,0.13369802,-0.105518505,0.06825344,0.08178696,-0.08832735,0.11702848,-0.12953539,-0.07900033,-0.15828696,0.1712174,0.07774656,0.11713214,0.10753072,-0.15864906,0.16324817,0.07253539,0.12220676,-0.07934787,0.009425539,-0.0935926,0.12632675,0.14145133,0.12199901,0.17331183,0.1416356,-0.10421203,-0.11836506,-0.13562334,0.091849126,-0.050927565,-0.10329617,-0.06890925,-0.12632576,0.07914942,0.118471526,-0.056989428,0.053964958,-0.06380617,0.11679815,0.13719259,-0.08947052,-0.09319294,0.17098442,-0.07911151,0.12178882,0.11100888,-0.006427262,0.07089141,0.07993403,0.100692764,0.1281619,-0.12463938,0.16868858,-0.06306284,0.14438328,0.14554204,0.18130961,0.107312076,-0.18087564,-0.07411773,0.08788875,0.15066889,0.121347606,-0.06846586,0.09937915,-0.08433581,0.13357805,-0.12892434,0.13931647,-0.17375463,-0.14049128,-0.064834885,-0.057446282,0.07646265,-0.08091991,-0.09607542,0.13864696,0.07243501,-0.15129127,-0.110556886,-0.08555572,0.06820036,-0.119969904,-0.07724635,-0.14622276,-0.11806546,-0.1117585,-0.11590489,0.14774525,-0.106471315,0.1478251,0.13123557,0.13460769,-0.16199468,0.07826865,0.08226692,-0.114583395,-0.07281868,-0.10316282,0.14599442,0.1384149,0.16524744,-0.07584275,-0.067437395,-0.08624335,0.12012444,-0.06951881,-0.11929761,0.016359413,0.10871798,0.0825618,-0.09909282,-0.07498256,0.09665441,-0.08727727,-0.07651424,0.10150663,-0.14791492,0.14831398,-0.08771033,0.09665922,0.14167379,0.11330898,0.01825654,-0.09799502,-0.14251012,0.1519728,-0.14787439,0.114477925,0.089254834,-0.10849929,0.12908402,0.17078449,0.09678008,-0.15224518,-0.13305141,-0.13164502,0.16216406,0.08466013,-0.07939685,0.15494607,-0.14760496,0.100772664,-0.15402842,0.06855408,0.111539535,0.1391389,-0.15631358,-0.17419316,-0.14152604,0.08010381,-0.14019394,0.15656796,0.05804594,0.1915115,0.10281792,-0.15184262,-0.08198342,-0.1372538,-0.11366236,0.089537494,0.05454518,-0.1018022,0.1558667,0.083817214,-0.06411565,-0.12131659,0.14751393,0.09281819,-0.13273427,0.079105645,-0.078243576,-0.071046114,-0.14528121,0.12948847,-0.10775398,-0.13387428,-0.14759825,-0.18337622,0.16518727,-0.13586254,0.13220575,0.17180179,0.11085491,0.107232556,-0.11168739,-0.11969669,-0.06888722,-0.10408411,0.05945667,-0.10806447,-0.088727996,0.15182902,0.09258218,-0.07495178,0.18917055,-0.11244566,-0.075257,-0.16151084,0.15263808,0.111155584,-0.10848818,-0.12640502,-0.13855878,-0.101301566,0.07339483,0.16345358,-0.09256772,-0.120974496,0.11203009,-0.087421104,-0.12520412
-0.1399188,-0.10396915,0.11061351,0.10947338,0.122224666,0.13571349,0.080675706,-0.11854591,-0.11473623,-0.08504686,0.120900325,0.087225266,-0.08076256,-0.08945,0.16574277,0.09090692,-0.12694612,-0.05768316,-0.07983662,0.12633379,-0.13541509,0.18713452,-0.12984966,-0.15136583,0.12366533,0.09110164,-0.15171765,0.14182481,-0.13582262,-0.16445285,-0.16417514,-0.11415495,0.13572821,-0.075772285,0.13960637,0.15754908,-0.09969407,-0.1418185,0.10911901,-0.094958566,0.08123332,0.09490301,-0.083211675,0.08714455,-0.088035494,-0.14654016,-0.12554222,0.18248467,0.067419544,0.08408585,0.09370816,-0.13672392,0.110895574,0.09080304,0.103309736,-0.09812105,0.010018088,-0.12503885,0.13408464,0.054337014,0.12912877,0.11245029,0.14663363,-0.123440854,-0.08476477,-0.13940449,0.15052427,-0.12068017,-0.080623195,-0.150914,-0.06491767,0.08482653,0.15987697,-0.09774228,0.0775709,-0.06485466,0.11734671,0.11188416,-0.13468696,-0.11349185,0.1608764,-0.11759947,0.11823312,0.08658887,-0.022570305,0.1596195,0.11555808,0.12799628,0.11643275,-0.011820652,0.1351753,-0.1402554,0.13727327,0.1190601,0.072329074,0.091776185,-0.10428431,-0.11720413,0.06851175,0.16289087,0.092643216,-0.11933263,0.067695975,-0.09239566,0.14644104,-0.1268136,0.16465525,-0.12735975,-0.1493235,-0.14764898,-0.032060523,0.15081231,-0.12316217,-0.14486913,0.075773224,0.12703572,-0.07925557,-0.15984301,-0.063102484,0.06497304,-0.16583699,-0.09381032,-0.11521393,-0.13068788,-0.13094932,-0.094617285,0.15526919,-0.10329464,0.1577697,0.15682481,0.083485,-0.09374896,0.10089991,0.06331871,-0.074959196,-0.11544815,-0.10301644,0.13230751,0.14474899,0.058274362,-0.11058189,-0.07108444,-0.10076173,0.15667278,-0.08136512,-0.097616956,0.104251444,0.10798748,0.074319944,-0.13529405,-0.12338277,0.1106678,-0.097580835,-0.091793075,0.058063056,-0.11276736,0.1616854,-0.08974142,0.14367154,0.13439941,0.1133326,0.040092662,-0.097025126,-0.12713766,0.07847407,-0.07511929,0.11771292,0.14041764,-0.13488099,0.12706482,0.08066296,0.031829383,-0.097001925,-0.14308082,-0.124539904,0.09327066,0.13404724,-0.11334944,0.15861191,-0.09387806,0.1398093,-0.12544157,0.12716435,0.10470726,0.07763224,-0.13835213,-0.12294082,-0.061611105,0.12128321,-0.14383532,0.14456035,0.11168464,0.13509996,0.10822948,-0.099644296,-0.059410505,-0.10320604,-0.15088944,0.096419685,0.117158264,-0.16751607,0.16244172,0.092291065,-0.15678014,-0.06664826,0.09488203,0.098178975,-0.10250751,0.118203044,-0.0749484,-0.10922083,-0.15129331,0.11706436,-0.1488698,-0.08886622,-0.15053453,-0.14777046,0.096485294,-0.12982781,0.13948733,0.07879491,0.10702833,0.13049653,-0.09355648,-0.1509729,-0.15224463,-0.11904419,0.16616103,-0.12175443,-0.09191244,0.16639082,0.11299474,-0.16494288,0.16587748,-0.17231004,-0.14538974,-0.06254863,0.12753595,0.14822063,-0.05250763,-0.1287306,-0.107894324,-0.11584149,0.09516378,0.10051695,-0.064539045,-0.072220765,0.13709337,-0.1400058,-0.0709162
-0.08371131,-0.12512966,0.13424559,0.110095404,0.07910609,0.1206058,0.105154075,-0.11627482,-0.10998921,-0.067732304,0.05754652,0.1389967,-0.07599279,-0.076009475,0.15473992,0.07178591,-0.08589285,-0.103708714,-0.13112326,0.15561336,-0.13484827,0.17828777,-0.14964624,-0.07266425,0.14829773,0.15838884,-0.099966176,0.14965074,-0.06721259,-0.14852731,-0.118921764,-0.14639789,0.14677204,-0.06437582,0.081197895,0.14193423,-0.079466745,-0.12942827,0.10194249,-0.12100826,0.12594566,0.08578045,-0.097002394,0.107192844,-0.14718768,-0.063574746,-0.13361628,0.12751818,0.10254462,0.12940837,0.083287895,-0.13454683,0.12742193,0.13367608,0.13529402,-0.05561037,0.03650185,-0.07395774,0.062515445,0.1421668,0.1308582,0.10029126,0.08636774,-0.06733005,-0.13890412,-0.13713004,0.12132368,-0.058409583,-0.12282882,-0.13187261,-0.09439185,0.12875961,0.14774248,-0.066269144,0.07699053,-0.093629256,0.0847096,0.12563145,-0.13554937,-0.15713218,0.12798578,-0.15312034,0.15603447,0.10751997,-0.065633036,0.12782906,0.13668194,0.19293742,0.06175215,-0.003799384,0.10864827,-0.10176177,0.122669004,0.13072874,0.19301149,0.14423144,-0.10784899,-0.096872225,0.1561039,0.13629867,0.12896557,-0.08049131,0.010493087,-0.06532885,0.0831752,-0.1525978,0.10536114,-0.14192812,-0.15192011,-0.13809194,-0.03834192,0.12321112,-0.13462827,-0.09410716,0.11281377,0.13211733,-0.11957233,-0.16808167,-0.08300667,0.08528144,-0.1299358,-0.08572549,-0.07212191,-0.13571723,-0.06794522,-0.13995452,0.13785402,-0.08834063,0.07005964,0.14446376,0.15091868,-0.1561208,0.11823593,0.1145167,-0.13539028,-0.06512334,-0.13794386,0.057195365,0.16004007,0.14096864,-0.12890953,-0.15012975,-0.08803773,0.1193516,-0.10869009,-0.06403241,0.10297393,0.107933484,0.08107792,-0.061404973,-0.09071682,0.1067379,-0.15421791,-0.09428158,0.09982612,-0.071319625,0.110298336,-0.10104589,0.12693644,0.11007194,0.17114994,0.091220595,-0.09957563,-0.06331659,0.08914287,-0.15830153,0.10840551,0.11853007,-0.13950782,0.14480855,0.0937828,0.092253625,-0.087476894,-0.087212734,-0.12271934,0.16485229,0.07081666,-0.10931876,0.18043253,-0.07688231,0.09996823,-0.09696008,0.1572237,0.1100248,0.07847537,-0.14160116,-0.15383336,-0.10069932,0.10601672,-0.17101093,0.077809975,0.07611534,0.16100545,0.10209205,-0.13740727,-0.0125503745,-0.18376121,-0.15796065,0.13114712,0.1430836,-0.10955336,0.12092009,0.11576855,-0.11475576,-0.14365609,0.06835773,0.10959331,-0.122120105,0.15753783,-0.07667801,-0.095989384,-0.14335613,0.09184624,-0.09508623,-0.09235487,-0.14142954,-0.122708365,0.15588361,-0.123680584,0.10345794,0.12085367,0.15670748,0.050066136,-0.13768871,-0.06783846,-0.11112996,-0.123767346,0.069887355,-0.12002294,-0.12247502,0.075966954,0.105581306,-0.13533506,0.12958315,-0.09984519,-0.14026542,-0.13514587,0.16965874,0.05328684,-0.11854693,-0.09832586,-0.09278935,-0.1102131,0.13302758,0.14723322,-0.1345764,-0.1224732,0.13654886,-0.07494952,-0.079446934
-0.06270149,-0.04280274,0.12306308,0.10263417,0.07508253,0.052090976,0.10610911,-0.12842143,-0.18915069,-0.12473777,0.1284893,0.14615776,-0.09407384,-0.13255793,0.08809936,0.096975766,-0.07891161,-0.08475169,-0.16946866,0.10826841,-0.08834507,0.1886982,-0.08069368,-0.16163848,0.12001403,0.09012979,-0.15425684,0.12507793,-0.057090905,-0.14013521,-0.08852099,-0.13876773,0.107345864,-0.05581859,0.12439614,0.13140512,-0.08120728,-0.08950087,0.05798685,-0.1075229,0.07648094,0.14874111,-0.09030956,0.1354634,-0.13993686,-0.082423195,-0.14321233,0.10564624,0.06439034,0.12204278,0.0947596,-0.1450702,0.1277129,0.049999315,0.053342555,-0.149175,0.09448115,-0.08327941,0.13680056,0.10822167,0.09091646,0.13592988,0.054869458,-0.10996568,-0.070580676,-0.07354506,0.06088579,-0.0848686,-0.08062987,-0.10255399,-0.06729033,0.058815733,0.16680574,-0.12921491,0.15118884,-0.11911459,0.11447743,0.13218555,-0.06431909,-0.15553698,0.07912608,-0.067084685,0.06990092,0.0508148,-0.021089338,0.11974351,0.080292776,0.18639931,0.14724693,-0.12403034,0.15418856,-0.083545305,0.068567425,0.097174756,0.12123154,0.07184861,-0.14381097,-0.051862832,0.13168152,0.06786673,0.075530216,-0.12239067,0.077226065,-0.07037403,0.136171,-0.107185304,0.11142214,-0.13262649,-0.13790631,-0.103227325,-0.11346313,0.15346426,-0.13634835,-0.081367284,0.07018635,0.044247802,-0.15326838,-0.0924224,-0.13801783,0.109168015,-0.17322809,-0.12545455,-0.1364697,-0.13688755,-0.14373143,-0.10695598,0.11347162,-0.08482619,0.12884338,0.13985948,0.11891135,-0.11833224,0.058457326,0.08882883,-0.05437611,-0.13703558,-0.11088676,0.15430187,0.14294288,0.12569058,-0.113713056,-0.077247,-0.07522169,0.063045345,-0.05740612,-0.17783679,0.09531488,0.13143468,0.07254543,-0.08898437,-0.066088684,0.14212455,-0.15774912,-0.051641032,0.06691492,-0.10782979,0.09272864,-0.081092246,0.113192365,0.11610183,0.10084086,0.04206868,-0.18398775,-0.07156184,0.072418414,-0.075347945,0.09218394,0.14611866,-0.14973982,0.076036386,0.17476846,0.019524286,-0.14083941,-0.091877386,-0.14112839,0.10406551,0.07096889,-0.111615986,0.16152379,-0.06194237,0.09204638,-0.0768832,0.12519166,0.15267776,0.17758524,-0.09696524,-0.15262426,-0.09980078,0.12573864,-0.12486432,0.112972915,0.15683247,0.11554444,0.071832575,-0.050075494,-0.05337296,-0.15456623,-0.060132075,0.13448343,0.059286766,-0.07133644,0.09006081,0.08797639,-0.088349625,-0.10980019,0.14220802,0.112205654,-0.14804545,0.12607655,-0.109819025,-0.15203959,-0.14980419,0.10357602,-0.056532208,-0.107605435,-0.11460125,-0.16034462,0.1252315,-0.071074754,0.1260559,0.080758646,0.1836937,0.08321805,-0.127977,-0.0590998,-0.08349788,-0.13037926,0.06632873,-0.084347196,-0.10357188,0.15628064,0.10537522,-0.09568767,0.10715806,-0.13687085,-0.14220628,-0.06980092,0.13499978,0.13631222,-0.119662516,-0.11549726,-0.088873275,-0.057620678,0.090200335,0.16256034,-0.08746341,-0.089332454,0.103241555,-0.08377685,-0.068076104
-0.09561821,-0.07749145,0.10437731,0.12689377,0.10082567,0.1498298,0.11530382,-0.101438865,-0.09175647,-0.073991604,0.07174809,0.13402897,-0.11768461,-0.09050293,0.10336273,0.111963496,-0.1254673,-0.07871185,-0.12574928,0.11014368,-0.06259361,0.13485958,-0.058099557,-0.11128283,0.12176144,0.071896486,-0.1775381,0.06291298,-0.14046043,-0.10951471,-0.13924699,-0.064331986,0.12960719,-0.13514967,0.15307078,0.1627503,-0.12234743,-0.084754236,0.091758005,-0.12480112,0.1471067,0.11299877,-0.08026584,0.12003,-0.14454347,-0.117157824,-0.15346593,0.13240439,0.06808572,0.13390654,0.10576724,-0.12251495,0.08306776,0.090925425,0.08581127,-0.1269256,0.013994211,-0.11826373,0.07378686,0.09185061,0.11918821,0.11884028,0.10015119,-0.13183278,-0.0630563,-0.0807673,0.12423198,-0.12451848,-0.12620108,-0.13012668,-0.10016256,0.11767309,0.18098728,-0.052649964,0.12144506,-0.08059598,0.09187983,0.16174887,-0.10250282,-0.10343211,0.12858123,-0.07836391,0.1116756,0.15491739,-0.0056555844,0.13585182,0.08494277,0.16386358,0.099979274,-0.092271574,0.12404304,-0.11981008,0.0803321,0.11458179,0.16390164,0.15234023,-0.0786611,-0.06534994,0.07223263,0.1128851,0.14231431,-0.059399713,0.07855565,-0.076336466,0.11177393,-0.06346526,0.10070631,-0.12672958,-0.1359375,-0.11558949,-0.045963563,0.14084214,-0.11916316,-0.13338289,0.10026139,0.12750378,-0.101478286,-0.1564872,-0.061910998,0.10579497,-0.113876835,-0.081949845,-0.14474556,-0.05725065,-0.09029127,-0.095826514,0.09082903,-0.1429956,0.10421332,0.13077745,0.091078654,-0.055134207,0.13110207,0.07978346,-0.09058908,-0.082969554,-0.14798869,0.06305369,0.17991857,0.11469494,-0.08643909,-0.13525553,-0.09201491,0.09861303,-0.09042787,-0.04933254,0.044053208,0.071155824,0.13456976,-0.068555884,-0.10625815,0.10086846,-0.10964806,-0.071736276,0.09158518,-0.1124429,0.06919585,-0.13270384,0.09209424,0.09911525,0.16073121,-0.004447958,-0.21070057,-0.12096009,0.1479862,-0.09722703,0.15359178,0.0747572,-0.061774105,0.12616181,0.1049969,0.06211024,-0.107220605,-0.09844053,-0.08548944,0.13848133,0.10601068,-0.1266191,0.085563056,-0.08298112,0.092183344,-0.09927693,0.08479474,0.1463495,0.10679861,-0.1724795,-0.088228285,-0.14707439,0.119836435,-0.11336931,0.14069186,0.11763554,0.13578881,0.049085487,-0.074841626,-0.019647568,-0.083443604,-0.109564535,0.14895149,0.108520225,-0.1163122,0.0905261,0.09024524,-0.12179359,-0.06520999,0.059857555,0.07410045,-0.08564626,0.13548252,-0.050853454,-0.16788472,-0.18619841,0.067847505,-0.06066956,-0.05957563,-0.121164866,-0.09291836,0.12051889,-0.12370592,0.15540111,0.06596255,0.15547438,0.10499618,-0.14486775,-0.06451388,-0.09648408,-0.08890488,0.07071113,-0.16188276,-0.14208923,0.12678085,0.073798664,-0.08588007,0.21335171,-0.1291151,-0.098945096,-0.09620067,0.105142124,0.12785825,-0.047951978,-0.079412736,-0.062365774,-0.07762211,0.10783112,0.119646534,-0.14486954,-0.08797195,0.15083551,-0.119467065,-0.19634697
-0.12356456,-0.048368867,0.06544559,0.14398558,0.09059723,0.10529197,0.1477434,-0.08817438,-0.12969545,-0.08582022,0.13265881,0.06695016,-0.10606699,-0.071089655,0.09689526,0.11719381,-0.16175373,-0.07943221,-0.08777575,0.09879305,-0.073035784,0.13606028,-0.089931905,-0.09320377,0.08568512,0.07884012,-0.119367145,0.133868,-0.11696546,-0.14268345,-0.17343773,-0.058551744,0.08657541,-0.13245909,0.1166269,0.10998636,-0.13646787,-0.08951557,0.14053626,-0.11921906,0.14506336,0.091172785,-0.08793974,0.14142856,-0.11700483,-0.06825184,-0.13512398,0.13701417,0.08836545,0.10026715,0.12358158,-0.052590698,0.1580143,0.0662649,0.079389766,-0.112862945,0.046216793,-0.14483231,0.07252596,0.11962585,0.095383815,0.06667103,0.08824406,-0.13736181,-0.067741,-0.07955154,0.0717631,-0.046448678,-0.116170295,-0.12948126,-0.058047224,0.07082532,0.15816233,-0.09165107,0.13734335,-0.103289165,0.09262183,0.10875781,-0.06649372,-0.1539226,0.12190741,-0.07347443,0.058810517,0.14978772,-0.016471732,0.15636766,0.07467142,0.07784365,0.11255051,-0.026924565,0.073879495,-0.10113545,0.063260205,0.051818155,0.11060328,0.123643205,-0.15560217,-0.15004924,0.06712708,0.13646328,0.095761776,-0.10975946,0.0601093,-0.0983127,0.14453503,-0.076678626,0.15191425,-0.2074071,-0.08637868,-0.14121859,-0.07524211,0.097533114,-0.1244449,-0.12830877,0.13309593,0.15197514,-0.08649502,-0.1532695,-0.14687596,0.08338923,-0.09981166,-0.08553788,-0.14771576,-0.10717726,-0.11674167,-0.08685766,0.09377819,-0.13101308,0.1059978,0.12440637,0.059002057,-0.097141385,0.06509945,0.10849996,-0.06793591,-0.05930447,-0.04547336,0.12471043,0.18782523,0.04682796,-0.08079562,-0.15102051,-0.13128647,0.16948678,-0.13731042,-0.0378649,0.062988535,0.12710759,0.0913142,-0.12652048,-0.106170125,0.11831771,-0.11103052,-0.06719793,0.07060631,-0.08121127,0.054529767,-0.122339524,0.077161014,0.15368603,0.18977366,0.11566809,-0.09517717,-0.07460609,0.08497684,-0.116692945,0.107352436,0.11799089,-0.11767015,0.097313955,0.16661221,0.04866576,-0.12713937,-0.07873043,-0.08390777,0.0928687,0.08393432,-0.14555067,0.18512619,-0.14947137,0.13035807,-0.09312947,0.14650072,0.09439005,0.10922845,-0.17870744,-0.111096226,-0.1334467,0.073480114,-0.10913083,0.06593076,0.13598156,0.16742821,0.09658327,-0.09091063,-0.046398077,-0.14996055,-0.13814563,0.14270994,0.068623096,-0.10981974,0.08831259,0.1047548,-0.07506213,-0.054663308,0.0777544,0.10304769,-0.1367081,0.07729281,-0.05702092,-0.13130477,-0.13220052,0.14512809,-0.06901833,-0.1099528,-0.110835604,-0.15659633,0.13553017,-0.09158987,0.13616055,0.16458456,0.09011309,0.11819503,-0.15180168,-0.11144917,-0.079142936,-0.14420703,0.15698633,-0.08118927,-0.099210374,0.0895666,0.06723014,-0.12500657,0.19199656,-0.18622123,-0.16138196,-0.059156686,0.100250676,0.06685631,-0.056779906,-0.16672678,-0.15153503,-0.07872113,0.12988539,0.11622524,-0.09221586,-0.11841105,0.14934629,-0.0898753,-0.10802272
-0.0901882,-0.10908319,0.101885155,0.07764527,0.10907577,0.0665003,0.09300469,-0.063295655,-0.123616666,-0.04736653,0.12511577,0.095568076,-0.08116531,-0.05733416,0.095489636,0.12674643,-0.06943398,-0.14704938,-0.16859247,0.06752669,-0.06577708,0.1462226,-0.14747122,-0.16379628,0.07721736,0.11494196,-0.06309032,0.048821453,-0.07529212,-0.075385086,-0.05713436,-0.13572536,0.10558972,-0.056482315,0.16088386,0.14577807,-0.06870129,-0.16057251,0.08909905,-0.06969525,0.10759219,0.1461528,-0.03904963,0.08655439,-0.077963434,-0.1437176,-0.08266184,0.08426911,0.04469092,0.043324858,0.071029305,-0.08547965,0.13658628,0.13937815,0.07899712,-0.07296957,-0.0116172135,-0.12784976,0.11684789,0.11339614,0.04150811,0.1380852,0.13708542,-0.11169453,-0.10103908,-0.14281926,0.1103064,-0.078019604,-0.058845937,-0.12765603,-0.074198395,0.059577223,0.13646333,-0.0828574,0.085961275,-0.058095187,0.0674757,0.13762231,-0.04251831,-0.11272834,0.17052084,-0.100215785,0.09542562,0.057851274,0.019707974,0.15197226,0.13059315,0.08853624,0.091567546,-0.09459382,0.11812802,-0.09053157,0.12447181,0.072165266,0.16157188,0.15174691,-0.077221684,-0.1337263,0.11569808,0.10682922,0.12024974,-0.12322864,0.038032327,-0.09103302,0.07791074,-0.14853568,0.1616683,-0.12438051,-0.13622372,-0.07944042,-0.099626854,0.08095075,-0.08380774,-0.1016713,0.101701364,0.11954707,-0.13665523,-0.11050876,-0.069136254,0.045201827,-0.14240216,-0.113795675,-0.050566293,-0.12690085,-0.11444474,-0.05929444,0.07838716,-0.065473214,0.1569544,0.058559973,0.06876585,-0.08312242,0.045875706,0.098723434,-0.12139643,-0.13676119,-0.12707098,0.08476694,0.13572581,0.13479312,-0.09212594,-0.07788905,-0.0890879,0.15230884,-0.072150365,-0.058659613,0.012718126,0.10522883,0.072614506,-0.1508431,-0.104538575,0.12087118,-0.10167813,-0.062879175,0.113739446,-0.1278969,0.13209364,-0.13765354,0.12851223,0.11935039,0.123623684,0.030080488,-0.18246576,-0.13292928,0.09328845,-0.12205568,0.12947202,0.054239597,-0.09499408,0.120510966,0.16969061,0.075867854,-0.12941472,-0.11520994,-0.08034135,0.06718207,0.11942046,-0.09155992,0.11238185,-0.074615315,0.12727784,-0.069361724,0.14788705,0.13778569,0.14120203,-0.16862649,-0.15874398,-0.098691784,0.13186967,-0.14336587,0.06135443,0.1455618,0.1335991,0.1301107,-0.11997737,-0.08245529,-0.08407951,-0.1026622,0.13124062,0.14530766,-0.08063751,0.13763271,0.09444632,-0.17828867,-0.13647147,0.11292207,0.1513473,-0.09161384,0.13537407,-0.11953502,-0.09657629,-0.0542582,0.05294583,-0.12704119,-0.09683037,-0.11625457,-0.12980822,0.13585202,-0.12629718,0.098981164,0.07697457,0.14717737,0.0648183,-0.11066443,-0.11880177,-0.085391015,-0.080841966,0.085372955,-0.0475744,-0.12871203,0.06721879,0.146708,-0.1309581,0.15662576,-0.14991017,-0.09917489,-0.060729522,0.13966207,0.10157782,-0.061371624,-0.16546583,-0.104087636,-0.06807653,0.08641007,0.1452828,-0.098351434,-0.08833894,0.13944596,-0.12676287,-0.14565374
-0.08573992,-0.04609729,0.11871541,0.13919966,0.09652157,0.15151252,0.11494468,-0.061691094,-0.09306779,-0.10592234,0.071333416,0.13453424,-0.091494925,-0.060569674,0.09956313,0.13601877,-0.057974648,-0.04502268,-0.15915525,0.07621566,-0.08311225,0.1657764,-0.0907467,-0.08364366,0.12218594,0.08564527,-0.113832556,0.15245187,-0.11521694,-0.1060302,-0.14442953,-0.14163108,0.07242753,-0.13316852,0.13985917,0.07794471,-0.06307459,-0.13367493,0.11068144,-0.11578674,0.11530114,0.13958965,-0.095233835,0.088215664,-0.14697202,-0.107870325,-0.14979088,0.06480278,0.11473855,0.13275221,0.04190582,-0.11913783,0.11115405,0.12254174,0.11606431,-0.14023481,0.06627626,-0.10581672,0.09579708,0.13237557,0.107397534,0.088675424,0.049366713,-0.09146146,-0.094322875,-0.08072088,0.089571275,-0.09084692,-0.084935896,-0.13157947,-0.13802683,0.13493164,0.16671531,-0.052666526,0.07924461,-0.11284839,0.0889827,0.09627736,-0.07717009,-0.09384195,0.17313582,-0.08810587,0.14194301,0.13755669,-0.06159561,0.12616937,0.050810084,0.11203237,0.098570846,-0.025413105,0.07057935,-0.12596174,0.10953756,0.1332603,0.16374086,0.1265669,-0.12331091,-0.042596,0.09628541,0.14086615,0.06930393,-0.12996449,0.1055584,-0.10982799,0.07645534,-0.04534079,0.14587565,-0.1756666,-0.11349778,-0.09724262,-0.11324575,0.08095063,-0.13838615,-0.12339194,0.0661483,0.067356035,-0.15383051,-0.12112882,-0.048194237,0.099554,-0.159644,-0.067654505,-0.04604277,-0.08369857,-0.11121175,-0.06312097,0.107689545,-0.1502153,0.11685374,0.13902798,0.115044564,-0.13317284,0.048884764,0.12428677,-0.10459416,-0.10253786,-0.07515607,0.055112433,0.21538585,0.059497535,-0.101967335,-0.054667488,-0.04959968,0.079700045,-0.09456122,-0.06312868,0.0060963165,0.0622664,0.15579896,-0.06036742,-0.10654779,0.08678178,-0.075577006,-0.055467725,0.061086744,-0.14643346,0.06395495,-0.08620975,0.13817196,0.10562182,0.16015749,0.06777391,-0.07401813,-0.050214153,0.04993763,-0.12671262,0.06350938,0.093204245,-0.117882594,0.076034956,0.17650339,0.03900497,-0.11566527,-0.09603723,-0.13207968,0.13749994,0.12968723,-0.0678204,0.10254596,-0.05360953,0.09913599,-0.07055918,0.12905805,0.109921545,0.12916076,-0.13987039,-0.0636313,-0.12809733,0.07792002,-0.12658052,0.13392977,0.067387,0.11670706,0.0800539,-0.08006094,-0.09374349,-0.14784388,-0.12666221,0.10927137,0.11140249,-0.067302726,0.13082261,0.101591006,-0.13397142,-0.07054032,0.10330373,0.11714306,-0.08129629,0.12704071,-0.12252456,-0.14558968,-0.09667678,0.08586018,-0.10608696,-0.056046743,-0.0848449,-0.07945144,0.11983142,-0.08705491,0.0958905,0.13761516,0.11927563,0.101784065,-0.08908429,-0.080474086,-0.14185196,-0.151953,0.061015736,-0.05902623,-0.064970486,0.14813562,0.13050655,-0.11613204,0.16691843,-0.15752238,-0.07346356,-0.14120904,0.14859562,0.04745858,-0.14600332,-0.13574131,-0.08367434,-0.13283716,0.09615423,0.054128874,-0.07863611,-0.08375994,0.0882412,-0.13669465,-0.07650157
-0.05218723,-0.061868217,0.11321066,0.087406434,0.11301458,0.07263528,0.12762639,-0.14319412,-0.08753664,-0.13541001,0.08247413,0.085982345,-0.11686734,-0.08710792,0.14381064,0.12512346,-0.12040099,-0.10705262,-0.11042051,0.07115829,-0.06401706,0.16948822,-0.13248402,-0.15642025,0.10251074,0.0648194,-0.15180245,0.054165233,-0.09447706,-0.14691274,-0.13343546,-0.06049742,0.07482974,-0.058231924,0.16718099,0.16122846,-0.071248606,-0.08103804,0.13834323,-0.1070002,0.09518415,0.12906793,-0.108185425,0.086158164,-0.12032269,-0.050656684,-0.12152605,0.10746913,0.13234214,0.109311596,0.10125461,-0.14034168,0.05943392,0.10597325,0.08282084,-0.072163805,-0.03081787,-0.13037959,0.053289056,0.12066095,0.14575836,0.14063378,0.084563255,-0.10003812,-0.081006564,-0.1398534,0.08614185,-0.07858029,-0.10499201,-0.106116906,-0.054793943,0.10388041,0.1960605,-0.09802725,0.053537596,-0.13865452,0.0680131,0.16028063,-0.069597185,-0.10950097,0.1612782,-0.094909124,0.10237902,0.05561234,0.00075159484,0.091438435,0.068764314,0.07515337,0.09698355,-0.09009001,0.14511003,-0.0872035,0.09732425,0.15537064,0.12431465,0.14151213,-0.10517911,-0.08796385,0.1274732,0.055381272,0.07756111,-0.04279753,0.089682214,-0.13082145,0.11721775,-0.14072224,0.1518109,-0.19472504,-0.06941543,-0.12141516,-0.10509478,0.136863,-0.05474197,-0.10057801,0.07277435,0.064429834,-0.12512745,-0.098130636,-0.10383361,0.0959989,-0.14625247,-0.08608478,-0.06859101,-0.11618662,-0.1479695,-0.092676766,0.10801502,-0.12400973,0.13034728,0.101575695,0.10207248,-0.09602084,0.08709384,0.095281266,-0.13559887,-0.10523642,-0.12768732,0.07601885,0.10627439,0.13667768,-0.1111679,-0.06080821,-0.120141886,0.093805626,-0.14825283,-0.0825865,-0.0013060499,0.099946424,0.1162672,-0.11674162,-0.064953536,0.14842719,-0.12780994,-0.044425305,0.07436158,-0.12196545,0.087519616,-0.081862465,0.09020536,0.10374595,0.17275572,0.024800971,-0.12576564,-0.09046146,0.14284042,-0.124467105,0.089792155,0.120759204,-0.098584,0.13726695,0.12374398,0.05514004,-0.079162754,-0.09159758,-0.12648381,0.15061553,0.11777082,-0.05475733,0.096421406,-0.12861271,0.0747776,-0.06521284,0.1487609,0.0965575,0.066890724,-0.092991225,-0.12826742,-0.13619196,0.061121017,-0.11506772,0.13960108,0.11578337,0.14841129,0.08523454,-0.08227766,-0.071386695,-0.1235362,-0.13401546,0.07409598,0.05557158,-0.11511925,0.12354162,0.08448046,-0.06148618,-0.10775394,0.08956791,0.09578112,-0.14070886,0.05863131,-0.13449499,-0.15203303,-0.16047499,0.11087054,-0.1404616,-0.09363857,-0.10803651,-0.102014184,0.11610488,-0.083463676,0.093654566,0.13464808,0.14632472,0.08426015,-0.09078482,-0.09100951,-0.15018284,-0.16044466,0.15407369,-0.13012324,-0.14862761,0.08608923,0.102761805,-0.10364776,0.126649,-0.101702705,-0.14168599,-0.12692863,0.1372944,0.048937455,-0.06228019,-0.16112092,-0.10476436,-0.13561985,0.1356247,0.13675918,-0.085453264,-0.0970084,0.13358137,-0.09557866,-0.08209291
-0.048885208,-0.13179453,0.07568812,0.12615274,0.11481127,0.045736417,0.09045288,-0.1162924,-0.14321603,-0.07136402,0.135813,0.14589274,-0.12253899,-0.092116825,0.07376971,0.06805917,-0.1272324,-0.13023603,-0.16287981,0.07366641,-0.13979265,0.13966718,-0.059823606,-0.16299553,0.16619371,0.13794717,-0.1788731,0.11878032,-0.06417213,-0.16479748,-0.13898921,-0.06268836,0.047792286,-0.122269616,0.09214468,0.14173514,-0.09379521,-0.11612298,0.09305799,-0.12348412,0.12857655,0.13415498,-0.06554686,0.14450517,-0.08490127,-0.08678977,-0.10006197,0.077054165,0.08665267,0.049826995,0.07381819,-0.1348881,0.06945312,0.10014499,0.11557729,-0.1353609,0.04487227,-0.06005643,0.12792492,0.09846599,0.0831883,0.13033886,0.11540779,-0.08106532,-0.1200701,-0.08103308,0.10797945,-0.04457422,-0.058967736,-0.06611193,-0.073888175,0.08417401,0.20780797,-0.13383335,0.05819701,-0.08313575,0.11355358,0.14762719,-0.12454974,-0.1102126,0.17534664,-0.075258486,0.110720046,0.08495738,-0.013656364,0.060513586,0.0625667,0.13174571,0.13999109,-0.05880404,0.13865227,-0.090904444,0.08928467,0.06835874,0.16652952,0.09847781,-0.0886501,-0.12879345,0.073881805,0.093790725,0.07009735,-0.10549688,0.045956887,-0.09513314,0.063799426,-0.08380184,0.07763387,-0.1472525,-0.12767318,-0.055420723,-0.03971316,0.061758522,-0.06818783,-0.11157221,0.053309474,0.07441679,-0.15833037,-0.09095558,-0.10802458,0.13246469,-0.07071047,-0.06686543,-0.07101664,-0.06074639,-0.13605255,-0.07401536,0.15491846,-0.11887488,0.1437332,0.11799813,0.09318646,-0.11684356,0.06046454,0.061214257,-0.05400471,-0.12062096,-0.09029863,0.08738098,0.14676164,0.087199844,-0.09084314,-0.095664866,-0.07501189,0.07613353,-0.12050308,-0.05544442,0.009137615,0.1041367,0.097741716,-0.13194387,-0.14414708,0.17629588,-0.079168454,-0.062185768,0.14915681,-0.09671722,0.13944164,-0.131631,0.09962042,0.049335316,0.11916787,0.062257286,-0.14768913,-0.13557078,0.09967891,-0.054553468,0.14699546,0.07926849,-0.10194234,0.1230548,0.10260271,0.04933716,-0.16261874,-0.10726711,-0.11808293,0.07915814,0.10858687,-0.053033233,0.11435978,-0.110799626,0.13570207,-0.11685449,0.05590799,0.06690138,0.11157915,-0.060672503,-0.10425106,-0.15166557,0.07182434,-0.12331778,0.05068658,0.057260938,0.166943,0.049199153,-0.09181023,-0.047375433,-0.13778777,-0.050853062,0.04887615,0.12215821,-0.073857784,0.09785946,0.072328396,-0.13110715,-0.13312338,0.16625276,0.13459554,-0.12977546,0.0963819,-0.074341096,-0.11902986,-0.08897427,0.122094154,-0.104442306,-0.05311164,-0.068535514,-0.13869384,0.0838917,-0.115812175,0.08879651,0.13567209,0.13274534,0.08728737,-0.055331074,-0.07890435,-0.06621882,-0.12064403,0.10811055,-0.13631305,-0.082161255,0.12125399,0.12946908,-0.09008621,0.104673535,-0.1399294,-0.0720246,-0.114001125,0.104221836,0.060510483,-0.14624129,-0.099970005,-0.17853256,-0.13226195,0.12182991,0.11053344,-0.13773514,-0.06322726,0.09457958,-0.06893306,-0.07237187
-0.08855096,-0.12031429,0.06027553,0.051177096,0.07076225,0.094750546,0.09658965,-0.060705032,-0.08332334,-0.08227374,0.13849473,0.124608345,-0.055769432,-0.12636538,0.090825774,0.1285206,-0.07255867,-0.11563297,-0.12308846,0.04100868,-0.09390397,0.09971248,-0.130348,-0.05495524,0.14352427,0.07308498,-0.09386561,0.07292616,-0.070361085,-0.13077399,-0.09492435,-0.08406742,0.094004616,-0.06213139,0.10848374,0.10092868,-0.09888572,-0.13497755,0.121196665,-0.100103125,0.088919595,0.086334124,-0.088915244,0.14662312,-0.13393264,-0.14684895,-0.06980534,0.072164975,0.12692775,0.12753713,0.1415643,-0.15850164,0.067122646,0.09550815,0.07514586,-0.078939505,0.045830876,-0.06952297,0.089734465,0.11706609,0.10806988,0.14428936,0.13535601,-0.07014342,-0.090324335,-0.05681447,0.07424133,-0.062275004,-0.11928708,-0.08931039,-0.1393581,0.07872692,0.20507434,-0.10959401,0.05115262,-0.06610289,0.080032885,0.08688709,-0.102909744,-0.09691426,0.15221848,-0.05932136,0.11598668,0.07377578,0.0062042587,0.09752822,0.09697904,0.1019548,0.068903305,-0.14049798,0.118449934,-0.13376898,0.12878154,0.07930799,0.1338277,0.058143012,-0.13302432,-0.121567175,0.080325514,0.12703197,0.12973778,-0.090363316,0.07866638,-0.059277914,0.135409,-0.06741025,0.1152925,-0.18105131,-0.086965755,-0.07919883,-0.08454085,0.13562013,-0.11721937,-0.12412673,0.116936095,0.12582047,-0.1016831,-0.1611412,-0.10218614,0.13156927,-0.06185453,-0.107161954,-0.08059099,-0.075972155,-0.13626124,-0.13828197,0.10995023,-0.14522205,0.08869107,0.0721055,0.08964573,-0.13888471,0.10161207,0.086758375,-0.08886974,-0.10740557,-0.12747172,0.07686523,0.15347199,0.09916039,-0.1558447,-0.1151966,-0.087588385,0.15998265,-0.14860249,-0.12215969,0.058646347,0.11767872,0.11258653,-0.07906686,-0.072490245,0.14135298,-0.17207053,-0.14318186,0.06883663,-0.10280775,0.04424446,-0.1512279,0.08904449,0.11218271,0.11506348,0.060519546,-0.14746542,-0.13499707,0.1114542,-0.08626453,0.1791491,0.13767192,-0.14968593,0.09189265,0.1074792,0.07957756,-0.07077393,-0.099808544,-0.06958057,0.15823469,0.13358201,-0.14216201,0.14173615,-0.074637406,0.14487146,-0.08382581,0.13621682,0.100105084,0.0824431,-0.08541785,-0.07347397,-0.10824388,0.07731793,-0.15787505,0.08418196,0.106558666,0.1180658,0.122805424,-0.10762035,-0.0792678,-0.09107587,-0.11159559,0.10276853,0.12727274,-0.11901708,0.11030797,0.13203633,-0.13020812,-0.08409551,0.08134014,0.12955926,-0.120534405,0.049272355,-0.09102952,-0.09361253,-0.15536676,0.08857122,-0.10570964,-0.099330045,-0.1585328,-0.1497951,0.0810914,-0.0790864,0.08970641,0.100893654,0.07069433,0.14406165,-0.080499195,-0.10744327,-0.11830859,-0.06090074,0.072684154,-0.083602756,-0.071825586,0.09664435,0.1220057,-0.07653954,0.15664494,-0.085136205,-0.1562606,-0.1031517,0.14645922,0.06648119,-0.051392235,-0.11681966,-0.13998845,-0.1321633,0.17535551,0.06561115,-0.13880786,-0.10114567,0.12923066,-0.09120631,-0.06214575
-0.07371119,-0.09273135,0.098501354,0.15103476,0.12449309,0.08527618,0.056499247,-0.09588144,-0.14168566,-0.05898564,0.10162262,0.06935014,-0.105307184,-0.050844602,0.06327371,0.044599853,-0.06224058,-0.10796205,-0.08601776,0.08098302,-0.12167054,0.13539939,-0.1241726,-0.15550998,0.14163806,0.152835,-0.0678455,0.1235178,-0.07886104,-0.1446759,-0.14068565,-0.05381458,0.065320484,-0.07003449,0.09475406,0.117599465,-0.1205388,-0.118322596,0.1257574,-0.13328376,0.099177696,0.082416646,-0.12920487,0.11866784,-0.08450605,-0.064305834,-0.15680492,0.09614724,0.03768186,0.06541125,0.0795947,-0.15349911,0.1322505,0.09243782,0.06660445,-0.07348476,-0.024160206,-0.108638234,0.11803796,0.07013016,0.09820239,0.04924819,0.039022464,-0.069411054,-0.08411047,-0.10998272,0.13748263,-0.056663238,-0.10805199,-0.118479736,-0.055737484,0.1409302,0.1860542,-0.1042589,0.03801898,-0.13196646,0.09608396,0.14291269,-0.049317192,-0.1077112,0.07988727,-0.111663856,0.1058972,0.10021915,0.00802075,0.15642251,0.11604107,0.13856746,0.06827345,-0.06328059,0.11807994,-0.07269626,0.11193174,0.07188668,0.15407279,0.06998195,-0.09294644,-0.10245729,0.1049919,0.1394781,0.14029917,-0.09594524,0.09975125,-0.10918293,0.095878966,-0.080935776,0.06742623,-0.16888167,-0.106915064,-0.1210567,-0.06817505,0.08464902,-0.100856595,-0.10716284,0.08491902,0.10075209,-0.08589996,-0.08399384,-0.10254762,0.09760792,-0.16916119,-0.07472472,-0.09889621,-0.062313728,-0.10990806,-0.053612076,0.063858844,-0.12616342,0.12771653,0.07895362,0.08250548,-0.12938638,0.13936251,0.058591403,-0.13843659,-0.061211284,-0.0697665,0.08227917,0.16379993,0.11445189,-0.05728752,-0.07392502,-0.08279374,0.17635,-0.13032681,-0.05214337,0.012974928,0.04644058,0.107102744,-0.09995957,-0.13308406,0.093601435,-0.097452864,-0.09509925,0.06538453,-0.15450008,0.10621662,-0.11302644,0.13923484,0.12197659,0.14158231,0.083861455,-0.09812013,-0.09158648,0.09700902,-0.04907023,0.15063882,0.10768159,-0.16319776,0.13845024,0.14298217,0.04537538,-0.15360047,-0.09601618,-0.09020532,0.09380131,0.06586794,-0.13751274,0.14318791,-0.10047765,0.10144754,-0.054331742,0.13541436,0.11672142,0.1145738,-0.05657199,-0.15045871,-0.059871472,0.0521931,-0.0944601,0.07951396,0.05824203,0.09553775,0.13125807,-0.045772932,-0.07511859,-0.096914016,-0.16209494,0.11517629,0.094033435,-0.08633514,0.15451592,0.048100863,-0.14082877,-0.15528478,0.10049026,0.14577474,-0.061545305,0.12806927,-0.0976523,-0.13542888,-0.10341296,0.10206536,-0.09933253,-0.07072291,-0.15114179,-0.073012255,0.15236378,-0.122282445,0.0790794,0.087975964,0.13332388,0.0891837,-0.083204746,-0.053459425,-0.13695146,-0.08717173,0.0735189,-0.07119473,-0.13889168,0.10658888,0.08069817,-0.118579805,0.18303002,-0.15749747,-0.11524211,-0.12382987,0.09971758,0.04072571,-0.06793568,-0.09876679,-0.1058051,-0.10346474,0.10579484,0.17268492,-0.07635775,-0.10926129,0.118630946,-0.14704466,-0.112244345
-0.14233573,-0.117350206,0.15725495,0.13492441,0.07856835,0.09604742,0.0938145,-0.117381416,-0.15037574,-0.07945158,0.080610774,0.11443272,-0.08806912,-0.07260665,0.076055564,0.053631432,-0.14187936,-0.1416585,-0.09076883,0.10956374,-0.105669715,0.10794669,-0.15188648,-0.08506732,0.13657315,0.0601048,-0.07783194,0.07212738,-0.053688437,-0.10608437,-0.088381104,-0.09493573,0.05018328,-0.10757687,0.13451597,0.12927529,-0.13447216,-0.11687702,0.11331447,-0.13148883,0.11724028,0.12528574,-0.10011444,0.10323117,-0.05679593,-0.11769576,-0.077000275,0.07194692,0.12571238,0.11321144,0.08196799,-0.14196642,0.106226206,0.08225478,0.10311791,-0.05554123,0.0639243,-0.12619872,0.057230927,0.14086735,0.07207273,0.058137566,0.06740633,-0.12540098,-0.060404394,-0.0975927,0.08565391,-0.064934924,-0.089128025,-0.07744492,-0.084408395,0.07938799,0.11149069,-0.07706035,0.059120215,-0.06866467,0.07500954,0.1565996,-0.12004785,-0.08002557,0.13491486,-0.12943424,0.057690464,0.14420354,-0.034236375,0.13613546,0.086710684,0.123936825,0.13466243,-0.01775062,0.07312416,-0.10631336,0.12280377,0.047911674,0.10534028,0.12807517,-0.061320346,-0.11972691,0.05353176,0.14585446,0.13474442,-0.13947472,0.07562953,-0.12715536,0.15173987,-0.1493327,0.07691587,-0.104735516,-0.06614856,-0.06496666,-0.048140414,0.086807586,-0.13034499,-0.13893923,0.07340897,0.10528531,-0.121512845,-0.16472353,-0.049297318,0.10268987,-0.12307255,-0.1392418,-0.108132765,-0.092923746,-0.11233378,-0.14056379,0.08170732,-0.14818905,0.13240981,0.14792195,0.09749481,-0.14496428,0.09320304,0.08803141,-0.087098606,-0.060071968,-0.07125311,0.09820173,0.12260263,0.1031565,-0.07061224,-0.08874053,-0.09670674,0.08736032,-0.1246012,-0.04368389,0.06857654,0.086648375,0.14827442,-0.13288105,-0.11760891,0.14506765,-0.10916922,-0.05470997,0.07528862,-0.10870607,0.12505454,-0.14302087,0.04611947,0.10923847,0.17269917,0.10244708,-0.10635652,-0.073587336,0.11533155,-0.05203358,0.055261184,0.12891427,-0.1677808,0.14173472,0.08374109,0.006875635,-0.07974184,-0.11907641,-0.1097752,0.14672205,0.11126329,-0.061137218,0.064521156,-0.10722859,0.14369766,-0.07663396,0.10316999,0.060282398,0.13591799,-0.1586299,-0.10944331,-0.08516191,0.06638213,-0.1248024,0.09091149,0.084791966,0.08481337,0.07807833,-0.07964792,-0.058305047,-0.0508838,-0.14178915,0.09487854,0.10884291,-0.106077835,0.10725282,0.118227996,-0.13294332,-0.06500476,0.09328198,0.061837193,-0.05631097,0.052142352,-0.118930094,-0.11497862,-0.111892864,0.14053787,-0.1365446,-0.04690899,-0.071187414,-0.051873233,0.107100904,-0.08787499,0.089125186,0.11594191,0.055645943,0.12488621,-0.1349575,-0.107146665,-0.14259738,-0.13857158,0.08537477,-0.107272275,-0.07809295,0.0792388,0.086285174,-0.07303186,0.16614263,-0.13478588,-0.09752634,-0.050327383,0.054051235,0.14031656,-0.118307,-0.08421475,-0.12666903,-0.036569096,0.08720469,0.10770058,-0.11954125,-0.08822484,0.1094224,-0.11017524,-0.12660205
-0.07054564,-0.11409267,0.1395841,0.16325743,0.11606783,0.06868427,0.1251534,-0.063975655,-0.098305,-0.1314373,0.13191709,0.053272184,-0.048046753,-0.106976174,0.10278126,0.1350147,-0.072567195,-0.103597455,-0.13931714,0.10191835,-0.11647515,0.13078195,-0.06445399,-0.14202227,0.0720872,0.06860111,-0.19806299,0.07814285,-0.123955876,-0.1488865,-0.08176423,-0.051962543,0.07133876,-0.12834679,0.1428978,0.100105055,-0.06795328,-0.07031488,0.081448905,-0.07148112,0.09378544,0.12810017,-0.08569777,0.100644425,-0.05618754,-0.14406389,-0.14411367,0.11925098,0.065915145,0.0465146,0.06673485,-0.10594931,0.13198444,0.1160786,0.1304627,-0.090565026,0.057411145,-0.092181295,0.046809323,0.07411198,0.07759315,0.13488011,0.12972434,-0.07651112,-0.09195417,-0.13350746,0.13951595,-0.1243405,-0.05217902,-0.12421647,-0.044420835,0.1410305,0.12561224,-0.04251431,0.14002645,-0.098742776,0.042227767,0.17615315,-0.05136273,-0.12089406,0.08795057,-0.0893802,0.12164324,0.14638214,-0.052219428,0.108176805,0.08444727,0.13861562,0.061685197,-0.09404284,0.11940563,-0.07288944,0.09951293,0.102516234,0.123692,0.1184444,-0.1330789,-0.10590825,0.089347675,0.07318408,0.0922916,-0.084280245,0.0918955,-0.08000303,0.10924283,-0.1003687,0.070758216,-0.14654961,-0.08519837,-0.112146854,-0.1013976,0.049640797,-0.11351421,-0.10178998,0.13636911,0.13350137,-0.07186805,-0.16391599,-0.120661475,0.0950762,-0.1349363,-0.12616678,-0.06373307,-0.05462226,-0.13271412,-0.11944964,0.05294704,-0.13706926,0.1188187,0.07530012,0.07698422,-0.041267045,0.09387073,0.0851769,-0.11385177,-0.045623045,-0.14104562,0.08845147,0.11677069,0.09055858,-0.11446431,-0.09512179,-0.14016776,0.14484449,-0.084351555,-0.087921515,0.084768765,0.10462434,0.14263527,-0.068973064,-0.061459634,0.07611746,-0.093796894,-0.06607993,0.112239294,-0.14208473,0.081132084,-0.11509748,0.11280223,0.121094,0.10658368,0.010466212,-0.15249166,-0.13070102,0.05891732,-0.12533295,0.063100435,0.13234608,-0.12844554,0.1245871,0.10379336,0.10398186,-0.10007527,-0.077299796,-0.080570735,0.10859851,0.11706494,-0.13268436,0.11831237,-0.14266859,0.13346204,-0.1192684,0.10853161,0.05796345,0.118162215,-0.11935726,-0.113172576,-0.079528674,0.14845556,-0.064255804,0.1105255,0.14438783,0.13670592,0.10536058,-0.13241698,-0.007524365,-0.11907658,-0.12732102,0.06223967,0.14442448,-0.12541316,0.13517734,0.0758438,-0.04433292,-0.11360124,0.10104536,0.14807455,-0.09466917,0.080932446,-0.04910778,-0.1356599,-0.08205742,0.10583897,-0.056009687,-0.06263531,-0.15483578,-0.08682125,0.15413168,-0.12881806,0.07480959,0.0630755,0.1383759,0.07800822,-0.11377133,-0.057611033,-0.08276348,-0.14199889,0.13752303,-0.11450395,-0.12604518,0.10591568,0.08859459,-0.08994666,0.10219079,-0.15074903,-0.10217955,-0.046398897,0.13397305,0.044075493,-0.028558228,-0.093284324,-0.15208179,-0.047261838,0.10351282,0.06984789,-0.053791355,-0.085507184,0.1351404,-0.12539598,-0.10294676
-0.04452253,-0.10379598,0.11141697,0.13457811,0.13233119,0.11152982,0.0735392,-0.0496318,-0.05698988,-0.12594897,0.05539733,0.09094443,-0.087890856,-0.09553151,0.08258306,0.079433955,-0.0800891,-0.06581939,-0.117353894,0.11454752,-0.079591624,0.08822691,-0.08395051,-0.0927324,0.13970935,0.050938357,-0.1471399,0.09362739,-0.0874435,-0.13839668,-0.0960024,-0.06447668,0.038534686,-0.051244307,0.069060095,0.104267605,-0.0871002,-0.07998041,0.12656103,-0.065846674,0.12064147,0.04942475,-0.09142006,0.053166807,-0.12346551,-0.1113139,-0.116878174,0.048937187,0.1356313,0.105055265,0.03569575,-0.0663524,0.088867635,0.08821914,0.14069921,-0.1285879,0.012147169,-0.108561054,0.07913762,0.05842106,0.10679861,0.1579149,0.075020455,-0.102977216,-0.101744354,-0.050803248,0.117605545,-0.09854044,-0.07156321,-0.11206205,-0.07006964,0.120801866,0.10167417,-0.05557643,0.103182204,-0.08208846,0.084496655,0.08946594,-0.056034345,-0.13459761,0.074488044,-0.10213963,0.058797736,0.14122239,-0.04604852,0.09941881,0.11637978,0.06475792,0.04812669,-0.09396457,0.14311555,-0.07476416,0.044355255,0.070696786,0.13914953,0.042084567,-0.067098476,-0.048579656,0.11908624,0.10710218,0.05893252,-0.08770502,0.06454275,-0.1144218,0.11940268,-0.119124986,0.13233475,-0.14586256,-0.062585555,-0.06567668,-0.11341258,0.11121022,-0.043083243,-0.12743175,0.061014555,0.05096634,-0.13780792,-0.08119576,-0.10734414,0.07110882,-0.114489175,-0.09268726,-0.09226968,-0.11311787,-0.11784316,-0.12843738,0.11867811,-0.10479342,0.11826388,0.10562886,0.13112709,-0.062699415,0.1262228,0.13527946,-0.07534898,-0.1022852,-0.12621787,0.05316612,0.153904,0.1286627,-0.050862618,-0.07657607,-0.11401785,0.12498399,-0.06192541,-0.05849268,0.0362243,0.10679027,0.05322551,-0.09993768,-0.08577939,0.07840302,-0.10780305,-0.060799222,0.11721876,-0.1189691,0.04456221,-0.06549184,0.062556095,0.09029685,0.09825221,0.05454413,-0.07018602,-0.07361151,0.08454285,-0.09300551,0.13825615,0.039425775,-0.0830083,0.064091384,0.08242501,0.110424675,-0.08404583,-0.1364435,-0.095656544,0.12682794,0.052510183,-0.07803111,0.16056089,-0.14567713,0.07026619,-0.07832225,0.1024382,0.09215173,0.1085936,-0.065561764,-0.09619982,-0.06859416,0.09225936,-0.07821882,0.14093143,0.120612875,0.16252385,0.12244589,-0.0637496,-0.084795795,-0.078758486,-0.0702551,0.14311638,0.1317727,-0.0700549,0.11628829,0.085468076,-0.120783746,-0.04031948,0.13381933,0.12618072,-0.07683548,0.06773674,-0.050693277,-0.088237606,-0.123062775,0.08813075,-0.08943062,-0.1329487,-0.071366586,-0.09049108,0.11754664,-0.12708075,0.06646061,0.05681416,0.1292312,0.11755202,-0.07294853,-0.07878541,-0.093840964,-0.1373205,0.057539392,-0.05521151,-0.084425144,0.11987715,0.09406575,-0.13185151,0.15233897,-0.11555838,-0.06262975,-0.111670114,0.06526229,0.07711718,-0.0767211,-0.08032628,-0.050289955,-0.1287035,0.073431864,0.10018408,-0.07657732,-0.04686761,0.10737932,-0.13562216,-0.08923109
-0.12027939,-0.13873485,0.078734465,0.111074485,0.06203294,0.12049675,0.10320058,-0.11232313,-0.06452091,-0.07948321,0.14347073,0.063897714,-0.09904132,-0.1164373,0.13908073,0.13466538,-0.15531962,-0.10999588,-0.10720306,0.11136923,-0.06734788,0.10316909,-0.063401714,-0.13205187,0.14074697,0.12870422,-0.13840452,0.14615905,-0.061829314,-0.0783148,-0.12775919,-0.13716783,0.09083691,-0.101249784,0.1481933,0.080254786,-0.115356535,-0.10480471,0.05872246,-0.08101866,0.111906424,0.063157186,-0.07977939,0.06984314,-0.15523621,-0.12379207,-0.09052415,0.12596388,0.046381325,0.047748614,0.07872615,-0.071172856,0.07153854,0.09870362,0.10199812,-0.053782493,-0.002037464,-0.120960094,0.13455705,0.09996858,0.055188455,0.13957869,0.096581966,-0.11222485,-0.048583083,-0.13711326,0.0943373,-0.13877484,-0.0966837,-0.09905022,-0.064540386,0.12298877,0.1754629,-0.11331286,0.0693214,-0.08893458,0.11069099,0.14121853,-0.1494787,-0.082950965,0.15088113,-0.12725443,0.1212006,0.07350694,0.014867043,0.09254896,0.096561834,0.13018411,0.07194351,-0.036894426,0.07062506,-0.099327646,0.067847975,0.07740771,0.1314001,0.12451069,-0.14397033,-0.13290183,0.09115245,0.05345607,0.06984844,-0.08322577,0.07496421,-0.09251058,0.118592024,-0.1466238,0.082284905,-0.13724504,-0.14162754,-0.08513172,-0.033317633,0.118948214,-0.053219546,-0.077344425,0.113126285,0.068250075,-0.07990562,-0.118701115,-0.13148566,0.10951229,-0.14806163,-0.05571546,-0.07784689,-0.0932678,-0.14733154,-0.108295925,0.11848435,-0.06039951,0.12155421,0.11488492,0.07879263,-0.04741475,0.06755052,0.0942423,-0.036374312,-0.12950788,-0.05519356,0.05016402,0.18019189,0.063215375,-0.06291525,-0.14732313,-0.06768527,0.13159391,-0.14621061,-0.073898606,0.0386335,0.057829496,0.14404674,-0.115393445,-0.08395922,0.10214727,-0.1513838,-0.12560116,0.09937227,-0.1448235,0.090457246,-0.063577704,0.13984618,0.149853,0.16043434,0.050482694,-0.1518868,-0.10009952,0.11906198,-0.07954415,0.059421428,0.11153572,-0.16691417,0.16215968,0.088598475,0.01026004,-0.071249515,-0.104405254,-0.13415366,0.08573133,0.054734208,-0.08354693,0.12035731,-0.14535673,0.13357508,-0.10310966,0.1312885,0.12715623,0.110192835,-0.11713283,-0.1153492,-0.116886385,0.14538199,-0.09385111,0.054603014,0.13174468,0.10222942,0.12509601,-0.14015236,-0.032862566,-0.045212865,-0.053256497,0.094113424,0.048054475,-0.16627966,0.16946498,0.0918538,-0.14605632,-0.08849996,0.04967657,0.09175083,-0.07636572,0.081606165,-0.06999927,-0.14881922,-0.10581885,0.089055754,-0.100732595,-0.10018899,-0.078606546,-0.10555391,0.06563822,-0.122376226,0.078327,0.12930697,0.064109914,0.13011518,-0.13368219,-0.058434203,-0.10980671,-0.13105148,0.09897629,-0.13593331,-0.10226779,0.12770332,0.12451542,-0.091148354,0.15507498,-0.1651865,-0.11050163,-0.13306852,0.06901168,0.055878803,-0.12225074,-0.114709094,-0.06637436,-0.058862936,0.16971277,0.14757222,-0.15126157,-0.083874084,0.1254111,-0.07295833,-0.06838418
-0.07611058,-0.09573723,0.12280989,0.10059714,0.056469236,0.11157671,0.08470486,-0.1387793,-0.14572892,-0.12386838,0.04428571,0.08860305,-0.062977865,-0.12110328,0.07508534,0.08426567,-0.0783802,-0.09222678,-0.09458651,0.07265233,-0.11014388,0.09609404,-0.10081358,-0.10763196,0.106687464,0.12227375,-0.06845726,0.09441377,-0.087944515,-0.15682997,-0.052119713,-0.059873294,0.051289383,-0.0636229,0.12151117,0.09237824,-0.07979753,-0.09239916,0.09959507,-0.046561025,0.07625886,0.059091825,-0.08016548,0.110152535,-0.10473263,-0.046693563,-0.14062352,0.11340322,0.12377239,0.1419179,0.03423541,-0.115190074,0.050230965,0.093354985,0.046157487,-0.08805883,-0.015572589,-0.11101206,0.08453429,0.1130205,0.10826429,0.114164494,0.12514861,-0.054862738,-0.0630047,-0.044030163,0.15575838,-0.10019979,-0.076236404,-0.10380864,-0.069085196,0.08743945,0.09968409,-0.13093187,0.08122795,-0.12240196,0.11176567,0.14868481,-0.08700164,-0.12823467,0.07268856,-0.07612301,0.050745197,0.09767993,-0.05821826,0.07347041,0.0959367,0.11504311,0.041250426,-0.059505474,0.116536796,-0.0865712,0.095271386,0.14130749,0.1836114,0.043003056,-0.07699428,-0.107492454,0.0824947,0.11066454,0.060064908,-0.10864659,0.0277762,-0.059437472,0.1354842,-0.11005991,0.12681603,-0.14292192,-0.15783788,-0.09182842,-0.120393716,0.12402209,-0.06467957,-0.07544713,0.084920555,0.11777035,-0.12797226,-0.100665614,-0.090688676,0.04737793,-0.10694067,-0.045545768,-0.07891788,-0.05539109,-0.07681736,-0.08705175,0.14143093,-0.07028042,0.0834369,0.118119545,0.087237634,-0.08765147,0.1237023,0.039825313,-0.098013334,-0.06325822,-0.064406596,0.120982714,0.09216689,0.122524835,-0.09533863,-0.08568469,-0.106296085,0.14748058,-0.060700957,-0.10053707,0.07522394,0.041595034,0.10672629,-0.107457794,-0.06379496,0.14867249,-0.066182315,-0.10834413,0.07849023,-0.06518176,0.12734288,-0.14934726,0.12726344,0.08490314,0.125655,0.11021736,-0.0747838,-0.07920776,0.062271394,-0.06546805,0.14325471,0.10709951,-0.098611146,0.10832623,0.13074736,0.033355635,-0.099915385,-0.1134271,-0.041108884,0.12016167,0.090158075,-0.11894903,0.13093802,-0.0913424,0.103389464,-0.12579349,0.11609683,0.04742622,0.12194689,-0.09009218,-0.08523875,-0.08012543,0.05322847,-0.10762181,0.05283725,0.13708551,0.11841059,0.09893916,-0.0735201,-0.0068087233,-0.14525616,-0.057247993,0.0624958,0.05619463,-0.07216405,0.14744353,0.10668907,-0.0926343,-0.12122763,0.064606935,0.0712307,-0.09213766,0.10503683,-0.10102413,-0.13861449,-0.13835949,0.085898645,-0.09075634,-0.11301607,-0.1409522,-0.1081887,0.13015606,-0.100235924,0.121680394,0.1432532,0.050707504,0.09377211,-0.14099623,-0.09033035,-0.12193233,-0.07050774,0.11070468,-0.1117646,-0.08604274,0.11381306,0.11333441,-0.08789595,0.09229486,-0.16866714,-0.10646015,-0.11726535,0.10884731,0.076393366,-0.12990165,-0.12180968,-0.09192461,-0.11311519,0.1140924,0.1520157,-0.14259592,-0.035649996,0.09842462,-0.043748967,-0.09328466
-0.10128152,-0.08011983,0.10509179,0.18103865,0.121322334,0.04551229,0.05128742,-0.06655867,-0.08107711,-0.09160023,0.06999781,0.10790508,-0.121750616,-0.12270955,0.13698584,0.09137088,-0.098977275,-0.09309381,-0.1251731,0.060436185,-0.12900168,0.11228626,-0.12976149,-0.052357636,0.099106975,0.03994199,-0.07953743,0.13896592,-0.090211935,-0.13678089,-0.076547414,-0.10163338,0.12617773,-0.07729451,0.13328144,0.17375995,-0.10287076,-0.09840081,0.12406521,-0.102486126,0.07566072,0.10655885,-0.09041619,0.053063415,-0.07131794,-0.12479452,-0.10635585,0.13163315,0.04379464,0.10590826,0.098318316,-0.096192196,0.12870105,0.104551286,0.083354875,-0.066163324,-0.020584157,-0.115983054,0.09235771,0.0658417,0.1217704,0.10063873,0.104333006,-0.06989375,-0.06468977,-0.094724044,0.063638546,-0.10960742,-0.036466736,-0.12017721,-0.13759677,0.06925132,0.072408825,-0.06766952,0.106901005,-0.14241377,0.0907511,0.08023493,-0.1292507,-0.12722528,0.13854915,-0.0474163,0.06400633,0.04708147,-0.039122667,0.10874754,0.054119173,0.11356677,0.083470635,-0.10763447,0.10621268,-0.070609055,0.13555135,0.12540528,0.12660842,0.10096589,-0.06809497,-0.10099214,0.13040325,0.07007201,0.13375066,-0.062690265,0.0729322,-0.095963806,0.08662319,-0.043237146,0.078161225,-0.18603611,-0.067847475,-0.043658756,-0.115035,0.098870076,-0.045612436,-0.081719935,0.070527226,0.13124089,-0.1391607,-0.158199,-0.116757154,0.09394528,-0.12887536,-0.09864831,-0.04806385,-0.10880165,-0.09783193,-0.06331886,0.12967595,-0.12715715,0.04763243,0.10489207,0.1276594,-0.034911897,0.13170512,0.10183716,-0.13016003,-0.10366303,-0.07103625,0.059064947,0.098438285,0.059980303,-0.08739422,-0.09603347,-0.11908572,0.13877194,-0.09590548,-0.12438014,0.08517108,0.099001125,0.113454856,-0.048979208,-0.080732234,0.15689172,-0.12402597,-0.09584373,0.1323346,-0.13256928,0.08848395,-0.11399491,0.06903627,0.07163825,0.14095785,0.018442683,-0.08905061,-0.07621721,0.105952226,-0.059993032,0.11414358,0.08369209,-0.09646669,0.124628976,0.10718841,0.0031266438,-0.11901708,-0.09897964,-0.033247616,0.06605683,0.06102891,-0.06408196,0.16739906,-0.11683984,0.043490224,-0.086897075,0.09528852,0.07702689,0.076929525,-0.10103666,-0.11796737,-0.11679516,0.121185504,-0.06680238,0.0801482,0.072825715,0.088202775,0.09628975,-0.081069715,-0.018319264,-0.08152557,-0.08523987,0.13325663,0.14552075,-0.123623036,0.068864696,0.1229048,-0.074162275,-0.077646025,0.068199635,0.111866556,-0.08230677,0.08308871,-0.051783845,-0.11344886,-0.1609231,0.05976726,-0.11992407,-0.07820509,-0.098457456,-0.13943565,0.119667366,-0.04112343,0.14322335,0.10622055,0.06746526,0.054850873,-0.05582897,-0.09155748,-0.07015309,-0.07827794,0.11843882,-0.13073154,-0.11558094,0.06253521,0.113547035,-0.12528603,0.17285651,-0.16358595,-0.081111476,-0.11051654,0.10277322,0.070629686,-0.117387466,-0.1482044,-0.1195304,-0.09884583,0.09801026,0.05176067,-0.07901391,-0.03939828,0.11867956,-0.11927159,-0.11592467
0.2230723,0.20916761,-0.21243078,-0.27389127,-0.23215854,-0.23028204,-0.2299006,0.24492286,0.23183334,0.18238147,-0.24295549,-0.23716487,0.19187112,0.22425136,-0.24653158,-0.22571813,0.2501007,0.2229121,0.24054547,-0.22987513,0.25666565,-0.32297376,0.25220254,0.25567305,-0.20417292,-0.2363229,0.3227827,-0.2194656,0.2467776,0.26872098,0.22410099,0.23286948,-0.24853227,0.22924434,-0.2772569,-0.2956369,0.21764328,0.27283612,-0.22370893,0.20484011,-0.22044688,-0.22340392,0.17968957,-0.22432281,0.2986077,0.19834755,0.22501917,-0.24151286,-0.18943097,-0.21922661,-0.21302752,0.23050228,-0.21349989,-0.24364282,-0.23983374,0.22559492,-0.08872812,0.21992983,-0.21551126,-0.21210463,-0.23534717,-0.27575257,-0.22810078,0.21413931,0.2182065,0.22486432,-0.22592172,0.20717388,0.24845465,0.24578743,0.22179791,-0.21282195,-0.3355202,0.21265087,-0.16082783,0.2460134,-0.21478754,-0.29596958,0.2139596,0.20993434,-0.24955629,0.24722542,-0.22184592,-0.2443606,0.089877315,-0.23618029,-0.21183392,-0.26696667,-0.22757001,0.14972694,-0.21050799,0.23149271,-0.22085409,-0.26348162,-0.35684887,-0.25912753,0.22774534,0.20994036,-0.24312909,-0.24106811,-0.2148487,0.21394262,-0.19187552,0.19363733,-0.19635275,0.24415842,-0.25180718,0.29098895,0.24752462,0.24873199,0.13367489,-0.1853849,0.22500709,0.18909688,-0.21715702,-0.24846913,0.2072818,0.23932613,0.198294,-0.2283357,0.2544099,0.22021145,0.23126432,0.2598197,0.21985826,0.2000153,-0.23723318,0.2104865,-0.20656082,-0.21678442,-0.24736337,0.24798825,-0.2487834,-0.23643272,0.17679276,0.21529752,0.25034577,-0.19247228,-0.36803097,-0.26128536,0.2448278,0.20077932,0.21556038,-0.27582446,0.19337061,0.23377347,-0.06271836,-0.20678297,-0.20715196,0.23076527,0.28468403,-0.26695496,0.23878954,0.2258556,-0.26854149,0.24208643,-0.24927554,0.27776694,-0.22667554,-0.24500005,-0.25498554,-0.13714623,0.23414156,0.2233946,-0.24464075,0.23601931,-0.2738582,-0.25109613,0.24511342,-0.2649788,-0.29511094,-0.063858606,0.20191239,0.21893914,0.23043372,-0.21823065,-0.23205318,0.23433906,-0.33946532,0.1870437,-0.2237744,0.2375245,-0.24221249,-0.2356129,-0.26999405,0.2704548,0.20699584,0.27351913,-0.23332173,0.24078754,-0.26140207,-0.24497645,-0.27808714,-0.19468375,0.22929558,0.12144636,0.26361686,0.2704243,-0.2088267,-0.24121831,0.24823081,-0.23028632,-0.21888757,0.24609147,0.24767344,-0.24630718,-0.1868897,0.20053923,-0.23451328,0.19445966,0.2310719,0.2537685,-0.28992856,0.23005879,0.20774268,0.22047262,0.23460366,-0.19609782,0.20448048,-0.22647882,-0.24361092,-0.2739861,-0.27708498,0.21742074,0.24243206,0.21091999,0.29457298,-0.24277903,0.2033575,0.2454786,-0.25377,-0.20321877,0.26672328,-0.34522063,0.26484588,0.23019972,0.25572574,-0.20727798,-0.23334035,0.2483329,0.29130813,0.2529706,0.18865974,-0.24744183,-0.26511922,0.20111929,0.22740583,-0.2642073,0.21910898,0.26025787
-0.04922815,-0.10893674,0.08027886,0.12064377,0.11877953,0.06493358,0.11455172,-0.11661795,-0.16808806,-0.06757542,0.08498158,0.13581057,-0.050455928,-0.13187863,0.06064908,0.106239125,-0.114793986,-0.07950328,-0.06966583,0.07279769,-0.09569949,0.059682623,-0.07547694,-0.14390254,0.13640781,0.14631023,-0.1418716,0.11144881,-0.09508176,-0.09042064,-0.1163677,-0.05029806,0.10100514,-0.04455328,0.16598637,0.09793065,-0.09632628,-0.119853474,0.040517114,-0.04079049,0.104112394,0.11430616,-0.07891496,0.09000232,-0.12375509,-0.0387638,-0.110376045,0.12850578,0.048221987,0.034562178,0.06014909,-0.08703247,0.13312453,0.07798832,0.081226245,-0.11283777,0.07401446,-0.0925011,0.11417452,0.095473506,0.076348804,0.1384081,0.11699543,-0.06325992,-0.09116458,-0.06898471,0.075222544,-0.10167898,-0.058587693,-0.082112215,-0.10839557,0.12918773,0.12534285,-0.069751605,0.1364408,-0.116632625,0.05641638,0.12770756,-0.0748603,-0.11831079,0.14134379,-0.104472995,0.07903105,0.07351958,0.011969107,0.036846146,0.067846544,0.1392595,0.121933386,-0.09011737,0.051487602,-0.109499864,0.124036826,0.12310667,0.1276605,0.1103959,-0.06447764,-0.13854769,0.060558096,0.13126495,0.056486584,-0.042645063,0.0148922065,-0.11883505,0.09878877,-0.083904065,0.056898013,-0.15243012,-0.086584106,-0.08042924,-0.031252485,0.099646665,-0.07227976,-0.06976251,0.107628934,0.09831653,-0.081426814,-0.14611547,-0.07332169,0.08098517,-0.10121521,-0.09956077,-0.067386456,-0.08305895,-0.14462127,-0.0452311,0.12543285,-0.0707428,0.115399234,0.10916076,0.06803453,-0.07970873,0.032647952,0.06421358,-0.07117944,-0.065980546,-0.044607487,0.13889363,0.1713933,0.085863635,-0.07728283,-0.052986957,-0.053603146,0.1222347,-0.083170064,-0.031460654,0.012009144,0.09079132,0.08564517,-0.034028333,-0.07304245,0.081578314,-0.0995264,-0.05676802,0.07239355,-0.13619706,0.045706514,-0.14360821,0.11203486,0.074660845,0.13930117,0.09098687,-0.15910485,-0.069085665,0.028883567,-0.054153204,0.1391255,0.054129157,-0.12971301,0.09372766,0.06759994,0.018273633,-0.1342436,-0.080829054,-0.06936827,0.13835949,0.07225787,-0.061456535,0.12684096,-0.06684571,0.059604347,-0.06880336,0.140894,0.09237059,0.129197,-0.10923666,-0.07084873,-0.11903321,0.06760454,-0.063284494,0.06768001,0.07098394,0.16198899,0.04939631,-0.11714193,-0.013269535,-0.11847798,-0.056033667,0.1355975,0.12509292,-0.10065767,0.1449294,0.11296558,-0.074835874,-0.08336187,0.10234501,0.12573592,-0.0987719,0.121544346,-0.06713429,-0.056204446,-0.1202322,0.07770007,-0.10838817,-0.08554247,-0.1129635,-0.13197505,0.12844872,-0.14102133,0.075423054,0.10300045,0.13711621,0.14741199,-0.09394701,-0.07666601,-0.12505929,-0.14605446,0.043423407,-0.049156375,-0.09646846,0.12883712,0.06652024,-0.060510397,0.11390134,-0.12795222,-0.09105991,-0.07354136,0.09575014,0.12036128,-0.12723121,-0.08938138,-0.0870111,-0.070009135,0.0906987,0.112332486,-0.08213703,-0.06168666,0.14030641,-0.11533984,-0.13484132
-0.055173364,-0.05218668,0.116341576,0.12907453,0.10127751,0.089182794,0.122549124,-0.098397255,-0.083855145,-0.13452268,0.11951321,0.07818652,-0.03663213,-0.10569983,0.05918595,0.102576464,-0.0673786,-0.03880218,-0.096340895,0.05163934,-0.052650213,0.16102181,-0.10313852,-0.10077579,0.14537379,0.084658526,-0.14635137,0.09695869,-0.10984288,-0.13228828,-0.08697334,-0.077177316,0.092026815,-0.09440346,0.12984003,0.14320233,-0.12204427,-0.10237044,0.053744562,-0.028620603,0.09078251,0.10762092,-0.051108938,0.106880575,-0.18819092,-0.11092392,-0.10036663,0.1391574,0.052403033,0.12924837,0.060449407,-0.03871469,0.1251439,0.04852906,0.08212918,-0.06806843,0.08649612,-0.052626077,0.03141078,0.11509723,0.03864626,0.16161485,0.036072433,-0.056747355,-0.06629861,-0.08763356,0.122500025,-0.027436253,-0.08701759,-0.13345106,-0.1065679,0.09188284,0.10592227,-0.07044542,0.07290314,-0.13547456,0.09631412,0.08009907,-0.046542156,-0.13832328,0.11441385,-0.0667502,0.08174871,0.11480094,-0.020141993,0.05816709,0.034898005,0.073497064,0.04467049,-0.04560936,0.09859652,-0.081383504,0.12432564,0.13973965,0.087462544,0.0891568,-0.12700425,-0.0347126,0.11324986,0.066330835,0.13750212,-0.057729173,0.08752071,-0.1089826,0.04603076,-0.10716836,0.0554757,-0.09624674,-0.12427552,-0.1420612,-0.04193384,0.0727763,-0.09649995,-0.047811914,0.12758818,0.052256707,-0.11268311,-0.068264306,-0.038424887,0.07818856,-0.06188309,-0.0785156,-0.1136163,-0.1338848,-0.06700745,-0.10337573,0.058900658,-0.10470469,0.11635825,0.1219171,0.12006521,-0.11057527,0.12093416,0.090995625,-0.13226615,-0.099264905,-0.10631365,0.064863816,0.15536779,0.08864399,-0.13489404,-0.041713282,-0.09464244,0.09145948,-0.1180101,-0.14240651,-0.00917906,0.070339166,0.042037155,-0.053520087,-0.089041635,0.09458065,-0.13115351,-0.11750199,0.12763402,-0.08956962,0.11718899,-0.05668233,0.09341214,0.09863911,0.16805802,0.04218353,-0.047344834,-0.10590403,0.05678448,-0.06594649,0.10851625,0.05273914,-0.07799983,0.12902966,0.14208937,0.02394202,-0.08267359,-0.11795678,-0.070295125,0.07645034,0.10884162,-0.11630051,0.10124296,-0.12332046,0.1040151,-0.09496088,0.12900192,0.110443786,0.0832129,-0.12557857,-0.05254048,-0.06735176,0.1272592,-0.15256917,0.044200413,0.12293735,0.12443921,0.052326035,-0.084590875,-0.08127416,-0.1219806,-0.054605726,0.1107346,0.030308368,-0.055876676,0.1360384,0.098147124,-0.08829465,-0.094846904,0.059391305,0.11848512,-0.10140173,0.1119274,-0.044461947,-0.06899218,-0.12007279,0.09457315,-0.100043446,-0.0932772,-0.046947483,-0.104259185,0.06709909,-0.11025507,0.09519231,0.08798272,0.10215768,0.11760255,-0.099597335,-0.065541744,-0.1159144,-0.10988621,0.07267244,-0.11962392,-0.12037623,0.10634121,0.12942468,-0.100432225,0.17034084,-0.10223382,-0.09785772,-0.08197575,0.056871954,0.10928344,-0.05355686,-0.09775535,-0.10419566,-0.08396759,0.09262129,0.10272432,-0.10090033,-0.06027885,0.040706266,-0.07095647,-0.09118633
-0.08838892,-0.062866025,0.0919397,0.13633914,0.11806913,0.13271153,0.11329901,-0.060864415,-0.14642407,-0.060194135,0.0824647,0.14238757,-0.07073329,-0.12589197,0.0840005,0.053350553,-0.12208604,-0.14235891,-0.11412626,0.09929395,-0.120723546,0.08041502,-0.11841336,-0.1487591,0.14533198,0.06582509,-0.18026312,0.056738306,-0.09130006,-0.094110504,-0.09069535,-0.11770348,0.06518931,-0.13612993,0.16621704,0.094686925,-0.073841766,-0.11521699,0.116155356,-0.09253889,0.048300236,0.049704675,-0.05369063,0.069814354,-0.12942332,-0.07137978,-0.14134222,0.05847573,0.08642822,0.12071263,0.119055614,-0.06655567,0.094208755,0.12170735,0.087787755,-0.1329625,0.025615972,-0.13373652,0.054508977,0.055183787,0.10689136,0.09372792,0.077258416,-0.08151375,-0.06563409,-0.09173652,0.10831867,-0.100727476,-0.0936211,-0.071265526,-0.10957693,0.11091769,0.11200101,-0.06642715,0.111904,-0.13369067,0.053864937,0.1675934,-0.14575827,-0.080472134,0.11903989,-0.07990051,0.09940527,0.08044954,-0.015821202,0.08358238,0.0733801,0.15274364,0.090104304,-0.02430613,0.14409609,-0.053141363,0.07026779,0.12977523,0.18703087,0.120981544,-0.07913645,-0.043238446,0.085711084,0.11549145,0.06783721,-0.09119961,0.07273499,-0.10475709,0.093364224,-0.08481498,0.11772731,-0.13000469,-0.14916222,-0.15080698,-0.02989314,0.089920595,-0.115096934,-0.06724543,0.10284346,0.14364207,-0.1343973,-0.14136183,-0.084124744,0.046315636,-0.12989463,-0.10862001,-0.08314561,-0.07537272,-0.12159475,-0.13268837,0.13104077,-0.064928345,0.11400742,0.10569725,0.12122494,-0.1121432,0.040800754,0.07293335,-0.12300654,-0.06762793,-0.130634,0.11177529,0.145654,0.11038463,-0.06733793,-0.08599189,-0.092281714,0.07545018,-0.09561261,-0.089414686,0.044055697,0.11824523,0.06502789,-0.049086597,-0.11352077,0.13374923,-0.1312794,-0.12992197,0.06664802,-0.098294735,0.09871948,-0.11721358,0.13828701,0.09520262,0.18339658,0.09664157,-0.08656842,-0.11638431,0.10473684,-0.06703585,0.06507475,0.0698256,-0.1619591,0.095136724,0.11213155,0.050804067,-0.12986177,-0.06567216,-0.091353595,0.06917289,0.078037724,-0.08660799,0.09153509,-0.12285559,0.07067256,-0.09045626,0.13417907,0.04754109,0.07354423,-0.13452777,-0.08858289,-0.08089085,0.097711705,-0.16371085,0.13421915,0.116503045,0.12023103,0.13137296,-0.14086036,-0.001236284,-0.11149335,-0.14085333,0.07354246,0.078977354,-0.07104091,0.06874165,0.07234134,-0.13701813,-0.09108673,0.06329996,0.0673681,-0.10437016,0.08087219,-0.08252088,-0.08153326,-0.14040369,0.14569367,-0.058143407,-0.08618072,-0.14174803,-0.065344006,0.12971541,-0.13357481,0.056230705,0.07736659,0.14258105,0.16254401,-0.13607785,-0.041454025,-0.12775001,-0.1668974,0.115320355,-0.08143939,-0.10593909,0.056070577,0.11063502,-0.09145574,0.17054042,-0.10931582,-0.050670687,-0.10717,0.05902615,0.11531872,-0.058869258,-0.10571348,-0.14618579,-0.12029227,0.1279445,0.1091784,-0.10068854,-0.12522043,0.06552667,-0.07483693,-0.11213938
