0,1,2,3,4,5,6,7,8,9,10,11,12,13,14,15,16,17,18,19,20,21,22,23,24,25,26,27,28,29,30,31,32,33,34,35,36,37,38,39,40,41,42,43,44,45,46,47,48,49,50,51,52,53,54,55,56,57,58,59,60,61,62,63,64,65,66,67,68,69,70,71,72,73,74,75,76,77,78,79,80,81,82,83,84,85,86,87,88,89,90,91,92,93,94,95,96,97,98,99,100,101,102,103,104,105,106,107,108,109,110,111,112,113,114,115,116,117,118,119,120,121,122,123,124,125,126,127,128,129,130,131,132,133,134,135,136,137,138,139,140,141,142,143,144,145,146,147,148,149,150,151,152,153,154,155,156,157,158,159,160,161,162,163,164,165,166,167,168,169,170,171,172,173,174,175,176,177,178,179,180,181,182,183,184,185,186,187,188,189,190,191,192,193,194,195,196,197,198,199,200,201,202,203,204,205,206,207,208,209,210,211,212,213,214,215,216,217,218,219,220,221,222,223,224,225,226,227,228,229,230,231,232,233,234,235,236,237,238,239,240,241,242,243,244,245,246,247,248,249
-0.11559947,-0.13911453,0.103806496,0.13514748,0.13645564,0.20290169,-0.11291257,0.10999842,0.17901894,0.14580943,-0.16723318,0.14981323,0.14115992,0.09259728,0.14457254,0.10580107,0.112271905,0.17951791,0.15333733,0.106066875,-0.14116731,0.1260251,-0.13407455,0.14284147,0.108690135,0.16074046,0.12792274,0.10348569,0.1316082,0.180799,-0.08789999,0.09982996,-0.1799608,-0.1899614,0.12487074,-0.08259972,0.12152396,0.13316917,0.12777123,-0.10354704,0.16761345,0.11251011,-0.17336622,0.14891641,-0.1800456,0.109317355,0.10635018,0.17043412,0.14774445,0.118260495,0.13980742,0.098952934,-0.124100186,-0.097231194,-0.14124797,0.109922074,-0.14128655,-0.09089366,-0.14035243,0.16215189,-0.19116828,-0.1205506,0.18142572,-0.14107212,0.0797932,-0.16197619,-0.21783769,-0.20495011,-0.15504237,0.14944041,0.12443094,-0.16341501,0.044111587,-0.12671779,-0.16671076,-0.14719887,-0.14108531,-0.17653115,0.1775165,0.010836414,-0.17369696,0.17268251,-0.12275135,0.1484237,-0.1882354,0.19386567,-0.1583589,-0.20351315,0.22318158,0.08114262,-0.14115012,0.17226021,0.1404489,0.099542126,0.13175067,0.13586313,-0.13715664,-0.17762607,0.133237,-0.17263274,-0.13893639,0.1175847,0.12414795,0.10955415,-0.13471605,0.19401698,0.11109412,-0.13664022,-0.13811149,-0.09747998,0.16387129,-0.16154681,-0.12492542,0.11372294,-0.14212883,0.11156487,0.15718535,-0.18184315,-0.14349417,0.16177872,-0.10007179,-0.14879006,-0.05589109,0.13317955,-0.061252993,0.21271744,0.18006481,0.14954193,-0.18398291,-0.113619715,-0.09636567,0.14230351,-0.17309016,0.17255042,0.13835381,0.118437365,0.09123434,0.08188261,-0.16393039,-0.03153738,0.16549523,-0.12318131,-0.14718503,-0.079153925,-0.13506335,-0.12394634,0.16907874,-0.13017415,0.1420833,-0.17353465,-0.14257866,-0.16662969,0.08493776,-0.06702452,-0.181145,0.10702314,0.03710155,-0.12946412,0.14901663,-0.1561639,0.16311282,-0.08732495,0.12304384,-0.17001882,0.14270236,0.19054203,-0.15359373,-0.14848411,-0.08731835,-0.15578602,0.045569535,0.14168766,0.1719753,0.11074293,-0.18580265,-0.16258915,0.15067692,0.15585627,0.19174261,-0.117977925,-0.16144304,0.12771885,-0.15313329,-0.1505336,0.18528095,-0.14000112,0.16641062,-0.10551956,0.1438557,-0.15548015,0.09330856,0.13521653,0.040247254,0.15894549,-0.1683308,-0.13778849,0.09922318,0.10189468,-0.17810678,-0.12057164,-0.17993589,0.1215697,0.16612564,0.15695684,0.12526068,-0.12228121,0.1157587,-0.17835121,0.15086587,0.13280964,0.055450853,0.1112336,0.1557989,-0.13217759,0.115915425,0.14665854,0.101121865,0.10457296,0.083929904,-0.18004008,0.12361158,0.13258022,0.17397347,-0.12428775,-0.17955154,0.1508764,0.11288381,-0.15953073,-0.14849111,-0.14282702,0.11990027,-0.068632,-0.14597322,-0.16529015,0.11311315,-0.13183032,-0.1399243,-0.12491327,0.14285928,-0.09116461,-0.17228353,-0.18171367,0.15253931,0.14789408,0.056736823,0.13363986,-0.13670303,-0.16973338,-0.15668687,0.19436668
-0.13605963,-0.12851776,0.09301308,0.08929306,0.21429068,0.08772712,-0.1022855,0.1673845,0.16066252,0.12882805,-0.21201311,0.12211297,0.10759001,0.1466007,0.18362023,0.08830739,0.13003723,0.16916627,0.17378826,0.1693285,-0.12495646,0.09865915,-0.1210526,0.101907976,0.111489154,0.13100816,0.15793924,0.1602217,0.07565574,0.11406989,-0.13796897,0.08973619,-0.17806797,-0.10571948,0.105407104,-0.09949342,0.11065136,0.12063212,0.14039259,-0.12501517,0.12001347,0.21250561,-0.1353835,0.1591076,-0.13727956,0.16719584,0.12024394,0.16545744,0.16933198,0.14721379,0.08948879,0.100311235,-0.12685928,-0.07980848,-0.15681098,0.13377386,-0.16289252,-0.14401338,-0.1056569,0.14427769,-0.18322457,-0.0995444,0.13147692,-0.17205715,0.07687994,-0.1678288,-0.1338826,-0.122661725,-0.11435447,0.100677006,0.12009021,-0.1580445,-0.006873061,-0.11703198,-0.08658762,-0.13054202,-0.12088257,-0.116329744,0.16833106,-0.013598708,-0.15677442,0.14585991,-0.1015149,0.1365793,-0.16434541,0.1670838,-0.16899887,-0.14707802,0.20866953,0.15881011,-0.10423188,0.1389446,0.13739121,0.13075168,0.14030953,0.14422806,-0.08345784,-0.1817989,0.14157619,-0.16622953,-0.15759204,0.14325021,0.1293987,0.18072386,-0.18386856,0.12847571,0.17520599,-0.15773024,-0.15996206,-0.10680743,0.10638657,-0.113577716,-0.111667804,0.06151596,-0.11894588,0.18422115,0.14457665,-0.11852581,-0.1023693,0.09836484,-0.16135263,-0.16124357,-0.026370708,0.101143524,-0.12746498,0.19473587,0.13632773,0.098647535,-0.17903939,-0.14747562,-0.091891095,0.16201536,-0.080618456,0.16163301,0.13954027,0.09375639,0.15815803,0.089774504,-0.17685048,0.067537054,0.14084475,-0.081052475,-0.12491277,-0.15376638,-0.12053843,-0.16697207,0.13131015,-0.14939812,0.17635135,-0.08745786,-0.17441443,-0.14367455,0.07672506,-0.091761924,-0.13646598,0.14761229,0.0871809,-0.1434336,0.13580835,-0.1702006,0.13612136,-0.14034934,0.13629933,-0.14830962,0.16870503,0.11285191,-0.111402154,-0.10622876,-0.12182564,-0.10228793,0.11659758,0.18249834,0.122339435,0.11653408,-0.12521133,-0.116242595,0.20994575,0.15232609,0.19495712,-0.16057894,-0.12499037,0.1511236,-0.11089523,-0.09866401,0.16354738,-0.1249561,0.13647152,-0.16231826,0.13818058,-0.121642485,0.117831446,0.09322779,0.07493218,0.13349067,-0.11823545,-0.15549356,0.1246536,0.08815011,-0.1335219,-0.055531707,-0.14350998,0.077410124,0.11980534,0.16408807,0.14846775,-0.18055096,0.12698516,-0.17237057,0.13590242,0.15628493,0.035883103,0.11981561,0.1166887,-0.10885537,0.16259257,0.13894954,0.10552233,0.15688613,0.10555672,-0.12921245,0.1222032,0.13778946,0.09580909,-0.18823063,-0.105708905,0.075375296,0.141254,-0.15704076,-0.1156357,-0.08594946,0.16721752,-0.14001614,-0.095839776,-0.10725899,0.14045088,-0.11861835,-0.11513827,-0.124905504,0.12897895,-0.14992428,-0.17576574,-0.10855673,0.107434735,0.1797367,0.037257086,0.18298279,-0.1166612,-0.13236867,-0.16952889,0.10226576
-0.13177155,-0.14769305,0.17152072,0.15944096,0.10265356,0.17435654,-0.08831075,0.15929204,0.080654666,0.08568814,-0.15645751,0.098273784,0.110610686,0.048776932,0.16877984,0.13658622,0.1810422,0.10758797,0.16381894,0.13236855,-0.08008199,0.083023965,-0.16390422,0.09565522,0.09825013,0.0676865,0.16632731,0.15761133,0.11727341,0.1011997,-0.13124406,0.16500887,-0.155805,-0.14394665,0.09249339,-0.083212286,0.11143923,0.1049809,0.11232952,-0.11955806,0.14009906,0.15179655,-0.10898651,0.1540088,-0.16285875,0.0967184,0.1195067,0.10022138,0.07907699,0.18378405,0.114996165,0.13763642,-0.11838295,-0.10288568,-0.09955865,0.1500235,-0.11984254,-0.15436004,-0.059740037,0.09932034,-0.16641974,-0.118418425,0.1843681,-0.08751985,0.08648154,-0.13637967,-0.12032414,-0.15303825,-0.1370723,0.09719609,0.079727575,-0.07651081,-0.02902907,-0.13632207,-0.12276243,-0.17585643,-0.15304126,-0.16130628,0.1784793,0.013587148,-0.09527365,0.12399359,-0.11323626,0.11446144,-0.18827698,0.14042057,-0.16430517,-0.18762112,0.23982854,0.07917349,-0.08937992,0.11558655,0.08991636,0.11487316,0.12460812,0.14133963,-0.12580328,-0.13969176,0.08923134,-0.06890468,-0.16958545,0.12028185,0.14421663,0.16519092,-0.1532885,0.12761684,0.13058169,-0.1625943,-0.14439733,-0.0944569,0.1477666,-0.16074696,-0.098335266,0.13938348,-0.16629136,0.09854593,0.092171006,-0.1829368,-0.17988445,0.08729174,-0.15492752,-0.10510464,-0.07265472,0.10056808,-0.16707186,0.12623997,0.17712979,0.12704432,-0.1398885,-0.14993623,-0.0766229,0.17170846,-0.09212958,0.17617197,0.09021951,0.11316682,0.12857318,0.16813844,-0.12974495,0.016393004,0.21067373,-0.110149726,-0.08111075,-0.09177338,-0.1730711,-0.13984714,0.16104172,-0.15110151,0.09637455,-0.10143878,-0.11226012,-0.17219427,0.15952934,-0.12323918,-0.11555313,0.1225981,0.04575948,-0.10724463,0.101138175,-0.13563167,0.10529736,-0.08696751,0.093064256,-0.19212863,0.17948322,0.09092124,-0.09798636,-0.069215044,-0.15386768,-0.1431642,0.09810892,0.15308045,0.067457035,0.17940731,-0.121989235,-0.14578585,0.21037988,0.09135332,0.14586006,-0.16892408,-0.15128879,0.16943493,-0.116283536,-0.14337134,0.071850054,-0.10075965,0.14815521,-0.14237002,0.15860842,-0.08369998,0.12634851,0.095256075,0.0419949,0.14335905,-0.09595536,-0.14652732,0.16656463,0.08098291,-0.12565328,-0.119672365,-0.099942245,0.10801355,0.11370716,0.09884508,0.15986991,-0.120437734,0.106701314,-0.1601309,0.16167018,0.17063184,0.007929542,0.1626348,0.15122695,-0.120389834,0.08285891,0.12627947,0.11939798,0.09394978,0.13835438,-0.105247855,0.18054006,0.12508589,0.16956116,-0.10234488,-0.13202235,0.13406126,0.11158856,-0.14544193,-0.13773657,-0.12268335,0.16249327,-0.14065765,-0.17203674,-0.12434088,0.17345949,-0.10607952,-0.114883944,-0.1060802,0.15664954,-0.1288683,-0.096243255,-0.16890563,0.1653804,0.115961574,-0.013741234,0.13343856,-0.18540366,-0.121073,-0.113151245,0.1502232
0.17178252,0.3359993,-0.23573427,-0.22294845,-0.25655797,-0.21357895,0.24345881,-0.21020739,-0.23076268,-0.22964041,0.34629834,-0.2209693,-0.22244829,-0.14234757,-0.3018815,-0.22525905,-0.23641935,-0.26697826,-0.2829978,-0.2097802,0.20055008,-0.25312272,0.20632264,-0.24652839,-0.20816958,-0.25392893,-0.22115213,-0.23200117,-0.23947307,-0.24795546,0.23251672,-0.26302394,0.2483096,0.20082617,-0.23658554,0.20490111,-0.2691998,-0.2789317,-0.20637648,0.21987641,-0.23365468,-0.2764339,0.19374467,-0.24609761,0.26312402,-0.24033375,-0.25052854,-0.23216653,-0.18921746,-0.25708887,-0.2622353,-0.21567908,0.24918436,0.21824662,0.2459854,-0.24230686,0.23962182,0.20569499,0.25615677,-0.24769475,0.21465027,0.23393217,-0.2380332,0.19731465,-0.22658719,0.22265746,0.25618517,0.320774,0.21714397,-0.21358255,-0.24091929,0.21488371,0.08306066,0.22079831,0.23396271,0.24434096,0.2688356,0.21443963,-0.19839776,0.04660225,0.18851306,-0.31698024,0.22759074,-0.23792465,0.2194769,-0.23193015,0.20354979,0.24787413,-0.40254158,-0.19512156,0.22938892,-0.26102984,-0.24079719,-0.23445791,-0.21882083,-0.20776823,0.31334013,0.19701481,-0.19828568,0.18294492,0.24787666,-0.23391984,-0.2474184,-0.25067523,0.18522018,-0.24589169,-0.22181357,0.19251522,0.2121009,0.22031635,-0.20165807,0.17207395,0.25851312,-0.2868534,0.22089012,-0.20066136,-0.22755913,0.27310565,0.22990353,-0.2419672,0.22521618,0.2348863,0.073871985,-0.21233194,0.2765142,-0.24265712,-0.20559885,-0.21189386,0.2899084,0.2545299,0.21362217,-0.24304807,0.200563,-0.2258557,-0.21193945,-0.21593873,-0.21151568,-0.21247251,0.24464856,-0.09167898,-0.30365777,0.23600337,0.25782847,0.18892309,0.26265067,0.21255448,-0.21655238,0.24927202,-0.20232385,0.24252412,0.24391067,0.20654005,-0.21076863,0.13622828,0.2645426,-0.20983909,-0.10831522,0.25463805,-0.26069212,0.23492739,-0.21901958,0.21271187,-0.25113213,0.20718215,-0.2232381,-0.24421391,0.2245437,0.229685,0.21333407,0.20630258,-0.13794538,-0.24682184,-0.20657778,-0.21543767,0.20111166,0.20560756,-0.32543963,-0.20308743,-0.21849702,0.21475089,0.19256656,-0.26059002,0.28770053,0.2388769,-0.19859006,0.22445929,-0.20649894,0.23080045,-0.2607743,0.18814574,-0.20330451,-0.24569055,-0.18741103,-0.22614,0.26119295,0.26533788,-0.21600388,-0.21085285,0.1882765,0.21320048,0.23945883,-0.23093602,-0.2273463,-0.18709509,-0.28605783,0.19689083,-0.25726143,0.18777834,-0.2429688,-0.21098469,-0.064071365,-0.2307206,-0.18835796,0.2406932,-0.23887289,-0.1968116,-0.2016421,-0.21430655,-0.24010865,0.21343675,-0.24372917,-0.24901177,-0.24345207,0.24499542,0.19263451,-0.236244,-0.22506487,0.2140476,0.22804451,0.25100276,-0.21629877,0.17887862,0.22047354,0.21479124,-0.2487402,0.21267629,0.21847884,0.23765689,-0.25088683,0.22487243,0.23130657,0.2197917,-0.22866334,-0.27020887,-0.09752233,-0.26383504,0.258566,0.31327504,0.23498386,-0.2145368
-0.10295811,-0.11544359,0.1354248,0.11564787,0.1558695,0.13528872,-0.13917603,0.086010344,0.07387795,0.08819871,-0.16237281,0.097052895,0.12858409,0.05011235,0.11634672,0.10360576,0.15511267,0.14552118,0.14977603,0.18576537,-0.099338636,0.1247777,-0.12675738,0.08002092,0.105730906,0.07261564,0.16559646,0.1164838,0.09825686,0.13142619,-0.10944941,0.104138136,-0.11210998,-0.10827146,0.13618445,-0.03298779,0.12270002,0.124902345,0.14625922,-0.14155285,0.13290411,0.16887036,-0.11859407,0.15975696,-0.09170482,0.15809903,0.08096178,0.07578314,0.14606501,0.192036,0.1644736,0.12631679,-0.17096423,-0.10851344,-0.094066314,0.085952364,-0.11715382,-0.0847491,-0.13882591,0.09703228,-0.11434924,-0.10216267,0.16255525,-0.16473034,0.10870703,-0.09215098,-0.10531311,-0.21830623,-0.056541968,0.08261752,0.07288252,-0.124658264,-0.0375044,-0.14002249,-0.12346641,-0.12630577,-0.17256147,-0.09434711,0.08792418,0.04388469,-0.14589143,0.16896996,-0.079784736,0.124908626,-0.11693356,0.1727979,-0.12007566,-0.17864737,0.17898576,0.12273103,-0.13479531,0.12713955,0.0910878,0.15279993,0.16127905,0.109528825,-0.10311877,-0.11939011,0.15091138,-0.11254283,-0.15793508,0.121225454,0.05686425,0.11170734,-0.09234739,0.09536759,0.07327521,-0.119886,-0.19121633,-0.071452335,0.09855968,-0.14803465,-0.16264898,0.12731001,-0.1255342,0.14118749,0.12971146,-0.099325605,-0.10155882,0.08290486,-0.09080763,-0.10071067,-0.046065457,0.10554733,-0.13048646,0.18552072,0.10406754,0.16815342,-0.17640688,-0.14404109,-0.08362771,0.098449774,-0.1417359,0.17046735,0.14405428,0.16382778,0.11176089,0.09881657,-0.15741986,-0.017224753,0.11588366,-0.1586064,-0.09154804,-0.1590549,-0.18508448,-0.098717324,0.109354444,-0.074059546,0.14456147,-0.14125448,-0.13189554,-0.14845224,0.1222756,-0.08868274,-0.14906634,0.14391617,0.12613013,-0.14221592,0.13733992,-0.077549905,0.05828462,-0.14536157,0.11740769,-0.18048142,0.100925826,0.12201719,-0.08791935,-0.12963635,-0.08791427,-0.107407436,0.093187764,0.13991044,0.13650385,0.15410559,-0.1923685,-0.06754773,0.16121034,0.15045877,0.17600515,-0.09638189,-0.11855257,0.11026877,-0.10912382,-0.08380124,0.09961614,-0.11209706,0.0932638,-0.06283048,0.08037742,-0.14160813,0.11238736,0.08521667,0.03218375,0.10372184,-0.107641034,-0.13541779,0.1443603,0.072391205,-0.16446334,-0.08491541,-0.14782906,0.15162894,0.11969488,0.11538192,0.18194836,-0.14753945,0.1577831,-0.16028656,0.17188682,0.16532128,-0.036569845,0.15662552,0.17687543,-0.15489611,0.08325509,0.12607887,0.16624162,0.11519363,0.112897456,-0.1401895,0.13834712,0.14601982,0.07096244,-0.11676562,-0.13120712,0.07679947,0.04557802,-0.099659644,-0.13770145,-0.09940639,0.108520925,-0.107491694,-0.16163185,-0.13712448,0.120307095,-0.13570262,-0.13535058,-0.12779482,0.14348045,-0.15032274,-0.16328637,-0.122483104,0.07004595,0.15506217,0.019261854,0.107864186,-0.07442535,-0.13389665,-0.12614867,0.14229299
-0.15439454,-0.1849373,0.09743828,0.15038913,0.15012926,0.11232236,-0.14018433,0.10061434,0.14616221,0.17304474,-0.14549309,0.07948844,0.09392256,0.1062243,0.12313279,0.09999323,0.087956205,0.13851781,0.1370752,0.14361323,-0.095325604,0.10764911,-0.11595146,0.14307943,0.14743678,0.122004665,0.05691207,0.081452176,0.14253901,0.13900673,-0.08792218,0.07863285,-0.10228245,-0.16681786,0.13564605,-0.108644865,0.1403011,0.13096234,0.103293605,-0.075791314,0.11459736,0.17607601,-0.1376628,0.091740094,-0.11780463,0.124909,0.06844552,0.12982146,0.15538782,0.17125054,0.14691278,0.09343186,-0.11869135,-0.14147963,-0.13765012,0.16238391,-0.14995027,-0.13768741,-0.081826776,0.09058365,-0.06970782,-0.10629996,0.16588609,-0.13890387,0.078804746,-0.14699563,-0.07919556,-0.1979568,-0.08720771,0.13921812,0.120874874,-0.12550068,0.023002129,-0.1680571,-0.120080106,-0.11853383,-0.09373157,-0.11218811,0.13936174,-0.026145572,-0.0977628,0.13411944,-0.101811685,0.1469058,-0.0805014,0.09657026,-0.08332829,-0.18560015,0.2092147,0.08798753,-0.07541431,0.14234194,0.11931497,0.08738474,0.14420322,0.12407479,-0.102736905,-0.06793699,0.09422942,-0.1383546,-0.103861585,0.077946015,0.075735,0.14441544,-0.0784081,0.06301328,0.08182711,-0.12941618,-0.07996031,-0.07175989,0.15596917,-0.13671991,-0.0944549,0.07423732,-0.15766613,0.11675074,0.11146872,-0.15347284,-0.10445025,0.13173752,-0.11263992,-0.16730642,-0.015418499,0.14061046,-0.06182196,0.17857051,0.09974119,0.083390124,-0.15925589,-0.14737399,-0.11424342,0.14532939,-0.059715446,0.12595892,0.098749295,0.14852105,0.06522291,0.13455495,-0.124537244,0.04079408,0.097588055,-0.09507413,-0.13519917,-0.07814486,-0.14913344,-0.072968125,0.117738165,-0.073826075,0.12672135,-0.11788169,-0.15124746,-0.10950879,0.1266282,-0.04688648,-0.0783091,0.07288981,0.113959566,-0.114736184,0.1023856,-0.08952469,0.12613067,-0.14554496,0.08585007,-0.12616071,0.11406708,0.13163556,-0.15025562,-0.12653552,-0.09158888,-0.06723224,0.10219691,0.110406846,0.14706,0.14235577,-0.14968054,-0.10041838,0.17699958,0.08111362,0.082639314,-0.12809595,-0.14628649,0.076547444,-0.17332125,-0.059536178,0.053869322,-0.08019087,0.110997416,-0.111642756,0.13037391,-0.14449915,0.060546596,0.08458184,0.059569564,0.13268155,-0.1480385,-0.09038976,0.103947915,0.12083464,-0.08877554,-0.12283667,-0.119621165,0.11387122,0.1311428,0.14501053,0.09060459,-0.16147186,0.086388774,-0.11132411,0.10943866,0.14331934,0.051752508,0.081942424,0.17186613,-0.12169412,0.102592774,0.093691505,0.14774482,0.08808288,0.11925857,-0.12261761,0.14140622,0.1474479,0.12174023,-0.16772938,-0.10725788,0.15492612,0.102502026,-0.1019642,-0.09706473,-0.14079976,0.12590045,-0.05620743,-0.117673956,-0.17492913,0.061635397,-0.124870405,-0.09925121,-0.1079153,0.13598372,-0.09927662,-0.07538956,-0.16128999,0.15059358,0.18353932,0.014866298,0.13341178,-0.13509685,-0.14976469,-0.08000635,0.1388346
-0.06608425,-0.16084112,0.09627568,0.16522972,0.17602384,0.12744583,-0.100088045,0.15046,0.15180789,0.12197182,-0.17532519,0.10435025,0.16361941,0.12072858,0.10331778,0.09012167,0.13292664,0.1932562,0.11471468,0.14286548,-0.13834424,0.08484065,-0.1404779,0.14985311,0.17444015,0.10093024,0.10489376,0.10405067,0.14247368,0.10796573,-0.104592,0.11011583,-0.060529537,-0.134855,0.108884275,-0.09235276,0.110836685,0.0729494,0.063643605,-0.16009091,0.16565078,0.17325914,-0.13648759,0.078035206,-0.13260244,0.113650165,0.08567204,0.085653804,0.14864558,0.16748321,0.13915887,0.08779753,-0.14893796,-0.084394135,-0.16990417,0.16417705,-0.122458875,-0.08978462,-0.07263929,0.14512528,-0.085774906,-0.08965791,0.08698061,-0.07124997,0.09123321,-0.07754734,-0.16740593,-0.10373999,-0.06923628,0.10043446,0.058651704,-0.09503468,0.0145796975,-0.08973087,-0.059920445,-0.10325895,-0.16594028,-0.052633163,0.15609159,0.025521256,-0.116442285,0.21822657,-0.12278202,0.07771164,-0.17966889,0.07922778,-0.13534047,-0.17350306,0.20677178,0.108004965,-0.108281985,0.11661038,0.115317374,0.090425774,0.12584107,0.07545198,-0.1328049,-0.163034,0.1418042,-0.14015767,-0.16567348,0.1443339,0.07445199,0.12132344,-0.16445406,0.08552563,0.08736047,-0.1461533,-0.17996152,-0.13158178,0.09697851,-0.09709562,-0.13232334,0.09832935,-0.10842561,0.066490546,0.046894964,-0.12280191,-0.1309705,0.15528502,-0.11207112,-0.13214362,-0.05788302,0.14536993,-0.055244394,0.20342101,0.091413446,0.10696302,-0.17424352,-0.09012543,-0.10198076,0.13114399,-0.15155125,0.12207952,0.10721433,0.087136075,0.08156976,0.09940279,-0.104722485,0.037387624,0.13126189,-0.103852786,-0.06810765,-0.07530012,-0.1237912,-0.061431564,0.15917413,-0.13352698,0.15345408,-0.12641604,-0.095390745,-0.08115455,0.11492282,-0.107434735,-0.09106008,0.08658867,0.058526114,-0.12433832,0.14709572,-0.1578437,0.08615724,-0.09724322,0.15147367,-0.104943685,0.164527,0.14248095,-0.12033865,-0.0763215,-0.14686687,-0.122687615,0.1168148,0.14931034,0.107530184,0.13423568,-0.13886428,-0.085452996,0.17167045,0.07438229,0.10659555,-0.14527647,-0.072877415,0.10242692,-0.1259188,-0.11083872,0.06712689,-0.107513115,0.13967422,-0.11940827,0.14443824,-0.08400737,0.13286954,0.12631986,0.13441648,0.085503146,-0.05989621,-0.14352886,0.09533883,0.055802654,-0.103232145,-0.10408504,-0.16275664,0.113222115,0.07158925,0.07324869,0.13694067,-0.15411402,0.11699353,-0.13256477,0.06968605,0.08147647,0.05447228,0.15604268,0.071700096,-0.0984777,0.12570585,0.15870623,0.09580375,0.0630347,0.14169589,-0.0885408,0.11978004,0.07561989,0.08470467,-0.1550689,-0.0981596,0.12455003,0.09028033,-0.061559927,-0.14928769,-0.10841823,0.07483406,-0.10532722,-0.12764741,-0.09414573,0.07898979,-0.109723695,-0.14450856,-0.14992343,0.09116608,-0.12457228,-0.09409515,-0.19619395,0.115302004,0.1681177,0.012936119,0.14703174,-0.11752795,-0.20692115,-0.14523019,0.09006968
-0.16999891,-0.19264351,0.1538831,0.13794968,0.15522636,0.08788413,-0.088600986,0.09110623,0.11605872,0.14852513,-0.15339132,0.12892711,0.13772006,0.053016886,0.16711032,0.16787855,0.1345592,0.20038348,0.19500335,0.14118096,-0.09323324,0.12558378,-0.05663337,0.08826006,0.11184624,0.0643232,0.1100802,0.13978265,0.13951074,0.117550455,-0.060301937,0.14944315,-0.09131144,-0.17789611,0.069325775,-0.067202576,0.080946855,0.13380273,0.14114155,-0.15135492,0.11271413,0.15754147,-0.14484823,0.10567863,-0.107931584,0.06508973,0.16899519,0.059458833,0.11087346,0.13506643,0.12112733,0.14108366,-0.16052598,-0.12924246,-0.11087908,0.13452654,-0.1373485,-0.07772784,-0.05853322,0.09426021,-0.10378488,-0.1476936,0.119029984,-0.088127494,0.11425489,-0.09079108,-0.09151977,-0.14238088,-0.13397646,0.1320872,0.08957277,-0.14594066,-0.032324255,-0.106970504,-0.061696917,-0.12194252,-0.108325094,-0.1166028,0.13299887,-0.030560626,-0.11544369,0.17534485,-0.0830375,0.17770028,-0.0839014,0.11880878,-0.14088081,-0.13662574,0.16984817,0.1507562,-0.11010211,0.17724556,0.078255266,0.15835753,0.098527655,0.15533254,-0.14789338,-0.083594605,0.12679325,-0.12327456,-0.15665232,0.099935584,0.11648177,0.16885376,-0.101136036,0.12228219,0.13113141,-0.09530222,-0.11183344,-0.1120433,0.08414942,-0.1227032,-0.12082495,0.07594044,-0.13819377,0.07434214,0.13093169,-0.1334836,-0.08523342,0.09474554,-0.13853829,-0.120235935,-0.017026972,0.065746665,-0.100476526,0.099769294,0.13626173,0.11863606,-0.13859409,-0.08501314,-0.09996728,0.12168682,-0.10519333,0.08478389,0.0747602,0.10509828,0.050060723,0.15218939,-0.18753676,0.06532997,0.12540695,-0.08121411,-0.16215903,-0.11263142,-0.18833566,-0.09770139,0.077452645,-0.07121655,0.15618327,-0.09296665,-0.12404214,-0.1028734,0.08689446,-0.09239434,-0.15064809,0.06336629,0.12413379,-0.08829927,0.12322284,-0.14789627,0.061436832,-0.058608536,0.08372859,-0.1466774,0.15003267,0.16205262,-0.13758731,-0.102010585,-0.0905505,-0.081029944,0.10672087,0.112817205,0.09943099,0.121952206,-0.16002437,-0.07577928,0.122212306,0.08834809,0.14095086,-0.09048245,-0.08705457,0.13356738,-0.15160927,-0.14091356,0.096359186,-0.053731047,0.16117083,-0.087050326,0.09609563,-0.13045774,0.09703504,0.083841026,0.10624911,0.11357647,-0.08014505,-0.09008764,0.07250253,0.063934416,-0.14434098,-0.090922795,-0.0674427,0.14653243,0.13286705,0.1265923,0.13149934,-0.09037844,0.08609883,-0.11741802,0.07821541,0.14339224,0.06662516,0.10824363,0.12437687,-0.14068916,0.08404054,0.09617239,0.10154296,0.09702504,0.14434369,-0.10876341,0.13249104,0.090721585,0.072690874,-0.13855052,-0.065724395,0.07878569,0.12970611,-0.11498311,-0.15143172,-0.082234494,0.070693195,-0.11420128,-0.16462691,-0.19826093,0.12347125,-0.1519991,-0.0551783,-0.12680066,0.119947724,-0.08318335,-0.07599889,-0.17530093,0.10557393,0.16082272,0.03091092,0.1548415,-0.16180977,-0.14036497,-0.14972563,0.17224687
-0.15309142,-0.18893808,0.12952691,0.112279266,0.11623294,0.050778955,-0.14361988,0.12508966,0.12467637,0.14189883,-0.1583544,0.10155661,0.12915096,0.115057155,0.19649728,0.06878825,0.14438748,0.16924801,0.17876573,0.1690714,-0.098657526,0.08643235,-0.12544149,0.0928475,0.12578474,0.069893196,0.09153229,0.09503041,0.065017045,0.12860689,-0.043282993,0.098926514,-0.050893012,-0.15997975,0.059803184,-0.11224901,0.12046503,0.11465026,0.06253713,-0.14284874,0.08762381,0.10753293,-0.1475432,0.106357716,-0.10261945,0.11614595,0.13499826,0.07308958,0.13268252,0.14697218,0.13845414,0.11687595,-0.12531666,-0.09014104,-0.1695171,0.14543372,-0.08470933,-0.10089448,-0.13201632,0.09448848,-0.07175679,-0.117597215,0.10928375,-0.17928116,0.067276955,-0.11708119,-0.14084755,-0.192603,-0.103117704,0.10692086,0.124785386,-0.09237272,-0.024318723,-0.14977825,-0.05703493,-0.07960404,-0.110974774,-0.060758013,0.12558329,0.00042577134,-0.04768838,0.15775411,-0.1328622,0.15237921,-0.08676028,0.07808472,-0.12233059,-0.14787109,0.1395917,0.0736743,-0.046894245,0.11830513,0.100041755,0.13409144,0.1422734,0.095254526,-0.07930444,-0.09752174,0.07200276,-0.0561294,-0.11169162,0.0857557,0.14872593,0.16164765,-0.14195621,0.08338262,0.05055458,-0.16089815,-0.115002476,-0.12628637,0.09055264,-0.12011017,-0.12581187,0.11632857,-0.14770849,0.07598528,0.04349911,-0.1819558,-0.10304467,0.061963424,-0.11275382,-0.16195212,-0.0359584,0.12145348,-0.10404682,0.102378756,0.06718923,0.100453906,-0.13986965,-0.048063993,-0.120096244,0.17288168,-0.09546122,0.13175298,0.13386473,0.09608619,0.044557657,0.09634831,-0.16709885,0.07117613,0.20177431,-0.12805626,-0.096148126,-0.09198567,-0.18591897,-0.08976173,0.15223897,-0.12981193,0.102027796,-0.1268181,-0.10965683,-0.1389656,0.056667905,-0.11160443,-0.14066151,0.05520123,0.10159522,-0.12340218,0.10552959,-0.13167089,0.096684285,-0.0903996,0.15168867,-0.12068748,0.105424784,0.055274207,-0.14345978,-0.12064827,-0.14529194,-0.1519308,0.109159306,0.0784918,0.12658505,0.1446342,-0.10946732,-0.14322804,0.17538705,0.12579508,0.11842273,-0.08585204,-0.06829941,0.083051644,-0.12202832,-0.1495949,0.14464392,-0.122613944,0.13959457,-0.08320133,0.08795563,-0.13375163,0.04750223,0.079546966,0.018756276,0.13535033,-0.13098466,-0.16438751,0.12204276,0.06269912,-0.13790058,-0.04770106,-0.11976812,0.05308587,0.17781277,0.062272426,0.18873902,-0.08166713,0.10737651,-0.093623616,0.14962952,0.087151095,0.038486242,0.118168056,0.092066124,-0.0908168,0.09981464,0.15413137,0.12691261,0.14942288,0.11663317,-0.09382444,0.10805985,0.1726602,0.08328942,-0.092265666,-0.064115144,0.10870071,0.12627661,-0.09005279,-0.13388963,-0.14291763,0.15011711,-0.082621165,-0.12442595,-0.16436572,0.04790582,-0.04859301,-0.07255443,-0.077080525,0.13566774,-0.105306074,-0.1428852,-0.16961715,0.05344636,0.0812928,0.027413918,0.16379453,-0.11972744,-0.19060038,-0.07173981,0.09843663
-0.13677146,-0.12419713,0.09288841,0.08198324,0.10271654,0.12517938,-0.05991621,0.09718527,0.12469818,0.1511782,-0.13947867,0.08084334,0.0944044,0.09349707,0.104859,0.119134285,0.05962334,0.16826418,0.12012706,0.1490986,-0.076447874,0.077192225,-0.1225585,0.060721926,0.1499676,0.1267961,0.07173331,0.062979154,0.11560506,0.13668613,-0.09167739,0.15354933,-0.14327852,-0.09207993,0.06481704,-0.05115292,0.07580007,0.117025845,0.16135298,-0.06374888,0.15367378,0.16621739,-0.106755316,0.09982111,-0.0675326,0.07791903,0.1326525,0.10433618,0.106599525,0.1628011,0.103798896,0.148517,-0.109499365,-0.09608442,-0.13287912,0.11271678,-0.129966,-0.064112216,-0.11661951,0.10747195,-0.10350511,-0.090709396,0.100526616,-0.0964972,0.14313869,-0.13257259,-0.09108561,-0.18332665,-0.06979367,0.08212394,0.095678285,-0.14208463,-0.040160984,-0.11400001,-0.092462525,-0.08586004,-0.07189379,-0.11486668,0.12496281,0.03535797,-0.13905749,0.18882322,-0.101654984,0.07324508,-0.1521087,0.06459989,-0.11396499,-0.09796939,0.20890561,0.1310825,-0.09157845,0.13215438,0.058191203,0.069237866,0.13124369,0.12616085,-0.14735006,-0.13340956,0.097288094,-0.13238643,-0.14701705,0.07226938,0.13086079,0.18523246,-0.106561296,0.11564192,0.05692379,-0.08056359,-0.15979101,-0.12504853,0.13793886,-0.09789528,-0.0928959,0.13474922,-0.13717498,0.13823284,0.13176611,-0.1540244,-0.14437565,0.07509794,-0.061593235,-0.09734584,-0.043877672,0.09083856,-0.074729994,0.09324774,0.075003885,0.098198436,-0.17893152,-0.12609585,-0.15130363,0.14235675,-0.086552635,0.0786539,0.056283776,0.055354863,0.08604775,0.13568456,-0.11504822,0.06772817,0.14405692,-0.09308476,-0.10014494,-0.07906161,-0.13762857,-0.1299085,0.11081069,-0.16158709,0.121871404,-0.0805259,-0.15103713,-0.11857418,0.058129366,-0.14707994,-0.15089709,0.11819658,0.12646557,-0.068796925,0.15031734,-0.15563834,0.10147173,-0.12990528,0.06648467,-0.112476654,0.15105815,0.15045528,-0.14338987,-0.10334782,-0.092469096,-0.06712472,0.12384451,0.14514638,0.082069606,0.14714478,-0.17378566,-0.14860035,0.18461004,0.118544355,0.1691566,-0.10391898,-0.07905928,0.1392201,-0.099674165,-0.14143428,0.075375624,-0.10455098,0.13373749,-0.08406357,0.08899877,-0.078837246,0.14434154,0.10269884,0.08514238,0.0825123,-0.14024083,-0.107312664,0.10326073,0.1390882,-0.089027,-0.11562387,-0.069843054,0.07514483,0.1341166,0.12868325,0.13957158,-0.14922085,0.08764942,-0.13323377,0.08283495,0.07545798,0.040078044,0.14796337,0.14182231,-0.132113,0.078857474,0.14841379,0.09477657,0.14159447,0.12244341,-0.15123458,0.13372914,0.07977921,0.14940041,-0.070904866,-0.099416286,0.11548332,0.11198097,-0.14844379,-0.07920476,-0.07429673,0.14126211,-0.1558218,-0.11514832,-0.12027293,0.059670188,-0.08274671,-0.14651385,-0.10152759,0.10161578,-0.11500294,-0.16540681,-0.1013861,0.13699171,0.096955895,0.07900636,0.12175542,-0.12760185,-0.16187206,-0.12106557,0.1378361
-0.15052229,-0.16490707,0.14738564,0.15346105,0.15611318,0.13146482,-0.10863477,0.14006926,0.1246603,0.060037464,-0.14248246,0.05271203,0.11417683,0.08066513,0.1959012,0.06260193,0.12458686,0.1826573,0.13254145,0.12648104,-0.07095335,0.11807197,-0.1449354,0.09785299,0.14232269,0.073716305,0.074008904,0.09135058,0.108604446,0.12979189,-0.14396347,0.14272113,-0.06758737,-0.12827696,0.05245344,-0.08001185,0.1478478,0.1375904,0.13770472,-0.07598748,0.13082074,0.10388379,-0.13892101,0.12108577,-0.07297978,0.10933899,0.102521144,0.11527663,0.16333583,0.1572161,0.1512735,0.054412898,-0.06684332,-0.085076384,-0.08005959,0.1534352,-0.14323236,-0.09171829,-0.059696358,0.06654501,-0.15677926,-0.119132906,0.13517937,-0.09261246,0.051076997,-0.08893787,-0.14143866,-0.23026502,-0.12453949,0.069728084,0.047479354,-0.11121814,-0.00891134,-0.1276305,-0.062302243,-0.093030244,-0.12533568,-0.08549713,0.10968316,0.033692647,-0.11328115,0.17584933,-0.05718165,0.14672734,-0.10505052,0.16798408,-0.10722113,-0.10834095,0.20532049,0.10468233,-0.102236964,0.11805324,0.1349819,0.141362,0.117901094,0.065435395,-0.123762816,-0.073741734,0.12167539,-0.12055533,-0.14020368,0.10389094,0.07392713,0.15772207,-0.12299529,0.050642036,0.052695777,-0.08185184,-0.11728281,-0.10128685,0.11424935,-0.07041178,-0.14559735,0.14633378,-0.084488414,0.090865,0.13633968,-0.1670701,-0.07040764,0.10924682,-0.062001362,-0.14681514,-0.026193582,0.10931019,-0.14152929,0.105204396,0.14203049,0.1000518,-0.15389766,-0.087878525,-0.10385243,0.079425916,-0.15785523,0.093957715,0.049662065,0.092081845,0.0705962,0.05529054,-0.09979803,0.04837629,0.1240709,-0.1608753,-0.07884289,-0.11711563,-0.11953144,-0.08821294,0.09096421,-0.0853474,0.07287574,-0.13318464,-0.14084733,-0.08021456,0.06811509,-0.12854783,-0.08248356,0.10869263,0.15713306,-0.09307582,0.09548561,-0.12879322,0.05750285,-0.065787375,0.13448535,-0.068291605,0.091396384,0.14720632,-0.077947035,-0.15037541,-0.10682945,-0.06856235,0.12207961,0.08017388,0.07104688,0.11175776,-0.09224904,-0.15040238,0.19403403,0.14032218,0.10005494,-0.10727195,-0.06805904,0.10963286,-0.1308505,-0.10452357,0.09735883,-0.097784474,0.12201377,-0.12211053,0.13917027,-0.07509081,0.07399403,0.14623304,0.084020905,0.14616132,-0.14668545,-0.112925105,0.14986551,0.10026064,-0.13941243,-0.10200783,-0.09003529,0.06685139,0.107891396,0.114515424,0.0796045,-0.1174285,0.119826324,-0.1432484,0.08976063,0.14182991,0.028086612,0.09531322,0.10550914,-0.117308885,0.13922186,0.099890456,0.14608452,0.13469629,0.086570315,-0.06589102,0.120133534,0.096502855,0.09979932,-0.15951428,-0.10935946,0.066006355,0.13587682,-0.14775793,-0.124895506,-0.090473495,0.1251268,-0.02537088,-0.10957036,-0.09149619,0.1312811,-0.07800723,-0.07394332,-0.13757363,0.10934587,-0.13158792,-0.08127266,-0.1337251,0.123733945,0.12516628,0.026536178,0.08498267,-0.098772176,-0.15555124,-0.072937444,0.09156903
-0.1484869,-0.12040827,0.08981205,0.11241273,0.15728062,0.06889911,-0.10333365,0.14564243,0.1430342,0.13180596,-0.19235553,0.05666119,0.14049992,0.06318434,0.1699251,0.15067172,0.05669042,0.1613518,0.1818018,0.10957631,-0.09632666,0.051853396,-0.11987031,0.053843938,0.16267435,0.1488716,0.11722142,0.1543689,0.12104614,0.14736404,-0.11521042,0.085376926,-0.11080517,-0.15036187,0.13464047,-0.07190551,0.14326285,0.08615372,0.13043608,-0.114222534,0.16275953,0.11950129,-0.14483163,0.09820625,-0.13386111,0.07371144,0.10021037,0.15219954,0.0731452,0.0909235,0.12221399,0.071382925,-0.06702486,-0.0687486,-0.10795445,0.0968476,-0.096769586,-0.1146532,-0.14780664,0.068973355,-0.096354716,-0.09196892,0.10059733,-0.16264836,0.05517122,-0.08972961,-0.1659201,-0.20869546,-0.10877366,0.10178386,0.11242337,-0.04387118,-0.051054977,-0.16488698,-0.12679419,-0.07049685,-0.088978566,-0.058777206,0.14944091,-0.0030102287,-0.14221542,0.17963715,-0.1005357,0.1100043,-0.11683817,0.12050658,-0.051169008,-0.11036923,0.12831855,0.1285584,-0.10657082,0.09793966,0.12364031,0.15046392,0.15163608,0.09177474,-0.13227195,-0.09682302,0.07045863,-0.10721524,-0.071479395,0.07602115,0.07930233,0.13884008,-0.11969251,0.100383945,0.12531269,-0.11400233,-0.1273118,-0.071869306,0.05818634,-0.12719291,-0.1035557,0.13651961,-0.05528783,0.13771984,0.052067354,-0.15698156,-0.13883495,0.088819034,-0.12987892,-0.082481,-0.09079691,0.12110571,-0.074673034,0.12117174,0.09922781,0.08903259,-0.13942787,-0.12184624,-0.110345595,0.16835032,-0.07459152,0.15453145,0.11106665,0.12267553,0.04150271,0.14142011,-0.079905175,-0.00071175775,0.11525853,-0.10761741,-0.14416926,-0.09999585,-0.11332716,-0.05822814,0.15743873,-0.107812434,0.14095564,-0.09533523,-0.072891384,-0.09811502,0.10058398,-0.13665554,-0.0919358,0.122281305,0.15777388,-0.13886698,0.097026885,-0.05768269,0.057934195,-0.067366056,0.078977756,-0.14239798,0.056486502,0.13854615,-0.113958456,-0.17062727,-0.08422862,-0.0923348,0.052230243,0.14103645,0.1206545,0.11000309,-0.10355798,-0.06981204,0.19244765,0.09705043,0.1058906,-0.07554671,-0.13142881,0.14823428,-0.118277684,-0.13221173,0.0982927,-0.08772598,0.1376758,-0.06315173,0.082831495,-0.12670524,0.10827321,0.104756586,0.08415333,0.12741907,-0.13355097,-0.104656905,0.108877026,0.1293625,-0.12544823,-0.09145128,-0.06636185,0.113130316,0.12246658,0.09277508,0.10600283,-0.098238625,0.14460367,-0.14100906,0.0721557,0.08576054,-0.0070509193,0.11439973,0.15379044,-0.11608593,0.058966573,0.08074223,0.13668104,0.084598236,0.13552786,-0.11419701,0.1040403,0.07620305,0.10313642,-0.059417363,-0.068727635,0.123409994,0.08831036,-0.111929715,-0.14253496,-0.09237547,0.06149542,-0.070434414,-0.10113962,-0.11652468,0.096395575,-0.108907305,-0.1339463,-0.1051824,0.11063022,-0.1411645,-0.08506248,-0.11318721,0.105743125,0.12317945,0.009074894,0.1402206,-0.120111756,-0.18788247,-0.044075932,0.11590917
-0.14732683,-0.103241816,0.0617069,0.14924373,0.11301387,0.12218168,-0.13289744,0.08652295,0.13983214,0.12367993,-0.14440992,0.11773984,0.11445687,0.057496257,0.07720215,0.07581125,0.15041088,0.12200111,0.11196002,0.084074765,-0.15712582,0.1140491,-0.050575,0.11029181,0.1472928,0.113697305,0.09523607,0.14067227,0.09785199,0.13080902,-0.10859203,0.1625905,-0.05577691,-0.07761612,0.092508405,-0.07453268,0.09998114,0.1818003,0.14211076,-0.09630182,0.11318949,0.10258256,-0.14899252,0.12848651,-0.0844404,0.068378285,0.16189194,0.144693,0.11226698,0.18009634,0.100703105,0.14936106,-0.100572765,-0.13877782,-0.079021096,0.060891822,-0.100514226,-0.1381819,-0.14449468,0.11153426,-0.105079025,-0.17243569,0.102478966,-0.14741059,0.0520879,-0.13924743,-0.12053216,-0.19909842,-0.114623874,0.11544167,0.1100935,-0.13261051,-0.0024884671,-0.14842586,-0.09237918,-0.09402146,-0.07843115,-0.12555669,0.09529884,-0.022683881,-0.13485223,0.113119006,-0.12938324,0.12942238,-0.10985116,0.06771902,-0.15676147,-0.15635456,0.1981385,0.05141742,-0.111899905,0.14578998,0.10526088,0.12371324,0.13237487,0.14816917,-0.13769084,-0.08986591,0.08747669,-0.12653342,-0.12614919,0.11587661,0.116918646,0.093387164,-0.09864863,0.08144193,0.13483806,-0.14788404,-0.09930834,-0.086704604,0.13174815,-0.13107799,-0.13219169,0.06510669,-0.15078914,0.15377013,0.0863365,-0.17051655,-0.13005744,0.07717449,-0.1195162,-0.14265443,-0.043376356,0.10170371,-0.1467675,0.13620128,0.072817534,0.07283275,-0.13701989,-0.14589345,-0.10252623,0.1568676,-0.07674773,0.08744465,0.118103854,0.1269127,0.062962554,0.058359843,-0.13863853,0.026000664,0.14894065,-0.09068503,-0.103728764,-0.14932051,-0.17160195,-0.09576033,0.10196949,-0.12892564,0.1051117,-0.09059805,-0.15145373,-0.13363612,0.115734205,-0.06588159,-0.11662268,0.07980918,0.04089725,-0.1542202,0.15323149,-0.09731161,0.12358172,-0.13370326,0.097731754,-0.1215252,0.09442987,0.11136233,-0.084700346,-0.11794877,-0.12796539,-0.083036795,0.038961567,0.15252237,0.05822353,0.095938,-0.10643771,-0.09064355,0.12807618,0.092864834,0.12631074,-0.10209214,-0.12400446,0.121139266,-0.059854086,-0.12449874,0.14289993,-0.13182242,0.123494126,-0.07638883,0.067476764,-0.13339522,0.106906585,0.101049684,0.06649239,0.08902944,-0.100184634,-0.12652303,0.13218057,0.059599034,-0.07792118,-0.095026344,-0.1524966,0.11486359,0.14131103,0.09074263,0.090761036,-0.09911134,0.15099758,-0.09493825,0.05779561,0.10779247,0.03460062,0.09251196,0.14297937,-0.15271394,0.13407579,0.08421741,0.1319239,0.06560447,0.10992301,-0.10695283,0.11248119,0.0605149,0.14059469,-0.10446941,-0.07358491,0.14868268,0.054142654,-0.119041935,-0.06646479,-0.117558725,0.14259423,-0.102578394,-0.14976828,-0.12774204,0.11089952,-0.15192376,-0.14647725,-0.059037305,0.13077204,-0.112976395,-0.16199191,-0.16508512,0.09013213,0.14115237,-0.004416172,0.17698084,-0.11960793,-0.120491125,-0.07529554,0.08810053
-0.073768355,-0.14676028,0.05527365,0.05912672,0.13195708,0.08921133,-0.065352164,0.13044575,0.06465417,0.09807222,-0.19620045,0.08689788,0.05805152,0.11460269,0.11855283,0.13051033,0.0524208,0.17206748,0.08840881,0.16136679,-0.07411755,0.05461283,-0.11395362,0.06287626,0.15804818,0.12894082,0.041511953,0.05497418,0.1049509,0.06292026,-0.06668987,0.14434946,-0.081449375,-0.14571665,0.121099316,-0.08990406,0.090814434,0.06960096,0.10414516,-0.10651566,0.14147894,0.081978984,-0.062383752,0.10281753,-0.13484198,0.069153525,0.1181569,0.06195934,0.08673417,0.136143,0.058225174,0.090928026,-0.05635776,-0.13750948,-0.13715152,0.09002046,-0.06271332,-0.05559655,-0.10743019,0.064411536,-0.08374084,-0.14478694,0.11655184,-0.15741406,0.12438878,-0.12837239,-0.10672001,-0.16588598,-0.10072084,0.12779799,0.1112618,-0.10025521,0.014783035,-0.122298814,-0.09216145,-0.15803394,-0.14500926,-0.080160305,0.122428454,0.021068525,-0.06824408,0.1501097,-0.07533278,0.07064571,-0.09368839,0.105822034,-0.069843754,-0.14619426,0.19576943,0.059204485,-0.11672563,0.15491,0.13319583,0.13657732,0.1363483,0.14506567,-0.09848274,-0.058903243,0.15896513,-0.06815025,-0.095343,0.06406824,0.07193987,0.084362596,-0.10237585,0.07908094,0.06261762,-0.06708037,-0.14644697,-0.13494325,0.09491594,-0.05946434,-0.12616073,0.07126227,-0.104870856,0.06640394,0.13904253,-0.11898395,-0.12051167,0.13493839,-0.08028595,-0.10345777,-0.0708393,0.13815978,-0.04129502,0.08886448,0.13315879,0.07900608,-0.074921705,-0.048004102,-0.05869148,0.16430831,-0.1356091,0.12369367,0.10797598,0.063239515,0.0997942,0.11960932,-0.0933039,-0.008876067,0.14287661,-0.13789915,-0.10882485,-0.06838613,-0.16463701,-0.08271369,0.072323576,-0.057839584,0.09003889,-0.13170476,-0.0912724,-0.085933596,0.10361431,-0.11131359,-0.04901759,0.10240435,0.10548003,-0.041664213,0.13011312,-0.14473315,0.07090478,-0.08505425,0.15282965,-0.14083873,0.118078955,0.08892641,-0.10028554,-0.08312874,-0.119942434,-0.09857932,0.080221124,0.14520974,0.071494855,0.09440512,-0.1281721,-0.103014775,0.1938898,0.095418006,0.1469837,-0.09725874,-0.09102437,0.06082608,-0.10284259,-0.078293696,0.103220865,-0.12999994,0.091309465,-0.091216736,0.096342355,-0.11383624,0.13997088,0.050601643,0.050997466,0.086021654,-0.10345564,-0.11442796,0.10617862,0.12187428,-0.12658149,-0.047185324,-0.06682985,0.13927321,0.06808475,0.080874205,0.08178757,-0.13723756,0.071568966,-0.11452484,0.072116666,0.08354113,0.059349075,0.14200695,0.09428811,-0.075124756,0.066309385,0.0963274,0.14285137,0.1350203,0.12715626,-0.10583708,0.082424894,0.071218394,0.12770076,-0.080799714,-0.14098303,0.10064124,0.067664936,-0.06668118,-0.12361463,-0.11809916,0.077176094,-0.044023924,-0.1517905,-0.17253268,0.0865595,-0.05787617,-0.07320216,-0.10540272,0.14686842,-0.046487957,-0.08452053,-0.12119405,0.13419352,0.09365321,0.056582574,0.101411015,-0.06007005,-0.18399842,-0.05859806,0.14883126
-0.119566604,-0.16484192,0.08224573,0.0654642,0.06946527,0.097185165,-0.085334785,0.1420315,0.14443599,0.06837114,-0.15747999,0.10484704,0.13537405,0.12224158,0.12629882,0.06646783,0.07795054,0.15569836,0.09047248,0.15405679,-0.09977528,0.1181655,-0.04658969,0.12851262,0.15192631,0.07072651,0.114625506,0.121994525,0.10488993,0.0643488,-0.11015882,0.11613685,-0.09839825,-0.13417098,0.100065164,-0.048340954,0.13762747,0.046900194,0.119041,-0.088836074,0.15374303,0.131878,-0.124728605,0.10709033,-0.05310158,0.121711425,0.06678094,0.13016026,0.14150721,0.17271933,0.11180183,0.096155375,-0.14527752,-0.13912685,-0.058566205,0.12275506,-0.092205174,-0.1353524,-0.050786875,0.13116907,-0.0656456,-0.1602375,0.12875155,-0.071104884,0.06338795,-0.13008158,-0.12172146,-0.19267842,-0.05362608,0.053905383,0.039264064,-0.08754233,0.017779853,-0.09151486,-0.104490586,-0.06713786,-0.15264124,-0.111128144,0.06511796,-0.037523955,-0.091483146,0.110186554,-0.10483034,0.09230988,-0.056243807,0.14458722,-0.12129583,-0.13722757,0.111509025,0.053852852,-0.036561,0.08185115,0.12983623,0.10105106,0.11138927,0.079300836,-0.14483038,-0.12416957,0.14976868,-0.09598644,-0.085488014,0.06895193,0.10628957,0.14152348,-0.11524092,0.12894052,0.09699059,-0.10569193,-0.13046885,-0.102222264,0.09828296,-0.11251678,-0.07198091,0.087947376,-0.10463842,0.12305056,0.061744615,-0.16693226,-0.06334568,0.07207679,-0.12578233,-0.09144881,-0.039221797,0.06696766,-0.12459711,0.18075462,0.14528775,0.06962599,-0.1479809,-0.06985347,-0.1414372,0.102940686,-0.1355565,0.123719305,0.12521423,0.10204083,0.13423415,0.08192248,-0.12463504,-0.022795346,0.117520645,-0.111287296,-0.10251987,-0.097394966,-0.13700798,-0.05459631,0.13097307,-0.049619604,0.1411308,-0.08866442,-0.13983384,-0.12605003,0.120833516,-0.06899433,-0.08502777,0.098586164,0.08867653,-0.12615834,0.13430841,-0.10302644,0.12966968,-0.14558338,0.09564767,-0.12473259,0.06837101,0.079501286,-0.100460075,-0.14774616,-0.12622127,-0.08501858,0.10831603,0.11975309,0.1433137,0.10088569,-0.13342908,-0.11257801,0.17524971,0.12628525,0.12813185,-0.087722406,-0.075788766,0.14288715,-0.109539986,-0.07333335,0.111459464,-0.11767309,0.076971136,-0.11487508,0.097543105,-0.12058922,0.07402521,0.14170705,0.11852653,0.13959512,-0.12043005,-0.09719441,0.06433033,0.09906525,-0.09884351,-0.06269507,-0.13467687,0.057632647,0.14232206,0.061607648,0.14016405,-0.09420821,0.04973753,-0.06519148,0.11337539,0.056782044,0.0055581685,0.07789211,0.117120795,-0.056306373,0.052994844,0.1178414,0.08360543,0.10330822,0.07534592,-0.13628702,0.09172676,0.11282128,0.05915718,-0.07779867,-0.060697302,0.053042933,0.107138805,-0.053872764,-0.06523676,-0.067788966,0.0876599,-0.116379924,-0.08707304,-0.09540788,0.07987086,-0.08860015,-0.10893522,-0.10323182,0.11083307,-0.12696508,-0.10053162,-0.13050778,0.05247292,0.14499876,0.04846668,0.15194207,-0.12153782,-0.08533888,-0.12149779,0.1369024
-0.05754808,-0.15801442,0.13579224,0.06735004,0.14406852,0.057419404,-0.10108319,0.09827455,0.09883175,0.107226744,-0.12632489,0.042278368,0.059235074,0.09355763,0.14057893,0.09755901,0.07446961,0.1632636,0.098552346,0.11780723,-0.09961565,0.122758254,-0.101446174,0.09179467,0.056031313,0.055543717,0.1314878,0.09362364,0.10496027,0.14639993,-0.12478441,0.11093461,-0.114631176,-0.111323625,0.107265376,-0.09551226,0.07469258,0.066712484,0.122648776,-0.07388214,0.105050266,0.14833993,-0.13016959,0.10945484,-0.07284121,0.093814254,0.14359212,0.119610816,0.13268995,0.08201078,0.16174403,0.097799316,-0.12985133,-0.14892507,-0.11601974,0.12712343,-0.034695037,-0.06750237,-0.08768395,0.08162095,-0.0839097,-0.12502195,0.059780914,-0.18789008,0.1202271,-0.13402764,-0.0878612,-0.14360121,-0.04199703,0.0672574,0.08702114,-0.07716464,-0.051765285,-0.117218375,-0.10982106,-0.08193415,-0.14600398,-0.067290485,0.13622056,0.045140706,-0.053855788,0.19301581,-0.099436894,0.115387805,-0.058049902,0.07827199,-0.12361433,-0.14034857,0.16581278,0.12061007,-0.05106336,0.10523137,0.080670595,0.04325877,0.09055455,0.05060761,-0.09849204,-0.138631,0.10200585,-0.12694353,-0.13595578,0.054024674,0.111636564,0.14894149,-0.15239346,0.045238376,0.117431685,-0.05525672,-0.17005323,-0.050785046,0.08344801,-0.08375691,-0.11286357,0.112414755,-0.09346409,0.066109955,0.122547,-0.14058375,-0.07754448,0.059404798,-0.11759585,-0.08571534,-0.009701613,0.11888233,-0.13366184,0.16847275,0.111708246,0.073393494,-0.18164948,-0.12115396,-0.0515664,0.10871643,-0.14025696,0.1021319,0.060344324,0.117103495,0.08951216,0.09081118,-0.10238695,0.030089404,0.102545574,-0.061807323,-0.12314693,-0.07497583,-0.15082037,-0.07242493,0.08051378,-0.10606313,0.1041911,-0.0921241,-0.11578119,-0.057785306,0.07145874,-0.06101723,-0.05539507,0.095294386,0.10734134,-0.075691454,0.08562631,-0.14289233,0.08334309,-0.12532368,0.08183549,-0.14549164,0.057872873,0.08979835,-0.080272086,-0.105845936,-0.11770249,-0.05073641,0.12481371,0.1324931,0.13066158,0.092232734,-0.08567397,-0.12956737,0.17631875,0.051426377,0.08788725,-0.07290472,-0.0921643,0.09828328,-0.102214016,-0.055926718,0.101458594,-0.09583442,0.06942238,-0.09617985,0.04759057,-0.060205936,0.058421258,0.09757159,0.06566724,0.06606157,-0.13113272,-0.15531363,0.05447165,0.072250925,-0.11189795,-0.096643,-0.07052837,0.051966093,0.15642035,0.062194817,0.14078383,-0.0914955,0.07819373,-0.101854004,0.05864805,0.1425277,0.0017293567,0.09485702,0.08174041,-0.09307131,0.12839186,0.11041979,0.08478639,0.061056,0.067332774,-0.083060384,0.10004576,0.063018,0.06875221,-0.14072338,-0.14479606,0.056037225,0.10756729,-0.06957686,-0.14736575,-0.1417412,0.122268535,-0.110204354,-0.103167206,-0.12385265,0.13377234,-0.10744649,-0.09879381,-0.117782384,0.14208153,-0.043866023,-0.058623645,-0.11576672,0.12798068,0.1199883,-0.02801097,0.17149577,-0.099291496,-0.10981179,-0.0834059,0.10003258
-0.06840591,-0.15471317,0.11737841,0.09874449,0.0882045,0.052827213,-0.08931841,0.058585912,0.077401966,0.089374475,-0.16781038,0.101668924,0.056524195,0.1317493,0.13957305,0.06856875,0.08201339,0.18395212,0.16050611,0.12497653,-0.14005084,0.07329174,-0.07376496,0.1360816,0.14591604,0.12367123,0.043369424,0.054931834,0.12406505,0.09908996,-0.1035015,0.13092193,-0.07474223,-0.075507745,0.05205756,-0.041151572,0.08951978,0.15650953,0.121342175,-0.12707569,0.073938325,0.11139197,-0.08855022,0.054641332,-0.09953283,0.081866466,0.13866672,0.09830404,0.14019842,0.1569933,0.12781979,0.14822586,-0.13177685,-0.12550746,-0.064333305,0.060453992,-0.10071164,-0.112645805,-0.12426608,0.09004299,-0.13627449,-0.08485985,0.10527817,-0.10082814,0.11089704,-0.13780224,-0.14706503,-0.19861887,-0.10275333,0.11716012,0.10525885,-0.13112362,-0.07921882,-0.15446493,-0.13370891,-0.1109445,-0.15605152,-0.05525514,0.06065349,-0.015305955,-0.07510583,0.17299245,-0.10208789,0.061987422,-0.119140506,0.10310147,-0.070184946,-0.14743435,0.22100988,0.13612704,-0.040321484,0.063550636,0.099463485,0.13779156,0.05748862,0.075211234,-0.12904467,-0.09188968,0.07339608,-0.09484275,-0.11022115,0.10549457,0.07691079,0.109687366,-0.13368669,0.074125156,0.10905597,-0.15084578,-0.14825742,-0.13831957,0.08678997,-0.113722384,-0.09380698,0.14409238,-0.068159625,0.1415033,0.06818046,-0.14809887,-0.15093373,0.070070565,-0.12324931,-0.10428296,-0.08479801,0.13517563,-0.16676353,0.14436226,0.13672514,0.047578648,-0.09452871,-0.15652065,-0.07225555,0.1148514,-0.1358165,0.12408876,0.13056403,0.067798235,0.11542689,0.051528074,-0.09640873,0.019551732,0.13479054,-0.06892405,-0.13879688,-0.09627212,-0.1509294,-0.10288127,0.06099073,-0.09503694,0.0962219,-0.06510001,-0.06028359,-0.09213302,0.040308792,-0.05106813,-0.121253535,0.08861874,0.087998815,-0.1431079,0.085142285,-0.09800666,0.05502532,-0.09656566,0.082628,-0.12270713,0.060830303,0.14590922,-0.0595388,-0.13301486,-0.14587541,-0.09787115,0.028947689,0.09129588,0.07608351,0.070937626,-0.0888508,-0.12905769,0.16123646,0.12890753,0.07957128,-0.13943797,-0.07691136,0.08588447,-0.10678994,-0.04332385,0.059650153,-0.11796712,0.11651766,-0.14001173,0.14050156,-0.071112104,0.11482615,0.09154651,0.07428709,0.078502156,-0.115656815,-0.17616042,0.061581764,0.05478984,-0.07069883,-0.10584381,-0.08170465,0.10141848,0.12880443,0.111296654,0.13298033,-0.15136126,0.116185926,-0.13031189,0.11047384,0.14525934,0.055676773,0.04802369,0.06565234,-0.09771851,0.119101934,0.14504102,0.11369303,0.1235609,0.09229565,-0.051022906,0.14059795,0.11035141,0.11550607,-0.15059872,-0.06281512,0.1299159,0.13939068,-0.07738528,-0.10442906,-0.05867929,0.12015895,-0.061140947,-0.109864116,-0.1250644,0.061474733,-0.12064285,-0.078915276,-0.12888631,0.07415801,-0.09738773,-0.10115631,-0.07735516,0.11418418,0.14749695,-0.0205657,0.16987948,-0.16470516,-0.16658136,-0.060043857,0.1430429
-0.07422878,-0.12711094,0.044049326,0.06443729,0.09449666,0.12937438,-0.0961622,0.08178369,0.106549256,0.1047288,-0.18158868,0.11439401,0.08434261,0.107109144,0.13563333,0.13456328,0.13740437,0.121053725,0.17213796,0.12644075,-0.09103603,0.10843403,-0.09776044,0.14254428,0.073760174,0.06505421,0.13110647,0.14783446,0.050455574,0.15392055,-0.08585362,0.051771987,-0.07249751,-0.1379299,0.09811467,-0.06923259,0.09446031,0.07443616,0.066043235,-0.14361641,0.15407918,0.13239796,-0.06715821,0.11120642,-0.085273474,0.07039293,0.06144578,0.12717704,0.12733027,0.1230368,0.08509048,0.106637344,-0.08592605,-0.111285016,-0.062550284,0.126403,-0.120966084,-0.08857342,-0.09315475,0.07398986,-0.102342635,-0.10839233,0.06380546,-0.14117515,0.0676553,-0.11268058,-0.08096076,-0.14308558,-0.11099151,0.10400359,0.109886505,-0.119023204,-0.03302804,-0.10037809,-0.061397932,-0.12185533,-0.14703986,-0.05635274,0.06336078,-0.013978864,-0.12591952,0.07506713,-0.14425045,0.073424965,-0.11492951,0.062524684,-0.13964857,-0.108466744,0.17561214,0.043685842,-0.13922712,0.090444095,0.073709026,0.12462765,0.114235125,0.14989938,-0.18793458,-0.13080911,0.11362174,-0.14823127,-0.06785784,0.055863082,0.12265606,0.15616941,-0.0735596,0.06405488,0.101575285,-0.14279127,-0.15144339,-0.054874726,0.10523861,-0.071261175,-0.09157165,0.10876888,-0.061984573,0.081092946,0.09618301,-0.090066,-0.06842489,0.086601704,-0.07909926,-0.1394008,-0.08675806,0.1288701,-0.13387349,0.12798156,0.07799697,0.081430644,-0.11353209,-0.05909268,-0.103321284,0.1390471,-0.11684592,0.057360478,0.13532868,0.049556468,0.082328804,0.12769915,-0.06761939,0.04509554,0.15086716,-0.10940792,-0.10835713,-0.067544885,-0.15656504,-0.12472045,0.114214815,-0.08289533,0.12265795,-0.118039295,-0.052984286,-0.062470835,0.09093132,-0.12701449,-0.09462197,0.10655517,0.060643442,-0.13647158,0.13003553,-0.087206945,0.120646834,-0.08441658,0.120740235,-0.07021555,0.104714856,0.13123581,-0.05934761,-0.09946109,-0.097421214,-0.13326071,0.051671922,0.06855903,0.10460071,0.07722224,-0.07748155,-0.044420764,0.08288621,0.11132248,0.120638974,-0.13698055,-0.062475286,0.066776864,-0.12773114,-0.047043398,0.091904685,-0.13394779,0.075951114,-0.100123405,0.14036034,-0.09231063,0.091733,0.12236174,0.038771268,0.1134896,-0.11825895,-0.13039935,0.11312621,0.04449335,-0.071011126,-0.10331312,-0.09308311,0.10990103,0.092113465,0.12978499,0.087025836,-0.11271486,0.07219658,-0.12921931,0.13039798,0.113445394,0.03974849,0.13209783,0.075502016,-0.13725692,0.116152585,0.080681965,0.07471789,0.13808224,0.16338606,-0.15281983,0.10082606,0.14888322,0.069633566,-0.068333685,-0.14509948,0.07445222,0.11343775,-0.05070006,-0.1198154,-0.07825199,0.1419666,-0.06410995,-0.049144864,-0.16088831,0.13418996,-0.1274433,-0.0763687,-0.116045974,0.06275213,-0.0598561,-0.14183733,-0.122619525,0.08456105,0.12668526,0.020538736,0.16437782,-0.13321756,-0.10325543,-0.12315705,0.12339222
-0.13273469,-0.1942271,0.07653786,0.063818604,0.058201946,0.11962824,-0.07193606,0.10459205,0.089458466,0.10869225,-0.20557986,0.11198936,0.1345069,0.064596884,0.12132314,0.13463533,0.07803682,0.17063433,0.13163517,0.17135158,-0.068946004,0.12061592,-0.11455449,0.05166412,0.08925251,0.07567897,0.11210037,0.069015756,0.10087098,0.07169643,-0.07135943,0.11933929,-0.1142099,-0.10002314,0.05580103,-0.06448864,0.08544719,0.07387096,0.13863829,-0.09500108,0.1298422,0.2010944,-0.1516634,0.1283637,-0.12775072,0.09634348,0.06405841,0.0746811,0.065636925,0.1192197,0.118563145,0.05710048,-0.14262582,-0.14763856,-0.12506089,0.11614999,-0.059551295,-0.14758947,-0.10646587,0.06441975,-0.11112447,-0.14479351,0.05501725,-0.11949831,0.117359415,-0.1084357,-0.15468399,-0.16018806,-0.09718237,0.06115669,0.08514241,-0.060706917,-0.0772376,-0.10594449,-0.13111675,-0.14283481,-0.095317245,-0.041115895,0.093278475,-0.037970304,-0.047360886,0.11058933,-0.117033936,0.12955962,-0.06972645,0.13353202,-0.13510409,-0.14014205,0.2296086,0.12218134,-0.13954371,0.11898206,0.08625612,0.043580487,0.06682376,0.15533899,-0.1992759,-0.078751005,0.118961014,-0.0997706,-0.13779259,0.10575719,0.07202096,0.13940409,-0.12579934,0.14199407,0.06834129,-0.04750678,-0.115347214,-0.14273207,0.09487277,-0.10337631,-0.05985502,0.14884073,-0.10152845,0.067352764,0.08146729,-0.19156156,-0.10529849,0.13410783,-0.050029937,-0.08752331,-0.038411908,0.10590421,-0.09836662,0.11616031,0.117239945,0.12935115,-0.16728228,-0.09856718,-0.113729425,0.082566924,-0.12472646,0.06604675,0.10451698,0.10535369,0.13156837,0.11456071,-0.13536824,0.061025966,0.13507229,-0.081131,-0.08311375,-0.09375137,-0.10044536,-0.052130286,0.13456677,-0.12072212,0.12800987,-0.12113548,-0.093467884,-0.13675447,0.06752316,-0.05101141,-0.1578661,0.045556918,0.1249149,-0.13936217,0.090907566,-0.0655767,0.07273691,-0.09649542,0.07197791,-0.07207392,0.071051344,0.14660259,-0.0562114,-0.0765167,-0.099032454,-0.119652554,0.110374495,0.1238357,0.08463245,0.10656074,-0.13444106,-0.045333836,0.18058458,0.14158507,0.09142272,-0.088280015,-0.054524522,0.11499277,-0.09747294,-0.060704596,0.13355634,-0.11232227,0.11757074,-0.14100796,0.11568844,-0.08588158,0.07624995,0.044278104,0.07395765,0.120107636,-0.10330983,-0.14435752,0.06522998,0.053100757,-0.07849979,-0.10316661,-0.053587683,0.08025002,0.16718733,0.092993565,0.079495646,-0.13586977,0.041892987,-0.05784156,0.05235511,0.09108592,0.0053793294,0.080973,0.11534007,-0.10703778,0.104661815,0.14295653,0.07940083,0.09096713,0.13956404,-0.10698951,0.059443764,0.07523321,0.063902654,-0.11263925,-0.13752326,0.10462133,0.06911301,-0.076521195,-0.08281246,-0.07764109,0.1427175,-0.1457,-0.09639796,-0.0798952,0.0693385,-0.063351184,-0.12843476,-0.091662936,0.13105403,-0.05554719,-0.068168744,-0.12477644,0.06605052,0.11763059,0.05804273,0.106744,-0.15893729,-0.10382654,-0.08305182,0.15095738
-0.08170599,-0.18525667,0.043714378,0.11826265,0.06214206,0.06363844,-0.068719395,0.053862303,0.07187128,0.09454172,-0.14409815,0.14828444,0.07104601,0.10487567,0.12221272,0.0898705,0.14595467,0.115236245,0.15370564,0.09154042,-0.09916966,0.1268246,-0.08724011,0.050073348,0.14563896,0.06887061,0.084895104,0.14214215,0.07148345,0.12661222,-0.11969703,0.14127101,-0.11178506,-0.14346832,0.122016765,-0.082940795,0.12667918,0.07216911,0.0981243,-0.14374727,0.105133906,0.08064768,-0.117892876,0.08954321,-0.067856066,0.12561011,0.12235753,0.050906297,0.109440714,0.11674691,0.084344245,0.14012842,-0.10697568,-0.062170386,-0.12786427,0.060181927,-0.101321,-0.06837337,-0.07319882,0.1258403,-0.15245521,-0.12388192,0.11072523,-0.14347564,0.1133402,-0.13255915,-0.16319624,-0.1374454,-0.076456025,0.05238767,0.084092155,-0.09591164,0.0012927813,-0.13460857,-0.042080253,-0.07773942,-0.14022201,-0.05602074,0.11992027,-0.014701357,-0.12223462,0.1305653,-0.060969725,0.14390546,-0.10647114,0.09699887,-0.06979453,-0.12890923,0.16017985,0.10589466,-0.054574046,0.06913247,0.07132097,0.07155371,0.092703044,0.06684961,-0.14513253,-0.11331372,0.058796134,-0.10549674,-0.070600376,0.12662384,0.12959355,0.09234659,-0.08393264,0.0684489,0.092444584,-0.09582452,-0.07652205,-0.114676826,0.07199987,-0.109582655,-0.10127322,0.107214786,-0.122064725,0.056657556,0.07360165,-0.100669175,-0.081936404,0.07633804,-0.11037173,-0.08756592,0.00646598,0.11570573,-0.107912764,0.14429766,0.11540088,0.0867354,-0.11661209,-0.15634595,-0.06989274,0.08446573,-0.13126765,0.11358027,0.11668433,0.07228062,0.07689196,0.07785248,-0.0740997,0.04617689,0.12884502,-0.118085474,-0.08805484,-0.07161357,-0.10382487,-0.08854437,0.089608796,-0.060269374,0.11521643,-0.08319148,-0.082786754,-0.0704898,0.12666565,-0.12444613,-0.15324135,0.056518592,0.10416732,-0.10262567,0.13359609,-0.13904558,0.14108154,-0.120107174,0.043687813,-0.10592655,0.1355796,0.13722274,-0.13338296,-0.08482655,-0.17744784,-0.06147475,0.12391691,0.10954001,0.08309049,0.102390915,-0.14926402,-0.04834705,0.1871187,0.0853423,0.07407953,-0.10269476,-0.12870206,0.15917753,-0.0835554,-0.14428745,0.09838945,-0.060927257,0.13385919,-0.08473198,0.06685418,-0.12367882,0.08184582,0.06932377,0.025998373,0.096678756,-0.11081192,-0.12101979,0.0836825,0.06550276,-0.110598125,-0.14060704,-0.04330926,0.04639943,0.10346433,0.06891716,0.1426598,-0.09391227,0.11216678,-0.10796109,0.13843359,0.14318535,0.054234266,0.087982625,0.12698801,-0.09366636,0.07207933,0.1331366,0.08523271,0.101456955,0.1305738,-0.061151855,0.10238301,0.1187538,0.08223928,-0.073165596,-0.09213346,0.07646506,0.09145916,-0.09235695,-0.05505059,-0.08572197,0.10654652,-0.14890392,-0.08853877,-0.1591853,0.10841949,-0.032171298,-0.12951891,-0.095283896,0.06704454,-0.102594204,-0.07287864,-0.08909677,0.077226475,0.11099043,0.108333744,0.14844014,-0.11001475,-0.11122597,-0.097926594,0.073089756
-0.08240409,-0.13946807,0.13443229,0.059850313,0.0794186,0.074480765,-0.07730904,0.08284178,0.12008464,0.07453595,-0.14148422,0.056401063,0.11473133,0.07010473,0.15748557,0.1334245,0.061605014,0.16482589,0.08524395,0.1056666,-0.07519633,0.11135412,-0.1303372,0.049502365,0.069036685,0.123589024,0.108997695,0.12454835,0.054996293,0.06978214,-0.10021514,0.12896097,-0.087079346,-0.06411919,0.084607184,-0.1149585,0.047533173,0.1540132,0.08185521,-0.1273586,0.07439502,0.13682301,-0.14308771,0.04158473,-0.064454414,0.09029327,0.13524503,0.04813614,0.07914363,0.076796904,0.12825517,0.10137286,-0.114910506,-0.066189,-0.13434827,0.1369314,-0.081442036,-0.0611331,-0.068573125,0.13492922,-0.09808277,-0.083244324,0.06494696,-0.06743275,0.117515646,-0.13352351,-0.14660795,-0.18676001,-0.053057536,0.08951369,0.123478495,-0.056194544,-0.014088749,-0.12191146,-0.069133334,-0.0792272,-0.13704503,-0.08524743,0.13758464,-0.0291145,-0.12846081,0.12533897,-0.0436864,0.125089,-0.07158672,0.11614854,-0.08234455,-0.11645566,0.10322434,0.036240835,-0.09654722,0.12505384,0.07782606,0.12252662,0.11604134,0.12432009,-0.14546444,-0.13305843,0.10338553,-0.12318806,-0.094691634,0.0805292,0.10803177,0.08953093,-0.13032393,0.09979506,0.13752045,-0.094704375,-0.13826059,-0.06193024,0.12596971,-0.13705674,-0.115340725,0.12062783,-0.09853195,0.1027819,0.087280326,-0.09061726,-0.042030677,0.0654907,-0.0613429,-0.1269986,-0.052529085,0.113541424,-0.07475671,0.16143222,0.10580897,0.05325154,-0.15827964,-0.14909561,-0.106346965,0.15471315,-0.1083141,0.10458426,0.065346405,0.09310079,0.1014943,0.06470928,-0.16994417,0.0877968,0.08295648,-0.08752435,-0.0861882,-0.131412,-0.14005375,-0.13669267,0.13857082,-0.047881357,0.11227662,-0.08822675,-0.118251845,-0.0697527,0.09987528,-0.08435831,-0.11384785,0.06844553,0.057320368,-0.06127269,0.121170804,-0.12867826,0.13401987,-0.09049091,0.13390528,-0.11696183,0.13889872,0.07305804,-0.0679319,-0.055633184,-0.11041662,-0.08591512,0.0634895,0.1588776,0.049812477,0.09238229,-0.1168484,-0.11141893,0.11423387,0.05786987,0.101029664,-0.09998741,-0.12241549,0.057568803,-0.073570475,-0.09610182,0.045532282,-0.11216547,0.062265545,-0.08941279,0.09711442,-0.105265275,0.10555777,0.082615465,0.0605516,0.12319699,-0.10107962,-0.14365174,0.067358404,0.055650212,-0.080651075,-0.058837418,-0.05264128,0.059384987,0.17637703,0.121269286,0.097099036,-0.12631331,0.06347481,-0.058212806,0.07035451,0.12320871,0.026949147,0.08244694,0.15054631,-0.11390219,0.10604177,0.094796546,0.08835705,0.067929395,0.112382665,-0.12351352,0.11451906,0.122018516,0.107456736,-0.10130211,-0.08946835,0.09112717,0.06149871,-0.13310912,-0.10960224,-0.09639283,0.063382134,-0.048335664,-0.13902894,-0.081413984,0.06109934,-0.12359541,-0.12157275,-0.08877566,0.08454829,-0.104981445,-0.13355488,-0.139737,0.11884309,0.17692484,-0.024027864,0.156527,-0.08263042,-0.09386638,-0.13083544,0.112102196
-0.10400831,-0.12943918,0.09462656,0.112406455,0.09871703,0.061486803,-0.06664605,0.060272705,0.12269237,0.14579307,-0.14817436,0.10529773,0.132214,0.13446175,0.110474996,0.12579076,0.0739366,0.115957096,0.11493603,0.13319421,-0.08012671,0.079622485,-0.088141344,0.09488554,0.15047751,0.04160926,0.07775135,0.11095809,0.07964511,0.13183962,-0.14524613,0.09273705,-0.12625217,-0.16821474,0.08299822,-0.12764673,0.1256536,0.12762469,0.10136267,-0.104101494,0.132962,0.1360665,-0.108208835,0.07525077,-0.072641924,0.051662426,0.14448975,0.121823706,0.05995236,0.11310353,0.13136065,0.0678609,-0.09718138,-0.14261377,-0.10008019,0.12213464,-0.08520797,-0.056453634,-0.1002656,0.05097822,-0.12745722,-0.1487097,0.08523142,-0.09691899,0.085815854,-0.12559536,-0.1330642,-0.20516255,-0.066056766,0.12416358,0.07576241,-0.04399155,-0.06108976,-0.08028347,-0.10434872,-0.09565549,-0.18322963,-0.065472364,0.06197468,0.021474596,-0.06284686,0.16463313,-0.06966304,0.06347791,-0.12047539,0.10606385,-0.103040576,-0.14252917,0.16829681,0.10480511,-0.09304634,0.110886686,0.047948062,0.11446875,0.06961863,0.05213445,-0.114417456,-0.06141412,0.14020218,-0.11334875,-0.111630626,0.12535608,0.1147812,0.12254449,-0.13029015,0.08548272,0.095942035,-0.10650035,-0.121923044,-0.0813217,0.11627828,-0.08310212,-0.16400641,0.146988,-0.15164661,0.12873252,0.055354558,-0.16213295,-0.13975333,0.0942922,-0.07263347,-0.10677036,-0.031956498,0.124357276,-0.13980415,0.12682517,0.11728669,0.10674495,-0.17285094,-0.08311756,-0.071459755,0.0931738,-0.115932554,0.07186059,0.08906049,0.10291458,0.10413285,0.12573037,-0.102295816,-0.01493698,0.18816786,-0.13365841,-0.13138373,-0.0539654,-0.11180214,-0.09312742,0.14998592,-0.12511978,0.1114003,-0.08566402,-0.059370685,-0.11549631,0.047493786,-0.11510993,-0.058259577,0.13813691,0.057905134,-0.12574783,0.1462213,-0.07919967,0.09534983,-0.07906087,0.13645196,-0.14024386,0.12380464,0.1429761,-0.093602404,-0.10091423,-0.13894795,-0.06294972,0.060355194,0.08379061,0.146997,0.10279699,-0.14722031,-0.13800646,0.21418837,0.063128896,0.11314177,-0.13370383,-0.13037126,0.080895774,-0.15076461,-0.11043926,0.07556682,-0.119057,0.12107639,-0.09902589,0.11923335,-0.12931956,0.14146928,0.12085806,0.1451781,0.09869688,-0.1584305,-0.12903059,0.11588356,0.08723748,-0.06139625,-0.089326955,-0.09207905,0.054413922,0.1470411,0.11693412,0.08867294,-0.07854512,0.10010345,-0.08924687,0.050123375,0.1004746,0.05670288,0.085192025,0.15952596,-0.1506595,0.1346069,0.10477927,0.12313759,0.06771844,0.076844156,-0.053366855,0.09763669,0.12192671,0.10024468,-0.14972799,-0.14315408,0.11377538,0.098080315,-0.14768307,-0.08207512,-0.066314496,0.10053342,-0.13444838,-0.122139655,-0.13174938,0.092201136,-0.09535051,-0.117710896,-0.042826716,0.15304396,-0.0878308,-0.12977846,-0.12013877,0.0588432,0.08878922,0.032584853,0.089190006,-0.1672774,-0.1978408,-0.07257633,0.11926913
-0.10278114,-0.16013107,0.12541689,0.1470383,0.097282395,0.08995221,-0.08443397,0.063681066,0.07136156,0.09686171,-0.19552572,0.11218169,0.0822882,0.04422916,0.1597098,0.07522995,0.090037055,0.13446924,0.17757429,0.15575312,-0.12503335,0.052946433,-0.08989536,0.09638363,0.0659194,0.08144817,0.058531776,0.068400346,0.11806193,0.07106902,-0.074021466,0.08467323,-0.124413885,-0.075931445,0.035191424,-0.030913366,0.08614817,0.1390366,0.16553488,-0.11377377,0.05636579,0.14710158,-0.16138169,0.058391795,-0.05836378,0.04731271,0.10863696,0.047388032,0.0709672,0.1130061,0.102128215,0.12824853,-0.097801775,-0.08655185,-0.06425917,0.04880658,-0.07938871,-0.03834213,-0.052395858,0.11445619,-0.08132658,-0.08105373,0.11868898,-0.086579494,0.1297577,-0.111387245,-0.13477594,-0.124082714,-0.12240199,0.059706274,0.07735911,-0.078287534,-0.038325075,-0.10339471,-0.061325442,-0.095903285,-0.08364843,-0.08103012,0.113597475,0.04446856,-0.12903307,0.17886841,-0.09393328,0.11660602,-0.0580799,0.06555123,-0.06324521,-0.07378053,0.21674319,0.07909295,-0.11775983,0.11094697,0.09049519,0.07223317,0.13318972,0.05676008,-0.10159948,-0.11457265,0.11826341,-0.11422686,-0.123258665,0.047505565,0.08366601,0.12571375,-0.069964774,0.0579592,0.056169223,-0.15068868,-0.08166119,-0.082247704,0.079604074,-0.059171345,-0.12829177,0.12492815,-0.053897765,0.10409285,0.07889135,-0.16801496,-0.10997514,0.12330855,-0.10430266,-0.062177993,-0.023800712,0.11970848,-0.09387647,0.18416564,0.116614304,0.14017996,-0.11083796,-0.06864215,-0.113922,0.16870229,-0.046828143,0.11721171,0.052644443,0.120109625,0.10184175,0.06311223,-0.121916406,0.07274728,0.11842546,-0.1124877,-0.10068984,-0.12323225,-0.08495883,-0.08950619,0.11829922,-0.11902057,0.106600024,-0.04711788,-0.10116738,-0.113790825,0.05507604,-0.10269875,-0.096148275,0.07509282,0.04524939,-0.07774348,0.0948822,-0.09847579,0.091854475,-0.086299464,0.10426304,-0.05961493,0.09963365,0.07131711,-0.060315292,-0.08539066,-0.09428283,-0.050247304,0.094228484,0.05345065,0.12723653,0.116894335,-0.10936895,-0.052734263,0.15051205,0.11188701,0.07300549,-0.108079344,-0.12126513,0.07626348,-0.11013166,-0.0768397,0.051096004,-0.11110103,0.13885301,-0.056948286,0.11322828,-0.085384935,0.12555683,0.12314276,0.08332449,0.13103652,-0.09915713,-0.085524626,0.121646754,0.07681592,-0.063900225,-0.12741862,-0.06705364,0.12642275,0.13727713,0.05023412,0.14411531,-0.05065371,0.074868806,-0.08090698,0.046160407,0.06390218,0.029571218,0.08908949,0.048884466,-0.074434765,0.08830629,0.06939066,0.046822004,0.07960643,0.11702017,-0.07778279,0.02778865,0.06920576,0.06782584,-0.05898542,-0.09135021,0.123167835,0.06091832,-0.06947075,-0.12435436,-0.11379777,0.080193184,-0.071288206,-0.05353749,-0.123912506,0.05958517,-0.10035488,-0.08731692,-0.068637796,0.10542808,-0.045935337,-0.1292648,-0.08921817,0.109143846,0.08003167,0.08292273,0.09846977,-0.1311551,-0.17252252,-0.09308743,0.1159835
-0.16433606,-0.165652,0.122554906,0.051147744,0.12961426,0.09415925,-0.10493228,0.07698941,0.07444901,0.12998228,-0.19286676,0.074165896,0.12371069,0.0616734,0.1436521,0.08556216,0.055958353,0.119896315,0.12541077,0.16122489,-0.11818698,0.05339906,-0.041297626,0.06281942,0.15054503,0.091474555,0.13144885,0.13199894,0.064729616,0.111952454,-0.05740302,0.06507623,-0.08401125,-0.16598509,0.11340838,-0.107714355,0.1642877,0.16895704,0.09068599,-0.13161547,0.08804679,0.105105676,-0.13466337,0.13497819,-0.09335987,0.07519321,0.11264105,0.071098395,0.059598908,0.14613411,0.13248304,0.11153881,-0.1260107,-0.13789687,-0.057873573,0.13682169,-0.12354143,-0.12449135,-0.06917855,0.08866487,-0.05897126,-0.12542912,0.15134436,-0.158,0.08031373,-0.06069796,-0.09563814,-0.11185522,-0.1041358,0.12634346,0.08260709,-0.060912833,0.0033104834,-0.061252024,-0.04413041,-0.087090775,-0.12800178,-0.081945255,0.14865237,0.0011129988,-0.104792304,0.15404293,-0.044401,0.06001315,-0.12877692,0.06894233,-0.077484146,-0.081290714,0.1333269,0.046598755,-0.13362539,0.0957349,0.13718608,0.10296358,0.090335295,0.09630617,-0.09919363,-0.14265256,0.10692938,-0.076348566,-0.11013297,0.12895232,0.086602174,0.15278956,-0.085074745,0.06202728,0.109922245,-0.104081094,-0.16032687,-0.13219568,0.074307226,-0.12935281,-0.14685912,0.101462044,-0.12734413,0.0547632,0.085133106,-0.09522365,-0.07188368,0.10774308,-0.103719905,-0.09364529,-0.103875004,0.06520691,-0.14505863,0.13038352,0.12312551,0.059963524,-0.1852259,-0.1251539,-0.06510263,0.16218005,-0.1387303,0.12597777,0.13926682,0.11030778,0.1098476,0.06981845,-0.10425826,-0.020087812,0.14540571,-0.10733237,-0.058753584,-0.05232385,-0.108895876,-0.067823954,0.09494641,-0.07832007,0.1674193,-0.15256542,-0.101172894,-0.14735192,0.09474764,-0.0670211,-0.093272924,0.10780326,0.09042352,-0.104759604,0.07488554,-0.108495414,0.13231961,-0.067637965,0.13000573,-0.075101584,0.08019923,0.15713708,-0.100132786,-0.15381177,-0.07821311,-0.077275224,0.034763716,0.08888788,0.09978781,0.09755114,-0.07470115,-0.11790951,0.16022094,0.05176784,0.100072786,-0.14974976,-0.10854005,0.1267611,-0.10612985,-0.0586948,0.123498335,-0.04877045,0.10004873,-0.034208164,0.12335254,-0.12329397,0.05208427,0.10411586,0.053788655,0.082117654,-0.14585058,-0.12305639,0.055290468,0.046671323,-0.12135922,-0.08002657,-0.14385357,0.056138508,0.14975896,0.049078204,0.09102172,-0.07123186,0.074550256,-0.097112544,0.08174318,0.1047809,0.03663122,0.1070296,0.12592134,-0.116724044,0.089122385,0.13026941,0.0754448,0.06032496,0.16679442,-0.04855638,0.050802354,0.11358367,0.13119675,-0.13420917,-0.14005451,0.13420434,0.13189876,-0.1478283,-0.08876047,-0.15539193,0.09316756,-0.14799578,-0.09183362,-0.077451065,0.045968607,-0.03920492,-0.10297222,-0.13586873,0.086060375,-0.1056789,-0.12267687,-0.09696191,0.074451245,0.16864686,0.03319444,0.14092277,-0.101932935,-0.15231454,-0.079156436,0.11850253
-0.102247305,-0.16780849,0.10638748,0.06049549,0.10610382,0.090646654,-0.10030562,0.10682324,0.11131942,0.07734419,-0.23486039,0.13613023,0.08825512,0.04059084,0.076448224,0.10179392,0.13993509,0.13005906,0.15762976,0.14452091,-0.09650941,0.0516808,-0.06888813,0.07959408,0.10911989,0.05231783,0.06636333,0.080297776,0.028720725,0.130765,-0.06662684,0.08558724,-0.10095458,-0.0815804,0.13681385,-0.09553911,0.047686897,0.1435532,0.12946372,-0.09857277,0.07947307,0.15509787,-0.15130532,0.049656644,-0.040171,0.0859724,0.085943215,0.04260699,0.13284089,0.14002973,0.13057119,0.11601498,-0.100312576,-0.072703,-0.05182999,0.0574317,-0.10642486,-0.040561415,-0.1258048,0.089172274,-0.11302514,-0.14713219,0.0809015,-0.10376088,0.11017531,-0.101295516,-0.06636957,-0.12943715,-0.103750676,0.11961305,0.0840013,-0.09259065,-0.04576932,-0.14979689,-0.03972419,-0.103264734,-0.14173003,-0.07584517,0.05396919,0.03694417,-0.13448581,0.13265994,-0.05268639,0.0897171,-0.08001575,0.10280113,-0.13015479,-0.05293944,0.21496686,0.07548728,-0.083504684,0.117276356,0.08441867,0.080539376,0.071817085,0.08196119,-0.12653561,-0.078278765,0.13545673,-0.077942125,-0.081864,0.07086366,0.12963583,0.14509171,-0.12330954,0.08563518,0.041238077,-0.07700973,-0.12328019,-0.055446066,0.12139202,-0.09629361,-0.1546543,0.118370175,-0.041962825,0.116782054,0.12854907,-0.1606333,-0.12215275,0.100740455,-0.08974695,-0.08444616,-0.100709565,0.089061536,-0.06394613,0.07807834,0.09387701,0.10995133,-0.09889501,-0.06541004,-0.05744752,0.05684691,-0.1028818,0.10341732,0.09654387,0.13278988,0.059456293,0.12939836,-0.1294788,0.07408121,0.15951101,-0.14267278,-0.088814706,-0.087854505,-0.16906163,-0.13723548,0.12511003,-0.12045379,0.05679409,-0.08947778,-0.050307285,-0.123876885,0.053564265,-0.030623583,-0.0453432,0.12720095,0.049420517,-0.094079204,0.096820384,-0.054952126,0.12811424,-0.054035116,0.107227385,-0.06815482,0.11036375,0.137715,-0.047715288,-0.05821568,-0.15628146,-0.06806837,0.051995374,0.05727767,0.09177535,0.07579452,-0.10978371,-0.048665814,0.17134175,0.12113553,0.15976094,-0.13903658,-0.09979041,0.05934943,-0.11535207,-0.120207526,0.10377474,-0.07305826,0.054227337,-0.074465424,0.08813726,-0.11881147,0.046596605,0.09411284,0.0904972,0.12651908,-0.04937681,-0.15444252,0.074549355,0.11138747,-0.06982135,-0.13084473,-0.12921806,0.07343,0.07148912,0.04377456,0.14608857,-0.1268334,0.100420445,-0.06419441,0.121576816,0.1335119,0.020522906,0.12453623,0.14685607,-0.12032,0.13362595,0.110794194,0.053328846,0.11003275,0.1004797,-0.10139016,0.043067303,0.11179571,0.066998824,-0.078077324,-0.13933629,0.046177298,0.11087793,-0.12498364,-0.07823122,-0.08961665,0.045906432,-0.04213661,-0.09246821,-0.08492204,0.11803876,-0.08805524,-0.10502618,-0.08231551,0.084523484,-0.052650932,-0.10630733,-0.12370937,0.043521266,0.12918395,0.0038433692,0.0623556,-0.08473311,-0.16421036,-0.110398844,0.15426953
-0.13557288,-0.17219009,0.112015635,0.07838474,0.08057311,0.04248612,-0.048716884,0.09007326,0.060348943,0.1530565,-0.18429677,0.085690096,0.115024954,0.109378844,0.10894593,0.054933548,0.10086244,0.13122997,0.1525744,0.10510499,-0.11072547,0.12392217,-0.078053184,0.062205255,0.12593186,0.10686735,0.07007041,0.09283176,0.07954836,0.096362546,-0.05725361,0.099937834,-0.074398465,-0.120672025,0.07105234,-0.02730476,0.11511375,0.06496901,0.14152375,-0.11429093,0.13564771,0.08530739,-0.1416427,0.068175845,-0.14660107,0.10304183,0.12339282,0.06998927,0.089143395,0.10887869,0.13503902,0.091702335,-0.13767982,-0.09934034,-0.110978894,0.11837819,-0.10359418,-0.07199629,-0.13428925,0.11499715,-0.124236524,-0.089347355,0.092811875,-0.07176387,0.0438151,-0.12737586,-0.09495814,-0.17241837,-0.06446951,0.07986388,0.031768844,-0.032214154,0.025792072,-0.12506476,-0.0723609,-0.09950471,-0.11141899,-0.115253694,0.04701448,-0.02099343,-0.07287348,0.18783239,-0.034543917,0.098295875,-0.076317474,0.077275366,-0.046399426,-0.07356073,0.15181229,0.10724122,-0.06506091,0.14350915,0.07886984,0.06084282,0.10751379,0.1348035,-0.09259423,-0.062012,0.09596352,-0.0675415,-0.095964625,0.08767419,0.053217083,0.11132267,-0.0665426,0.05367734,0.11771706,-0.12375245,-0.07333317,-0.1295939,0.1010727,-0.110963784,-0.120609425,0.10902121,-0.04657026,0.109186836,0.072538644,-0.12919849,-0.12764233,0.08102417,-0.104859434,-0.12569019,-0.037619986,0.08242019,-0.15515846,0.08834189,0.0588984,0.11317745,-0.14911088,-0.10663414,-0.040662255,0.09827639,-0.12535146,0.11955578,0.09108241,0.058681473,0.077648036,0.12754259,-0.107957095,-0.019558595,0.13855594,-0.13465632,-0.11794113,-0.09739161,-0.06888001,-0.08998107,0.13420841,-0.12190512,0.11546545,-0.120804965,-0.14516114,-0.12844817,0.05988301,-0.03127238,-0.14646004,0.115026966,0.06563878,-0.12684314,0.08844791,-0.062990986,0.1178375,-0.099809974,0.045019366,-0.052418534,0.051826634,0.08804709,-0.07839055,-0.063299954,-0.10956572,-0.05064765,0.043278035,0.061000712,0.070795566,0.07053109,-0.08097039,-0.062043518,0.1412106,0.06328041,0.08466189,-0.08232126,-0.10703592,0.12487155,-0.12215964,-0.082306676,0.07533398,-0.047076087,0.079900205,-0.116711065,0.06276036,-0.09994465,0.10660137,0.12320545,0.01898415,0.10544236,-0.10128838,-0.11272122,0.08371644,0.11646958,-0.1463887,-0.041086208,-0.081510484,0.06714819,0.09079478,0.0772494,0.12643352,-0.08363388,0.06701139,-0.12523909,0.10253355,0.10107518,0.025834601,0.0891441,0.0953162,-0.10901654,0.06832329,0.11916723,0.037985127,0.05404235,0.096154466,-0.0972522,0.12647843,0.14434463,0.11699628,-0.05725106,-0.048214033,0.061674964,0.10131902,-0.110878274,-0.061912958,-0.05516383,0.13095582,-0.060563717,-0.054616902,-0.11690436,0.057835832,-0.0651736,-0.0727514,-0.07467187,0.107343316,-0.12184767,-0.088905945,-0.10299896,0.10962801,0.13089101,0.06935408,0.09698928,-0.089061745,-0.15944973,-0.07852781,0.07117593
-0.11375505,-0.1678112,0.09888848,0.12098324,0.09322841,0.061882857,-0.08740218,0.07633261,0.08386916,0.09468242,-0.1380102,0.11818188,0.117952004,0.13302477,0.09712178,0.06632182,0.08065118,0.15484592,0.07302457,0.07321415,-0.119771264,0.1480642,-0.097271495,0.111998454,0.067525655,0.10299402,0.1071171,0.101571225,0.09531435,0.11857375,-0.13749589,0.12472845,-0.055338383,-0.14199392,0.10996278,-0.05471104,0.07980734,0.19029863,0.13923687,-0.07421292,0.14555702,0.14343736,-0.088185415,0.07547375,-0.088897966,0.07730415,0.11312021,0.04827949,0.106534645,0.0942339,0.07853091,0.058771264,-0.108104855,-0.06821321,-0.12173624,0.12757762,-0.11486489,-0.09912598,-0.06358899,0.11440025,-0.081450276,-0.092941955,0.11699235,-0.089756094,0.09476657,-0.0444416,-0.15245894,-0.1355078,-0.025107054,0.036814556,0.1148226,-0.10526892,0.024258636,-0.14133416,-0.07768828,-0.13883299,-0.08748235,-0.09688521,0.1041023,0.0072893393,-0.12179902,0.16847314,-0.10428229,0.11922327,-0.06687014,0.09140482,-0.07874675,-0.13120246,0.15606928,0.09628805,-0.048569486,0.13208088,0.14025964,0.07495265,0.11759508,0.1167088,-0.16896626,-0.14801568,0.13817832,-0.10315929,-0.055804126,0.051433254,0.14244226,0.095235385,-0.108154364,0.120516494,0.11848151,-0.11616114,-0.10647349,-0.069830924,0.060591098,-0.115994394,-0.07948527,0.07155471,-0.12027804,0.06354774,0.0845476,-0.0902876,-0.072491854,0.06135889,-0.04810982,-0.09964442,-0.0071392544,0.13401815,-0.12739162,0.15197578,0.063787825,0.094589636,-0.107958235,-0.07389689,-0.11802772,0.13625987,-0.11783319,0.06444515,0.11314602,0.11957825,0.087346,0.113322005,-0.111389905,0.011256272,0.15322286,-0.13780345,-0.111813776,-0.09831078,-0.13001521,-0.09021986,0.092304304,-0.065860644,0.08785111,-0.13636166,-0.054803044,-0.09868193,0.047703505,-0.12254515,-0.10850577,0.07195226,0.0824194,-0.06534885,0.11259896,-0.067545466,0.12343696,-0.101938345,0.09898287,-0.05748479,0.069745064,0.074437246,-0.07713377,-0.07734303,-0.14569175,-0.13120478,0.03878385,0.15651959,0.050599463,0.0572977,-0.062078904,-0.08472478,0.19457164,0.108277775,0.0622294,-0.13115573,-0.043383047,0.12268559,-0.13560893,-0.13298087,0.082933486,-0.03584566,0.089959845,-0.032795895,0.04940881,-0.055429243,0.047574397,0.09887863,0.110478565,0.11660682,-0.13801888,-0.081012756,0.06673512,0.0765338,-0.056813058,-0.07387983,-0.0884157,0.08796757,0.07905178,0.07040551,0.12770465,-0.080180496,0.0599267,-0.11489325,0.08040435,0.11146392,0.07993641,0.11104325,0.06005477,-0.03565794,0.045865055,0.03833086,0.07504316,0.034772567,0.08921836,-0.069715835,0.09864345,0.05971699,0.09143945,-0.05816061,-0.06819131,0.11034844,0.0847922,-0.14519638,-0.0796775,-0.07636424,0.107314795,-0.13652441,-0.07156894,-0.15489776,0.0515501,-0.07864112,-0.10601933,-0.114661776,0.11305346,-0.07166344,-0.1314068,-0.13411827,0.064353086,0.15492691,0.077998206,0.15533054,-0.12145189,-0.12770459,-0.1108486,0.11752583
-0.13538201,-0.09702357,0.06985124,0.1294423,0.09787068,0.13909432,-0.07743806,0.08164042,0.13390018,0.14841668,-0.12439382,0.11235517,0.07730785,0.095853634,0.13836601,0.15433249,0.13898315,0.14048596,0.12184802,0.09642971,-0.11322998,0.08135506,-0.084555246,0.11991891,0.057890512,0.1296635,0.06490881,0.062124826,0.084506944,0.116851814,-0.12550855,0.09138846,-0.100271314,-0.099083744,0.0635377,-0.11604986,0.09286021,0.15873933,0.069833316,-0.077537715,0.13898194,0.12615627,-0.1200258,0.057236135,-0.061984107,0.10181038,0.1521316,0.1026803,0.08272655,0.14414905,0.111216836,0.11221428,-0.07426243,-0.1296791,-0.12754852,0.07873119,-0.12930898,-0.08746224,-0.1103603,0.079188794,-0.092969105,-0.15441921,0.09204147,-0.0903102,0.12299368,-0.14828901,-0.085243426,-0.12508036,-0.09504783,0.091754556,0.105161905,-0.038077474,-0.024258759,-0.104193605,-0.08351805,-0.11224013,-0.08159472,-0.106002845,0.13212168,-0.043832425,-0.085858956,0.14229488,-0.10702352,0.13944688,-0.096389644,0.12774958,-0.06699591,-0.099185616,0.16464575,0.13166122,-0.08671198,0.08369804,0.1283592,0.110166475,0.05670874,0.053669687,-0.1231888,-0.060039893,0.08714059,-0.049027536,-0.13834184,0.07211252,0.09051626,0.10646008,-0.14075205,0.09292128,0.09256715,-0.050978787,-0.14654057,-0.10407173,0.044663846,-0.09672635,-0.06459238,0.07080581,-0.038502146,0.11354717,0.08942796,-0.11844825,-0.13070269,0.10596214,-0.04966005,-0.061414,-0.008168667,0.112583786,-0.084673725,0.16554108,0.10372638,0.089515805,-0.18351108,-0.119786434,-0.11489833,0.1647184,-0.10251477,0.1152294,0.11704194,0.11913047,0.09059894,0.09238157,-0.11989081,0.052786548,0.092755616,-0.07615255,-0.11856993,-0.055736557,-0.1286224,-0.054676212,0.13774636,-0.09343141,0.15174149,-0.100118846,-0.04669455,-0.14514798,0.101737715,-0.07232996,-0.08944161,0.062337406,0.07244458,-0.07301037,0.1289116,-0.09893214,0.08539398,-0.08374389,0.06405381,-0.059656497,0.087492004,0.13464308,-0.09858704,-0.098479755,-0.07350142,-0.052169193,0.09483434,0.09229707,0.06763103,0.113492034,-0.12160354,-0.0751959,0.14794177,0.050722312,0.13142632,-0.112509914,-0.039868288,0.15323202,-0.13198131,-0.10126887,0.08314422,-0.1203341,0.11788248,-0.096981384,0.14587794,-0.13367546,0.11707435,0.0577001,0.06492476,0.08999592,-0.14615089,-0.1015421,0.1313917,0.10098134,-0.07473643,-0.038850486,-0.08475503,0.08900229,0.10001664,0.11149304,0.14768453,-0.13375072,0.07568961,-0.07243274,0.101152875,0.06968409,-0.0031244704,0.043428194,0.09977124,-0.038487624,0.0709827,0.092284955,0.06387685,0.0532202,0.13314621,-0.10256813,0.08060031,0.1302928,0.124437414,-0.10612553,-0.11594069,0.1256286,0.106655136,-0.12489225,-0.13101754,-0.13170724,0.06727507,-0.12364604,-0.11035567,-0.108071886,0.044598565,-0.08386573,-0.044934727,-0.06854974,0.05673629,-0.12367912,-0.070331,-0.13156307,0.061561193,0.09092382,0.030218355,0.16004732,-0.1692293,-0.107491426,-0.08903315,0.14857163
