0,1,2,3,4,5,6,7,8,9,10,11,12,13,14,15,16,17,18,19,20,21,22,23,24,25,26,27,28,29,30,31,32,33,34,35,36,37,38,39,40,41,42,43,44,45,46,47,48,49,50,51,52,53,54,55,56,57,58,59,60,61,62,63,64,65,66,67,68,69,70,71,72,73,74,75,76,77,78,79,80,81,82,83,84,85,86,87,88,89,90,91,92,93,94,95,96,97,98,99,100,101,102,103,104,105,106,107,108,109,110,111,112,113,114,115,116,117,118,119,120,121,122,123,124,125,126,127,128,129,130,131,132,133,134,135,136,137,138,139,140,141,142,143,144,145,146,147,148,149,150,151,152,153,154,155,156,157,158,159,160,161,162,163,164,165,166,167,168,169,170,171,172,173,174,175,176,177,178,179,180,181,182,183,184,185,186,187,188,189,190,191,192,193,194,195,196,197,198,199,200,201,202,203,204,205,206,207,208,209,210,211,212,213,214,215,216,217,218,219,220,221,222,223,224,225,226,227,228,229,230,231,232,233,234,235,236,237,238,239,240,241,242,243,244,245,246,247,248,249
0.020770025,0.13933383,-0.08739714,-0.10236527,-0.118096136,-0.073033355,0.06945683,-0.10875275,-0.09545476,-0.09588385,0.14244294,-0.08280001,-0.10113854,-0.028864332,-0.11689415,-0.094109766,-0.09976715,-0.053853355,-0.13344242,-0.06090534,0.062038917,-0.027105099,0.08121965,-0.08599472,-0.06870431,-0.09881342,-0.08334826,-0.054191876,-0.03065989,-0.10066842,0.041944977,-0.13115351,0.04586073,0.06461985,-0.11179659,0.09815711,-0.04021231,-0.08579986,-0.113059185,0.030054457,-0.10715755,-0.04594268,0.1143451,-0.059347063,0.10577012,-0.08806208,-0.12590434,-0.047811236,-0.06563896,-0.07173927,-0.073770285,-0.12744354,0.08956003,0.08066962,0.036721382,-0.10246872,0.09997717,0.07380373,0.11746122,-0.10195887,0.104273975,0.05826843,-0.052054852,0.09607255,-0.032094337,0.07203584,0.1158528,0.13283287,0.099649236,-0.023806475,-0.03779416,0.055874296,-0.00068749115,0.046761345,0.074934974,0.09882788,0.078648016,0.10168792,-0.11056193,0.065723225,0.026717946,-0.092779905,0.10393995,-0.025005793,0.07088937,-0.057212032,0.036886323,0.08913374,-0.17161,-0.06003526,0.03430448,-0.104525924,-0.11465462,-0.029353913,-0.051007397,-0.09778262,0.055239048,0.07933926,-0.05463353,0.05646115,0.072364055,-0.02781253,-0.041528292,-0.04584957,0.10280468,-0.08016323,-0.037593607,0.082338504,0.10704672,0.07036016,-0.09940794,0.040992662,0.07857398,-0.040015336,0.09698335,-0.053057842,-0.0659454,0.10974829,0.10197629,-0.03894735,0.05409368,0.039047416,0.08763986,-0.09024329,0.09926811,-0.039088503,-0.071392,-0.04878314,0.106310666,0.031150345,0.032675855,-0.06928529,0.047642503,-0.10145264,-0.12637934,-0.08554287,-0.10474539,-0.09195009,0.030923247,0.016486093,-0.15146646,0.08674088,0.074696735,0.02699697,0.12262183,0.039648645,-0.06775011,0.046196446,-0.105275095,0.05943921,0.103067085,0.09914656,-0.10657761,0.08281173,0.123621434,-0.09005839,-0.021775417,0.0909353,-0.049005773,0.066640325,-0.104341626,0.07062349,-0.06287784,0.049244657,-0.11405471,-0.03997675,0.055360205,0.084541865,0.05019139,0.110109754,-0.053179514,-0.09439413,-0.09650303,-0.097985916,0.031644586,0.05895408,-0.13355309,-0.04848632,-0.11107868,0.09901451,0.07927824,-0.06372176,0.06601003,0.08200199,-0.11073167,0.060717717,-0.10100191,0.10595365,-0.06628363,0.110348955,-0.11391299,-0.08959196,-0.11310435,-0.090050496,0.099629894,0.11944699,-0.063960075,-0.119184,0.034745052,0.09242542,0.026213903,-0.10653286,-0.095978886,-0.03347449,-0.06231911,0.04028147,-0.10870185,0.103845924,-0.08003899,-0.11054188,-0.04860111,-0.10644786,-0.081186995,0.113192715,-0.058426194,-0.11816933,-0.1026248,-0.0383426,-0.04864682,0.029519103,-0.08263507,-0.042169932,-0.07004472,0.061328582,0.043796264,-0.10628195,-0.097410984,0.09887335,0.08481838,0.10468596,-0.027765373,0.03514195,0.057901736,0.076460116,-0.1101216,0.045536503,0.10010308,0.063091636,-0.11311934,0.04739204,0.032977886,0.07380025,-0.021432633,-0.109625965,-0.06509074,-0.0938466,0.07555368,0.081490085,0.07978898,-0.042741943
0.10365218,0.14337914,-0.08958392,-0.08218339,-0.104855314,-0.11476652,0.031413987,-0.06602257,-0.0802095,-0.13225304,0.09372033,-0.09072943,-0.051935174,0.0005700067,-0.08697659,-0.112287015,-0.055847127,-0.07388874,-0.08309053,-0.096799925,0.094686314,-0.063259624,0.09814117,-0.050598487,-0.091320656,-0.11374286,-0.040171657,-0.047236156,-0.07267466,-0.12876765,0.096906945,-0.06359388,0.10713654,0.047133815,-0.09553319,0.019477751,-0.11803891,-0.1280991,-0.11000328,0.08737191,-0.12076118,-0.10865174,0.06186758,-0.1023269,0.1111745,-0.05452638,-0.052403003,-0.12775719,-0.06583072,-0.12607437,-0.09064978,-0.03216092,0.09230583,0.10024052,0.04149932,-0.063556395,0.10407344,0.09505002,0.046747904,-0.07646243,0.13843583,0.13209683,-0.041911952,0.0675167,-0.05049843,0.051092494,0.14580484,0.1373257,0.10117905,-0.08915601,-0.09891794,0.027533391,-0.0034051917,0.09715759,0.017931895,0.11750158,0.11605768,0.030177416,-0.10984855,0.01617409,0.042345077,-0.101431265,0.03412819,-0.05618484,0.05158938,-0.09613127,0.06675798,0.088553056,-0.23304066,-0.10349978,0.05278166,-0.108053125,-0.03151233,-0.038713664,-0.081946775,-0.068436354,0.14754431,0.12986965,-0.10011421,0.08686479,0.11965477,-0.059767406,-0.055287644,-0.06394543,0.04276042,-0.11483628,-0.042446002,0.060778044,0.03840601,0.10276838,-0.06430729,0.10194505,0.13547367,-0.13683575,0.046347547,-0.09041669,-0.096122846,0.07699982,0.05193165,-0.12286722,0.09244902,0.051656064,0.025598058,-0.04400013,0.04204348,-0.1342069,-0.12041115,-0.05941706,0.099364035,0.06559933,0.095497824,-0.094879605,0.089153975,-0.07857943,-0.112495184,-0.0514762,-0.06934967,-0.042292748,0.06274258,0.013617981,-0.068769544,0.05108741,0.04894686,0.07890766,0.09433224,0.09913279,-0.0756289,0.071522124,-0.081211366,0.035531145,0.13530053,0.08833564,-0.0495758,0.087173216,0.13305111,-0.11513213,0.0071390006,0.046586353,-0.06288281,0.056717455,-0.054349028,0.11781736,-0.04807495,0.03320873,-0.033173468,-0.13299993,0.10301234,0.030359099,0.113415435,0.05512902,0.0040446245,-0.09115138,-0.082309075,-0.098277114,0.057695992,0.048609693,-0.14372568,-0.028612006,-0.13028702,0.077894434,0.11882247,-0.12893914,0.12891072,0.11297623,-0.060745288,0.10485301,-0.055730112,0.06689967,-0.09234134,0.11374663,-0.03785325,-0.03925655,-0.03027136,-0.09589289,0.113413826,0.052429665,-0.039057005,-0.050666798,0.076539785,0.092103496,0.059934814,-0.049994107,-0.056856353,-0.03667722,-0.10242829,0.061727345,-0.051146768,0.034391716,-0.043353718,-0.10783522,-0.07139694,-0.06681755,-0.11607003,0.023625934,-0.04983238,-0.03471676,-0.07540835,-0.044162657,-0.08117722,0.045142364,-0.038662214,-0.03768375,-0.09228231,0.09151205,0.11848831,-0.03835186,-0.10317952,0.06542344,0.11019658,0.107973486,-0.049710494,0.1005003,0.067491546,0.09015506,-0.06570266,0.037483927,0.06759639,0.021203157,-0.096031845,0.08825611,0.107920736,0.11901448,-0.079377264,-0.095811255,-0.053869516,-0.093163826,0.11316731,0.09896535,0.10261549,-0.11562987
0.08035293,0.11412229,-0.045856114,-0.07852671,-0.057463847,-0.04615526,0.098037176,-0.089184925,-0.063386686,-0.028427828,0.02968891,-0.02752319,-0.03229008,-0.026771126,-0.051434714,-0.12355865,-0.062491722,-0.08989034,-0.029825581,-0.03101323,0.05124189,-0.11379805,0.02733569,-0.05388933,-0.12691887,-0.065800674,-0.09264177,-0.11715623,-0.019489363,-0.07129121,0.030446012,-0.04519562,0.08993508,0.04403346,-0.113273084,0.0573599,-0.108205035,-0.053141654,-0.018248362,0.073999956,-0.13830407,-0.1390578,0.10814292,-0.088936664,0.028005362,-0.030695228,-0.07562404,-0.06805933,-0.030949242,-0.14171033,-0.06717054,-0.11181294,0.07035038,0.08361438,0.07725382,-0.10827455,0.05185214,0.039473556,0.055438586,-0.033042353,0.051692523,0.1294043,-0.094319806,-0.012372069,-0.0241723,0.099125825,0.07057647,0.12542224,0.03742033,-0.04622157,-0.03549208,0.038292322,-0.019650867,0.032792382,0.11212694,0.092032894,0.12794365,0.11764367,-0.024012387,0.040228944,0.059066325,-0.1298579,0.07045128,-0.09439492,0.101828456,-0.079361275,0.109591596,0.09717292,-0.18082154,-0.09495286,0.039289005,-0.082987115,-0.034503408,-0.0610425,-0.07268378,-0.10799831,0.053225406,0.05905504,-0.09954765,0.099502906,0.07601844,-0.08881393,-0.052673046,-0.059576806,0.11164591,-0.06820607,-0.026498143,0.098465905,0.05397143,0.11212245,-0.062122405,0.09563866,0.13551264,-0.045847915,0.1085531,-0.0903043,-0.08093439,0.11438693,0.09569608,-0.06553194,0.01991445,0.10273662,-0.042261425,-0.05414731,0.07759519,-0.08958362,-0.11045449,-0.04666619,0.12824127,0.05960603,0.117482,-0.033624567,0.06617492,-0.11437208,-0.04607455,-0.10467699,-0.10720442,-0.02001367,0.055215232,-0.04748169,-0.12206344,0.058078866,0.11737693,0.11953288,0.13425885,0.08852187,-0.064530514,0.109680705,-0.09994859,0.05662279,0.12166222,0.09135307,-0.039860774,0.08740565,0.046213858,-0.08989126,-0.06526578,0.089693025,-0.07243062,0.043887813,-0.09985947,0.042154357,-0.07476536,0.1049377,-0.09830201,-0.12579653,0.067601345,0.07001832,0.07420683,0.07862698,-0.029156407,-0.10730219,-0.031098267,-0.11397872,0.09629293,0.04247181,-0.11647055,-0.03695626,-0.050778158,0.11885714,0.043249518,-0.12269887,0.07553218,0.030440228,-0.11357183,0.08147375,-0.09499369,0.06790715,-0.06428901,0.0689887,-0.057517756,-0.032607887,-0.030203648,-0.06821129,0.0785618,0.09276628,-0.11455868,-0.11636921,0.027159471,0.011476595,0.030812467,-0.08636838,-0.03999094,-0.10218068,-0.11035584,0.08206871,-0.09487743,0.059082538,-0.06690567,-0.027996482,0.009557144,-0.051502988,-0.04644428,0.062438734,-0.08350989,-0.08251485,-0.08333146,-0.115078844,-0.09446164,0.107749745,-0.113466874,-0.05354847,-0.018037789,0.10152399,0.06875883,-0.114284284,-0.033632055,0.08114319,0.07072188,0.08975022,-0.07931759,0.02727218,0.114470206,0.0905818,-0.10772922,0.07311224,0.064029,0.042246923,-0.13064459,0.08344312,0.12088046,0.08450384,-0.080701254,-0.12440825,-0.013987775,-0.08933903,0.08345714,0.12382887,0.08669182,-0.13395129
0.24337374,0.36998796,-0.21468915,-0.23584823,-0.291099,-0.25214547,0.21269546,-0.23609094,-0.20784593,-0.27262506,0.38797614,-0.25542232,-0.25572684,-0.21510142,-0.4001804,-0.26178387,-0.22847371,-0.34359682,-0.3283322,-0.2689101,0.25414354,-0.2107186,0.23041989,-0.22762235,-0.26936758,-0.23805074,-0.22678977,-0.21204375,-0.21285833,-0.21531343,0.22856665,-0.23386133,0.18358356,0.28672212,-0.21827538,0.16057858,-0.23510395,-0.27102652,-0.27011114,0.2668858,-0.24904197,-0.31085017,0.29502553,-0.20633043,0.21371134,-0.215792,-0.2510755,-0.21178387,-0.26790482,-0.30753478,-0.27356583,-0.247323,0.2572987,0.23457558,0.25621274,-0.21021105,0.19968505,0.23928073,0.21922535,-0.20424952,0.26840025,0.28581145,-0.22981344,0.27683443,-0.23572187,0.22313288,0.27874398,0.36254874,0.22282058,-0.23945588,-0.2085549,0.21709219,0.07183466,0.26441848,0.2160306,0.23625553,0.28985193,0.22254592,-0.24493933,0.028686637,0.23837064,-0.3366394,0.22853245,-0.22792272,0.21776763,-0.26471487,0.22296341,0.27753094,-0.55860484,-0.25219426,0.22654696,-0.30381,-0.2306775,-0.2425847,-0.2651348,-0.262682,0.37742928,0.24991545,-0.2676938,0.24056338,0.23699524,-0.21729791,-0.2061406,-0.31399333,0.27087516,-0.22128405,-0.22850621,0.2599758,0.29261348,0.2519588,-0.2365475,0.25600642,0.23776987,-0.28764805,0.21708216,-0.25811076,-0.21348394,0.32779166,0.2404548,-0.25400558,0.2278017,0.270303,0.101105176,-0.25202906,0.21433108,-0.28663218,-0.2451236,-0.23594388,0.32141015,0.24264814,0.25917324,-0.2916905,0.24524918,-0.21802083,-0.2304264,-0.244116,-0.22896038,-0.23262778,0.28824836,-0.10260815,-0.33917722,0.27349585,0.2150646,0.2601316,0.2977754,0.24200723,-0.25413695,0.20885023,-0.28091723,0.23204632,0.22810283,0.24413972,-0.24822818,0.19488768,0.228803,-0.24782585,-0.16492045,0.19379845,-0.24803,0.19828291,-0.21993245,0.23751482,-0.211286,0.26573667,-0.22703882,-0.23790686,0.21601422,0.2501035,0.2757499,0.2648559,-0.19936828,-0.21337357,-0.22931576,-0.23201792,0.2787671,0.24707486,-0.35491037,-0.23071907,-0.26774573,0.2599306,0.2364918,-0.21523258,0.266608,0.21103002,-0.24667674,0.22338419,-0.22871506,0.21516243,-0.20066212,0.25692314,-0.24900396,-0.24145187,-0.16667406,-0.23625599,0.26217544,0.2994242,-0.24456123,-0.2417029,0.25742745,0.1745836,0.2075153,-0.21575312,-0.28848365,-0.2544018,-0.31131458,0.2561348,-0.20888254,0.24266906,-0.2017987,-0.27405104,-0.06602323,-0.21828276,-0.26794124,0.20889881,-0.22268316,-0.24534802,-0.26666376,-0.2482941,-0.30151024,0.234707,-0.19054893,-0.221516,-0.20235033,0.22083677,0.26174024,-0.20780814,-0.18523714,0.22702992,0.21914703,0.23129882,-0.2474085,0.2208088,0.25284928,0.28629822,-0.19798157,0.23101854,0.2331928,0.21165064,-0.26011145,0.22354111,0.22374676,0.26669496,-0.21502441,-0.32229748,-0.076276354,-0.29873544,0.2527213,0.3691083,0.20149639,-0.27848676
0.062254023,0.094076544,-0.034643672,-0.014381299,-0.035430558,-0.033083253,0.11942853,-0.09700023,-0.10454387,-0.07183461,0.08918315,-0.08972704,-0.08935417,-0.029863464,-0.06342331,-0.06586005,-0.05898763,-0.11945465,-0.15069826,-0.1288763,0.053896204,-0.0875537,0.036894012,-0.09895155,-0.047989506,-0.100058705,-0.09872179,-0.09719544,-0.081720516,-0.12457339,0.07426442,-0.095131494,0.08096591,0.09895419,-0.08475338,0.11332692,-0.05230076,-0.12740488,-0.096546285,0.045460496,-0.06828092,-0.06439414,0.09496438,-0.053304322,0.07482414,-0.09877674,-0.07663764,-0.11497263,-0.054471005,-0.07296882,-0.10589936,-0.06813765,0.121353455,0.123855725,0.104089014,-0.08422618,0.08042001,0.06631393,0.06382525,-0.04380471,0.032204084,0.09357803,-0.050696544,0.112919055,-0.059355628,0.0575838,0.059420776,0.14303842,0.045909025,-0.026104923,-0.10145496,0.081066154,0.06483481,0.036082726,0.047157504,0.049525376,0.11969171,0.09915272,-0.069804884,0.00045499954,0.09198116,-0.1403922,0.038001355,-0.1009365,0.097064316,-0.09612729,0.061077792,0.113657445,-0.1599357,-0.042818867,0.103608824,-0.045943998,-0.062071815,-0.06936447,-0.09561557,-0.049493957,0.091475606,0.11599053,-0.023538856,0.09935562,0.09844355,-0.0684959,-0.037519343,-0.11278614,0.11087937,-0.07102637,-0.104949825,0.058094412,0.13421468,0.110931,-0.09595447,0.11357942,0.06339944,-0.050434925,0.072709285,-0.11021413,-0.012542449,0.0944107,0.12527688,-0.12618028,0.08285259,0.05993516,0.03763956,-0.05017444,0.122369245,-0.114225164,-0.032339927,-0.05495543,0.15045482,0.09341946,0.06482797,-0.072549544,0.0280544,-0.09056735,-0.04445775,-0.0538663,-0.026099216,-0.07571606,0.07072107,-0.09081109,-0.08163952,0.07938129,0.10236167,0.106937535,0.087672986,0.020821031,-0.056820814,0.03309184,-0.1250467,0.11908823,0.053341515,0.060441583,-0.115448624,0.06695294,0.08452332,-0.032654036,-0.04614266,0.11286989,-0.10343097,0.08706001,-0.0690824,0.12347414,-0.06067377,0.1149855,-0.047217052,-0.08107604,0.094430536,0.11163989,0.118527554,0.053729944,-0.075835824,-0.07691713,-0.058528896,-0.09100339,0.027403535,0.040998206,-0.15675922,-0.05144377,-0.08430522,0.10992431,0.024463128,-0.04656046,0.113158934,0.07602153,-0.080188334,0.01727863,-0.043449957,0.09156009,-0.04858251,0.10372634,-0.09364161,-0.056239605,-0.11538178,-0.07637959,0.12088413,0.106038235,-0.05690594,-0.02931219,0.03092377,0.028215846,0.04930556,-0.07287436,-0.13272697,-0.06734823,-0.09027295,0.087570734,-0.0997298,0.09541102,-0.023988731,-0.057785735,-0.016161922,-0.108423814,-0.074258246,0.03264912,-0.04350258,-0.07367018,-0.059073564,-0.030177854,-0.10357184,0.037250422,-0.117267616,-0.12312034,-0.03348847,0.120008186,0.029314648,-0.087189004,-0.11886008,0.09042805,0.09269425,0.12981755,-0.089435026,0.067296326,0.11538865,0.080566056,-0.047175266,0.024775695,0.09684335,0.08934829,-0.07108274,0.04816359,0.12603363,0.07481913,-0.09810516,-0.13537438,-0.085444294,-0.07126953,0.07830041,0.1357732,0.064230055,-0.09603913
0.052769244,0.1669715,-0.084631026,-0.034612395,-0.04968481,-0.11915324,0.06750355,-0.10112991,-0.10423488,-0.034247827,0.041464526,-0.09239576,-0.11922399,0.010346134,-0.1463974,-0.079270236,-0.042971183,-0.09253838,-0.05905623,-0.075033136,0.039149735,-0.08735624,0.08218318,-0.039990142,-0.116032064,-0.06634831,-0.016051713,-0.08613691,-0.021835305,-0.03433427,0.09227864,-0.08505547,0.022551008,0.08117953,-0.05663949,0.10668238,-0.0646171,-0.059436217,-0.026042806,0.077795185,-0.11791724,-0.081031695,0.06311228,-0.03166976,0.08172302,-0.059793245,-0.035713002,-0.10584,-0.0797258,-0.10910468,-0.10881762,-0.08678171,0.053202532,0.09282584,0.11904559,-0.030876191,0.073589,0.08241281,0.083071776,-0.120589964,0.054667506,0.09760202,-0.12484193,0.031828333,-0.026828213,0.03661475,0.06043567,0.16430339,0.08391356,-0.10089243,-0.11134497,0.05393336,0.026227655,0.101785086,0.082944766,0.039206475,0.059575014,0.05922695,-0.10436237,0.06883064,0.10382767,-0.07880134,0.109407574,-0.050392084,0.12522995,-0.13946533,0.11261685,0.09135755,-0.09195861,-0.048460916,0.019849606,-0.1247753,-0.08647813,-0.037073303,-0.07779734,-0.079945825,0.080235146,0.108117305,-0.13866624,0.122705154,0.06507262,-0.0889829,-0.05544511,-0.10438974,0.13794816,-0.091170125,-0.04355561,0.03235222,0.12348495,0.05852277,-0.11228655,0.042392198,0.07451626,-0.06965014,0.09647927,-0.0853174,-0.04612821,0.06463577,0.056855176,-0.110121384,0.12351822,0.061118264,0.008484865,-0.08539191,0.061178535,-0.13244693,-0.06275103,-0.064670004,0.08246667,0.03617324,0.06106423,-0.08319837,0.11225962,-0.03900248,-0.11226979,-0.09149697,-0.1021425,-0.07340514,0.06471147,-0.01843601,-0.09236684,0.0465783,0.061898153,0.080344565,0.06449511,0.10884643,-0.10570137,0.06487255,-0.054179214,0.10657492,0.07691397,0.13087156,-0.08293099,0.040445726,0.114771776,-0.04879553,-0.03872893,0.06046032,-0.13313447,0.08973903,-0.07454254,0.09666502,-0.088105656,0.11517295,-0.051958565,-0.090007685,0.07742011,0.0420601,0.059560157,0.04282012,0.0036148755,-0.080739774,-0.062545136,-0.08968878,0.08235965,0.046080284,-0.13578829,-0.10982791,-0.074601434,0.06811845,0.1122755,-0.12661883,0.14505704,0.06854206,-0.091209345,0.0929042,-0.034833536,0.017090747,-0.056414206,0.089411296,-0.051228218,-0.0892967,-0.07764985,-0.10553993,0.130069,0.13954553,-0.08476397,-0.06328786,0.08993803,0.10769696,0.09671768,-0.1082566,-0.07420134,-0.07757495,-0.089866936,0.11634728,-0.08671476,0.12036268,-0.09142044,-0.10043543,-0.0031714106,-0.05423518,-0.058167975,0.033990942,-0.03838728,-0.12521334,-0.069224246,-0.030196879,-0.09184148,0.118065976,-0.0702448,-0.050032295,-0.066680335,0.0400086,0.11174865,-0.098420665,-0.036183737,0.10436562,0.058661137,0.057113092,-0.13488299,0.040618014,0.04821077,0.098117605,-0.099605,0.018924637,0.06246217,0.032431222,-0.138637,0.085190006,0.10411052,0.075821176,-0.08655977,-0.06738328,0.00027694675,-0.08901923,0.06540619,0.13012749,0.10749473,-0.08473559
0.039608,0.14702845,-0.025581077,-0.05895475,-0.1364002,-0.082152285,0.108928785,-0.04116489,-0.020000203,-0.07287901,0.1239942,-0.09885723,-0.099748835,-0.0647608,-0.088710025,-0.10106141,-0.047513545,-0.16363062,-0.11050721,-0.13737872,0.080746904,-0.083530806,0.092158705,-0.07304167,-0.11890437,-0.14352429,-0.058981646,-0.10403135,-0.08885392,-0.081305355,0.10909243,-0.08342347,0.06296685,0.07163342,-0.02430519,0.10318165,-0.03815288,-0.1663405,-0.09810707,0.04659429,-0.0751978,-0.09735228,0.057362888,-0.04419275,0.03284562,-0.024311217,-0.1004858,-0.1081727,-0.033929404,-0.13806652,-0.09373043,-0.047035124,0.11066493,0.09685194,0.08627402,-0.054460045,0.07170884,0.06552885,0.13180394,-0.052752916,0.10755041,0.08654188,-0.059732825,0.064702824,-0.093737364,0.044466328,0.12637977,0.104135565,0.062148165,-0.031240946,-0.09890383,0.018035427,0.06769535,0.0733151,0.048801694,0.08116093,0.08953747,0.09599578,-0.052008163,0.027624091,0.038242005,-0.12523925,0.09989456,-0.10019835,0.12296037,-0.10887429,0.039532483,0.04275368,-0.13783215,-0.07514613,0.08795514,-0.06877115,-0.02927761,-0.116216905,-0.040128566,-0.046426933,0.18686587,0.12036274,-0.07622548,0.09477569,0.06986882,-0.03516567,-0.06923847,-0.12882602,0.10452796,-0.12142102,-0.09289551,0.12546995,0.07557704,0.08375845,-0.037284277,0.05532663,0.0924293,-0.15573892,0.01891485,-0.041672725,-0.03224218,0.07748341,0.06050037,-0.027791023,0.109658554,0.11282453,0.060275313,-0.086633146,0.11306679,-0.05820381,-0.07294939,-0.11434579,0.10334815,0.12167862,0.06189516,-0.064823404,0.08352824,-0.034819335,-0.11835419,-0.079809256,-0.111710705,-0.06635023,0.0716439,-0.05627314,-0.16662244,0.09570465,0.10413562,0.08139672,0.14903437,0.039445333,-0.058249857,0.027895818,-0.11669056,0.119326144,0.029676618,0.088129096,-0.07458733,0.11060942,0.09801967,-0.057848666,-0.045460325,0.047404878,-0.14875214,0.08982216,-0.10097673,0.094246596,-0.06996551,0.05228066,-0.11812785,-0.10181688,0.07871923,0.11180303,0.09489689,0.112654485,-0.09697586,-0.06614741,-0.077992626,-0.10159291,0.09954799,0.112794146,-0.13505322,-0.0345809,-0.0962765,0.034748543,0.047862306,-0.07853057,0.10268124,0.06380875,-0.096868075,0.014075495,-0.047540624,0.04015507,-0.10054762,0.07073197,-0.01763747,-0.031929974,-0.06303377,-0.039526317,0.13919978,0.09008319,-0.05574326,-0.07876257,0.07131735,0.05742898,0.09555233,-0.07940666,-0.085402906,-0.04864048,-0.065563306,0.0744229,-0.07084966,0.11305913,-0.06901638,-0.075429566,-0.013138923,-0.015422728,-0.06910931,0.055678908,-0.11615014,-0.061519474,-0.0490705,-0.09529131,-0.109157525,0.022111231,-0.064813964,-0.087162875,-0.08754061,0.10552756,0.026054742,-0.060627755,-0.09594154,0.09580519,0.051273387,0.029424936,-0.035979327,0.08543525,0.0978808,0.060277786,-0.02105524,0.08719667,0.099524714,0.091631435,-0.089205034,0.041537818,0.11930374,0.12289653,-0.06955842,-0.14860328,-0.027216109,-0.058127616,0.079669334,0.08930333,0.1131833,-0.098309785
0.055653278,0.10873852,-0.070441715,-0.09174767,-0.047874507,-0.089120254,0.063587815,-0.114268914,-0.039494693,-0.031993005,0.10895737,-0.05397505,-0.061026447,-0.052787945,-0.0451136,-0.10870279,-0.08935283,-0.07165694,-0.1338663,-0.08436038,0.02954965,-0.047930542,0.11669438,-0.0250452,-0.05399457,-0.04948699,-0.028309364,-0.04463048,-0.080274984,-0.12013922,0.105188124,-0.106659025,0.017929355,0.017138755,-0.088116474,0.09127989,-0.08578337,-0.14266625,-0.15113053,0.082969815,-0.09659039,-0.11403039,0.1462799,-0.10883593,0.08934725,-0.038356062,-0.046043765,-0.10235458,-0.103461735,-0.05916976,-0.07554141,-0.02239888,0.055161215,0.10788353,0.03765435,-0.11443054,0.10506173,0.023547152,0.060535423,-0.0870018,0.058955397,0.10093247,-0.057418734,0.080603495,-0.11075819,0.079802394,0.10277206,0.15158896,0.02593024,-0.05596898,-0.10204509,0.067676224,-0.010493328,0.04042873,0.10556214,0.03544264,0.038434453,0.11266852,-0.12288666,0.017973354,0.06966817,-0.16405915,0.080669984,-0.08156198,0.11957164,-0.061455082,0.035665177,0.085034736,-0.21372904,-0.09754594,0.10438798,-0.10428077,-0.05845369,-0.029569047,-0.04000217,-0.040009044,0.0951763,0.02751964,-0.026662627,0.044659287,0.1182209,-0.0184415,-0.06014143,-0.06168087,0.10173017,-0.0953252,-0.10867606,0.082582615,0.03978934,0.022059614,-0.024735171,0.102045946,0.08195778,-0.07711165,0.043997973,-0.05046029,-0.08083221,0.08861002,0.10146686,-0.03182516,0.020166334,0.10880209,0.020577269,-0.08110162,0.11480434,-0.11157806,-0.040959086,-0.068249114,0.12777449,0.102564655,0.103918314,-0.100796476,0.018256668,-0.07583442,-0.049704965,-0.038984768,-0.08337376,-0.10542008,0.10121992,0.005185018,-0.059756923,0.10082505,0.0637778,0.0953982,0.12854508,0.04196692,-0.12833026,0.05192842,-0.12682258,0.11299566,0.0870899,0.11644375,-0.041520458,0.011882293,0.10559289,-0.03198918,0.01275889,0.042599805,-0.08558387,0.081120335,-0.08450108,0.022289466,-0.05922119,0.09179409,-0.07476478,-0.13248922,0.0241633,0.07978264,0.10205859,0.07262815,-0.082391545,-0.08486382,-0.015282627,-0.10670751,0.105817884,0.093447626,-0.14385739,-0.08309828,-0.060284898,0.10628256,0.103874184,-0.085973725,0.037235685,0.100469045,-0.0212216,0.02561997,-0.026826728,0.049558923,-0.019803848,0.12240121,-0.102543846,-0.0492673,-0.086667255,-0.08045806,0.1398773,0.059613246,-0.0410734,-0.10402643,0.08215352,0.0994507,0.024285821,-0.091332905,-0.063696034,-0.08043353,-0.1442513,0.08052281,-0.11977375,0.1144126,-0.10082004,-0.08269734,0.00642003,-0.022276016,-0.05546109,0.06577463,-0.035609674,-0.08399979,-0.111166134,-0.0345711,-0.028720327,0.044541202,-0.03192169,-0.044309992,-0.05037579,0.109428324,0.017052058,-0.11032406,-0.0138770575,0.11945486,0.02973636,0.089018784,-0.06566507,0.019133601,0.0845919,0.071150504,-0.10145397,0.050297104,0.05025667,0.035764966,-0.054146823,0.06588854,0.08770136,0.11950795,-0.048743814,-0.14471011,0.0018174627,-0.11249631,0.11224717,0.12163221,0.015285113,-0.09814572
0.061155036,0.0664485,-0.03191915,-0.078937545,-0.062169775,-0.051905192,0.028003698,-0.087074734,-0.01957196,-0.03481744,0.045107886,-0.05836258,-0.11983092,-0.067689046,-0.17354546,-0.10855478,-0.11350585,-0.09716408,-0.05879609,-0.08013102,0.10413905,-0.11592834,0.04472063,-0.11465604,-0.063002504,-0.12682413,-0.09386069,-0.066105016,-0.079449505,-0.06726194,0.075921126,-0.09826696,0.014450429,0.120967634,-0.09439555,0.107222974,-0.10033223,-0.1278623,-0.1287762,0.0939266,-0.06780869,-0.0446978,0.10124354,-0.03479002,0.064293526,-0.073527135,-0.06505412,-0.11972572,-0.10685871,-0.059538916,-0.06264045,-0.099761985,0.07669588,0.031786293,0.055312026,-0.104498595,0.050676,0.052699562,0.10176802,-0.09312704,0.08106693,0.0665982,-0.05075233,0.118048854,-0.07438822,0.07049606,0.12917307,0.16261132,0.019551644,-0.063844144,-0.070879236,0.025599422,0.0013236852,0.103067294,0.06747407,0.09517322,0.14821582,0.052772306,-0.046466026,-0.030825097,0.104505464,-0.12908196,0.09780116,-0.09032762,0.1290392,-0.13571368,0.019733952,0.09566735,-0.15436418,-0.02585037,0.05271288,-0.11281822,-0.104885496,-0.108654074,-0.043279406,-0.080887176,0.14768457,0.10409228,-0.07384665,0.11428491,0.09422238,-0.056716785,-0.05112344,-0.09897604,0.027779328,-0.03826244,-0.025552122,0.1209258,0.05983722,0.07100861,-0.048280716,0.1044959,0.1045815,-0.06330358,0.11116949,-0.074698225,-0.036242414,0.06742653,0.04676067,-0.08239034,0.09202857,0.040108137,0.012643023,-0.03253958,0.11760043,-0.14636135,-0.085243784,-0.11239015,0.10787305,0.096126504,0.11164279,-0.12754956,0.11823503,-0.103775874,-0.07545773,-0.0673243,-0.061989732,-0.071926564,0.07990338,-0.01914183,-0.058617305,0.10561264,0.045492757,0.12335197,0.046742696,0.022636345,-0.040630143,0.06748231,-0.12755673,0.09830131,0.06493023,0.044998962,-0.038455058,0.01916478,0.036831,-0.08815799,-0.061185937,0.06421772,-0.062715724,0.09029561,-0.05212557,0.021217583,-0.074354276,0.06672715,-0.03979901,-0.090482764,0.10056615,0.044258703,0.07482056,0.112203784,-0.0014518778,-0.12675701,-0.09800928,-0.07347507,0.03179873,0.024547385,-0.12597351,-0.10816382,-0.043753307,0.04700405,0.065800585,-0.119612746,0.049840253,0.087955415,-0.015178001,0.043534562,-0.104061596,0.11276767,-0.094580516,0.12625186,-0.08758616,-0.079656,-0.032104492,-0.10054094,0.0434082,0.0965566,-0.08533721,-0.09875388,0.106589176,0.028576557,0.027578948,-0.093776345,-0.06290425,-0.10807789,-0.13939175,0.12261409,-0.11541,0.067369655,-0.07055102,-0.052645843,-0.05238301,-0.03466006,-0.056632183,0.08003417,-0.093033336,-0.058739703,-0.06723643,-0.121315934,-0.05623171,0.06908593,-0.11593228,-0.052728627,-0.053705573,0.09803132,0.09303931,-0.09440258,-0.12310673,0.08897171,0.027843174,0.032018814,-0.09862423,0.013023669,0.052792292,0.061982892,-0.08263289,0.063760124,0.08672251,0.10132491,-0.04835726,0.10277642,0.0789926,0.08628244,-0.11549998,-0.08793596,-0.07866093,-0.10106978,0.116907835,0.109738916,0.044846706,-0.081639
0.027476909,0.09740492,-0.07374147,-0.067791544,-0.078430556,-0.07364343,0.07475753,-0.035218388,-0.027942186,-0.10666741,0.069287024,-0.092682734,-0.03702132,-0.014099329,-0.0700599,-0.112386264,-0.07661914,-0.14110515,-0.03708268,-0.1300821,0.050913475,-0.105873294,0.09671203,-0.115472995,-0.06127868,-0.08468191,-0.08366769,-0.10947623,-0.11021002,-0.10844894,0.031085467,-0.096300855,0.09924387,0.11536358,-0.07420172,0.025737314,-0.12644075,-0.06061297,-0.076108225,0.05016243,-0.077744484,-0.11014385,0.080253884,-0.065627635,0.061337076,-0.08227188,-0.03557142,-0.10051496,-0.056527887,-0.059821244,-0.12954137,-0.08785607,0.10948944,0.08930112,0.0527382,-0.08730369,0.081556626,0.080684185,0.13053335,-0.1055353,0.01922807,0.10059709,-0.03827453,0.10443874,-0.07822633,0.039570946,0.054787554,0.11906038,0.061071623,-0.022292303,-0.08715934,0.09845378,0.078290366,0.031544134,0.024924614,0.049439006,0.07407767,0.101027556,-0.02743013,-0.0031823367,0.10178061,-0.10879908,0.09604109,-0.05243629,0.07573065,-0.03342867,0.03184238,0.12803191,-0.15617602,-0.04495013,0.024166672,-0.09831344,-0.106595166,-0.10495799,-0.04367543,-0.08177949,0.10225219,0.032062847,-0.040144935,0.031996552,0.0994477,-0.09755159,-0.0861867,-0.10464079,0.057381075,-0.08701286,-0.045025017,0.07323662,0.10562643,0.090232275,-0.0948403,0.09712318,0.11434693,-0.14294335,0.08203496,-0.0674337,-0.030921036,0.092317805,0.06491416,-0.031353228,0.112781666,0.04791042,0.011071417,-0.118188486,0.11117313,-0.08943983,-0.10902037,-0.039210983,0.094418265,0.052042697,0.103084624,-0.03298691,0.095547624,-0.06467327,-0.08508269,-0.029422874,-0.05767632,-0.040283617,0.104785606,-0.031313036,-0.06723331,0.05381477,0.08688171,0.038694326,0.13919587,0.038165603,-0.04167187,0.058571022,-0.11352528,0.11592115,0.055840466,0.11415966,-0.11464029,0.070482634,0.12598956,-0.030421155,-0.041704495,0.04226907,-0.09871222,0.0982646,-0.08553249,0.05686232,-0.10956998,0.107089,-0.055621166,-0.098373145,0.093523234,0.06253447,0.1274542,0.0839924,-0.06695189,-0.09999024,-0.07100906,-0.059257213,0.108280666,0.061087362,-0.14705893,-0.06983496,-0.038020972,0.08903284,0.082954355,-0.038623087,0.078737594,0.03999426,-0.08645869,0.07591331,-0.037622098,0.100438796,-0.10096098,0.03519682,-0.08226633,-0.09137619,-0.048961625,-0.05453522,0.13106178,0.13883011,-0.025072064,-0.091976896,0.02141212,0.042697657,0.06464195,-0.09083354,-0.11629418,-0.06659154,-0.09237976,0.09641038,-0.02928805,0.08122965,-0.080118135,-0.055993453,-0.004392126,-0.07393958,-0.09293021,0.043209817,-0.07701776,-0.07928995,-0.061958775,-0.10588558,-0.117149964,0.119443275,-0.019305516,-0.119962804,-0.02464773,0.1010702,0.102187425,-0.06497927,-0.052711565,0.10312474,0.11875783,0.11591115,-0.07260036,0.084821425,0.050091848,0.09995836,-0.07392479,0.1076678,0.03565252,0.082309194,-0.059998054,0.10382102,0.07118881,0.09073763,-0.069425784,-0.13975027,-0.07558259,-0.08062877,0.105670065,0.1593572,0.104851104,-0.1256783
0.08222005,0.12368809,-0.06592375,-0.1151048,-0.09432265,-0.11361858,0.02954501,-0.08634951,-0.058313034,-0.038827706,0.12214976,-0.035037875,-0.072388954,-0.06727519,-0.1058685,-0.043491807,-0.089242175,-0.1364773,-0.09566597,-0.03314138,0.020564673,-0.072467215,0.109457165,-0.061601132,-0.11168633,-0.12858088,-0.09037093,-0.029997941,-0.08036886,-0.06090802,0.041184455,-0.05268739,0.06766839,0.121698916,-0.076520935,0.040144604,-0.0669305,-0.14864196,-0.13158752,0.07667184,-0.04004688,-0.04830979,0.10529719,-0.031172985,0.05931698,-0.040697727,-0.07468668,-0.08406408,-0.102500826,-0.10522754,-0.13923761,-0.06462121,0.06794283,0.03469314,0.037497718,-0.053444576,0.057666212,0.013626581,0.10634141,-0.11134057,0.060864117,0.094146386,-0.09126166,0.09339553,-0.06199608,0.031445473,0.10730269,0.11168875,0.015675724,-0.014078676,-0.05328082,0.039607696,0.08157591,0.10128305,0.043461524,0.09278517,0.06795769,0.09840926,-0.07689102,0.053450532,0.02638026,-0.070847124,0.106060125,-0.06070179,0.101060376,-0.11226583,0.05085562,0.063624926,-0.13887326,-0.022103205,0.0790215,-0.08857288,-0.108523555,-0.031227544,-0.089135654,-0.11564782,0.08692382,0.055811696,-0.10254422,0.0629102,0.094857916,-0.07150927,-0.05861771,-0.09118637,0.09703857,-0.11734682,-0.045458794,0.11222787,0.099614896,0.073085606,-0.10072164,0.06614125,0.118156575,-0.05233362,0.020910481,-0.11187681,-0.03320914,0.15045932,0.1199771,-0.10617319,0.06465385,0.07927756,0.017722256,-0.07183175,0.08934569,-0.057150178,-0.04734752,-0.023023136,0.099413365,0.11144221,0.09536859,-0.10552261,0.036934935,-0.09201664,-0.11159536,-0.041514087,-0.1065621,-0.09440249,0.061381534,-0.0045127575,-0.10109526,0.040015142,0.07531206,0.08421936,0.1014732,0.09413656,-0.06584963,0.037202284,-0.06466357,0.10886303,0.08235024,0.029746491,-0.11006646,0.072653934,0.08700542,-0.052181292,-0.11124595,0.036072377,-0.040627982,0.070857376,-0.0375313,0.11036721,-0.10996282,0.10872267,-0.048254423,-0.068929516,0.032247894,0.14459531,0.11489948,0.11609891,-0.034807265,-0.076156884,-0.027541067,-0.036879085,0.06204869,0.10208484,-0.11310054,-0.027782185,-0.039151635,0.033548277,0.0955842,-0.09540733,0.07262991,0.081762224,-0.0973067,0.091407016,-0.100978985,0.09964517,-0.039786696,0.08671505,-0.025268449,-0.103022404,-0.12024854,-0.11208608,0.113210484,0.08748414,-0.08527431,-0.09738922,0.06392608,0.12859568,0.058968995,-0.10537961,-0.048047777,-0.04193641,-0.07831748,0.060573593,-0.11141341,0.072817385,-0.028197471,-0.052692518,-0.0050199577,-0.016844213,-0.029661616,0.082850344,-0.041811157,-0.09676595,-0.08789718,-0.06419703,-0.12507398,0.093956284,-0.107909076,-0.07665609,-0.09290389,0.085490584,0.076264225,-0.06366636,-0.11250218,0.09862204,0.08020737,0.025085542,-0.02434421,0.10152591,0.05683358,0.12690872,-0.015190426,0.054412775,0.09111611,0.031205485,-0.105255395,0.04289491,0.04696766,0.072713524,-0.02241369,-0.0907878,-0.049673118,-0.117054395,0.036547225,0.13206056,0.098316655,-0.058638934
0.081229344,0.071308285,-0.015172622,-0.055978883,-0.04291135,-0.13732933,0.041334312,-0.090746365,-0.106900714,-0.06663958,0.10664047,-0.114735104,-0.097255655,-0.09025508,-0.14519042,-0.10135572,-0.03776127,-0.058761586,-0.100050315,-0.06529629,0.09434944,-0.062067125,0.09632024,-0.11363228,-0.099451326,-0.05795047,-0.03149848,-0.041044585,-0.018998083,-0.060322203,0.03683427,-0.057013445,0.05294509,0.046051417,-0.082258925,0.0653176,-0.0775275,-0.09054436,-0.11235372,0.075667866,-0.114556864,-0.102500945,0.12913863,-0.027045684,0.08971575,-0.06571807,-0.0821665,-0.039207965,-0.06597606,-0.02949581,-0.069497794,-0.08520665,0.07682938,0.10472339,0.06545116,-0.10358578,0.06931586,0.11352784,0.037905995,-0.07490192,0.08247522,0.038176797,-0.10364469,0.111971155,-0.07897065,0.10998019,0.044977322,0.078495644,0.09964363,-0.042857792,-0.101132855,0.02558189,0.068073414,0.045299582,0.017861621,0.032812096,0.08265724,0.049623027,-0.10076508,0.026334502,0.05803197,-0.08772224,0.024847483,-0.12866879,0.12179819,-0.09600429,0.022284739,0.12920086,-0.121662766,-0.06633532,0.047932472,-0.084551364,-0.022403462,-0.118029505,-0.025426297,-0.1124372,0.07410469,0.041243337,-0.03577866,0.08394645,0.11195118,-0.09289336,-0.04552489,-0.04609066,0.08563315,-0.11778046,-0.10087772,0.03763741,0.11597296,0.029780274,-0.07540454,0.12013432,0.086050875,-0.043394495,0.10155437,-0.11787865,-0.049114678,0.13135278,0.07706763,-0.079023264,0.018442534,0.0853391,0.004919947,-0.0249257,0.10789188,-0.09014643,-0.103870146,-0.12057487,0.1539968,0.11578652,0.09497727,-0.049734816,0.09252553,-0.09938356,-0.104214184,-0.054948855,-0.10039848,-0.104490854,0.13571,-0.044240378,-0.11713953,0.06269572,0.10935228,0.10384307,0.060790516,0.022904817,-0.100791596,0.094798334,-0.045633934,0.12809764,0.04232746,0.12982373,-0.09357375,-0.0020285964,0.06774447,-0.057004347,-0.03077396,0.11130912,-0.10207202,0.06267482,-0.065498084,0.036612116,-0.06569328,0.12923422,-0.026708655,-0.10737433,0.023679323,0.058772806,0.050048597,0.12092746,-0.06865783,-0.073701926,-0.08496767,-0.11791074,0.10981706,0.031070968,-0.10508192,-0.049143445,-0.13304712,0.0848547,0.09825211,-0.12750098,0.10692183,0.109875575,-0.06542759,0.10461338,-0.031502675,0.046946634,-0.058576763,0.08582764,-0.07364618,-0.07681234,-0.10222082,-0.10382668,0.12218073,0.094134584,-0.0647055,-0.11523355,0.08159869,0.023785118,0.058270317,-0.06331601,-0.10617153,-0.07289259,-0.14433873,0.038761318,-0.11103511,0.09539513,-0.08307161,-0.068172865,-0.050316628,-0.081719674,-0.12638359,0.10992284,-0.05503768,-0.11552171,-0.058902863,-0.050163895,-0.03596121,0.098647654,-0.107442774,-0.114613146,-0.013034815,0.041118626,0.07364903,-0.03053631,-0.100841746,0.04121527,0.081628844,0.06704569,-0.06002323,0.04840711,0.104969144,0.106484205,-0.11141934,0.10991745,0.042200662,0.023228658,-0.059567127,0.028684026,0.045967318,0.12703885,-0.07938828,-0.09109944,-0.03360944,-0.123834014,0.12606998,0.09048921,0.02875488,-0.054739293
0.07435621,0.05530069,-0.030510122,-0.06326287,-0.0861397,-0.097466916,0.035166223,-0.034221176,-0.04938973,-0.09174063,0.075629406,-0.04821295,-0.051968746,-0.06014421,-0.06453962,-0.08410828,-0.08009619,-0.1295852,-0.08326737,-0.043266423,0.07436636,-0.04284614,0.0628517,-0.07819013,-0.025038492,-0.04143818,-0.041382886,-0.093857355,-0.10142615,-0.10646838,0.099427715,-0.13434863,0.05303104,0.069379665,-0.08637208,0.10249842,-0.0781752,-0.09739172,-0.059355214,0.1292949,-0.06853518,-0.07110965,0.07612663,-0.05441055,0.08254857,-0.11539385,-0.087078705,-0.11107737,-0.06899565,-0.050290853,-0.10492933,-0.046499804,0.039224338,0.10828211,0.06744927,-0.11504946,0.09258609,0.06954291,0.11868722,-0.08218084,0.12073766,0.07223593,-0.06854591,0.06677498,-0.016599474,0.04465687,0.09092893,0.10443654,0.09100455,-0.032147944,-0.013872587,0.0726262,0.029455148,0.04941558,0.07028553,0.09572508,0.1526675,0.02578967,-0.05423975,0.014014806,0.07470776,-0.11408906,0.05512214,-0.10259147,0.085516274,-0.071111076,0.03946427,0.14700554,-0.1837154,-0.050171755,0.06357966,-0.12642455,-0.094605796,-0.061829105,-0.06337018,-0.048093323,0.11958302,0.04998859,-0.112773396,0.04850362,0.11901099,-0.026712677,-0.040166643,-0.12856539,0.059035916,-0.10214068,-0.05585441,0.04861631,0.08162285,0.08941407,-0.06541954,0.04707013,0.106922366,-0.06782994,0.023888404,-0.031261973,-0.08600855,0.088473596,0.13140649,-0.1217286,0.050198663,0.09162315,-0.0040883976,-0.09502885,0.114711724,-0.07331163,-0.08853285,-0.07717357,0.16269416,0.04043716,0.066740714,-0.057155978,0.058704812,-0.040659007,-0.11163662,-0.017248552,-0.09857967,-0.11492783,0.1280931,-0.032153644,-0.13257323,0.052381508,0.11405004,0.028871948,0.06656176,0.06247894,-0.1388514,0.056771338,-0.047336448,0.13100034,0.079883374,0.061031163,-0.078630455,0.043069586,0.10560387,-0.10251106,-0.013806696,0.09172554,-0.09042853,0.06917049,-0.09775624,0.043148503,-0.10086102,0.082996815,-0.0642144,-0.080474734,0.016461406,0.041143578,0.091409825,0.13252519,-0.022890022,-0.06608267,-0.06844782,-0.036702182,0.039291196,0.11707538,-0.14468412,-0.10461555,-0.11499895,0.1189649,0.04096314,-0.09278856,0.109901674,0.0134448605,-0.060404655,0.09555925,-0.024139231,0.06742369,-0.07448823,0.053621847,-0.10210926,-0.03255541,-0.06528646,-0.030784953,0.075893566,0.052113548,-0.07008399,-0.09028246,0.06554436,0.062299665,0.040397994,-0.08197234,-0.11368979,-0.06560207,-0.056789026,0.10340176,-0.11900438,0.056542575,-0.06953444,-0.07333128,-0.06307003,-0.061473913,-0.057908647,0.04430174,-0.11789895,-0.10921465,-0.03255362,-0.031137543,-0.07383777,0.0942327,-0.116010524,-0.043218426,-0.09572899,0.10476176,0.09278013,-0.07700571,-0.117427625,0.06225745,0.08210746,0.070748724,-0.034783114,0.05959096,0.08096682,0.13331532,-0.0876777,0.041228212,0.053543273,0.05523837,-0.07786184,0.039971605,0.07412107,0.092408925,-0.04029419,-0.11400008,-0.022671184,-0.1291643,0.1446366,0.09650241,0.030902192,-0.043263577
0.07543277,0.13387482,-0.02552258,-0.058649067,-0.07643,-0.10336366,0.088465974,-0.08729673,-0.05526527,-0.11031506,0.08465644,-0.056740098,-0.09694539,-0.068081684,-0.09936324,-0.09121288,-0.08228557,-0.08630989,-0.11008236,-0.071041144,0.104998775,-0.11969072,0.115599655,-0.12374814,-0.028436877,-0.14300148,-0.051467158,-0.07508531,-0.10918489,-0.08915207,0.07538302,-0.033518504,0.047317978,0.062958404,-0.025192074,0.015946334,-0.11095468,-0.062856324,-0.088133805,0.051765073,-0.11814691,-0.09852385,0.08543099,-0.08643254,0.03539486,-0.112977475,-0.07454605,-0.057842575,-0.07668828,-0.13530564,-0.11947827,-0.09403709,0.099814266,0.08325715,0.12428873,-0.10674375,0.022886356,0.0877762,0.117905535,-0.04075837,0.032709394,0.04271712,-0.0954119,0.07378878,-0.05095365,0.06697421,0.06929375,0.046189744,0.08305634,-0.10265952,-0.034783516,0.042852197,0.012375006,0.10816944,0.027866798,0.097715616,0.11280515,0.097383924,-0.12521525,0.045509737,0.03824367,-0.0823876,0.11441014,-0.06756693,0.10361961,-0.05191747,0.07183106,0.083865955,-0.13554177,-0.113872945,0.06894073,-0.048839584,-0.034523375,-0.12984836,-0.07655948,-0.0417114,0.13425198,0.05490439,-0.10084688,0.09111341,0.07222032,-0.08636607,-0.06906822,-0.07634301,0.0699719,-0.08726684,-0.020181898,0.0770378,0.06966681,0.078098655,-0.092064366,0.032196004,0.1153648,-0.055272378,0.046403106,-0.03605477,-0.06589582,0.10123147,0.09248245,-0.02756014,0.01667242,0.03580367,0.021363482,-0.09570582,0.11669366,-0.08965981,-0.046570137,-0.0552086,0.0872917,0.039842512,0.08591503,-0.07541831,0.07736011,-0.08993818,-0.06630441,-0.09556018,-0.090858094,-0.055508755,0.07586434,-0.033183403,-0.14458933,0.08058228,0.06572627,0.10468399,0.13103533,0.029828133,-0.10062107,0.087054595,-0.06395521,0.053279,0.026051372,0.04459842,-0.087483086,0.09064891,0.12074927,-0.03850432,-0.04902837,0.075304694,-0.11760361,0.08250639,-0.041852195,0.024281835,-0.08485696,0.09230049,-0.043450367,-0.10874127,0.08216676,0.06952707,0.14810076,0.108275354,-0.06941027,-0.06507435,-0.026424713,-0.060096893,0.07517314,0.027817393,-0.08915568,-0.078198455,-0.063748606,0.09690283,0.04276461,-0.052546468,0.13822386,0.01787116,-0.09173081,0.040847596,-0.08192996,0.10086967,-0.0247403,0.0410781,-0.102037735,-0.044554677,-0.07696014,-0.11754192,0.075015396,0.13547555,-0.03455611,-0.11110663,0.08231838,0.066241875,0.10345175,-0.04242827,-0.11364736,-0.038482297,-0.14173427,0.09994111,-0.04647971,0.020492768,-0.032831635,-0.03948053,-0.02654468,-0.029976822,-0.09894697,0.034982774,-0.112124495,-0.12658998,-0.0670184,-0.058877777,-0.11689339,0.03305564,-0.048330642,-0.10677027,-0.06691735,0.05046908,0.09040341,-0.107527785,-0.06987173,0.06457864,0.104478195,0.060833167,-0.08533476,0.115540065,0.10064981,0.041826285,-0.017904531,0.07179748,0.101687364,0.073413275,-0.038518347,0.058691528,0.05084112,0.09038561,-0.037107132,-0.08242081,-0.08809216,-0.051451758,0.105614185,0.13079965,0.0641657,-0.09951736
0.049016643,0.12389541,-0.051976208,-0.07360153,-0.121879846,-0.050873388,0.062207974,-0.050632708,-0.029151807,-0.09179186,0.09791557,-0.10889917,-0.08351705,-0.10703403,-0.14068705,-0.046634845,-0.043868363,-0.13763507,-0.08677168,-0.06990579,0.030633066,-0.091754094,0.101746894,-0.05819615,-0.10572594,-0.12444184,-0.11238746,-0.11278172,-0.036109652,-0.08437358,0.03917843,-0.059705906,0.01809644,0.12268504,-0.045638256,0.0902118,-0.07621337,-0.12917812,-0.12474564,0.061168786,-0.04717755,-0.04977086,0.1198249,-0.11709244,0.06759737,-0.1148678,-0.07424842,-0.044864923,-0.11324962,-0.0911624,-0.09781923,-0.040753007,0.06056323,0.06439485,0.061240703,-0.11987237,0.094082005,0.03507566,0.11516144,-0.0582956,0.059226383,0.051269587,-0.12383315,0.075793654,-0.07997987,0.12866478,0.11812382,0.08756926,0.11016384,-0.10711111,-0.028456016,0.09093005,0.020965658,0.08053915,0.09303231,0.090868495,0.08264742,0.04208033,-0.032176837,0.04686054,0.06286399,-0.08373003,0.077530496,-0.04532893,0.033243243,-0.06963654,0.035466753,0.041096833,-0.15641452,-0.08085924,0.019771738,-0.1039864,-0.092608884,-0.10027615,-0.023464175,-0.0475196,0.08400748,0.057183083,-0.06987185,0.06491584,0.12624149,-0.09517847,-0.051951483,-0.10142833,0.08977744,-0.031072663,-0.09839194,0.10375138,0.08710166,0.0954617,-0.08872954,0.1210349,0.118533,-0.13439916,0.07987642,-0.100163005,-0.09230164,0.058207013,0.06573178,-0.05815729,0.105544634,0.0908445,0.021353329,-0.096029274,0.043674786,-0.09540184,-0.052133977,-0.08233047,0.122526474,0.10010962,0.1026375,-0.08375845,0.09360264,-0.051258814,-0.04946329,-0.031404465,-0.07464956,-0.038147364,0.06428922,0.008916276,-0.09533175,0.03725045,0.059903633,0.114245325,0.12399828,0.09670582,-0.055919733,0.10094096,-0.020404253,0.13147324,0.07336382,0.11634744,-0.078430176,0.08910064,0.049501177,-0.09901386,-0.036081064,0.074478455,-0.11903777,0.04556994,-0.06428255,0.10955723,-0.06361291,0.06015065,-0.10045211,-0.08953779,0.054613862,0.082511276,0.09720374,0.105169624,-0.09926981,-0.11995527,-0.118652634,-0.09032187,0.1073409,0.11781442,-0.14230762,-0.04303828,-0.11776803,0.12468158,0.08067777,-0.09818856,0.11069481,0.03559671,-0.06734067,0.030647948,-0.022482324,0.057989776,-0.08162294,0.060165785,-0.020571299,-0.10362566,-0.047288217,-0.09066109,0.080698684,0.08499936,-0.12393485,-0.07806012,0.082697205,0.10592141,0.085789144,-0.11733228,-0.10237763,-0.040795818,-0.12929198,0.076977305,-0.0680686,0.1023235,-0.104863025,-0.044348963,0.011187415,-0.039198402,-0.10123724,0.059457574,-0.0644991,-0.08885908,-0.10765554,-0.05570912,-0.13750738,0.12072851,-0.045634396,-0.13249928,-0.117712505,0.10789041,0.06921153,-0.055892218,-0.12982512,0.030919781,0.025586743,0.037510406,-0.075821295,0.062293485,0.041261334,0.04136424,-0.029640319,0.028804937,0.07812293,0.031503644,-0.098314494,0.04931061,0.11403119,0.1137105,-0.07546312,-0.07160443,-0.050513536,-0.059007496,0.06891903,0.15732488,0.048527297,-0.10830611
0.09999927,0.05927174,-0.059998777,-0.0685003,-0.068011634,-0.103208646,0.11451347,-0.058258045,-0.043530587,-0.09262728,0.055382196,-0.112362355,-0.06828582,-0.061160896,-0.07497789,-0.085056536,-0.048378974,-0.06850015,-0.13042,-0.07981711,0.056406576,-0.060834285,0.02544956,-0.104183786,-0.08149749,-0.1311238,-0.042292904,-0.030048924,-0.07740172,-0.06487912,0.026782429,-0.047067836,0.07236191,0.089595966,-0.05671903,0.058179446,-0.12893999,-0.12052295,-0.060083486,0.03720336,-0.06801728,-0.0768261,0.12898783,-0.049882017,0.047034726,-0.04599562,-0.026817845,-0.035332732,-0.040653903,-0.11899855,-0.1394347,-0.086270906,0.08317934,0.05726463,0.07229865,-0.114405684,0.039759144,0.071030736,0.077584624,-0.081006885,0.116329215,0.030882983,-0.10668316,0.10018609,-0.045066684,0.106140256,0.06885336,0.15423086,0.110890925,-0.10327487,-0.11169602,0.075542085,-0.014448624,0.05135423,0.020820823,0.03154601,0.05867701,0.10929821,-0.09375909,0.015109718,0.026769431,-0.111280374,0.055164445,-0.11381245,0.111340515,-0.051081106,0.07064172,0.08402225,-0.13308653,-0.073831335,0.031493887,-0.102739885,-0.06537922,-0.055551212,-0.04032887,-0.033675037,0.062157147,0.05552357,-0.07725059,0.081337824,0.062435493,-0.076356165,-0.080007784,-0.11669131,0.10090474,-0.059270907,-0.06331005,0.09641042,0.10037007,0.106544815,-0.06471239,0.03933518,0.08577909,-0.11451579,0.044944342,-0.07979186,-0.034202375,0.10949095,0.09496192,-0.045961197,0.06666509,0.11657802,0.028377341,-0.08318443,0.121816136,-0.090016276,-0.027831383,-0.063628115,0.12223841,0.06466983,0.10074971,-0.08079163,0.07923597,-0.08441086,-0.02180086,-0.07287205,-0.01775919,-0.061253462,0.098899335,0.024245355,-0.11690862,0.090650134,0.061823223,0.11543274,0.12628452,0.117712736,-0.061357975,0.09219672,-0.04590136,0.069512226,0.03761773,0.060587212,-0.10530149,0.0062845238,0.08031419,-0.038395323,-0.089691,0.10055636,-0.10948223,0.10247532,-0.041628018,0.07745786,-0.106035665,0.11829675,-0.09290336,-0.1269789,0.053699326,0.05511779,0.059796587,0.033111945,0.013058154,-0.09652366,-0.080863416,-0.09392685,0.055185124,0.036936782,-0.14870003,-0.08569783,-0.07742175,0.0849594,0.025504733,-0.11550823,0.10807512,0.038520534,-0.048536524,0.09800244,-0.060286734,0.03692305,-0.0605781,0.105022535,-0.049140107,-0.08531615,-0.045165163,-0.06328337,0.11850134,0.07823249,-0.11243434,-0.11483724,0.050550684,0.054437615,0.06534039,-0.016784295,-0.058033083,-0.10360191,-0.109248646,0.108122334,-0.07668404,0.115198724,-0.05267115,-0.056471687,-0.051738624,-0.101069264,-0.093062125,0.027739286,-0.069500536,-0.016371839,-0.085104845,-0.04877343,-0.0768174,0.09280282,-0.09596696,-0.045825824,-0.06980638,0.11592099,0.059695072,-0.07543818,-0.029821858,0.04910899,0.08579992,0.068455495,-0.07874633,0.075835586,0.0934293,0.06266907,-0.023956116,0.069662094,0.042301223,0.10762315,-0.14012906,0.10429115,0.112353526,0.08217052,-0.015645662,-0.12006206,-0.026025739,-0.13384043,0.03487788,0.098553225,0.088826954,-0.036605667
0.078998916,0.090659246,-0.056782726,-0.07898655,-0.062320728,-0.11999525,0.09887386,-0.085853204,-0.07270237,-0.13339667,0.08342468,-0.11842355,-0.07710675,0.0040338873,-0.12919492,-0.051627193,-0.059611652,-0.083279915,-0.1099825,-0.059905,0.05564031,-0.09347119,0.020088008,-0.033636447,-0.13927145,-0.054062415,-0.043169152,-0.08048894,-0.059404407,-0.11785962,0.03703187,-0.12298264,0.09993094,0.04692396,-0.005505528,0.07652705,-0.0880446,-0.13018712,-0.13888083,0.047909673,-0.110472575,-0.10175259,0.08078357,-0.018988747,0.066175036,-0.019349923,-0.09606604,-0.02404557,-0.02488197,-0.050177917,-0.08780047,-0.05851786,0.027238498,0.099698275,0.13106048,-0.088518344,0.070477255,0.082660675,0.05668048,-0.021374961,0.12887584,0.10025457,-0.038172808,0.052776113,-0.06660036,0.122359335,0.11614253,0.1605303,0.09210759,-0.0479965,-0.036162935,0.09007614,-0.0040430147,0.09651423,0.03823368,0.078227416,0.050775263,0.006983597,-0.08285349,0.023349144,0.050923664,-0.09089757,0.06392048,-0.08857428,0.032150086,-0.089991234,0.09319788,0.122247234,-0.14111018,-0.08443916,0.014553101,-0.0591136,-0.07459078,-0.03118946,-0.059835646,-0.0675218,0.13600956,0.11253717,-0.06477551,0.056557074,0.115521975,-0.1070989,-0.12742087,-0.09553734,0.107655525,-0.10759138,-0.09896758,0.1252506,0.07523967,0.046634723,-0.09030367,0.053369142,0.11203909,-0.09385325,0.07656267,-0.08664252,-0.079867005,0.082870446,0.042874966,-0.12666258,0.08409816,0.06610764,0.031430915,-0.09225476,0.08442407,-0.06771873,-0.029212095,-0.11082192,0.1568461,0.11266303,0.11220729,-0.15168819,0.10740965,-0.030397737,-0.010164269,-0.011035804,-0.031970292,-0.10657508,0.07920914,0.006729818,-0.09992911,0.039436974,0.12541687,0.07557383,0.111602075,0.038562544,-0.07114372,0.08290755,-0.08178174,0.04271705,0.08297609,0.063836835,-0.020144721,0.07929508,0.10173498,-0.10530799,-0.08477727,0.088717505,-0.053433884,0.086416475,-0.08356887,0.04288251,-0.042722635,0.088381134,-0.07088686,-0.10258095,0.092273146,0.15254019,0.041248377,0.06500149,-0.028524125,-0.08309256,-0.07071375,-0.060056504,0.08535874,0.030358464,-0.18268195,-0.014745335,-0.0594205,0.031760637,0.026355598,-0.08439638,0.078223966,0.08724383,-0.053046986,0.011737157,-0.06988831,0.10434949,-0.07308871,0.11906694,-0.063584186,-0.03673596,-0.02771523,-0.03333972,0.14561673,0.06318932,-0.08061087,-0.032480657,0.091109075,0.10331335,0.049393237,-0.05924363,-0.11580312,-0.101639844,-0.12872872,0.05953845,-0.088926226,0.0946679,-0.01300553,-0.078437656,0.006967587,-0.023033991,-0.106593914,0.069056116,-0.106694646,-0.09798251,-0.02914667,-0.10089048,-0.04412642,0.10575079,-0.05903319,-0.093036525,-0.036597554,0.1207113,0.0909868,-0.007898066,-0.080732964,0.05472332,0.023830079,0.082798995,-0.023757737,0.054056678,0.026776029,0.05931237,-0.03604246,0.02804782,0.014172047,0.06222382,-0.10223433,0.0679791,0.09795734,0.12227108,-0.08482016,-0.13721685,-0.05763717,-0.09943651,0.035520013,0.15760508,0.10296575,-0.09384623
0.11583407,0.1493877,-0.10148107,-0.06654964,-0.113132946,-0.060749065,0.06690849,-0.08212638,-0.10128926,-0.061475996,0.15072313,-0.08062545,-0.062487334,-0.03652873,-0.11896013,-0.08703123,-0.07358159,-0.08685108,-0.16281134,-0.08602829,0.058728572,-0.10300809,0.027240843,-0.057483308,-0.045202196,-0.065411404,-0.048359863,-0.115918204,-0.066031344,-0.06984107,0.055322815,-0.061315462,0.10291468,0.11083034,-0.08227687,0.088023596,-0.06375412,-0.1553909,-0.028990055,0.06713602,-0.05614355,-0.12248598,0.120891996,-0.036586687,0.07765721,-0.03151653,-0.12063156,-0.039658923,-0.047337193,-0.10873442,-0.069359705,-0.12133636,0.085101254,0.053303786,0.11311288,-0.02647146,0.10493934,0.040235717,0.123522565,-0.05509449,0.099436395,0.06665106,-0.060674053,0.020991245,-0.09332128,0.07608051,0.045423646,0.1666053,0.07147934,-0.09418604,-0.030264674,0.0718584,0.074382775,0.10702806,0.10159263,0.045705758,0.12074014,0.060551107,-0.024707844,-0.017427955,0.09582454,-0.08761648,0.036375098,-0.09655599,0.07515176,-0.08644771,0.07844973,0.09894862,-0.1810852,-0.0868927,0.07240359,-0.08114981,-0.04626776,-0.07817323,-0.12099512,-0.053501707,0.118446246,0.07271154,-0.048079215,0.023933586,0.116189174,-0.07949206,-0.11901426,-0.046637464,0.05263528,-0.11567063,-0.05174034,0.029804852,0.067153186,0.034019195,-0.07286326,0.10739757,0.12752156,-0.12162284,0.054741196,-0.05094579,-0.11226818,0.11317928,0.08228453,-0.07961367,0.08880535,0.09878108,-0.028676603,-0.057226617,0.15397786,-0.096806206,-0.0896789,-0.118980385,0.10278861,0.12161645,0.0514788,-0.08028971,0.06833664,-0.027360726,-0.04587718,-0.090852045,-0.10539676,-0.065756306,0.12585412,-0.055378284,-0.067312144,0.06894825,0.07196762,0.04856923,0.13053639,0.048379283,-0.07999754,0.052414615,-0.084897615,0.041675255,0.057784215,0.060307585,-0.03501518,0.042588998,0.0563616,-0.03007149,3.4305063e-05,0.10607965,-0.061971888,0.041353706,-0.014045968,0.115644366,-0.12026952,0.046720617,-0.12209332,-0.10256976,0.08222285,0.12947564,0.13374488,0.10560107,-0.0820688,-0.12492684,-0.040193934,-0.050528243,0.045242827,0.08942096,-0.15808325,-0.081456356,-0.058715407,0.06203908,0.08666494,-0.1009495,0.068750285,0.017802546,-0.030845841,0.044158503,-0.07627233,0.10786783,-0.08074242,0.08280076,-0.084049076,-0.1201095,-0.09123581,-0.056858465,0.07041834,0.11001697,-0.050988786,-0.103840135,0.108904816,0.06180265,0.03810533,-0.10423757,-0.12502824,-0.06801571,-0.07394109,0.118677564,-0.107757755,0.033552334,-0.02061449,-0.078481875,-0.0015762789,-0.099868804,-0.09223578,0.11206451,-0.023284532,-0.11187042,-0.04199304,-0.10906446,-0.055277966,0.05528413,-0.055170365,-0.12634225,-0.03471854,0.053938054,0.06679082,-0.03832452,-0.065308474,0.08864996,0.08452472,0.048541192,-0.10793609,0.080601566,0.06750881,0.14452197,-0.088864334,0.108923495,0.060351145,0.018423915,-0.13937907,0.037032556,0.057078086,0.11675698,-0.03845881,-0.137772,-0.06636007,-0.09404856,0.12018215,0.19650823,0.0738773,-0.15098912
0.04130286,0.15731432,-0.052058935,-0.053436935,-0.05542562,-0.04491643,0.0559476,-0.08476576,-0.059595343,-0.06722074,0.108214825,-0.08500971,-0.06603392,-0.035087716,-0.12491428,-0.11620147,-0.036219943,-0.1415499,-0.096551046,-0.10887358,0.09979147,-0.08835234,0.026293611,-0.050094876,-0.076696105,-0.039846633,-0.0686629,-0.031550366,-0.024689618,-0.08503241,0.0913943,-0.12125057,0.08478347,0.019746393,-0.031833157,0.039118472,-0.03426456,-0.085654154,-0.0319702,0.09496398,-0.11509675,-0.14396542,0.04394333,-0.019647734,0.040921938,-0.047696225,-0.05731355,-0.033544376,-0.029807353,-0.13325542,-0.11920044,-0.038719982,0.092342146,0.10419136,0.047763698,-0.10516664,0.047731485,0.043565076,0.11462768,-0.052536875,0.071873926,0.118986174,-0.10023628,0.06567372,-0.09685776,0.09208095,0.10089177,0.14658454,0.0679559,-0.06023485,-0.031682625,0.075341724,0.037550054,0.10104423,0.030330138,0.10284444,0.11085892,0.041970145,-0.07350955,0.0012363927,0.09469322,-0.164824,0.06957918,-0.033360466,0.11256803,-0.09579163,0.11338459,0.07986774,-0.16255297,-0.11331232,0.08411841,-0.13908209,-0.07473364,-0.060110725,-0.02984899,-0.0341094,0.1292301,0.074344374,-0.13850342,0.026184263,0.055008642,-0.07857347,-0.085085735,-0.13614902,0.037818853,-0.03338123,-0.09640799,0.094045274,0.0522338,0.09710084,-0.027717358,0.059287515,0.07251296,-0.069712676,0.1070003,-0.046399835,-0.06933904,0.11808601,0.020730698,-0.098269224,0.036457933,0.035695944,0.05299692,-0.045502197,0.09058531,-0.11787907,-0.08547198,-0.047131073,0.119343966,0.10328552,0.09122955,-0.08464122,0.07599488,-0.077931136,-0.0309228,-0.07162822,-0.09598275,-0.069204755,0.09480356,-0.059585117,-0.08228693,0.043822154,0.08129445,0.09814931,0.13498022,0.04527767,-0.118808955,0.02628063,-0.13566913,0.05999318,0.053081162,0.08850124,-0.071510136,0.03221654,0.08158713,-0.10509972,-0.04087474,0.093552634,-0.15190442,0.1093445,-0.04381264,0.0328451,-0.01788703,0.041311305,-0.09985092,-0.11627854,0.0740191,0.12379777,0.060737576,0.061713003,-0.010098119,-0.098963335,-0.036498882,-0.029230246,0.13792184,0.07897845,-0.18426438,-0.068876,-0.05545703,0.041738138,0.05383324,-0.13515261,0.050620474,0.08815242,-0.048345964,0.012548789,-0.07215701,0.033505023,-0.040901344,0.05406265,-0.101674125,-0.050336257,-0.032661635,-0.109860435,0.072185315,0.07203361,-0.030218037,-0.09080847,0.04668517,0.12785071,0.041322853,-0.08597918,-0.061327454,-0.05647346,-0.059958443,0.10615446,-0.026995689,0.04842654,-0.014794118,-0.11287743,-0.006096849,-0.088548526,-0.058195807,0.094427995,-0.081925474,-0.06666219,-0.0869585,-0.020810159,-0.1493926,0.049062822,-0.02559359,-0.06913675,-0.046699796,0.06906433,0.08744067,-0.0757205,-0.08160022,0.033536494,0.09620393,0.10609179,-0.09903965,0.073261894,0.13210057,0.07971634,-0.017203417,0.09503845,0.07501926,0.09473983,-0.18278699,0.08613375,0.02787445,0.060433976,-0.030716699,-0.105101906,-0.02766446,-0.10356458,0.062517636,0.06463768,0.03336453,-0.09349924
0.090868376,0.20981963,-0.03677055,-0.104879536,-0.085175835,-0.09494576,0.03901319,-0.110842064,-0.059586827,-0.09339939,0.12423272,-0.108816355,-0.09179653,-0.09001368,-0.09789314,-0.04590882,-0.09339714,-0.10921543,-0.0971266,-0.08380823,0.045682207,-0.115482375,0.07474,-0.04177885,-0.13467686,-0.09883328,-0.04182453,-0.099299006,-0.036693204,-0.075349934,0.06689681,-0.09627081,0.06124956,0.09656361,-0.08719762,0.092861466,-0.10181672,-0.17253466,-0.09342141,0.10060768,-0.04668423,-0.15092176,0.045800924,-0.08458156,0.07523397,-0.019217078,-0.06271912,-0.09659159,-0.11462682,-0.06818016,-0.07049518,-0.10345139,0.060946018,0.07585732,0.054157607,-0.02669174,0.07871991,0.04652278,0.06819168,-0.0670093,0.049812756,0.16175017,-0.06864082,0.09502276,-0.044680506,0.051741958,0.10433236,0.07545877,0.041143466,-0.026375363,-0.062328923,0.07402485,0.016324077,0.051638663,0.08459545,0.10115411,0.09072978,0.022990273,-0.08329181,0.030844713,0.08993864,-0.12761869,0.050535716,-0.0317041,0.09511191,-0.021819307,0.03714858,0.11211889,-0.22243547,-0.09025337,0.07138959,-0.12636219,-0.07303069,-0.04709965,-0.12864265,-0.04666918,0.13723631,0.071501985,-0.07818254,0.09820657,0.107925616,-0.11101377,-0.115207724,-0.14365208,0.10318673,-0.061332863,-0.03489565,0.124294534,0.05065146,0.09397922,-0.110868804,0.094867036,0.108038254,-0.13500154,0.025938984,-0.04191868,-0.047202393,0.11991327,0.075972706,-0.079492204,0.04229208,0.09664976,0.029823704,-0.06606705,0.109584846,-0.13943996,-0.07466984,-0.09297695,0.086449295,0.07832115,0.11380067,-0.09830178,0.06223537,-0.044835635,-0.07933801,-0.1123646,-0.1070434,-0.11386058,0.0850385,-0.014014466,-0.1624966,0.101174966,0.059579387,0.09796469,0.10133281,0.07717527,-0.11773715,0.06431511,-0.096559614,0.087372944,0.1195443,0.05395862,-0.0820505,0.07304665,0.056368012,-0.093292505,-0.054281615,0.06088806,-0.12428438,0.09301031,-0.09567355,0.071685866,-0.09445413,0.063849464,-0.055836342,-0.12129253,0.10265174,0.09511253,0.15784198,0.062646486,-0.10807133,-0.061031044,-0.09953127,-0.102408044,0.07171505,0.105482444,-0.17304705,-0.06806738,-0.052066382,0.061394777,0.082484715,-0.12718606,0.1208485,0.024615547,-0.021153824,0.06886395,-0.08518506,0.09608741,-0.075590044,0.081291065,-0.08018803,-0.09466583,-0.04000181,-0.07150016,0.13255699,0.109871455,-0.121836714,-0.107190095,0.080511436,0.05736299,0.1022291,-0.076992884,-0.09847018,-0.069233134,-0.110485464,0.095909074,-0.093175516,0.023955055,-0.100655995,-0.099251926,-0.015932959,-0.02912746,-0.09884601,0.023333928,-0.020690044,-0.043328147,-0.03621363,-0.10702539,-0.12260596,0.0521593,-0.02037829,-0.13149855,-0.08729965,0.12306663,0.07330288,-0.092182405,-0.100716524,0.043203052,0.034622706,0.045219578,-0.08716143,0.119217105,0.10442011,0.05182235,-0.04785092,0.06907774,0.02437856,0.088065706,-0.079002164,0.09455825,0.041389138,0.092016645,-0.014617327,-0.17009416,-0.08782444,-0.10983039,0.085020505,0.13598084,0.032039315,-0.040546432
0.06109597,0.13411188,-0.11279784,-0.09637606,-0.1304078,-0.099818975,0.09388439,-0.08891426,-0.1117652,-0.06691285,0.15496847,-0.0663656,-0.09661953,-0.10014604,-0.0912454,-0.05759341,-0.07815829,-0.072836064,-0.12326385,-0.10014705,0.02201163,-0.06957544,0.05019657,-0.09711005,-0.08010937,-0.096364245,-0.014501593,-0.049756024,-0.07985431,-0.118994914,0.06810619,-0.039003685,0.08349593,0.081079595,-0.037350196,0.08134741,-0.042217128,-0.13869458,-0.08001127,0.04027611,-0.08660283,-0.12142168,0.05201156,-0.08333143,0.08993792,-0.043425824,-0.028684959,-0.06966295,-0.095728695,-0.068059586,-0.1023459,-0.04400338,0.040311225,0.05189321,0.061026532,-0.08235364,0.07980524,0.10413947,0.07640273,-0.08828122,0.08048342,0.047780376,-0.08536613,0.07264091,-0.10410173,0.07833605,0.098772034,0.123340346,0.034478124,-0.032073837,-0.10520803,0.080944866,0.018313142,0.0362155,0.052646294,0.0894578,0.0558363,0.059785523,-0.09937787,-0.00024504738,0.09791723,-0.12315538,0.10366086,-0.10312031,0.053368554,-0.10366493,0.06382034,0.05144486,-0.17495249,-0.085451126,0.09405199,-0.13893414,-0.07954432,-0.06332178,-0.11521055,-0.12754323,0.19427909,0.052141983,-0.09563324,0.068207026,0.08978546,-0.07071362,-0.11632292,-0.11472822,0.11802296,-0.0995957,-0.04868901,0.09003409,0.120416425,0.041300178,-0.053397834,0.066187546,0.0710985,-0.093312696,0.08130246,-0.042076763,-0.029232457,0.1242504,0.088147774,-0.05767994,0.020627951,0.10251872,0.050709568,-0.03270159,0.08418215,-0.07123902,-0.05184405,-0.09720063,0.148375,0.054412853,0.020089516,-0.14871888,0.025020132,-0.10264862,-0.09515698,-0.043335844,-0.05707733,-0.100676365,0.0722825,0.009019123,-0.1446281,0.061704524,0.03884073,0.0307685,0.12855805,0.06502055,-0.059158113,0.11546013,-0.064891055,0.121962145,0.032174837,0.037673276,-0.11524305,0.09066588,0.0961421,-0.07965763,-0.01773824,0.08786448,-0.10675606,0.09968108,-0.08923891,0.033572126,-0.10362762,0.039747152,-0.06497503,-0.060782433,0.10881363,0.08005869,0.050385747,0.05126827,-0.057473008,-0.07381311,-0.02769083,-0.04778613,0.074824795,0.06007502,-0.096979,-0.026024368,-0.12858362,0.105981454,0.084233634,-0.10485591,0.102573976,0.048824646,-0.06307976,0.030864136,-0.09809111,0.01650031,-0.110989615,0.06357055,-0.06898572,-0.06536605,-0.0987323,-0.034785848,0.04868666,0.061951164,-0.11807967,-0.028754558,0.0529734,0.059472013,0.09930265,-0.100424856,-0.10753129,-0.043852247,-0.053044636,0.0776979,-0.02349796,0.0406336,-0.07814286,-0.07278525,-0.0109132305,-0.08577052,-0.096251056,0.034720797,-0.059380442,-0.08731077,-0.03978286,-0.054387983,-0.0888746,0.07739939,-0.10539836,-0.09949925,-0.09736499,0.046830088,0.114541896,-0.110863656,-0.067287736,0.06617342,0.03452462,0.11802749,-0.08077314,0.08279139,0.07231411,0.086194485,-0.032960318,0.08733063,0.026221566,0.05312834,-0.10335464,0.033325847,0.03441759,0.08290233,-0.034294296,-0.056841522,-0.040889323,-0.06835748,0.045132,0.11840789,0.046927415,-0.12402975
0.09861477,0.13172875,-0.034230225,-0.055446472,-0.09684456,-0.1073074,0.037515517,-0.09347499,-0.10492193,-0.101817936,0.10759341,-0.037521675,-0.0350523,-0.05868499,-0.09608373,-0.09365414,-0.06545915,-0.14469177,-0.11780105,-0.13822836,0.11492467,-0.11928255,0.115264505,-0.06572965,-0.093308665,-0.13282216,-0.08965613,-0.07201398,-0.03463777,-0.041982703,0.0338355,-0.08800839,0.0940835,0.030562766,-0.090173855,0.08747615,-0.07279426,-0.11635208,-0.071179755,0.030067625,-0.10035561,-0.13081093,0.081091605,-0.07109597,0.040281437,-0.077328645,-0.11983198,-0.07926655,-0.07556541,-0.07148248,-0.08371168,-0.12078493,0.08872555,0.11801957,0.03781643,-0.058675554,0.07421133,0.113892026,0.091167666,-0.07390623,0.03742919,0.13215224,-0.045471895,0.06464595,-0.07287591,0.1285965,0.09409451,0.1387301,0.055025,-0.048535306,-0.097851284,0.015955875,0.058473535,0.103932016,0.030149043,0.03755228,0.07869728,0.10216128,-0.10956969,-0.020172719,0.06517272,-0.15744397,0.061490007,-0.09473321,0.025303768,-0.06332154,0.026287451,0.10018009,-0.20288533,-0.05287759,0.05714396,-0.08880532,-0.10679023,-0.0914914,-0.039123308,-0.09226551,0.1464668,0.06767022,-0.059351664,0.05451116,0.12697361,-0.0631244,-0.08960174,-0.13734819,0.06854322,-0.1144133,-0.07951103,0.09723209,0.122609206,0.096327044,-0.12102695,0.1188085,0.050749592,-0.13869025,0.0491619,-0.046307784,-0.103594564,0.13198769,0.028137408,-0.085449256,0.0485236,0.086137064,0.028167043,-0.117203884,0.12001224,-0.115371466,-0.067770384,-0.056829657,0.13732292,0.06515096,0.08223968,-0.043299455,0.08661847,-0.10692133,-0.12057731,-0.036683526,-0.044876825,-0.04376883,0.055435795,-0.068665475,-0.10392448,0.12575002,0.11175036,0.09769835,0.06946749,0.05261103,-0.12415076,0.05240845,-0.13476762,0.059167884,0.124002255,0.059272442,-0.11048343,0.042165495,0.0632929,-0.10859678,-0.06444624,0.085718945,-0.08634368,0.08991805,-0.0466706,0.10114743,-0.10852515,0.121321805,-0.09447165,-0.06945084,0.088967726,0.050706457,0.11586724,0.03591911,-0.027563093,-0.09338896,-0.024034796,-0.069957346,0.073689796,0.07272922,-0.15507272,-0.032429233,-0.057356797,0.061301224,0.036934566,-0.12427556,0.06995706,0.052848987,-0.069118425,0.02551993,-0.12272044,0.06807169,-0.048776478,0.11051839,-0.08077909,-0.04086268,-0.08075203,-0.08533876,0.10236962,0.11033768,-0.054648414,-0.033230748,0.09475083,0.06690246,0.025717301,-0.024859881,-0.13553673,-0.11460378,-0.090341344,0.042994816,-0.08619299,0.119712375,-0.09680345,-0.05618733,-0.050412558,-0.109495364,-0.0920593,0.056465704,-0.036763687,-0.056717888,-0.03691176,-0.052803382,-0.08733809,0.09017907,-0.06906173,-0.11539709,-0.10808181,0.121267475,0.03638444,-0.088886134,-0.04529714,0.10502806,0.0964486,0.055253007,-0.09389388,0.014873264,0.059848815,0.08572515,-0.11824578,0.10506407,0.11749725,0.03432373,-0.090362854,0.03670682,0.07477459,0.061742123,-0.057870004,-0.11254881,-0.08503852,-0.05287446,0.12361577,0.086084455,0.10060049,-0.09521466
0.08924343,0.16578192,-0.09165536,-0.06250918,-0.11127435,-0.029677343,0.111365184,-0.04276741,-0.055591132,-0.10771292,0.14326179,-0.025620297,-0.10691311,-0.019267004,-0.14034216,-0.11109148,-0.09229411,-0.08234502,-0.08189908,-0.11772234,0.025012812,-0.050419603,0.08958688,-0.10285714,-0.06632914,-0.12427938,-0.11184051,-0.061953522,-0.032113105,-0.0977611,0.0968694,-0.13454375,0.08000362,0.060431395,-0.026694998,0.035540607,-0.0959079,-0.06057741,-0.07255926,0.034178503,-0.07820092,-0.039508283,0.057606235,-0.024288915,0.12187501,-0.09585191,-0.100279465,-0.019257309,-0.06371426,-0.1406537,-0.08926729,-0.081606865,0.03619234,0.05049024,0.04262728,-0.06542766,0.032810662,0.031689275,0.13239634,-0.045855463,0.045400638,0.10772737,-0.1122483,0.035689365,-0.1038043,0.097134545,0.12858577,0.14509256,0.030980095,-0.056656633,-0.10246466,0.10137999,0.0702952,0.1000113,0.08708609,0.07499846,0.11941264,0.050161537,-0.068902254,-0.020262174,0.092675894,-0.05962039,0.0655633,-0.09443138,0.10396131,-0.069633,0.11376778,0.08032646,-0.16217938,-0.05402751,0.10665012,-0.05868635,-0.047271017,-0.09574553,-0.08287929,-0.08924557,0.18215963,0.08733521,-0.069740675,0.07873221,0.06700578,-0.08623233,-0.12920931,-0.03719613,0.0640635,-0.033751175,-0.06254569,0.09851369,0.07751376,0.11219075,-0.06628938,0.086921096,0.117919505,-0.057606075,0.071063705,-0.09988577,-0.035791826,0.060062394,0.101171225,-0.03665295,0.06861562,0.11280863,-0.006827275,-0.06293211,0.12187706,-0.07469243,-0.027291704,-0.038764462,0.057565063,0.040772844,0.03995816,-0.11240245,0.045612026,-0.11350263,-0.028519386,-0.053724054,-0.02867277,-0.06935659,0.11150959,-0.073878646,-0.1460799,0.06112324,0.11700393,0.09724473,0.10471383,0.10838744,-0.033577908,0.027358951,-0.06763857,0.10071196,0.056855433,0.077197574,-0.08412869,0.05458252,0.051734317,-0.03352444,0.015853956,0.04979145,-0.111109994,0.05457761,-0.08791147,0.090206675,-0.05906016,0.034452006,-0.1140121,-0.11847434,0.066811845,0.08480469,0.056319516,0.11213506,-0.036592826,-0.10710942,-0.0814212,-0.042735737,0.026849275,0.096954845,-0.13922672,-0.08953221,-0.104180716,0.077688955,0.11661225,-0.07885212,0.12933585,0.06539583,-0.047520056,0.050244853,-0.09412797,0.027944105,-0.024507813,0.110832565,-0.018241273,-0.07274885,-0.036933728,-0.11132372,0.07008082,0.14009021,-0.12315285,-0.024000263,0.10173146,0.024462681,0.07971155,-0.09990757,-0.11197691,-0.06992162,-0.08007763,0.050402164,-0.10802016,0.084150754,-0.061454065,-0.0698861,0.0037449931,-0.04326547,-0.10360066,0.047399465,-0.09651518,-0.07706353,-0.049549606,-0.040695615,-0.031182438,0.08637314,-0.109358825,-0.08971979,-0.08042445,0.12431656,0.052421097,-0.04092473,-0.03583903,0.10862449,0.05997423,0.12320501,-0.06347332,0.07024555,0.08943444,0.08598692,-0.089192994,0.04421441,0.041429278,0.08074649,-0.084070385,0.038976856,0.08857851,0.091621295,-0.050043326,-0.072897956,-0.014762066,-0.10490133,0.099459164,0.10151257,0.107427984,-0.11342987
0.109930255,0.09803939,-0.05226133,-0.1046552,-0.03167689,-0.07066466,0.05941727,-0.07744036,-0.02352329,-0.11617557,0.12408637,-0.07344688,-0.04290371,-0.011484546,-0.037285812,-0.06584933,-0.087659076,-0.12523468,-0.11779112,-0.05442781,0.056930937,-0.0650391,0.04661778,-0.034279082,-0.104027584,-0.0525365,-0.064028434,-0.08149111,-0.11615989,-0.12111775,0.11210057,-0.12015067,0.08002878,0.10410906,-0.0939052,0.016604407,-0.105533555,-0.105548315,-0.04630117,0.117031194,-0.060594592,-0.13165942,0.10413803,-0.02350357,0.048451625,-0.068975516,-0.091063716,-0.036530036,-0.06398998,-0.13052787,-0.10997941,-0.06854054,0.099834174,0.033930913,0.0700875,-0.04863387,0.05562628,0.032968838,0.060191654,-0.076765105,0.049075473,0.112300955,-0.033585537,0.049212683,-0.11512107,0.092936546,0.05802652,0.13503121,0.046905097,-0.055387735,-0.1147451,0.11119082,-0.004940089,0.05590001,0.08388866,0.093377635,0.09396211,0.051920135,-0.058530524,0.06748422,0.083965555,-0.09371346,0.06694294,-0.08056273,0.06855229,-0.043174423,0.07800943,0.11086377,-0.2026294,-0.10884233,0.0874427,-0.048842583,-0.065049246,-0.027902154,-0.057864334,-0.100332655,0.10791012,0.03459207,-0.06931904,0.097652815,0.13239633,-0.07439929,-0.06131265,-0.074031934,0.10257663,-0.062045123,-0.07176397,0.059321675,0.10408289,0.05550073,-0.09550194,0.024608668,0.13465716,-0.055369165,0.10744103,-0.11237713,-0.016763095,0.08707613,0.13274202,-0.08534044,0.04425873,0.12578882,-0.014577348,-0.056739204,0.04885236,-0.08324223,-0.048770584,-0.070370376,0.10711303,0.04717246,0.03739662,-0.06542758,0.11951696,-0.069612645,-0.043676835,-0.085703544,-0.059647597,-0.1119633,0.058538657,-0.0058567277,-0.09935222,0.110990204,0.101677336,0.02058769,0.12704876,0.05781171,-0.063567914,0.038280234,-0.03900951,0.0933422,0.12448106,0.07118204,-0.08187454,0.08398779,0.10183414,-0.045088574,-0.0766383,0.10673308,-0.14473483,0.08702153,-0.06423458,0.11457034,-0.027448554,0.06912701,-0.08715604,-0.1240292,0.048288926,0.12246724,0.096495636,0.08071564,-0.05559821,-0.075011544,-0.08149825,-0.097213954,0.12439485,0.054735947,-0.11118376,-0.02789602,-0.096864305,0.04663268,0.052613933,-0.1017193,0.06629888,0.04002523,-0.08657826,0.09145985,-0.065105975,0.0363326,-0.041330744,0.11038134,-0.074162304,-0.075580634,-0.06765274,-0.100880004,0.12828623,0.08282369,-0.057243694,-0.116527535,0.08205797,0.047031686,0.03311578,-0.06184375,-0.031096453,-0.044193704,-0.13557649,0.10353156,-0.029628992,0.08791941,-0.04570467,-0.107558414,-0.017803563,-0.03780917,-0.03028442,0.052798223,-0.028934773,-0.054406606,-0.072098196,-0.12211191,-0.052998498,0.06356635,-0.09334464,-0.05107582,-0.07693269,0.06129892,0.053050898,-0.06792364,-0.124547794,0.05808987,0.04908504,0.102663785,-0.038845208,0.041273423,0.08656683,0.055049438,-0.09560914,0.088761225,0.019600222,0.086731866,-0.13901815,0.10294708,0.046474423,0.11766174,-0.058764096,-0.05154699,-0.065938905,-0.13062723,0.09242812,0.07342733,0.072687425,-0.037344027
0.10101013,0.13847774,-0.08438852,-0.06247592,-0.10339436,-0.06354869,0.07382392,-0.10008377,-0.028177038,-0.11913996,0.12117872,-0.026510503,-0.067693055,-0.10870626,-0.13074616,-0.05327094,-0.07448384,-0.12814859,-0.088348955,-0.112616815,0.09017133,-0.06681878,0.055973794,-0.03424456,-0.11419344,-0.08431862,-0.02338158,-0.11233373,-0.028637063,-0.11854948,0.033812862,-0.0946188,0.068308994,0.10672689,-0.06148464,0.08903312,-0.12222805,-0.077125065,-0.068771094,0.05024914,-0.095639154,-0.15457343,0.07904347,-0.056286193,0.033411045,-0.0665846,-0.031281024,-0.0902439,-0.09129785,-0.14162268,-0.05276242,-0.086269364,0.089460246,0.08309272,0.104140386,-0.03446521,0.032338727,0.041606996,0.14854042,-0.06873387,0.044629928,0.114020124,-0.04520957,0.047717206,-0.09161914,0.078682184,0.042943887,0.090009496,0.09142351,-0.051677026,-0.0377962,0.10262401,0.008508208,0.12825127,0.040357158,0.036011957,0.09564761,0.10927622,-0.0704974,-0.03200006,0.039668273,-0.14776006,0.0464957,-0.11895499,0.04357853,-0.068753466,0.059067,0.07786472,-0.18089002,-0.095299564,0.10687467,-0.0756532,-0.115720466,-0.1242189,-0.06440923,-0.07314375,0.08503115,0.086292796,-0.083457574,0.06282126,0.088715166,-0.057954133,-0.1265328,-0.10236614,0.1209963,-0.07551205,-0.025157377,0.098645255,0.09181413,0.11353808,-0.028399527,0.061348557,0.1273547,-0.07374582,0.034702316,-0.05645309,-0.078602254,0.09573244,0.057819102,-0.030176623,0.08995586,0.078606844,0.04956506,-0.08204207,0.07633816,-0.05801995,-0.08042733,-0.08114727,0.15526831,0.046793558,0.08203202,-0.107703485,0.08587191,-0.06268387,-0.022384258,-0.036574125,-0.057879336,-0.08550614,0.06756616,-0.015894653,-0.08227429,0.08142631,0.118511215,0.08604319,0.14104803,0.11040495,-0.08184531,0.023005037,-0.14519376,0.040717464,0.03457931,0.06760051,-0.10126703,0.054144092,0.06446732,-0.054942425,-0.045979336,0.015326439,-0.07554568,0.08774851,-0.1034218,0.021269115,-0.0596482,0.07127095,-0.07579014,-0.09851184,0.09563652,0.05995377,0.08232592,0.082843624,-0.07393647,-0.12034799,-0.033665035,-0.061223343,0.10300167,0.06059332,-0.15560119,-0.082194015,-0.051714174,0.08506642,0.047842946,-0.056556486,0.07121281,0.066721655,-0.059355654,0.015620674,-0.078532755,0.01776227,-0.06846671,0.021838814,-0.05479032,-0.084120214,-0.106707305,-0.11305847,0.046458136,0.08862194,-0.12003955,-0.03010097,0.0728805,0.11406002,0.0079977065,-0.03234471,-0.05571076,-0.026186254,-0.09698116,0.060602546,-0.084988795,0.11504378,-0.045420617,-0.052354578,-0.09490021,-0.04333993,-0.0692473,0.06846293,-0.060157698,-0.06185305,-0.024691131,-0.028508922,-0.1110153,0.08554234,-0.105333015,-0.053856213,-0.021941964,0.048153143,0.062077105,-0.061471384,-0.06684518,0.06804267,0.064426444,0.08012576,-0.08270378,0.008369034,0.039359216,0.0628567,-0.04295032,0.04020036,0.083619334,0.06774773,-0.1378613,0.06927116,0.10548248,0.046890546,-0.058209416,-0.05732107,-0.09192539,-0.087339595,0.035240572,0.10642641,0.10933749,-0.079778455
0.11212116,0.10587909,-0.089820564,-0.04168011,-0.106854975,-0.03562509,0.092397444,-0.07954793,-0.10230651,-0.051430997,0.08060909,-0.06245894,-0.02854945,-0.023483252,-0.06870441,-0.11900172,-0.118339434,-0.1444095,-0.108826764,-0.14020523,0.08560818,-0.09991859,0.032006238,-0.10556758,-0.12360564,-0.033619963,-0.08823892,-0.08940073,-0.066747695,-0.06833725,0.10871134,-0.09584716,0.07108823,0.056753173,-0.09274036,0.050724454,-0.09099141,-0.13558885,-0.12343088,0.1012694,-0.06750743,-0.109509334,0.051117636,-0.07277542,0.07152681,-0.091293365,-0.08037725,-0.07007341,-0.078603975,-0.117900044,-0.052302007,-0.09293305,0.06195502,0.11506001,0.066086896,-0.046526574,0.06392731,0.11787333,0.10105788,-0.099721216,0.0627741,0.1001029,-0.04416691,0.066925645,-0.08981549,0.06354016,0.066409916,0.12572075,0.05027164,-0.06990341,-0.11259008,0.035812765,0.055023354,0.04297228,0.02054163,0.043837335,0.11378891,0.087553,-0.1084665,0.039730035,0.043649036,-0.11677514,0.04666434,-0.0958049,0.08073347,-0.06609743,0.09699848,0.10654552,-0.2045233,-0.043085843,0.052044544,-0.102041185,-0.072131716,-0.114902854,-0.062282156,-0.09535956,0.14374419,0.072297625,-0.101100884,0.11293235,0.122277796,-0.036127433,-0.10622076,-0.04948273,0.02676014,-0.075122245,-0.091411725,0.08042685,0.034231577,0.03501845,-0.09939737,0.050615143,0.1206489,-0.15607059,0.09829519,-0.10877834,-0.065489754,0.08070213,0.070924826,-0.10239391,0.10934273,0.112877764,0.03185542,-0.09928112,0.13226688,-0.098976664,-0.03682771,-0.10947196,0.063860916,0.12904899,0.07190659,-0.115733035,0.037581198,-0.066975944,-0.09644765,-0.12048355,-0.11317246,-0.06180537,0.05008845,-0.062430747,-0.11613149,0.036739446,0.036078356,0.11572886,0.06307556,0.08442946,-0.054606434,0.025101101,-0.10638104,0.100405864,0.06431776,0.03798042,-0.113409914,0.003133928,0.08285112,-0.08538143,-0.05766493,0.05209643,-0.14632301,0.02639201,-0.06467748,0.08897971,-0.048201095,0.06037695,-0.062746055,-0.084627815,0.085630834,0.058367435,0.037647355,0.04142764,0.011416584,-0.042860154,-0.09263486,-0.09505088,0.12952618,0.034621306,-0.08148657,-0.061610952,-0.12184174,0.12681651,0.026329344,-0.04333675,0.13527825,0.07742094,-0.045428775,0.043562222,-0.028048143,0.031832624,-0.04879076,0.1041412,-0.038651217,-0.09724643,-0.11907932,-0.060388487,0.121335156,0.12516508,-0.11955132,-0.097259,0.08192909,0.065689206,0.06922492,-0.11668339,-0.08592313,-0.08574035,-0.09861117,0.0640084,-0.028173067,0.08050643,-0.12130879,-0.12863804,-0.034557823,-0.114523694,-0.06785669,0.08998422,-0.044105973,-0.08159735,-0.057002656,-0.08521274,-0.06842957,0.032153327,-0.061525475,-0.11728078,-0.07232118,0.07221911,0.070802696,-0.06858124,-0.03863951,0.103901684,0.08900673,0.049941096,-0.03250162,0.07590278,0.12459031,0.06918078,-0.11707412,0.06471342,0.087400645,0.1091114,-0.053680025,0.09296021,0.03338021,0.096320756,-0.05974758,-0.15052466,-0.073298365,-0.09368208,0.075909846,0.13122824,0.025000364,-0.081226975
0.124139674,0.14755808,-0.053329296,-0.09787902,-0.079466544,-0.0562173,0.062062148,-0.07908924,-0.06030502,-0.11454864,0.119921915,-0.034856126,-0.07792116,-0.024615841,-0.118587375,-0.047122367,-0.033270925,-0.1617898,-0.07233131,-0.068697155,0.03619352,-0.032358795,0.077707686,-0.11895211,-0.101368025,-0.07430258,-0.010900848,-0.06432617,-0.022079634,-0.052289605,0.029438578,-0.08492915,0.0270133,0.0694191,-0.046237614,0.045937035,-0.080392264,-0.0846217,-0.06908017,0.07406566,-0.08421168,-0.098685615,0.04005838,-0.10308507,0.05128575,-0.015270383,-0.061349727,-0.09250014,-0.041543037,-0.10993988,-0.066212796,-0.0386851,0.039083436,0.026635347,0.09636481,-0.06305955,0.08440281,0.06450434,0.08382981,-0.038387246,0.10548975,0.13946646,-0.10705288,0.06265338,-0.058968317,0.10876887,0.06830517,0.1347988,0.09998457,-0.050632928,-0.0320735,0.07072266,-0.009160257,0.06740418,0.09718357,0.1237284,0.09094126,0.021538926,-0.0847202,-0.02051741,0.07557901,-0.12578015,0.07136206,-0.053669363,0.085575126,-0.0686269,0.05972563,0.1242856,-0.08653405,-0.07607402,0.033415362,-0.1448281,-0.036007855,-0.08461474,-0.105162136,-0.112568066,0.102607474,0.02102371,-0.037561603,0.10270262,0.080715634,-0.07663553,-0.0695346,-0.058839075,0.0454011,-0.052514996,-0.04781096,0.1058983,0.06598517,0.06708333,-0.028347895,0.08584426,0.082844764,-0.06399869,0.04627973,-0.02812501,-0.09320925,0.14602324,0.060606718,-0.08613167,0.037497863,0.07311251,-0.027541429,-0.060810138,0.044839,-0.06955914,-0.07515986,-0.028429957,0.10797672,0.04593431,0.09339274,-0.08962083,0.043959398,-0.1003498,-0.076298214,-0.064212196,-0.113606095,-0.08157529,0.047236092,-0.0095670335,-0.12543619,0.13428055,0.032106344,0.051161535,0.107514136,0.08917845,-0.076621704,0.023184452,-0.02686754,0.08230252,0.05918223,0.10416093,-0.050546452,0.06282971,0.05868481,-0.11091095,-0.02151064,0.107986756,-0.15593544,0.039599665,-0.08668782,0.08614004,-0.07815238,0.027455328,-0.0861458,-0.079830386,0.0631915,0.04742482,0.12032668,0.076313525,-0.07875889,-0.074477635,-0.082792476,-0.11843636,0.019196646,0.063617006,-0.15477717,-0.0977619,-0.041928343,0.11449406,0.08487077,-0.11335165,0.09465765,0.066097155,-0.06926142,0.04647985,-0.10489648,0.09217025,-0.09067622,0.08365884,-0.0965858,-0.08999538,-0.03773415,-0.06444368,0.0710228,0.16098608,-0.11307599,-0.0924265,0.106732324,0.030420538,0.016716203,-0.0645859,-0.06858928,-0.09787554,-0.11610075,0.08888864,-0.11976928,0.060571495,-0.087317996,-0.052815776,-0.022805389,-0.10422201,-0.08380277,0.099486694,-0.075661935,-0.08549326,-0.030252654,-0.09441173,-0.08002015,0.033053596,-0.023610853,-0.07039676,-0.099358015,0.122102186,0.06187721,-0.017334232,-0.09528665,0.04366808,0.055927686,0.047404725,-0.03319497,0.029108962,0.106607616,0.074498475,-0.03635159,0.027380185,0.020297272,0.07552935,-0.123352565,0.013484441,0.11821171,0.08280913,-0.11233852,-0.08772871,-0.04919078,-0.10063365,0.07654942,0.07584142,0.032409336,-0.0722712
0.049887,0.08243861,-0.10938462,-0.0855232,-0.06432951,-0.023861289,0.118324116,-0.07283205,-0.04322626,-0.08843125,0.07754767,-0.058805056,-0.038705524,-0.08526982,-0.12071948,-0.08324274,-0.06196889,-0.06140112,-0.09087988,-0.042919654,0.06645526,-0.047290806,0.080327906,-0.08805119,-0.044880755,-0.057312764,-0.022817923,-0.06523615,-0.06997228,-0.11313401,0.041786972,-0.13187453,0.10503439,0.066996925,-0.029426014,0.059317347,-0.085510775,-0.093782134,-0.05970226,0.064075135,-0.12385293,-0.10221832,0.12280921,-0.043660812,0.12170938,-0.10059938,-0.07376778,-0.10783277,-0.11370737,-0.080561385,-0.08283648,-0.11866782,0.08143428,0.0408755,0.12654872,-0.07654774,0.118886806,0.11036714,0.12071705,-0.10240954,0.09503462,0.051708043,-0.05933649,0.043493338,-0.073835135,0.056799233,0.121031076,0.15689526,0.0340732,-0.051158037,-0.09972573,0.1094035,0.006935247,0.13156271,0.12062375,0.10388099,0.091125295,0.03526371,-0.06919246,0.0042451858,0.08984245,-0.10044437,0.0774531,-0.09000147,0.059277106,-0.11934097,0.043707803,0.109928474,-0.10042161,-0.06813032,0.04738642,-0.056006636,-0.029510146,-0.11020861,-0.09536598,-0.07408193,0.09824986,0.07533122,-0.09136818,0.09831692,0.09684031,-0.048298646,-0.041467804,-0.108397976,0.05076951,-0.11619401,-0.12038524,0.047011636,0.029750183,0.041105203,-0.065495856,0.09564357,0.066937365,-0.13424647,0.08540779,-0.085056685,-0.10173435,0.1292586,0.056695327,-0.042349603,0.0899796,0.12530303,0.057670496,-0.07356162,0.11223542,-0.08154976,-0.1055979,-0.062493306,0.107174106,0.07394775,0.033218566,-0.07287101,0.084276535,-0.059268642,-0.11464717,-0.037572436,-0.078272216,-0.03225986,0.055737246,-0.029259346,-0.077154085,0.08542207,0.03140892,0.10145746,0.12002085,0.09551468,-0.06593498,0.0941134,-0.071470104,0.05360352,0.079202905,0.06266452,-0.034717448,0.098074235,0.113878034,-0.0865276,-0.036247067,0.087478824,-0.13012156,0.08231051,-0.027943874,0.09572068,-0.10059627,0.12965216,-0.06552326,-0.030106766,0.099395365,0.046369497,0.061020218,0.11657874,-0.07551035,-0.09981682,-0.03840859,-0.046456285,0.03596666,0.08739555,-0.12006455,-0.020449867,-0.1226252,0.041530687,0.1130541,-0.12022086,0.1273071,0.069103025,-0.06718686,0.07541465,-0.077274136,0.06758893,-0.06701955,0.06428363,-0.025074765,-0.056634355,-0.08478134,-0.06104533,0.051374365,0.052071396,-0.036263984,-0.08102941,0.08080105,0.10166619,0.052315407,-0.033919647,-0.07782443,-0.041490648,-0.1336069,0.10701113,-0.09367648,0.098443724,-0.1022932,-0.053648733,-0.06761263,-0.051986046,-0.049248956,0.039971374,-0.11344008,-0.11471577,-0.06864396,-0.07146528,-0.06129881,0.08520792,-0.08595234,-0.098080985,-0.030129395,0.052074295,0.09591154,-0.1038341,-0.05164449,0.031019602,0.11337631,0.09576446,-0.085707225,0.01980713,0.033462904,0.07188778,-0.04854048,0.068767615,0.032898974,0.02391547,-0.043698605,0.037771583,0.0994737,0.03461115,-0.09115783,-0.127244,-0.08160619,-0.11467905,0.057393897,0.08924813,0.02979058,-0.049763773
