0,1,2,3,4,5,6,7,8,9,10,11,12,13,14,15,16,17,18,19,20,21,22,23,24,25,26,27,28,29,30,31,32,33,34,35,36,37,38,39,40,41,42,43,44,45,46,47,48,49,50,51,52,53,54,55,56,57,58,59,60,61,62,63,64,65,66,67,68,69,70,71,72,73,74,75,76,77,78,79,80,81,82,83,84,85,86,87,88,89,90,91,92,93,94,95,96,97,98,99,100,101,102,103,104,105,106,107,108,109,110,111,112,113,114,115,116,117,118,119,120,121,122,123,124,125,126,127,128,129,130,131,132,133,134,135,136,137,138,139,140,141,142,143,144,145,146,147,148,149,150,151,152,153,154,155,156,157,158,159,160,161,162,163,164,165,166,167,168,169,170,171,172,173,174,175,176,177,178,179,180,181,182,183,184,185,186,187,188,189,190,191,192,193,194,195,196,197,198,199,200,201,202,203,204,205,206,207,208,209,210,211,212,213,214,215,216,217,218,219,220,221,222,223,224,225,226,227,228,229,230,231,232,233,234,235,236,237,238,239,240,241,242,243,244,245,246,247,248,249
0.12284315,0.09840793,0.06465597,-0.03697234,0.07469395,-0.10182858,0.07999805,-0.08230749,0.03219087,-0.026989548,-0.043826696,-0.16444798,0.030915078,-0.03076564,0.048614454,0.10689303,0.07031469,0.033936102,0.10402112,0.06864114,0.064893685,0.04562155,0.053978894,-0.111714005,-0.08607353,-0.096054286,0.08528833,-0.08019258,0.07054746,0.04075468,0.0738433,-0.07675189,-0.04167375,-0.0858703,-0.07980984,0.041254286,0.02937151,0.10132858,0.052446246,0.08666804,-0.085618004,0.052950572,0.073875494,-0.040903762,0.103687,0.11421055,0.11416501,0.024911955,-0.046825152,0.079923734,0.101552054,0.04647976,-0.10204335,-0.038679633,0.03941495,-0.2029654,-0.059749212,0.0657648,-0.04624776,-0.024236418,-0.06477682,0.13018861,-0.09167413,0.031963218,-0.097682394,0.10069512,-0.04583388,-0.05878851,-0.113910176,0.12406094,0.06940647,-0.112319745,-0.054097615,0.13413438,-0.033729065,0.15545332,0.0645254,-0.057606414,-0.108156,-0.087066114,-0.04525178,0.03871615,0.050028697,0.034351338,0.059060507,0.1102425,0.13382885,0.01607594,-0.038544957,0.12680027,0.10825661,-0.039309908,-0.088835336,-0.14041096,-0.10986014,0.052437857,-0.042413518,-0.057153583,0.106734216,-0.124096274,-0.12337787,0.0713474,0.10592634,0.021114279,-0.08403548,0.13190652,-0.07305631,0.023501804,-0.10719516,0.056140576,0.0489461,0.06421847,-0.019829249,-0.07266267,0.099263385,-0.11066117,-0.09970626,0.06458905,-0.09137338,-0.10542076,0.045438346,0.10788891,-0.1008088,0.08863862,-0.020027932,-0.12350081,-0.09366047,0.070628986,-0.03310415,0.035135478,-0.08963002,0.08778332,-0.068440415,0.10586704,0.0387937,-0.06908356,0.0641501,0.046595503,-0.06402803,0.07438093,0.0756021,-0.07657249,0.04217938,0.081597716,-0.105151616,0.033738248,-0.035129,0.06163295,-0.08794025,0.07136388,0.045815658,-0.11529827,0.041622646,0.1119655,-0.05288246,0.09003462,0.038947523,-0.09457898,0.07965304,-0.014036358,0.10310612,0.08192692,-0.120665476,0.050915502,0.053445213,-0.022628313,0.08140105,0.048761506,-0.068271674,0.07295911,0.09858244,0.090624325,-0.028090736,-0.1042302,0.10944789,0.05989578,-0.08913614,-0.034758333,0.06638655,0.09469374,-0.047842085,-0.08867432,-0.053524222,-0.0032554828,0.093666606,0.043078724,0.09851073,-0.058183525,-0.12724699,0.094519645,-0.06377535,0.09505866,-0.07545629,-0.06422064,0.15395463,-0.15116887,-0.02515842,-0.110914215,0.11018625,-0.04267306,0.11179584,-0.01690808,0.053082667,-0.13342449,-0.11822535,0.0611334,0.119079396,0.065692134,-0.055586208,0.032972768,-0.068229906,-0.029922554,-0.09756302,0.08548053,0.08407535,0.064160645,0.0885886,-0.03741253,0.11213547,-0.124489434,0.09163249,-0.026800008,-0.093737714,0.06716657,0.07436446,-0.056338314,0.07010326,-0.040389072,0.11344088,0.09575518,0.08598631,0.11168276,0.11494107,-0.09814129,-0.047539983,-0.054761168,0.036873534,0.032723725,-0.114574514,0.026455998,0.104097724,-0.11285529,0.06431764,0.13268808,-0.10927678,0.07879229,-0.03688535,0.023352124,-0.12701787,-0.10493386
0.13129355,0.04969856,0.114265546,-0.03405095,0.11784758,-0.05823279,0.10968408,-0.05206497,0.108092055,-0.07701592,-0.084908515,-0.06991494,0.10968053,-0.058564596,0.079830214,0.08572343,0.11265461,0.11206132,0.092749156,0.10242139,0.059029713,0.09564275,0.04380662,-0.04526881,-0.037495002,-0.06516694,0.04669948,-0.043800812,0.04255671,0.018085133,0.16922666,-0.09722419,-0.08691192,-0.11504627,-0.0357778,0.052314438,0.03857754,0.08206584,0.034638006,0.07612302,-0.06894308,0.049026795,0.0274524,-0.11527446,0.06693799,0.095771685,0.05138223,0.056134187,-0.06322613,0.0463484,0.09307633,0.035902824,-0.122171745,-0.09124391,0.11165168,-0.166897,-0.122875676,0.10956114,-0.0648701,-0.10980726,-0.094168015,0.053260677,-0.06525823,0.0758794,-0.040266413,0.06070057,-0.054614548,-0.13147435,-0.071042635,0.0773282,0.12298294,-0.06591577,-0.057447314,0.09858611,-0.04915073,0.16559537,0.06404867,-0.039599568,-0.12480681,-0.03869596,-0.059397783,0.12477088,0.021360662,0.02727325,0.07946504,0.08031033,0.051612414,0.030440945,-0.10489725,0.05304904,0.078712866,-0.084339626,-0.05751948,-0.08503763,-0.038015626,0.11484714,-0.06973043,-0.14616999,0.08754816,-0.096808635,-0.032201406,0.034687262,0.08363314,0.012537207,-0.04525187,0.07895761,-0.094255865,0.020346092,-0.06837091,0.040716372,0.115018375,0.07412057,-0.034820214,-0.10849302,0.11926311,-0.032275,-0.14304234,0.1477954,-0.10261114,-0.10924053,0.13279645,0.1063916,-0.12351674,0.11077732,-0.040579543,-0.044736024,-0.035639495,0.113618195,-0.06302262,0.09622314,-0.103086084,0.106011815,-0.10335221,0.04869134,0.119782306,-0.054677367,0.029457128,0.071631275,-0.084626265,0.06081547,0.027635932,-0.0399234,0.03700496,0.07243612,-0.056435015,0.06363463,-0.10210787,0.12677246,-0.069544084,0.07071186,0.025212001,-0.059795275,0.040840946,0.1065507,-0.07798597,0.10782527,0.08652363,-0.043106176,0.08869834,-0.05816927,0.07168116,0.108368404,-0.075657785,0.07462085,0.056081273,-0.019404326,0.07902665,0.08828393,-0.0892729,0.061359756,0.08461404,0.08124717,-0.09169553,-0.0716275,0.08093879,0.10989692,-0.13439405,-0.10063664,0.033961333,0.032215748,-0.06890841,-0.1089735,-0.096197814,-0.054295063,0.04031078,0.06738633,0.02592325,-0.08769952,-0.048913483,0.0539424,-0.031963613,0.035230592,-0.07952979,-0.113016844,0.09128961,-0.124476224,-0.036219347,-0.1439996,0.039329514,-0.05431258,0.13533506,-0.07815031,0.082960606,-0.07365465,-0.16931042,0.031801265,0.14157273,0.12427219,-0.057543647,0.08802769,-0.03691504,-0.10012192,-0.0775819,0.07999255,0.12022064,0.13034888,0.10859343,-0.074204504,0.08933327,-0.09695409,0.046727154,-0.06191172,-0.1023492,0.08329379,0.097418495,-0.072832115,0.105123416,-0.0967858,0.064139366,0.06469713,0.067133285,0.08967001,0.06509179,-0.12634543,-0.049448345,-0.13242012,0.06368863,0.08362717,-0.13369656,0.097923875,0.03850177,-0.07342586,0.058489464,0.094130196,-0.09866185,0.10191052,-0.054557618,0.071270764,-0.096720465,-0.116630375
0.058971055,0.029138211,0.065543346,-0.08135837,0.13008603,-0.02085561,0.12272579,-0.052738633,0.08773676,-0.074187934,-0.06817,-0.06848424,0.1159752,-0.11157287,0.0552537,0.10219592,0.037332166,0.10869076,0.09341121,0.11055534,0.06928531,0.08878421,0.1181771,-0.05549409,-0.05215898,-0.07225613,0.14130977,-0.07817919,0.002923364,0.09718642,0.11254808,-0.058748208,-0.11437951,-0.11238215,-0.09418524,0.08887649,0.05351014,0.09744755,0.10574119,0.124175,-0.12924586,0.031646498,0.11621257,-0.034230094,0.0540784,0.1363165,0.053368878,0.038040888,-0.10881688,0.058452494,0.08405561,-0.017947713,-0.08091301,-0.07750859,0.06311385,-0.101049855,-0.13124473,0.047297835,-0.057773527,-0.084038034,-0.09567364,0.042706463,-0.017737385,0.096519746,-0.07102289,0.085424274,-0.04130246,-0.057402514,-0.050390474,0.060016144,0.034343686,-0.108489916,-0.06452005,0.10624562,-0.045109294,0.09775454,0.064767644,-0.059689946,-0.04585081,-0.020417295,-0.058595274,0.049648486,0.038225543,0.066024184,0.09752731,0.11462005,0.13399822,0.04319775,-0.104532555,0.048684515,0.12998015,-0.082403146,-0.10573877,-0.094231896,-0.08034495,0.094499364,-0.08474537,-0.075244404,0.09652153,-0.068859905,-0.088221416,0.093288004,0.04687795,0.09498534,-0.069679625,0.08026148,-0.07691517,0.035582703,-0.08563829,0.10868718,0.079340756,0.022200966,-0.065631226,-0.09263236,0.11267118,-0.03571472,-0.06532582,0.09031362,-0.108256824,-0.09829883,0.10723236,0.06633216,-0.10199257,0.10918666,-0.11417832,-0.09976677,-0.114372306,0.10940487,-0.03991023,0.113455,-0.03909008,0.09246339,-0.065066755,0.11474684,0.121302076,-0.11585962,0.042280328,0.027457526,-0.0781669,0.049907796,0.0703319,-0.09021493,0.042267945,0.055738557,-0.040592052,0.07211034,-0.091090076,0.12634096,-0.08038829,0.044237718,0.050391536,-0.0749235,0.13051455,0.117068104,-0.10070522,0.05917123,0.041906007,-0.049408663,0.10459393,-0.039458763,0.06828931,0.119547695,-0.078764476,0.077962354,0.10516893,-0.095342375,0.05140026,0.12203211,-0.051384836,0.103309155,0.038059063,0.114072226,-0.05824021,-0.06389734,0.034145128,0.059258748,-0.06425156,-0.06386725,0.054460373,0.07822329,-0.0837397,-0.12596451,-0.07504203,-0.021256987,0.07562117,0.06395613,0.117096946,-0.07269609,-0.07570482,0.088401504,-0.08448983,0.07643823,-0.07035248,-0.071386375,0.05830758,-0.071250364,-0.08454106,-0.095100224,0.12548494,-0.06705855,0.058929168,-0.04159986,0.07081928,-0.10272849,-0.1693391,0.10700315,0.07333001,0.030526267,-0.020834342,0.05263781,-0.0381177,-0.036562636,-0.12331586,0.026892886,0.074278824,0.03080285,0.08545143,-0.063425235,0.033783644,-0.09949678,0.09624373,-0.08184354,-0.12725073,0.10780649,0.09440299,-0.09867253,0.017573649,-0.104525104,0.05892956,0.050621416,0.057962578,0.15357699,0.053620268,-0.06761398,-0.11582389,-0.058805984,0.06447451,0.10553666,-0.047760848,0.047198437,0.027274318,-0.11393869,0.07536523,0.09103064,-0.07108193,0.020975864,-0.03608844,0.018089809,-0.085519396,-0.081578396
0.08831726,0.10951208,0.12205062,-0.0774295,0.039915342,-0.066029474,0.08709181,-0.076760896,0.11545805,-0.07620618,-0.117385976,-0.044311374,0.10546665,-0.11541954,0.0842648,0.13947582,0.025649117,0.0434569,0.042097945,0.031571638,0.10872341,0.10415799,0.13296616,-0.11829446,-0.1153831,-0.08586334,0.10540119,-0.057753436,-0.021804083,0.120178364,0.079334594,-0.08387053,-0.03194305,-0.043322828,-0.08719029,0.07268897,0.0160043,0.060626283,0.11961948,0.069958396,-0.092961624,0.05497165,0.07865652,-0.08753914,0.100623176,0.051070414,0.12638071,0.052672405,-0.042060558,0.13111718,0.058676936,0.0045515373,-0.0502822,-0.09995526,0.042566247,-0.083209045,-0.089732185,0.04904756,-0.09769901,-0.078938745,-0.05801018,0.13469736,-0.055244293,0.10406647,-0.08871044,0.07653043,-0.094759785,-0.07063753,-0.08740769,0.07955866,0.035173733,-0.058036964,-0.05497893,0.14013442,-0.09394033,0.06825172,0.11438414,-0.110782996,-0.083837055,-0.12448169,-0.11978864,0.07667433,0.059617084,0.05034217,0.054132365,0.07197824,0.1206592,0.101924665,-0.106094785,0.047752075,0.08700944,-0.1294147,-0.094334096,-0.11010716,-0.07084953,0.05059092,-0.1224636,-0.044260666,0.07145409,-0.046506137,-0.047235083,0.12258368,0.0861723,0.0674342,-0.10679826,0.06968348,-0.10268328,0.044635236,-0.10160236,0.08428193,0.051056907,0.07169556,-0.08270915,-0.10920119,0.097318694,-0.12745826,-0.09790513,0.10321168,-0.03709308,-0.02646236,0.10150441,0.056482125,-0.06878188,0.0727059,-0.09028465,-0.05149828,-0.02357517,0.085433155,0.026276588,0.0817951,-0.11744903,0.11882668,-0.15270942,0.093555,0.040651355,-0.091229,0.03886396,0.03794749,-0.023599463,0.08155208,0.10901652,-0.056510564,0.06131546,0.08124068,-0.060605805,0.10317451,-0.039268117,0.053729217,-0.03889461,0.1179392,0.11513681,-0.10112459,0.12561083,0.089456774,-0.031258985,0.112092115,0.11544816,-0.111982286,0.05423255,-0.06979625,0.048130117,0.042020556,-0.06358744,0.051588897,0.054937985,-0.04164618,0.05485602,0.11950929,-0.12567917,0.0514431,0.07772292,0.061906002,-0.050510377,-0.12126162,0.05902343,0.118173204,-0.06291404,-0.08321291,0.101908416,0.05744782,-0.08322506,-0.029330572,-0.12022158,-0.0855892,0.03159043,0.11399562,0.12040165,-0.12744433,-0.059818514,0.12513126,-0.124382526,0.08655504,-0.08616218,-0.10775267,0.06047128,-0.092702344,-0.058759674,-0.08851028,0.09721707,-0.04141503,0.110066816,-0.101489775,0.088394016,-0.11035338,-0.11545606,0.081552714,0.13259666,0.056774758,-0.046473943,0.03648633,-0.08481347,-0.036032356,-0.034627337,0.10510181,0.08543801,0.12504919,0.055205844,-0.08182967,0.10140724,-0.12648833,0.06847257,-0.1177785,-0.1303152,0.10934243,0.071211204,-0.0898426,0.08289898,-0.12784842,0.10951129,0.04578614,0.047949623,0.06392624,0.104764864,-0.09247637,-0.08129823,-0.09524927,0.05599952,0.107478835,-0.056771696,0.107225485,0.10977078,-0.07670207,0.05310577,0.13216378,-0.03495329,0.046716474,-0.09436436,0.09642697,-0.12537988,-0.064394854
0.115471706,0.030509567,0.049199976,-0.110140994,0.14118211,-0.014170015,0.10888958,-0.07467613,0.05835801,-0.043729294,-0.13028918,-0.07982534,0.033021368,-0.09909939,0.09706075,0.12911536,0.10538956,0.12151707,0.10953543,0.085302524,0.072122455,0.04125654,0.037869867,-0.11536886,-0.111672334,-0.09566343,0.049176924,-0.10870717,0.03003171,0.03519011,0.110876106,-0.0414777,-0.0845939,-0.05058172,-0.11019939,0.04964501,0.10325878,0.020850388,0.101377286,0.09152788,-0.13655895,0.044832442,0.08439434,-0.10202811,0.02602791,0.038764454,0.044817794,0.095453314,-0.039384823,0.040220004,0.08203675,-0.022872338,-0.09103854,-0.042494956,0.12203207,-0.13810189,-0.120458536,0.060672384,-0.068742424,-0.1096722,-0.1251129,0.047222517,-0.11150545,0.041382305,-0.11192021,0.11076464,-0.033978708,-0.10703874,-0.03922646,0.10732835,0.08124351,-0.08405039,-0.09638215,0.17612906,-0.036244564,0.099898905,0.036594436,-0.048423428,-0.13173726,-0.10742547,-0.098130375,0.10442278,0.04950477,0.1134878,0.03413844,0.08935867,0.055877626,0.106623404,-0.10419495,0.048160437,0.10545792,-0.04457479,-0.090466835,-0.09653385,-0.034363657,0.04868617,-0.05853023,-0.03461536,0.04568919,-0.05839023,-0.079383634,0.052983873,0.04806277,0.0416948,-0.083410904,0.12501451,-0.046019267,0.08669073,-0.09630311,0.035490464,0.073587865,0.043401957,-0.1011993,-0.06299847,0.03548927,-0.106199965,-0.09049052,0.11543873,-0.05135989,-0.090574615,0.09330035,0.101756796,-0.09273394,0.11703282,-0.06649831,-0.106739596,-0.029277043,0.056594614,-0.051429737,0.0788232,-0.0638488,0.051377863,-0.085799955,0.094329424,0.07646082,-0.10488678,0.0953337,0.11991306,-0.07254071,0.09601677,0.098475926,-0.067190565,0.09515096,0.115151845,-0.11032467,0.0524489,-0.07192904,0.07286358,-0.108830005,0.13353473,0.10323403,-0.10000255,0.07972891,0.06315816,-0.049214564,0.084420666,0.08203099,-0.039509118,0.10200332,-0.045597207,0.10282501,0.10917693,-0.09952129,0.056376494,0.0861428,-0.034041792,0.081319146,0.1282591,-0.039402757,0.12271755,0.07087174,0.08336745,-0.12665717,-0.119401544,0.09162887,0.12780719,-0.04327197,-0.061858457,0.056888495,0.12681265,-0.078809865,-0.07968189,-0.09552558,-0.056712475,0.102117844,0.03629773,0.13138233,-0.117992565,-0.074170016,0.09378421,-0.060281195,0.032619473,-0.111765794,-0.10848367,0.09157788,-0.15182252,-0.045098413,-0.1277684,0.08633936,-0.09241256,0.107893415,-0.10937017,0.06904223,-0.09605048,-0.16733176,0.06312094,0.12163118,0.04610034,-0.08764535,0.078522496,-0.08517983,-0.09181153,-0.057745744,0.07548276,0.13653825,0.040221814,0.044054925,-0.044274762,0.04896442,-0.078840606,0.08054287,-0.11648674,-0.08263126,0.036178805,0.06507986,-0.06702063,0.08282508,-0.07770784,0.0916207,0.027878605,0.11534857,0.09692339,0.0595512,-0.09835651,-0.059208892,-0.1429072,0.07439885,0.07008387,-0.085420854,0.086061135,0.07820062,-0.09189253,0.077373885,0.13566527,-0.125852,0.034810875,-0.0612225,0.10895094,-0.03723065,-0.0861718
0.098374255,0.047018934,0.063263424,-0.112907395,0.049427003,-0.051120732,0.047352,-0.082316115,0.08078168,-0.05194365,-0.08494133,-0.13876265,0.039310623,-0.07228866,0.0657645,0.058362216,0.07333085,0.076210976,0.039240796,0.026262674,0.08308824,0.07071159,0.091935664,-0.09130397,-0.045114778,-0.047563277,0.10583622,-0.03163077,0.09212305,0.027755497,0.1205448,-0.06249081,-0.11474942,-0.103598334,-0.07917704,0.092752054,0.065965585,0.07021384,0.12407552,0.12016186,-0.041757368,0.020823933,0.04132606,-0.12841463,0.039212182,0.08153923,0.06361812,0.07774488,-0.04499556,0.07283623,0.11761723,0.029263267,-0.09624219,-0.042449806,0.097955644,-0.0878776,-0.059343576,0.05059654,-0.0880344,-0.047438346,-0.12622981,0.082711585,-0.102776125,0.090552114,-0.06952595,0.07826893,-0.0149419075,-0.11068999,-0.084538646,0.09083221,0.11490363,-0.10239396,-0.053981338,0.10762397,-0.09736225,0.08445046,0.06764423,-0.04020299,-0.030243447,-0.07043741,-0.021735294,0.11685276,0.046677917,0.06122694,0.12216441,0.08571618,0.06688493,0.07124523,-0.06774158,0.09581566,0.10652606,-0.09428443,-0.09331696,-0.13218392,-0.07935516,0.05552301,-0.10563113,-0.050389644,0.07824912,-0.044763047,-0.03758557,0.1007463,0.09994904,0.022189733,-0.0713059,0.12309356,-0.11729163,0.08095715,-0.11874847,0.026531087,0.07070164,0.09093116,-0.09043486,-0.07206919,0.042002544,-0.08356445,-0.07170239,0.08237514,-0.10867632,-0.097076826,0.1083958,0.051285353,-0.09443569,0.060600057,-0.09924039,-0.10168759,-0.060039524,0.09371242,0.00023399216,0.045141883,-0.023672594,0.03509156,-0.13307829,0.063048966,0.06839826,-0.07673724,0.07074899,0.10458858,-0.10745548,0.106959864,0.016407441,-0.12207593,0.03524087,0.118381605,-0.07458233,0.06869591,-0.07998079,0.07524093,-0.11611178,0.06827034,0.088493295,-0.020763954,0.071488634,0.108886324,-0.07367127,0.11886393,0.12779124,-0.047180608,0.04627377,-0.04174246,0.05570185,0.12560591,-0.03516184,0.122005664,0.11329579,-0.06869745,0.083754525,0.13383262,-0.043744363,0.064335994,0.053947724,0.03630656,-0.104752444,-0.1223545,0.034281056,0.05806659,-0.090552196,-0.067406885,0.08558562,0.09878657,-0.05677127,-0.042196527,-0.07238505,-0.033125106,0.036566768,0.12003552,0.13096052,-0.12436314,-0.056795415,0.08365938,-0.08622059,0.052462615,-0.107155226,-0.118855484,0.07426209,-0.1485615,-0.06759605,-0.055680003,0.05234753,-0.042832777,0.07871524,-0.07324363,0.052358933,-0.10096419,-0.10262191,0.12165148,0.074960835,0.09288654,-0.04136832,0.0807336,-0.075824276,-0.025677014,-0.06177122,0.08215663,0.047411155,0.0890635,0.03632229,-0.11660319,0.08462226,-0.04301704,0.12998128,-0.056409586,-0.124444395,0.048612356,0.029184297,-0.114773534,0.057379477,-0.091507874,0.11329168,0.047341507,0.0656253,0.09973179,0.096981406,-0.05841509,-0.07472931,-0.07333937,0.053500466,0.10255539,-0.095888205,0.1158394,0.039425883,-0.10866381,0.065294355,0.046686634,-0.055380274,0.026549963,-0.053849753,0.056720477,-0.0969688,-0.052649572
0.04812102,0.06154945,0.062382177,-0.049319312,0.12714574,-0.049480766,0.060741015,-0.045790866,0.07228505,-0.10513097,-0.04218653,-0.10619812,0.10141328,-0.07221695,0.067467004,0.076712616,0.028291544,0.09094002,0.07346485,0.12026369,0.041958474,0.037631296,0.098360755,-0.09735799,-0.02682342,-0.036079757,0.09906021,-0.08167732,-0.009516011,0.049083892,0.17453088,-0.071277566,-0.112695925,-0.07341342,-0.11574574,0.09450427,0.06081876,0.054096516,0.11389454,0.12916766,-0.07871326,0.09924074,0.08078535,-0.058244623,0.09861731,0.09663814,0.08178045,0.03705038,-0.11289172,0.08924405,0.033422884,0.014181505,-0.08022145,-0.05103338,0.06873211,-0.13693258,-0.07413912,0.09306496,-0.023919452,-0.07153304,-0.06566162,0.11699206,-0.05695346,0.07560277,-0.08229729,0.11092101,-0.028650736,-0.12010846,-0.033220097,0.082464956,0.11470045,-0.09689308,-0.094717294,0.20690449,-0.047264203,0.095275804,0.051656265,-0.0575991,-0.058733623,-0.11675258,-0.099274255,0.09951672,0.033258125,0.09639123,0.10873398,0.036880203,0.14178604,0.020431247,-0.12064793,0.048380364,0.120122515,-0.055291202,-0.048999693,-0.066483185,-0.14879414,0.0715057,-0.050019767,-0.13690561,0.061139707,-0.13524224,-0.09450106,0.03633533,0.07048234,0.0217107,-0.09061862,0.07100866,-0.012745897,0.08123228,-0.13165562,0.04583049,0.05219779,0.1286691,-0.07744893,-0.10956364,0.083054185,-0.111495614,-0.11751545,0.09855931,-0.054869905,-0.05919732,0.13803615,0.09631443,-0.078530125,0.03419153,-0.09230931,-0.074961774,-0.023563555,0.06545309,-0.0532473,0.043817714,-0.11774065,0.022261694,-0.15460055,0.0670198,0.073729664,-0.069493935,0.08888119,0.05587025,-0.027530415,0.081155494,0.030103462,-0.08605765,0.10947886,0.12265234,-0.07383955,0.06921639,-0.11248688,0.1642841,-0.08743113,0.09564079,0.067259565,-0.10558918,0.12544544,0.04389607,-0.11610648,0.11373238,0.061098218,-0.112273574,0.12285294,-0.09580227,0.12018313,0.055268515,-0.11398301,0.12683462,0.10307976,-0.020575304,0.049173743,0.06281568,-0.067143,0.0961277,0.063077055,0.10126822,-0.121019684,-0.08651035,0.07884921,0.09787435,-0.05511586,-0.030393666,0.14253873,0.14465544,-0.023707226,-0.12245118,-0.030887462,-0.008945308,0.072694734,0.06625983,0.088943906,-0.066938356,-0.06343948,0.10397137,-0.04475718,0.058696944,-0.07984325,-0.10227842,0.09441207,-0.071928985,-0.032194078,-0.13865128,0.103395514,-0.039509855,0.10405304,-0.1040183,0.023747021,-0.06771368,-0.09223975,0.03897047,0.06690031,0.032567624,-0.058536556,0.074358664,-0.080487125,-0.12363369,-0.0343222,0.07680887,0.0781664,0.050900154,0.027480202,-0.07827031,0.11458521,-0.104168594,0.06108987,-0.05499659,-0.07687832,0.0491679,0.06715831,-0.115865104,0.07387053,-0.1094911,0.07862051,0.017665636,0.10639594,0.16781554,0.088022426,-0.11787291,-0.096654005,-0.099390276,0.11761048,0.03653918,-0.09357389,0.05018393,0.11288925,-0.16803725,0.104982585,0.14481115,-0.030006096,0.06520137,-0.08170253,0.08024832,-0.10955404,-0.06292656
0.09739505,0.038692612,0.10505695,-0.03953183,0.10715883,-0.0630697,0.087350085,-0.050438195,0.090535276,-0.055065613,-0.10613776,-0.13634737,0.07969189,-0.06020539,0.10046316,0.0823582,0.07034107,0.036837522,0.064732805,0.117355786,0.03235796,0.11109058,0.04108314,-0.12241385,-0.045148835,-0.038562775,0.1035719,-0.08748626,0.016445896,0.106844805,0.08800414,-0.060384717,-0.12837957,-0.10522901,-0.123830885,0.09470364,0.11090593,0.036482245,0.052894108,0.09989086,-0.088617414,0.123963274,0.089806825,-0.09014252,0.076336205,0.063160494,0.10741121,0.039074417,-0.032939482,0.12689911,0.114678085,0.030116832,-0.06505038,-0.11429898,0.06738417,-0.15464325,-0.12319765,0.046793148,-0.051368922,-0.09104426,-0.08061704,0.12525938,-0.07258345,0.04852701,-0.029961755,0.059113577,-0.119587794,-0.12269939,-0.059211247,0.14321221,0.0948171,-0.03199751,-0.04572754,0.1230207,-0.056371085,0.16786595,0.054409083,-0.05440243,-0.04485717,-0.051593427,-0.12284133,0.10899047,0.09927796,0.028310142,0.059529416,0.08184199,0.0744606,0.020631904,-0.041795056,0.12869374,0.04729511,-0.035863552,-0.039854378,-0.058634125,-0.074629046,0.10427304,-0.06913285,-0.13847181,0.06710785,-0.11716877,-0.10353765,0.10007351,0.104468256,0.042291068,-0.035573218,0.09570875,-0.096825734,0.073106825,-0.047914155,0.08229556,0.10404313,0.095597304,-0.12280709,-0.053786017,0.05063908,-0.07697442,-0.095008895,0.104163036,-0.09999071,-0.0723012,0.11497279,0.0800927,-0.07320899,0.07756614,-0.056829724,-0.05964883,-0.08075636,0.13214321,-0.014713331,0.11397789,-0.033301882,0.094704874,-0.13439204,0.03357099,0.0825751,-0.061362077,0.03500699,0.025286015,-0.053836487,0.112199575,0.03544976,-0.02919345,0.071089715,0.14198172,-0.040986147,0.095675774,-0.037083503,0.06723506,-0.082469374,0.09591119,0.062415387,-0.038377054,0.060304817,0.08332304,-0.05578969,0.090811275,0.14387104,-0.031219063,0.12648536,-0.10420926,0.09688427,0.118151136,-0.087152615,0.060213633,0.089750424,-0.055977732,0.07703103,0.07801084,-0.04982884,0.12257551,0.0887661,0.06252265,-0.10179962,-0.107404836,0.096205465,0.055528287,-0.12707388,-0.07163205,0.10817732,0.09267753,-0.027170677,-0.12431291,-0.08434365,-0.0730467,0.11841241,0.06006419,0.06684133,-0.11966992,-0.06042384,0.082821555,-0.09724932,0.06526688,-0.0678432,-0.045022435,0.04262437,-0.09688445,-0.04435452,-0.066748254,0.039146367,-0.12552677,0.03340743,-0.04231978,0.1074707,-0.060085643,-0.11945721,0.12485175,0.10932847,0.10486118,-0.06397295,0.100611255,-0.088366576,-0.045637086,-0.11461305,0.08015737,0.058593415,0.122487865,0.05832878,-0.07682592,0.03437964,-0.08229422,0.098839544,-0.056033615,-0.08058028,0.07709177,0.042134695,-0.10434684,0.05881044,-0.07845803,0.100857675,0.043404125,0.06026573,0.1578017,0.028695712,-0.12156403,-0.0686998,-0.10221017,0.04306199,0.02408544,-0.13050744,0.03327545,0.049751125,-0.12098159,0.11909348,0.07076003,-0.111223996,0.04230331,-0.053627025,0.055581443,-0.025857043,-0.07956077
0.11958552,0.118467234,0.056443408,-0.08932204,0.119367965,-0.015365768,0.07513457,-0.071940355,0.023098152,-0.04175549,-0.06146415,-0.14267258,0.09542152,-0.09882246,0.062221188,0.11836347,0.07310975,0.048206594,0.027894607,0.11971514,0.097291805,0.062362622,0.116924465,-0.11959434,-0.053171843,-0.027426245,0.14018638,-0.094550915,0.033919692,0.051269535,0.14365429,-0.019238057,-0.100286774,-0.03625704,-0.11619956,0.09894416,0.10942629,0.049412776,0.069126226,0.12668969,-0.04833762,0.068396404,0.058465123,-0.10397978,0.07178606,0.12280823,0.085723415,0.049810957,-0.10697549,0.097585775,0.11692727,-0.005673455,-0.08839478,-0.029447082,0.1254496,-0.12446042,-0.07981414,0.056147702,-0.048516326,-0.08219268,-0.12580475,0.041194774,-0.09182771,0.03267506,-0.050555803,0.09336993,-0.11260897,-0.07296989,-0.051415496,0.11051548,0.11572762,-0.07644953,-0.062633574,0.15688649,-0.11249226,0.06916351,0.034668043,-0.09785531,-0.06890359,-0.071031965,-0.0900601,0.12853968,0.07711651,0.105192825,0.04865869,0.014111431,0.14306867,0.111352965,-0.098391205,0.055669162,0.083895035,-0.08035867,-0.044045944,-0.075909585,-0.12124287,0.12789664,-0.08421837,-0.09989478,0.05528834,-0.07181022,-0.020070259,0.123423375,0.09080451,0.026750877,-0.104732886,0.07753322,-0.063375846,0.08103181,-0.09524478,0.082311325,0.11584087,0.067949176,-0.10730414,-0.046705045,0.031176427,-0.13005576,-0.135858,0.09208901,-0.10926907,-0.066811614,0.05618095,0.08724081,-0.04177612,0.13434264,-0.111391604,-0.048529197,-0.09139855,0.07287486,0.008439427,0.06843408,-0.084104754,0.059476595,-0.16800283,0.025668677,0.053041853,-0.09741881,0.07982261,0.1172626,-0.11019929,0.08792842,0.09011141,-0.10777706,0.043255348,0.06785694,-0.094227836,0.098385036,-0.09092399,0.056679476,-0.055221684,0.073278174,0.042819418,-0.09386308,0.13091962,0.042884074,-0.078068666,0.118083954,0.065613426,-0.07781765,0.08917281,-0.092379116,0.061325368,0.029402995,-0.10231226,0.07997766,0.0399324,-0.08958361,0.032982606,0.1261638,-0.049759123,0.110448405,0.10776979,0.07155759,-0.026796248,-0.033207368,0.09502302,0.10412786,-0.077085264,-0.056347176,0.12773985,0.07566024,-0.0533481,-0.08802928,-0.099994205,0.0018712191,0.039416935,0.058545183,0.12309453,-0.106451325,-0.094228245,0.11160778,-0.12926653,0.09423802,-0.09609545,-0.08984118,0.08855407,-0.07940729,-0.070400134,-0.06769671,0.11132559,-0.020926762,0.05178932,-0.09379206,0.09148985,-0.09505397,-0.13078943,0.046587046,0.063836984,0.10487487,-0.026427623,0.02622705,-0.10388389,-0.029908167,-0.09377061,0.12045269,0.08189285,0.08577548,0.08493447,-0.065946355,0.057444546,-0.11409659,0.13290568,-0.06534471,-0.04054231,0.10229871,0.043564126,-0.03325357,0.079836324,-0.14305396,0.07019659,0.027752282,0.10561346,0.18216434,0.037944324,-0.069053195,-0.06699137,-0.0816818,0.027968587,0.04203596,-0.07470053,0.04220415,0.047886346,-0.13316354,0.06445956,0.09075133,-0.07845418,0.04650328,-0.12725921,0.08107874,-0.05814421,-0.028675111
0.0915291,0.062811114,0.056182366,-0.046117797,0.05647551,-0.06876743,0.093501285,-0.057190903,0.09832101,-0.10943561,-0.03868905,-0.09861737,0.05729615,-0.07593688,0.094020806,0.13097456,0.052090365,0.086461455,0.067611285,0.07707339,0.04875094,0.048263952,0.08922379,-0.10123338,-0.05056687,-0.060273252,0.1096652,-0.11855622,-0.012802883,0.117427304,0.07456347,-0.061309576,-0.088886686,-0.09508815,-0.069457285,0.11552761,0.0512471,0.084491335,0.048785813,0.05052502,-0.09061221,0.088483535,0.1003444,-0.0802094,0.09826671,0.039622515,0.08743599,0.11323945,-0.07422928,0.11143889,0.04196186,0.019239647,-0.08325819,-0.13250859,0.027560817,-0.08450709,-0.10120381,0.049908094,-0.04632764,-0.07348678,-0.09281226,0.108515866,-0.04246717,0.07943961,-0.05438697,0.05179562,-0.051987447,-0.050875716,-0.01972818,0.11633815,0.045193385,-0.12571637,-0.10619198,0.17263177,-0.054209135,0.11115901,0.037419632,-0.039752483,-0.04758122,-0.10875049,-0.08104375,0.108115636,0.025105936,0.038160548,0.09623342,0.0492253,0.09822774,0.045614902,-0.061009735,0.07522202,0.082395755,-0.09404914,-0.10588033,-0.14061816,-0.041805737,0.046954516,-0.1009553,-0.0734965,0.118766114,-0.08942189,-0.06321606,0.026949218,0.112752505,0.08818072,-0.037046824,0.08760227,-0.08888579,0.06116193,-0.11546222,0.052788142,0.08275553,0.114940204,-0.058202047,-0.1007321,0.03539843,-0.045156315,-0.0633883,0.075537816,-0.041976403,-0.037671994,0.14328086,0.111928314,-0.040098596,0.05600254,-0.10544732,-0.09622181,-0.081885815,0.11893736,-0.04700682,0.09437342,-0.10943353,0.07704704,-0.15076965,0.047525864,0.05994357,-0.024446756,0.078348964,0.031427857,-0.06523913,0.07617972,0.036791652,-0.12252936,0.09511214,0.12082229,-0.08415622,0.08378224,-0.087218635,0.07604665,-0.06253235,0.029845877,0.032937992,-0.08424772,0.09221837,0.041597556,-0.09883542,0.09454151,0.08559804,-0.03259502,0.06750461,-0.021414895,0.1109043,0.055369943,-0.103408016,0.13229665,0.081922166,-0.032163307,0.088223904,0.08302743,-0.1051753,0.07016902,0.10054648,0.109435976,-0.05940817,-0.07389889,0.062437296,0.08129945,-0.060336232,-0.10340709,0.08833606,0.09012061,-0.02261843,-0.069319725,-0.034469508,-0.0266735,0.11156194,0.103460655,0.081063,-0.09354487,-0.12224246,0.063889086,-0.11602357,0.06239126,-0.09991716,-0.08908926,0.15196456,-0.13749896,-0.046588138,-0.14545336,0.06595578,-0.012744877,0.06986282,-0.09338949,0.054231275,-0.13000688,-0.15669599,0.045907136,0.062001195,0.031546555,-0.025115201,0.02339115,-0.113398634,-0.11417456,-0.0442458,0.096925855,0.113993466,0.10554668,0.07611087,-0.12753275,0.08816847,-0.062421918,0.11556524,-0.10832556,-0.075892486,0.018589823,0.053195972,-0.06539613,0.112725556,-0.11155044,0.05830063,0.110650934,0.059149146,0.17876618,0.09373908,-0.14245269,-0.017314008,-0.055576,0.020802671,0.031700365,-0.095532544,0.032266185,0.06153084,-0.16247782,0.10592436,0.055193197,-0.097342156,0.029058803,-0.090601645,0.09440433,-0.07808885,-0.07266892
0.12823713,0.12823358,0.09363803,-0.09969655,0.027199905,-0.03469274,0.12966017,-0.05455139,0.05848041,-0.014635317,-0.12656565,-0.13915762,0.026023822,-0.03437876,0.05718477,0.13339975,0.08463397,0.045370724,0.085440874,0.10561183,0.05239507,0.035351265,0.0883754,-0.12799805,-0.11858388,-0.048499305,0.12344918,-0.10638668,0.014399967,0.027306864,0.06725659,-0.048150983,-0.09016131,-0.079036675,-0.1175142,0.099312305,0.09307369,0.09734992,0.11117641,0.10470005,-0.08078433,0.0283915,0.11355632,-0.12724577,0.08792168,0.044704743,0.072334014,0.04448906,-0.047568955,0.092326045,0.09318573,-0.041275516,-0.08747827,-0.07883777,0.117207415,-0.105112486,-0.10529631,0.06347847,-0.05110499,-0.028209195,-0.1265739,0.12101755,-0.053742554,0.086360745,-0.107097365,0.093642004,-0.048217416,-0.13453433,-0.08170887,0.14880094,0.034583736,-0.08353317,-0.055387344,0.16796911,-0.04227258,0.107802756,0.11054988,-0.026720202,-0.038360152,-0.08230073,-0.045468666,0.109299794,0.050809894,0.11121674,0.0962213,0.058180004,0.085111804,0.032987237,-0.109367415,0.07348012,0.08108108,-0.15500815,-0.07733444,-0.062041268,-0.12705396,0.08883803,-0.05739628,-0.09024334,0.105160594,-0.09439759,-0.08863888,0.06930354,0.056185115,0.09728488,-0.04485582,0.05673889,-0.08910752,0.07164474,-0.08006959,0.041184336,0.119579114,0.102714635,-0.08786756,-0.13727969,0.022204526,-0.061961167,-0.11243604,0.10260755,-0.087906204,-0.11528418,0.074059136,0.09067102,-0.114302814,0.068243094,-0.07613792,-0.04638073,-0.019193573,0.0500032,-0.029540034,0.075220786,-0.11004673,0.11526644,-0.11330544,0.049217958,0.10469195,-0.04113034,0.09367886,0.043373793,-0.101977274,0.054549213,0.05210987,-0.045663457,0.121275,0.11077029,-0.06990065,0.050584514,-0.09275849,0.07448161,-0.12645513,0.10447028,0.025446422,-0.044008788,0.13402253,0.080117725,-0.079866916,0.05830068,0.11439967,-0.055772144,0.10562934,-0.060112055,0.0655023,0.02340615,-0.074473135,0.108730204,0.07782611,-0.07111245,0.10192729,0.09472098,-0.041048594,0.07563785,0.036383376,0.1204905,-0.13185418,-0.10712309,0.022793131,0.08074574,-0.13571243,-0.04362928,0.10356766,0.08441502,-0.08653199,-0.05158661,-0.029647775,-0.026677325,0.11648879,0.13321337,0.030819,-0.097126886,-0.061407447,0.122494526,-0.075604714,0.10145523,-0.07884472,-0.097066954,0.07085014,-0.08589287,-0.07117343,-0.0863548,0.091518454,-0.052745137,0.116245575,-0.03893979,0.044920497,-0.11099921,-0.10339387,0.05943195,0.035572194,0.070105255,-0.07880001,0.081117325,-0.09113695,-0.09302626,-0.10297523,0.04108571,0.039351933,0.087513864,0.09952602,-0.09451273,0.061638594,-0.06795521,0.15904737,-0.021796376,-0.086945884,0.04474662,0.03686156,-0.084184974,0.119372405,-0.07700766,0.07385057,0.05511891,0.0649501,0.14491779,0.03729177,-0.08000149,-0.112087585,-0.12225264,0.07671649,0.028337786,-0.12811485,0.11985285,0.05774537,-0.089190446,0.04076202,0.09716013,-0.060545232,0.09688537,-0.12335219,0.11241626,-0.047997005,-0.08458298
0.09313084,0.12133321,0.10054249,-0.09989207,0.083360314,-0.021166734,0.030118356,-0.07496639,0.036602315,-0.040004056,-0.0895054,-0.1105844,0.035479985,-0.03889141,0.03556802,0.11874152,0.095987,0.097804815,0.076785006,0.04499551,0.10079006,0.051748168,0.06554693,-0.042153876,-0.07027995,-0.056062505,0.12463798,-0.05043188,0.004119949,0.060385063,0.13813213,-0.030886823,-0.050311085,-0.107786104,-0.10643509,0.060114335,0.08328308,0.09883657,0.0621962,0.09092995,-0.095378086,0.1147966,0.087307975,-0.0941058,0.09681963,0.07534008,0.07236698,0.05254836,-0.11744967,0.045677245,0.1190175,0.01747463,-0.045810692,-0.10682731,0.060883414,-0.14557467,-0.04725111,0.05683572,-0.0762467,-0.09976225,-0.08338393,0.106002584,-0.0694989,0.040814623,-0.025488501,0.101354,-0.054871727,-0.082439184,-0.031597033,0.13106611,0.051448602,-0.0552562,-0.05445112,0.1343984,-0.09899284,0.072056726,0.05190247,-0.11226126,-0.12122218,-0.12869456,-0.11701924,0.015829753,0.08124937,0.048718747,0.0113160815,0.07676164,0.08693516,0.019499455,-0.024396334,0.06905403,0.07376346,-0.09391133,-0.10080523,-0.060448024,-0.1198052,0.08378997,-0.090645075,-0.10937654,0.07133379,-0.089463405,-0.072133675,0.067016505,0.10415945,0.06685973,-0.018718127,0.1235066,-0.030784726,0.05121864,-0.060962502,0.1119645,0.10997231,0.11793205,-0.037046377,-0.099783845,0.05008201,-0.11928288,-0.05874064,0.09779345,-0.025725797,-0.056040946,0.12109147,0.052620813,-0.06780539,0.03167894,-0.042958878,-0.04327582,-0.046729278,0.10120985,0.02034811,0.08112338,-0.09253881,0.029925615,-0.07977277,0.026914716,0.0737929,-0.11104988,0.11737552,0.023138136,-0.031654935,0.07827144,0.03643501,-0.121759005,0.032381635,0.10729619,-0.049543276,0.031237243,-0.12031902,0.13909435,-0.051094968,0.08812282,0.054858048,-0.10576388,0.11611368,0.04167839,-0.109854065,0.09123477,0.12802601,-0.10885378,0.06781418,-0.021873986,0.09617263,0.112111956,-0.026576687,0.15977156,0.08317159,-0.036686793,0.052147254,0.03393463,-0.0630975,0.0725957,0.088536665,0.045285836,-0.10814254,-0.08484343,0.06808498,0.11135475,-0.11621883,-0.08096974,0.094256006,0.054595634,-0.08460842,-0.081574544,-0.05630799,-0.045943514,0.06487612,0.07023756,0.098829195,-0.052092753,-0.066746175,0.12323402,-0.13202494,0.043382928,-0.04390974,-0.073998965,0.07849156,-0.13516042,-0.042232674,-0.08382528,0.039431073,-0.098843396,0.116938956,-0.030168844,0.08173545,-0.0862254,-0.20458005,0.06649669,0.07384871,0.10668093,-0.1016819,0.07503216,-0.06704754,-0.10023375,-0.040138565,0.058062766,0.108916655,0.08755437,0.09695039,-0.07748259,0.07241159,-0.0658334,0.11584836,-0.07057533,-0.13842458,0.067130886,0.0824924,-0.09129154,0.115425184,-0.1170349,0.053208366,0.10591023,0.037504822,0.12692636,0.019419782,-0.10706025,-0.10467036,-0.104891114,0.04285465,0.04829475,-0.11412487,0.089812316,0.089084215,-0.142577,0.101210006,0.05890792,-0.0784457,0.059214454,-0.12326616,0.021638492,-0.09570803,-0.10929551
0.101786606,0.074798726,0.116901025,-0.09508204,0.0662521,-0.025157101,0.05493272,-0.038674098,0.039724253,-0.07221658,-0.069610916,-0.09937474,0.05263922,-0.07579627,0.102420576,0.13838556,0.061000146,0.098253705,0.08101738,0.040259596,0.061432704,0.09247549,0.08796235,-0.098952144,-0.09723183,-0.10678209,0.09234317,-0.06603627,-0.038849927,0.09660761,0.15123042,-0.08842433,-0.059971962,-0.07743015,-0.047293067,0.11609251,0.11013114,0.03165922,0.035917286,0.097460955,-0.07384153,0.052858096,0.07254401,-0.08323659,0.039820008,0.1150992,0.09887856,0.10787525,-0.029414566,0.04641723,0.034272492,0.046100844,-0.033738118,-0.05569352,0.12298919,-0.0909707,-0.060889553,0.029263964,-0.118857756,-0.103398405,-0.084117435,0.041041315,-0.033560578,0.04627761,-0.04002113,0.082941435,-0.07219069,-0.06690382,-0.047838595,0.12271828,0.09851545,-0.043657966,-0.118904725,0.15039238,-0.04731529,0.13833617,0.064312205,-0.039016977,-0.045406908,-0.06595553,-0.080520965,0.07762909,0.06025783,0.059847124,0.112911336,0.052980818,0.08915678,0.04472462,-0.07136758,0.058586244,0.09178487,-0.11955761,-0.06691412,-0.10245213,-0.09057702,0.118221425,-0.109134644,-0.08555241,0.1056082,-0.11249233,-0.10894688,0.0843399,0.052335877,0.021921948,-0.057104345,0.08940114,-0.06726478,0.064708136,-0.06564233,0.07846926,0.036356818,0.07948761,-0.047625218,-0.05618316,0.049181323,-0.041469626,-0.10354567,0.06635684,-0.11136128,-0.07570226,0.07200238,0.12583156,-0.05235683,0.112071685,-0.022510523,-0.035942897,-0.069536895,0.046056464,-0.019008467,0.044679973,-0.04747499,0.083054,-0.075517654,0.10828406,0.07811905,-0.09007002,0.032028902,0.050134957,-0.09906673,0.08266484,0.087320946,-0.09731882,0.10410269,0.13724475,-0.06573556,0.09695801,-0.10946198,0.062448263,-0.121353984,0.056572698,0.032144483,-0.091723844,0.05284678,0.061114207,-0.06587333,0.08902669,0.120260745,-0.07098571,0.058834653,-0.06849769,0.046146385,0.0802603,-0.09048975,0.10806134,0.086058006,-0.10297885,0.02349793,0.027888289,-0.11058719,0.11093958,0.097820096,0.029191298,-0.0932958,-0.10012912,0.029696295,0.045432445,-0.03911294,-0.10257203,0.045474112,0.06516935,-0.097627185,-0.08492601,-0.094338134,-0.012790363,0.068107575,0.10674877,0.072666235,-0.067792065,-0.10938682,0.042284053,-0.046056792,0.06318338,-0.10897714,-0.033978634,0.04839621,-0.13512138,-0.03039525,-0.14427467,0.07653525,-0.08512326,0.09184749,-0.023712048,0.07366884,-0.08330361,-0.08035522,0.059698258,0.047485705,0.102248296,-0.083884835,0.07790767,-0.06711225,-0.055465285,-0.033772334,0.1166292,0.037731126,0.12898728,0.097544216,-0.060427405,0.1273808,-0.022653889,0.11291126,-0.10605001,-0.062622376,0.03754937,0.09119752,-0.10864249,0.029373912,-0.05238181,0.1107566,0.05045322,0.09358036,0.12693703,0.05603873,-0.13202131,-0.09437413,-0.10643031,0.07701637,0.02023792,-0.11164868,0.07273444,0.052614152,-0.12364449,0.03848386,0.05941697,-0.08353527,0.06271245,-0.041236807,0.042130083,-0.07341752,-0.106471784
0.13384874,0.09454949,0.089749366,-0.0834433,0.10167538,-0.06977628,0.10791282,-0.05328946,0.13532977,-0.062900834,-0.12114767,-0.13308373,0.062452853,-0.10507255,0.08117176,0.0657665,0.042506468,0.063808344,0.047549576,0.050916784,0.07220574,0.046995092,0.11737976,-0.040293436,-0.06561156,-0.075833045,0.10747485,-0.07985397,-0.040790837,0.050437972,0.0740027,-0.10217048,-0.12712637,-0.06954112,-0.085563526,0.10435915,0.087665915,0.037513133,0.08312476,0.09476801,-0.098615244,0.03671645,0.044353135,-0.08226407,0.06344747,0.021643592,0.07617576,0.05389679,-0.02937756,0.07521229,0.10899973,0.02697899,-0.09940835,-0.08982638,0.11887695,-0.114655465,-0.0874149,0.04464766,-0.042967547,-0.11646627,-0.08692941,0.091072895,-0.06257552,0.098493,-0.043343056,0.11321282,-0.037302136,-0.10402403,-0.114456296,0.07889069,0.07350804,-0.027372714,-0.09164906,0.16667974,-0.048526004,0.13815819,0.09751806,-0.042851843,-0.09275296,-0.08624032,-0.10423299,0.123273015,0.069953084,0.03186629,0.11828604,0.08281979,0.13185541,0.1030825,-0.0768741,0.08885271,0.07808676,-0.13283987,-0.040339235,-0.10268055,-0.094608,0.04744706,-0.09939901,-0.12087539,0.09092905,-0.10926752,-0.11999902,0.11628469,0.116875656,0.07536868,-0.055253472,0.10995913,-0.091511615,0.048102353,-0.08584961,0.056840125,0.11994511,0.050718095,-0.07698092,-0.057020865,0.080116995,-0.11743468,-0.13209827,0.12005638,-0.052620035,-0.087699495,0.04447367,0.09250241,-0.06616846,0.059092242,-0.026855923,-0.040536292,-0.07347726,0.09976436,-0.059895817,0.04040636,-0.06803449,0.09573884,-0.11341756,0.06397197,0.09973656,-0.037685353,0.031233637,0.11500549,-0.090600245,0.08579417,0.028994868,-0.020743888,0.03303743,0.06795698,-0.10591819,0.11147698,-0.029748153,0.08672343,-0.07559661,0.13356094,0.062158026,-0.057367183,0.13429397,0.0853126,-0.027077168,0.057713978,0.10176112,-0.10368846,0.107866205,-0.037351936,0.08175417,0.07723081,-0.05238439,0.072463796,0.029439691,-0.057577595,0.03388633,0.11984714,-0.05675692,0.103401564,0.10999324,0.09484351,-0.13149484,-0.05753263,0.12039201,0.04480209,-0.063668035,-0.056103464,0.067301065,0.0813863,-0.073647335,-0.120640114,-0.10482618,-0.05277559,0.07677443,0.08607877,0.11257811,-0.114421606,-0.088500775,0.0876491,-0.07697783,0.0382391,-0.16485861,-0.119785115,0.119353786,-0.08893101,-0.04100136,-0.06307281,0.108113445,-0.068246834,0.03931927,-0.109579526,0.011655635,-0.047891263,-0.20402603,0.11387232,0.0749614,0.10516406,-0.109645344,0.08777095,-0.041485135,-0.10894013,-0.10577461,0.06333611,0.111989714,0.030904608,0.07524838,-0.10017153,0.07059599,-0.075181715,0.07382155,-0.06385849,-0.064655244,0.09934754,0.103999995,-0.05584257,0.09742376,-0.12004525,0.12226964,0.08004674,0.0643606,0.095104106,0.06108197,-0.06624099,-0.07056193,-0.14026795,0.08517446,0.090005875,-0.053123344,0.11948597,0.11562229,-0.07161514,0.10108672,0.10334977,-0.09925365,0.075514875,-0.103670724,0.025844404,-0.08844262,-0.031977285
0.07197995,0.123728186,0.032196477,-0.112514876,0.051341727,-0.078788966,0.116900854,-0.04364378,0.059507903,-0.07408307,-0.11304816,-0.13664879,0.05630045,-0.028755851,0.041937847,0.09598527,0.077539414,0.11137336,0.030074757,0.057759326,0.08151237,0.07832612,0.05443878,-0.110763304,-0.08959044,-0.078164235,0.12530738,-0.05722174,0.057902534,0.09944268,0.13468622,-0.09025866,-0.08308034,-0.04925573,-0.0452121,0.018592276,0.01878178,0.05680229,0.054278858,0.12731095,-0.1372718,0.06265035,0.053691886,-0.09151136,0.10156924,0.10023282,0.1231976,0.11382794,-0.06808113,0.08571176,0.10590741,0.05944783,-0.04298997,-0.10245617,0.0847989,-0.13760555,-0.06332238,0.10554847,-0.06037476,-0.029255731,-0.07300104,0.106815465,-0.08386926,0.041329402,-0.101975515,0.036496826,-0.06406076,-0.05177715,-0.07410098,0.11080037,0.06950306,-0.12137562,-0.08217877,0.1925638,-0.07025059,0.09027084,0.030557333,-0.049221344,-0.11317369,-0.06818061,-0.10320898,0.09282754,0.11541488,0.03964086,0.12044448,0.052709267,0.08877048,0.1147844,-0.09911034,0.109168515,0.13763641,-0.07300095,-0.05732738,-0.083814554,-0.05673219,0.11375535,-0.0782749,-0.05375191,0.07643479,-0.10321543,-0.09874245,0.047049996,0.09549954,0.05202458,-0.05973711,0.08625527,-0.0606929,0.063437484,-0.10703917,0.09284691,0.065364785,0.061314844,-0.039492175,-0.05114735,0.07441239,-0.079090364,-0.06767834,0.057703193,-0.0477111,-0.09221577,0.061609976,0.027319524,-0.13804184,0.07490041,-0.08801238,-0.1047239,-0.06617425,0.07471813,-0.0013330657,0.023150476,-0.11979061,0.015055591,-0.056531895,0.0763255,0.04469271,-0.05013508,0.053322796,0.12214067,-0.083355084,0.074271284,0.112356886,-0.099470526,0.1193071,0.12966713,-0.028651854,0.08614334,-0.10275336,0.08285192,-0.039827973,0.050024126,0.06353301,-0.105313785,0.11715364,0.099603735,-0.0636154,0.11734788,0.10936715,-0.111223616,0.06324628,-0.018452806,0.08826771,0.11336822,-0.10904782,0.13889937,0.05327373,-0.0703287,0.07036178,0.07753694,-0.06447438,0.06440464,0.095163494,0.08262314,-0.09771609,-0.1068277,0.09074594,0.06516247,-0.13663113,-0.028020399,0.11924177,0.061157845,-0.018113526,-0.119290605,-0.026167741,-0.01935516,0.07291172,0.04302273,0.07767739,-0.13118526,-0.11289955,0.07249142,-0.060273513,0.09269275,-0.1600859,-0.08259201,0.13905135,-0.092383355,-0.09241307,-0.11064845,0.13853106,-0.08546394,0.07100831,-0.09603111,0.103541546,-0.112640955,-0.14558846,0.12614748,0.07188001,0.055204537,-0.079715885,0.11644534,-0.10799427,-0.09061058,-0.08709232,0.025590906,0.07218993,0.107154906,0.06549861,-0.09800241,0.10323753,-0.03790756,0.082458824,-0.073576994,-0.071564004,0.069218695,0.07291784,-0.121806815,0.08608526,-0.11376995,0.06511082,0.020558475,0.054382745,0.16316545,0.069100335,-0.13559417,-0.035497867,-0.042148262,0.1247698,0.092680745,-0.12427646,0.03880632,0.04268153,-0.08243918,0.09037447,0.13058871,-0.09150207,0.015721312,-0.051524393,0.0602531,-0.0710157,-0.04677756
0.061839063,0.12573463,0.09372846,-0.08715894,0.091932274,-0.02316491,0.032590155,-0.043462876,0.06532586,-0.09479367,-0.08294796,-0.08354832,0.063293345,-0.1271335,0.074462526,0.05513016,0.052752845,0.06170306,0.11649169,0.032222837,0.11193658,0.057309806,0.09705256,-0.10941972,-0.09140351,-0.041643877,0.038409587,-0.12598053,0.058729924,0.051902335,0.10039411,-0.07197489,-0.0768866,-0.11214502,-0.12654994,0.08956752,0.05948216,0.05606355,0.081792414,0.10609588,-0.07534331,0.08822693,0.09524248,-0.12769327,0.02576822,0.07202566,0.1241092,0.05216707,-0.08769099,0.08365543,0.07923929,0.013541894,-0.12294274,-0.01965859,0.04811605,-0.15279643,-0.10087288,0.08804553,-0.03353046,-0.09058142,-0.0731445,0.08640596,-0.024564415,0.063126475,-0.100980476,0.07446479,-0.092707194,-0.09710839,-0.045177415,0.11527249,0.025033224,-0.12380767,-0.07485448,0.07273108,-0.082062334,0.073029965,0.11920235,-0.07616906,-0.08814822,-0.13254903,-0.10155999,0.025073262,0.0811402,0.077172525,0.117222875,0.07895555,0.04357798,0.04012135,-0.121067025,0.043508835,0.08224645,-0.089408435,-0.042593386,-0.11494031,-0.08474701,0.10422901,-0.10850892,-0.104679786,0.050977048,-0.10227257,-0.06886402,0.028640192,0.06528231,0.09136025,-0.07470714,0.04931199,-0.06774834,0.039184257,-0.061160564,0.12113391,0.05581206,0.048013803,-0.08509999,-0.11170682,0.06971169,-0.08245513,-0.13491678,0.09821226,-0.082358815,-0.12516712,0.090795726,0.08492581,-0.109988935,0.13514668,-0.103220254,-0.10385389,-0.10888109,0.0996954,-0.021768479,0.052922282,-0.05397609,0.113312125,-0.08561018,0.03385286,0.09897796,-0.11918131,0.0944551,0.09300848,-0.045245133,0.02160717,0.11018808,-0.058886696,0.10972203,0.113838,-0.11473415,0.1054546,-0.07549178,0.0675216,-0.11652113,0.065697566,0.08369824,-0.09754792,0.10424776,0.08760531,-0.037104204,0.0993991,0.13212116,-0.07712084,0.04144083,-0.048086748,0.11586757,0.09071368,-0.10015035,0.09494835,0.051823933,-0.07547205,0.025591012,0.08587025,-0.12743174,0.04774444,0.017918931,0.07020096,-0.07018139,-0.09636214,0.11158919,0.037042376,-0.13048804,-0.03163889,0.09452969,0.13122703,-0.090183385,-0.04164772,-0.031053638,-0.0025861696,0.11112876,0.12118218,0.034931883,-0.081328705,-0.05581998,0.09808634,-0.04272129,0.09787555,-0.03820107,-0.11714601,0.07038501,-0.052097637,-0.065662265,-0.1459465,0.10867963,-0.081851944,0.11788268,-0.06550989,0.06743909,-0.08811909,-0.09684312,0.06763012,0.04509194,0.0893709,-0.042174358,0.037667956,-0.08405903,-0.07089906,-0.11539892,0.102098756,0.029794013,0.04021946,0.09636458,-0.03391649,0.054691438,-0.081250936,0.048763733,-0.09727768,-0.11785488,0.10982135,0.07733237,-0.044982757,0.09725659,-0.12753858,0.05504399,0.060822997,0.07107219,0.092557296,0.02351593,-0.06445558,-0.052517854,-0.15632322,0.13114278,0.08898846,-0.05964891,0.12925258,0.04964456,-0.11521145,0.058865417,0.13406196,-0.104949206,0.043220688,-0.035779443,0.07650091,-0.0278822,-0.11460543
0.11068302,0.09287032,0.117801696,-0.025180826,0.05239139,-0.08089452,0.043304168,-0.08236327,0.11069773,-0.10885268,-0.07088745,-0.08034931,0.025467217,-0.040210076,0.049008153,0.10277477,0.09421736,0.04691984,0.04218264,0.054637242,0.107346505,0.11621031,0.031562135,-0.08249976,-0.021767871,-0.111131474,0.102439165,-0.05400743,0.040345456,0.07272439,0.07874154,-0.025036205,-0.08560866,-0.07322843,-0.041421205,0.07670332,0.014142702,0.06503919,0.10354851,0.097014464,-0.07615119,0.023332784,0.07752623,-0.11300379,0.057161767,0.07810652,0.117555,0.033517785,-0.07951174,0.091012,0.06521925,-0.015444672,-0.11013918,-0.10159455,0.062092766,-0.12904048,-0.089916654,0.08053399,-0.107889295,-0.107438065,-0.039247356,0.053388186,-0.022514693,0.03034522,-0.073605515,0.096696,-0.027309986,-0.116598934,-0.05862319,0.06423436,0.10960686,-0.036781482,-0.11114384,0.1477135,-0.09165504,0.12901711,0.04463475,-0.037470646,-0.07549246,-0.09586882,-0.09859334,0.06663405,0.06294437,0.08470323,0.07752012,0.086387955,0.10273311,0.11364846,-0.06529181,0.09380636,0.10596855,-0.04212578,-0.05679796,-0.04791797,-0.084085815,0.108642824,-0.060791828,-0.066061616,0.06470383,-0.055202052,-0.09792984,0.024806682,0.046469197,0.07520684,-0.061323643,0.10340934,-0.10640901,0.08034314,-0.09406011,0.06831612,0.05423434,0.09351892,-0.10214098,-0.10959217,0.08397199,-0.13077798,-0.08481836,0.040377803,-0.08721407,-0.07037617,0.06940655,0.06867362,-0.124007225,0.10641533,-0.036474798,-0.04551899,-0.035820376,0.104518496,-0.0813511,0.09204074,-0.08977557,0.08083148,-0.046550546,0.08074726,0.068853,-0.076526396,0.06010484,0.097185485,-0.047069855,0.0568478,0.0321834,-0.11029036,0.098907575,0.12597148,-0.0687824,0.07941042,-0.07702058,0.0761712,-0.05839726,0.13341476,0.06350138,-0.09527451,0.12907815,0.064141765,-0.07597476,0.10466531,0.1149971,-0.021666758,0.11529262,-0.03231817,0.032699667,0.04217819,-0.02921948,0.059987325,0.11128453,-0.017953841,0.090151,0.04597826,-0.07954344,0.096600816,0.10793061,0.024556814,-0.06742057,-0.044620648,0.08807138,0.017284168,-0.094447754,-0.05345677,0.124772705,0.04942011,-0.101846896,-0.038593292,-0.033830535,-0.01635693,0.0496625,0.048064582,0.10002319,-0.051621225,-0.054503053,0.102296755,-0.049765125,0.11468402,-0.09388389,-0.0815282,0.0830244,-0.07819728,-0.048381604,-0.060045812,0.10780206,-0.106784105,0.027014341,-0.07419081,0.019009596,-0.06697834,-0.133395,0.08189065,0.0740345,0.029681064,-0.07387151,0.03893235,-0.043547016,-0.11732414,-0.0378697,0.0468344,0.08790646,0.11251232,0.10575414,-0.05537181,0.059986345,-0.119096056,0.12097992,-0.056010056,-0.05027988,0.06737429,0.1134014,-0.09998289,0.06410537,-0.14070293,0.07476787,0.075977884,0.11337206,0.07567925,0.051836558,-0.04869582,-0.0378173,-0.0541352,0.06793888,0.09216438,-0.056688912,0.05607126,0.04354274,-0.12673031,0.062900014,0.049094103,-0.09137969,0.01635001,-0.074196756,0.022931125,-0.12283508,-0.10602376
0.12777212,0.10035068,0.03362891,-0.09951406,0.121095285,0.0049333484,0.052101042,-0.07655733,0.07695117,-0.043698926,-0.11496055,-0.14777637,0.071568616,-0.10260399,0.08767401,0.11243449,0.03981952,0.04878404,0.10672548,0.060947414,0.106453866,0.019521454,0.06880064,-0.05834113,-0.026648453,-0.057611763,0.058478255,-0.0886172,-0.027033312,0.02313059,0.12311632,-0.021221539,-0.0932962,-0.06330509,-0.08705498,0.055085756,0.02842584,0.10926056,0.10450239,0.08053201,-0.08602576,0.047664452,0.052893836,-0.116196826,0.064599894,0.019845072,0.09572077,0.11829754,-0.059442166,0.08478647,0.02488012,8.474482e-05,-0.05148449,-0.11336551,0.098098576,-0.103597544,-0.09638676,0.055111606,-0.07440016,-0.070623025,-0.119325995,0.0720437,-0.07555234,0.08740128,-0.11250313,0.04505521,-0.037617926,-0.12153219,-0.04350026,0.087308034,0.08644766,-0.03793968,-0.0713826,0.13091296,-0.077119425,0.1343667,0.11129567,-0.053549923,-0.13353162,-0.029397765,-0.07929619,0.09521704,0.031088252,0.114000395,0.028348472,0.10304669,0.06517572,0.11016674,-0.10543548,0.07456277,0.10422119,-0.0766122,-0.038979594,-0.07869993,-0.040736135,0.09900886,-0.09023984,-0.12468474,0.042071667,-0.047887925,-0.041955646,0.11153747,0.04795916,0.08604007,-0.1049251,0.07428237,-0.10810198,0.06527915,-0.078912355,0.026696324,0.10509469,0.014172084,-0.037183385,-0.12144551,0.064219244,-0.039463807,-0.11703049,0.04139291,-0.03564385,-0.10906816,0.12938944,0.079316735,-0.11304647,0.07492182,-0.031660426,-0.113786966,-0.030423347,0.033317097,-0.024588421,0.040043138,-0.11784001,0.048050005,-0.13559218,0.082161985,0.08591939,-0.089221545,0.08014582,0.09484664,-0.07152746,0.116183855,0.080822445,-0.06277907,0.030608043,0.15411678,-0.09841864,0.11061059,-0.05060434,0.14293393,-0.09692876,0.09245398,0.025280282,-0.085863784,0.046343595,0.06330788,-0.040166274,0.052642245,0.119289085,-0.10262159,0.10866253,-0.026623655,0.037099935,0.07832128,-0.12392171,0.08664717,0.06115641,-0.09301603,0.032228097,0.036396954,-0.10518835,0.096930236,0.027636984,0.05145605,-0.06331364,-0.022127053,0.027453216,0.078265384,-0.07755543,-0.07224071,0.08008315,0.03464867,-0.101214916,-0.05967682,-0.05717891,0.014792793,0.106498,0.07220939,0.06758379,-0.0681915,-0.024741936,0.08034251,-0.1033999,0.062759295,-0.042065036,-0.04447944,0.11869175,-0.14680322,-0.083455525,-0.0793261,0.06877928,-0.020892868,0.046029992,-0.026835734,0.059499115,-0.09673801,-0.17503339,0.108362235,0.063256,0.073064,-0.06722295,0.089431584,-0.06765778,-0.113525555,-0.104962476,0.100662775,0.0868589,0.11180819,0.089757085,-0.09729676,0.08442673,-0.04044427,0.12606104,-0.09455739,-0.11946007,0.08083129,0.089409366,-0.0276621,0.10831557,-0.048565045,0.11285825,0.073248245,0.09364642,0.1269487,0.09908718,-0.09249918,-0.045809247,-0.07018091,0.046107106,0.054880258,-0.05449495,0.05454241,0.04450043,-0.08473494,0.102448516,0.14296088,-0.03388317,0.097700655,-0.041237902,0.10695174,-0.121296346,-0.026489943
0.09718834,0.07137771,0.080482684,-0.0562271,0.085783206,-0.0868586,0.12597491,-0.16522329,0.07047003,-0.038730267,-0.027395679,-0.11251711,0.100614116,-0.076197304,0.11815449,0.107635126,0.09837261,0.0561732,0.107432365,0.09177061,0.03265319,0.06790753,0.10051211,-0.074506685,-0.062991366,-0.0962015,0.041193258,-0.1340652,0.068127446,0.10185447,0.1042352,-0.012791159,-0.08610745,-0.061646633,-0.0443232,0.06064271,0.09462409,0.10648756,0.0941728,0.09466768,-0.08258318,0.09681336,0.038462896,-0.113864526,0.02357814,0.07014377,0.08424635,0.07757233,-0.06506027,0.081522025,0.0671353,0.011512313,-0.06946661,-0.10731,0.08676117,-0.18547373,-0.10979215,0.052915446,-0.057713773,-0.08277482,-0.06578177,0.12073565,-0.08179117,0.092655174,-0.015529489,0.04275748,-0.021088863,-0.051936705,-0.06304609,0.06160067,0.0727588,-0.081875935,-0.104615964,0.10168196,-0.09040728,0.16830187,0.11050209,-0.05796443,-0.09254092,-0.029633489,-0.07421184,0.08149078,0.014344355,0.02516526,0.08944662,0.062633835,0.05261411,0.027753348,-0.06438769,0.07060467,0.13073368,-0.04456253,-0.06016502,-0.11762776,-0.08566419,0.038530447,-0.034117643,-0.1189624,0.07320851,-0.12988265,-0.121203974,0.06825337,0.10342416,0.050074928,-0.100306466,0.12066519,-0.064327575,0.061205897,-0.12612039,0.07725037,0.10780065,0.0661952,-0.02973822,-0.06243116,0.055921245,-0.13932596,-0.08224767,0.09283424,-0.03659629,-0.09201174,0.100261435,0.10069608,-0.08046359,0.10342277,-0.118373916,-0.06264042,-0.08690574,0.13006921,-0.021667728,0.036505327,-0.06925067,0.0466926,-0.12679964,0.0715011,0.08108375,-0.03815905,0.049768403,0.08730266,-0.09097091,0.054667477,0.041879267,-0.07936526,0.087931655,0.10322538,-0.07912033,0.08127877,-0.032808017,0.12112902,-0.07569242,0.09714257,0.108163625,-0.056882367,0.0555759,0.04482631,-0.04974957,0.0769338,0.12384186,-0.007817532,0.0536848,-0.03644487,0.054735012,0.10188518,-0.0771648,0.12905958,0.059341636,-0.032180924,0.021674085,0.09395542,-0.09551023,0.1037118,0.010604865,0.052544523,-0.06416037,-0.051484846,0.10470317,0.032092817,-0.07385679,-0.014294609,0.08934134,0.075802974,-0.09788031,-0.0770591,-0.11771363,-0.07224467,0.046285126,0.10590202,0.08144741,-0.091114655,-0.08609787,0.1029716,-0.09974009,0.056459,-0.055738825,-0.01702902,0.11350387,-0.11371433,-0.087612726,-0.07669374,0.110959694,-0.04230089,0.06896477,-0.01013418,0.096690625,-0.09683507,-0.1521568,0.056580838,0.024667254,0.08636295,-0.072555855,0.11206203,-0.023011241,-0.021227563,-0.066929825,0.08389786,0.07273694,0.11172827,0.03589991,-0.025918987,0.06884144,-0.0987157,0.10920962,-0.10154781,-0.06193743,0.10603125,0.023588322,-0.12011197,0.06561884,-0.10466951,0.037952844,0.08624969,0.056514297,0.14744431,0.030989591,-0.08909397,-0.06579235,-0.08314372,0.08548476,0.01675306,-0.13403521,0.021498565,0.02135267,-0.15471105,0.03540843,0.09686094,-0.02230918,0.032092486,-0.05727025,0.021616418,-0.056937035,-0.06848774
0.0943294,0.05740974,0.057839654,-0.07200983,0.08800144,-0.090086624,0.12007671,-0.1229419,0.058457967,-0.0774176,-0.072307564,-0.08467799,0.054344893,-0.0540364,0.06048423,0.0950312,0.04881937,0.056998916,0.11412065,0.034183834,0.05504308,0.06500287,0.079637036,-0.1086934,-0.088942274,-0.09361384,0.060965054,-0.11492488,-0.014245352,0.087947994,0.12296687,-0.050819896,-0.09687636,-0.10039944,-0.042280007,0.028163029,0.113048635,0.10439964,0.110287316,0.14020273,-0.08874277,0.08569112,0.066481315,-0.06804581,0.04573873,0.06688865,0.07490379,0.12425795,-0.09452422,0.045302488,0.099595055,0.0013971736,-0.03288078,-0.0661465,0.070745714,-0.19722393,-0.033663865,0.05574043,-0.07423144,-0.06912199,-0.09368015,0.12457203,-0.03451269,0.108434096,-0.039039522,0.054689992,-0.10761963,-0.077808775,-0.021537295,0.18708748,0.024541987,-0.058298003,-0.038804285,0.098182626,-0.07996166,0.11745422,0.043222178,-0.0857524,-0.109984286,-0.03979974,-0.081751,0.043097936,0.05553194,0.06830739,0.10583037,0.06504458,0.10590817,0.08753365,-0.06506002,0.04632236,0.07812241,-0.08015527,-0.08107687,-0.16015866,-0.046512425,0.09787495,-0.11568224,-0.10860511,0.08139364,-0.09240104,-0.06834806,0.080377385,0.031883664,0.03705243,-0.09546326,0.051398374,-0.07916868,0.063816234,-0.09323832,0.060993765,0.09737647,0.07730155,-0.06570882,-0.042834997,0.10705856,-0.1169969,-0.102973185,0.05298268,-0.11139811,-0.11731295,0.12906344,0.058821987,-0.10424303,0.12802388,-0.09825812,-0.13013183,-0.04296838,0.043205403,-0.02213445,0.052403785,-0.060147516,0.10314823,-0.08127018,0.0856879,0.03900928,-0.09592109,0.04313644,0.045858983,-0.031530377,0.13417666,0.054821447,-0.10682964,0.0961489,0.1226787,-0.031344082,0.094723225,-0.078829035,0.12435535,-0.12579785,0.1041549,0.12021828,-0.017408272,0.12877254,0.036245476,-0.10183787,0.026984643,0.12154356,-0.07574047,0.07387563,-0.028166635,0.0863376,0.056888614,-0.12254759,0.11485245,0.025513455,-0.06823732,0.063602075,0.05009723,-0.10294558,0.06042779,0.06314323,0.039985485,-0.08906585,-0.061482538,0.09267659,0.098971225,-0.10292883,-0.07922535,0.08338009,0.11445223,-0.031880546,-0.071118675,-0.07006799,-0.053297903,0.0969122,0.06348977,0.1046272,-0.08132788,-0.13696474,0.0671446,-0.120798,0.039638966,-0.1334848,-0.05481922,0.14255404,-0.14996116,-0.04139243,-0.14460821,0.14411536,-0.079654716,0.09819039,-0.017089808,0.07424121,-0.13671416,-0.14822021,0.0688336,0.078570575,0.025882233,-0.022125937,0.031506725,-0.09621396,-0.11820741,-0.087425746,0.03298586,0.08588689,0.06954227,0.113433756,-0.051687464,0.080267094,-0.04618452,0.1188413,-0.084379725,-0.12083354,0.08450782,0.11765018,-0.10400462,0.10904024,-0.107981615,0.062818736,0.064991415,0.05899056,0.12063122,0.064124204,-0.17080699,-0.07375408,-0.13377069,0.068660624,0.09205555,-0.10953279,0.03138306,0.10373989,-0.09675993,0.045871925,0.119522735,-0.030535482,0.045986906,-0.08951997,0.0509704,-0.13687685,-0.052228916
0.096121214,0.04355177,0.067019224,-0.034811646,0.050526645,-0.012311346,0.034493413,-0.12177541,0.09992677,-0.08490571,-0.042916,-0.056688346,0.10397041,-0.0688569,0.046342168,0.046673495,0.112753056,0.08096697,0.076065056,0.07470113,0.104546085,0.10374702,0.10877478,-0.09119033,-0.053882338,-0.034097496,0.07495976,-0.04912222,-0.0059153503,0.06474027,0.111093424,-0.03988727,-0.122741565,-0.09053029,-0.1090566,0.052702744,0.10234461,0.09773921,0.08179773,0.08229383,-0.07456588,0.038776327,0.11541533,-0.110160396,0.040477592,0.08370783,0.11430456,0.10647338,-0.08708007,0.12217375,0.11243821,0.04946618,-0.06350492,-0.12384572,0.06285208,-0.10462637,-0.13063948,0.03953482,-0.04828682,-0.11383973,-0.118797556,0.10809255,-0.0671371,0.058113825,-0.03504555,0.12914076,-0.106506005,-0.089602195,-0.054707956,0.08295243,0.07166245,-0.054666758,-0.026656024,0.07546799,-0.049771085,0.07763065,0.036675863,-0.084722675,-0.10211302,-0.094237044,-0.09632296,0.061291225,0.061696596,0.091283984,0.10448225,0.06161311,0.14244352,0.016037185,-0.07497996,0.07019766,0.07909075,-0.09549304,-0.11600912,-0.04983845,-0.0009600141,0.07989199,-0.074307054,-0.11848818,0.09375658,-0.10642923,-0.122990526,0.04027798,0.090818554,0.04392632,-0.092233315,0.1015374,-0.07200922,0.076764956,-0.06809728,0.04425016,0.02928395,0.035123467,-0.0729765,-0.07956565,0.029314281,-0.12536469,-0.07739318,0.14461362,-0.03755545,-0.07611304,0.048036855,0.03132908,-0.055277593,0.10941042,-0.030015085,-0.07532625,-0.036719408,0.09948545,0.021271214,0.061466955,-0.10629972,0.108717345,-0.11706971,0.1195648,0.057559166,-0.044870853,0.068701535,0.024730772,-0.025729023,0.10459415,0.021116005,-0.08122077,0.0923059,0.13594614,-0.047286768,0.08488657,-0.07186127,0.11678718,-0.11537713,0.13013452,0.024278501,-0.046015598,0.11294373,0.09020267,-0.07983229,0.062359143,0.0536395,-0.060526025,0.095248535,-0.046395075,0.08091779,0.11437554,-0.11807041,0.09611101,0.027974926,-0.09565585,0.083224446,0.047874928,-0.12492482,0.12399498,0.07259329,0.102890596,-0.074118644,-0.08151956,0.1035357,0.05738398,-0.08039814,-0.077248275,0.067919455,0.09141244,-0.035096478,-0.07772496,-0.089479536,-0.06633993,0.05049946,0.13268837,0.058653884,-0.10859165,-0.02961916,0.1502322,-0.09877696,0.08157273,-0.094590425,-0.035552707,0.11564071,-0.053351264,-0.095099084,-0.08634795,0.10075938,-0.01613058,0.06326993,-0.105146274,0.03768601,-0.06531629,-0.09028131,0.08158233,0.11856428,0.10289131,-0.079309456,0.037410244,-0.0301685,-0.07292303,-0.036651738,0.11439147,0.08778639,0.056782868,0.07706368,-0.119736746,0.06739748,-0.10398738,0.08997658,-0.07092188,-0.08998549,0.042910013,0.043315258,-0.037261784,0.057801183,-0.093605235,0.08798863,0.106938526,0.02515312,0.13755104,0.077851914,-0.1363634,-0.09603505,-0.05658368,0.05745077,0.07812822,-0.12842536,0.11473365,0.0182564,-0.1085525,0.068125226,0.105659045,-0.113548785,0.08709935,-0.06593073,0.11924245,-0.07292996,-0.047781706
0.054427695,0.14034724,0.08038101,-0.051799227,0.06572725,-0.09961035,0.07156802,-0.049490724,0.09066545,-0.073928736,-0.05039324,-0.08030682,0.028478624,-0.023540322,0.13152835,0.05052092,0.047921885,0.09212982,0.09794994,0.064669356,0.023588298,0.10952878,0.07856292,-0.09687062,-0.11359185,-0.038077377,0.0702354,-0.09399041,0.00483149,0.042973507,0.10608348,-0.056260657,-0.078612186,-0.01603569,-0.080871135,0.06714985,0.03991673,0.09933377,0.08996906,0.10947932,-0.067800924,0.061601885,0.053094827,-0.103438705,0.0971987,0.088013396,0.0778943,0.063881546,-0.031410802,0.052966155,0.044371083,0.038719267,-0.023767853,-0.05493602,0.11014899,-0.15897673,-0.105404355,0.07959841,-0.051333535,-0.102198735,-0.03933417,0.11292914,-0.059410937,0.065890685,-0.027190732,0.09351927,-0.037043165,-0.124549165,-0.036988154,0.106949076,0.03966221,-0.094992496,-0.019988645,0.13420026,-0.07491138,0.106565155,0.09755637,-0.033991665,-0.029345632,-0.11994589,-0.09188005,0.14893492,0.07333624,0.09962032,0.098029085,0.08262505,0.11029385,0.068674125,-0.08855046,0.032776207,0.13618912,-0.04943771,-0.08285258,-0.093193255,-0.119355924,0.06644659,-0.09495602,-0.113227956,0.06640435,-0.118841514,-0.083093755,0.057286836,0.04648087,0.019690005,-0.03220411,0.055820283,-0.03497726,0.09831321,-0.051493306,0.10303416,0.050854683,0.015265798,-0.02654067,-0.045664765,0.076170504,-0.13229603,-0.13295308,0.121177055,-0.051680055,-0.11284986,0.137826,0.11807299,-0.10701654,0.040619615,-0.09197331,-0.05031269,-0.06745404,0.10672003,-0.026538922,0.05332517,-0.025926976,0.10880173,-0.11900607,0.046807606,0.09405233,-0.09299138,0.08573434,0.06011468,-0.07288448,0.036937416,0.05620776,-0.09886045,0.11132944,0.075444594,-0.113061376,0.11664707,-0.030800363,0.09313061,-0.048627034,0.07073027,0.013950748,-0.08573607,0.052691594,0.08929699,-0.07061673,0.09404465,0.11024364,-0.018842932,0.12222419,-0.035227258,0.062014576,0.06676044,-0.11796482,0.051504802,0.09909034,-0.015723536,0.11114786,0.1480871,-0.055910677,0.09898074,0.066847,0.08103825,-0.13332713,-0.08821752,0.034791768,0.08107384,-0.12275816,-0.051438037,0.12633593,0.09879679,-0.045395263,-0.064520486,-0.07404864,-0.03761251,0.037247043,0.08071089,0.04718579,-0.068341374,-0.09124504,0.12926924,-0.099660754,0.10154643,-0.12889634,-0.033752844,0.13897625,-0.10922087,-0.08424165,-0.113317505,0.102208756,-0.087178476,0.079414316,-0.0793795,0.006340051,-0.041192997,-0.109985694,0.08975976,0.05962368,0.07189259,-0.1067591,0.10425682,-0.044737015,-0.07405483,-0.021333728,0.10433844,0.090962976,0.08628971,0.08828893,-0.090765126,0.05360238,-0.04237561,0.05348418,-0.085033596,-0.075950526,0.115683526,0.10709914,-0.08360906,0.0377799,-0.13169971,0.09052827,0.09722869,0.0698591,0.16882186,0.0410235,-0.13768281,-0.087852575,-0.14629567,0.097828336,0.060987525,-0.11349502,0.11615992,0.09971362,-0.15760542,0.049577937,0.052075867,-0.06992137,0.004721591,-0.05672332,0.051290315,-0.06792194,-0.027014624
0.06478164,0.09128538,0.064666,-0.10590797,0.06261024,-0.12323104,0.086771846,-0.046134412,0.10508541,-0.08144304,-0.048388593,-0.0931375,0.02883834,-0.054127213,0.05686394,0.10484687,0.05600414,0.04703782,0.07218767,0.11059404,0.049482387,0.055204723,0.09909161,-0.11673671,-0.035570562,-0.038965352,0.121645756,-0.057182565,0.022026444,0.08945285,0.1322277,-0.016356904,-0.07809159,-0.10610778,-0.07679492,0.07310661,0.057378553,0.08544926,0.058048952,0.113294065,-0.02705618,0.080689006,0.09190885,-0.07025504,0.09196434,0.03922496,0.08668919,0.0654979,-0.016376324,0.10623906,0.068768434,0.0002459539,-0.04788223,-0.084532455,0.021981126,-0.14182937,-0.033468094,0.023894738,-0.1102737,-0.070288025,-0.115325406,0.0813149,-0.09510142,0.10665933,-0.07152014,0.070619114,-0.11500186,-0.07525368,-0.07895176,0.14032607,0.09417548,-0.12523839,-0.060350075,0.15225598,-0.041030776,0.122260116,0.11215073,-0.088991664,-0.061282538,-0.071958505,-0.025674941,0.11404302,0.043831397,0.08713291,0.021484088,0.03433187,0.14320062,0.038370095,-0.05775123,0.026912807,0.13391659,-0.13108368,-0.038918402,-0.1178246,-0.12413014,0.0376727,-0.015282541,-0.082485706,0.056312244,-0.07526811,-0.09252438,0.08627053,0.08944425,0.09535743,-0.07633713,0.091983154,-0.04774643,0.10443193,-0.10814969,0.011985949,0.055988222,0.024464315,-0.07687242,-0.08576932,0.015606242,-0.09545006,-0.11583528,0.066856205,-0.08130355,-0.10820403,0.11429029,0.066424675,-0.08201831,0.058416944,-0.044266373,-0.11588072,-0.08032845,0.06471407,-0.057345193,0.025303874,-0.099921785,0.07222669,-0.08422007,0.10186722,0.02634798,-0.079020485,0.10523492,0.084183514,-0.04357627,0.09846667,0.040246826,-0.09837929,0.049875066,0.05676195,-0.039467443,0.033295512,-0.030439494,0.13365756,-0.07917917,0.06570077,0.1014143,-0.026374009,0.08549168,0.09658941,-0.06873138,0.10874111,0.10910147,-0.091086015,0.07553917,-0.078794956,0.09574075,0.09289178,-0.049715925,0.12650172,0.091371745,-0.046901397,0.057133675,0.102907434,-0.10238511,0.08266144,0.085262075,0.10561073,-0.1100678,-0.065200984,0.08357926,0.015203867,-0.028479492,-0.035292484,0.061033774,0.11029056,-0.013878065,-0.1101767,-0.056499217,-0.06262771,0.062072534,0.08129929,0.13098066,-0.120984934,-0.09556773,0.1413886,-0.09288317,0.08780807,-0.0924058,-0.102954835,0.12735133,-0.14381067,-0.08041278,-0.11279818,0.043184675,-0.022422232,0.09733738,-0.033109397,0.035745226,-0.038981076,-0.18186605,0.062374286,0.02637002,0.09102989,-0.0745367,0.050993234,-0.022185639,-0.037536073,-0.10352245,0.06871232,0.06322,0.044628277,0.03823325,-0.059742242,0.042416498,-0.0984296,0.12303566,-0.109427415,-0.12757084,0.051676188,0.11430337,-0.040228155,0.11321667,-0.09008505,0.055128574,0.051820595,0.058291264,0.14147934,0.021103011,-0.04655777,-0.052064814,-0.082932174,0.05151879,0.07799314,-0.056513924,0.02542455,0.014858821,-0.14670639,0.101346314,0.10519449,-0.09044354,0.06442661,-0.08536294,0.06327312,-0.071272545,-0.01676402
0.10152557,0.06742161,0.053385094,-0.045732982,0.08709567,-0.055646658,0.0775012,-0.074096136,0.11996914,-0.081744105,-0.08730299,-0.13309102,0.0228778,-0.033699747,0.1204701,0.1359005,0.05806592,0.12802647,0.05960367,0.07516422,0.06249954,0.11875348,0.09178508,-0.1119156,-0.057449196,-0.093624406,0.102492295,-0.10867892,0.00077349,0.086040445,0.16581626,-0.034793388,-0.11908066,-0.034858033,-0.1152068,0.10315437,0.05649184,0.11299882,0.027597602,0.051566828,-0.07784163,0.0353819,0.10691162,-0.07319009,0.020705614,0.112332806,0.094589606,0.08033603,-0.03722536,0.069607705,0.11175398,0.045961864,-0.093011364,-0.115541846,0.092384934,-0.13274112,-0.035281364,0.12015522,-0.045377634,-0.077983186,-0.05578205,0.04582986,-0.022318706,0.07707635,-0.073609166,0.03942063,-0.06304933,-0.099318564,-0.045286607,0.09024288,0.08865523,-0.1070435,-0.10165181,0.086180136,-0.071530215,0.12944946,0.03115985,-0.035202358,-0.122387595,-0.08190423,-0.06029759,0.14522533,0.09384294,0.1041508,0.092439055,0.10690056,0.12319429,0.028243747,-0.07607141,0.083784595,0.08274999,-0.10514634,-0.114954956,-0.07900308,-0.06387781,0.09448833,-0.027247801,-0.09519831,0.100514136,-0.060099438,-0.036518294,0.088997796,0.023891207,0.07147662,-0.08345511,0.117416814,-0.067640625,0.10109628,-0.10833925,0.04397821,0.09342237,0.102972865,-0.043288197,-0.09065661,0.033580143,-0.08852244,-0.15451604,0.08504917,-0.08631469,-0.07754575,0.074237354,0.040144287,-0.12432036,0.09316132,-0.07310233,-0.07695504,-0.021367071,0.113091685,-0.065878205,0.08922352,-0.10494974,0.042337876,-0.09985267,0.1086468,0.1180411,-0.07865404,0.08424805,0.0744403,-0.09165516,0.07632957,0.1126236,-0.050331216,0.05057807,0.16337843,-0.021853713,0.08029267,-0.044081483,0.058547787,-0.061648287,0.11779134,0.087528706,-0.11160395,0.08074868,0.10029916,-0.12791002,0.08832922,0.051128715,-0.10518667,0.07935225,-0.05257557,0.02954806,0.09807282,-0.1328066,0.14492951,0.069314174,-0.050747517,0.05677156,0.0610734,-0.0990183,0.11960007,0.07515616,0.0894767,-0.114013,-0.09088933,0.044537857,0.07871006,-0.13925752,-0.07648214,0.061567754,0.07493885,-0.045525804,-0.06936277,-0.03837707,-0.0032657266,0.07120584,0.13618074,0.057426706,-0.059465613,-0.06675432,0.06906753,-0.049599923,0.03337868,-0.03347414,-0.04155218,0.05819586,-0.06481396,-0.117024735,-0.09869577,0.11744217,-0.07234681,0.055252265,-0.066616446,0.04000596,-0.1123185,-0.18569468,0.07929109,0.06366617,0.12248824,-0.105605796,0.041372832,-0.107311375,-0.08207465,-0.048271723,0.069004126,0.047633372,0.07088242,0.09143516,-0.06726807,0.03625483,-0.08755419,0.10673828,-0.10760941,-0.08745633,0.05494405,0.10287976,-0.077494204,0.06775636,-0.116276264,0.026537078,0.093949586,0.06977272,0.14739215,0.09152439,-0.11050498,-0.025211858,-0.16401958,0.08644249,0.09865902,-0.13152349,0.10261524,0.05815662,-0.095307715,0.1073368,0.057714995,-0.10126713,0.06256033,-0.120166324,0.11309211,-0.11543209,-0.02833097
0.22847827,0.28664434,0.2355151,-0.14941934,0.25757608,-0.18205725,0.20728818,-0.30975625,0.2440963,-0.19639708,-0.2532652,-0.30229536,0.22719431,-0.2541843,0.2766791,0.2805977,0.20760287,0.26267236,0.23096693,0.2352491,0.20903674,0.22461884,0.27262443,-0.21397994,-0.22009318,-0.2697947,0.2783014,-0.27116564,0.07660811,0.23669408,0.36048278,-0.20360874,-0.21709087,-0.20665258,-0.2325582,0.22419661,0.21967992,0.1938571,0.1600652,0.22925289,-0.27128413,0.24792738,0.22485694,-0.24855493,0.1928315,0.35196117,0.24006425,0.24711797,-0.23017336,0.22377989,0.1853932,0.005992989,-0.24145558,-0.2743758,0.2132934,-0.3860079,-0.21198376,0.2562025,-0.24631137,-0.19523169,-0.21756856,0.21335986,-0.19817086,0.21584415,-0.20726429,0.24919432,-0.23890366,-0.26208448,-0.23976833,0.3732716,0.23925863,-0.26026803,-0.24247852,0.3585825,-0.19576183,0.36620125,0.2530954,-0.21435903,-0.21791285,-0.2635055,-0.21770363,0.3113301,0.23055117,0.23304944,0.25440305,0.22448047,0.25642654,0.21781893,-0.25800806,0.27814364,0.2253747,-0.23676714,-0.2591354,-0.27561185,-0.28774273,0.2180371,-0.21631342,-0.224239,0.27580732,-0.26421443,-0.267106,0.22786766,0.24352844,0.20467263,-0.23459008,0.2616121,-0.19275035,0.21957375,-0.2678985,0.23469639,0.2359926,0.25392365,-0.2083255,-0.27214786,0.2345719,-0.2838933,-0.35095325,0.26183647,-0.25103125,-0.26801124,0.2870822,0.2132441,-0.27154958,0.24472417,-0.25272247,-0.22138049,-0.20908193,0.2656143,-0.13364096,0.19686794,-0.20115696,0.20202003,-0.33641756,0.25023913,0.24327648,-0.20615587,0.22075567,0.22069848,-0.19916627,0.26490608,0.25420624,-0.26587957,0.2042262,0.2954805,-0.22872375,0.24014597,-0.2566665,0.32263118,-0.24499938,0.24237275,0.22232419,-0.21590441,0.2290969,0.25895923,-0.24561182,0.2312616,0.23664811,-0.23285466,0.25861079,-0.22022572,0.2425832,0.24811508,-0.26437458,0.31834275,0.20639552,-0.22979811,0.2518906,0.2884604,-0.24935026,0.30624926,0.20416984,0.24158278,-0.26440272,-0.2714685,0.23907748,0.26080588,-0.23813131,-0.22070402,0.29059267,0.24983689,-0.21720523,-0.21471405,-0.20373517,-0.15389869,0.23317002,0.26589036,0.2647386,-0.25594804,-0.2584436,0.26093945,-0.26335147,0.23479614,-0.3103389,-0.23968661,0.32625952,-0.26760933,-0.24474362,-0.3272698,0.2719426,-0.23194888,0.24936739,-0.21868423,0.19612089,-0.2375065,-0.4373938,0.24916092,0.24677537,0.24832022,-0.23329681,0.21128212,-0.25692108,-0.24374521,-0.25730905,0.21015596,0.24645723,0.22803576,0.22686298,-0.26399955,0.23142414,-0.26958954,0.21214774,-0.21974456,-0.22334316,0.20899546,0.2604788,-0.23071639,0.2394244,-0.30677694,0.24568574,0.21662046,0.20612195,0.3979913,0.22457509,-0.28979868,-0.23779124,-0.30193555,0.22839974,0.20784752,-0.23067014,0.2473137,0.22277491,-0.3526014,0.25964373,0.23635702,-0.23499711,0.2077515,-0.24937123,0.25187162,-0.270502,-0.24686481
0.1133704,0.118849844,0.048849326,-0.062330082,0.05985404,-0.07915788,0.09883816,-0.09705476,0.027657185,-0.08608884,-0.057709124,-0.12680571,0.063881606,-0.09179612,0.10743195,0.08139834,0.033856113,0.05386871,0.06544611,0.06005393,0.10265626,0.04969089,0.038809113,-0.06876668,-0.081997834,-0.030473487,0.052591998,-0.05375844,0.00082062185,0.03222407,0.17744368,-0.04850209,-0.09136844,-0.020075098,-0.11413521,0.09438299,0.078063294,0.04060816,0.117012456,0.056155104,-0.12152133,0.09521483,0.032379933,-0.106775284,0.06181536,0.054561805,0.08031973,0.050651,-0.09760555,0.017805468,0.075347856,0.022662219,-0.100316875,-0.12363115,0.02511116,-0.097215705,-0.06832634,0.102900974,-0.01664758,-0.062176414,-0.06368864,0.08623461,-0.019983016,0.009094298,-0.037837796,0.036458876,-0.09016062,-0.15103604,-0.060874045,0.049451884,0.102306664,-0.07765605,-0.093865365,0.10136109,-0.031125657,0.08874123,0.084885105,-0.07013604,-0.026652565,-0.07153465,-0.088826895,0.10020949,0.016325273,0.05625724,0.05520981,0.09000103,0.12890269,0.10867075,-0.08700189,0.11464681,0.12350414,-0.10055895,-0.082460575,-0.06713491,-0.096097365,0.10479085,-0.080557816,-0.100461304,0.091796465,-0.08972695,-0.05696889,0.10306253,0.029470755,0.08884858,-0.077936545,0.11232613,-0.044375952,0.04230477,-0.07231185,0.083390824,0.07787736,0.04127079,-0.072462715,-0.1102621,0.03275001,-0.08718388,-0.14075197,0.06661045,-0.12013805,-0.067990504,0.08676423,0.035392754,-0.10879199,0.08098083,-0.06052087,-0.113809176,-0.0798437,0.049963314,-0.07427111,0.0947498,-0.035147954,0.10743894,-0.055289462,0.112167,0.10823988,-0.042267773,0.110233,0.08579663,-0.10535009,0.07593959,0.097490855,-0.086983226,0.040068086,0.1192009,-0.09287458,0.0979621,-0.108180076,0.05577058,-0.12248292,0.071228005,0.09867572,-0.03370803,0.07753994,0.08061285,-0.06366035,0.077908,0.111344144,-0.009779547,0.078787856,-0.009583382,0.07798584,0.057126276,-0.050856244,0.059417915,0.06422327,-0.008983267,0.03944715,0.05910209,-0.10342669,0.053430572,0.034460515,0.08134241,-0.12749475,-0.060287457,0.044909798,0.08702232,-0.1317537,-0.10161444,0.08242156,0.08930002,-0.090747416,-0.09159412,-0.0550585,-0.047731828,0.11566059,0.07770375,0.07812292,-0.10616071,-0.066608466,0.06161251,-0.13033323,0.079519235,-0.08183943,-0.038948856,0.14720803,-0.07237679,-0.025962373,-0.11815724,0.06393706,-0.026175538,0.098582216,-0.041840166,0.026860276,-0.08992503,-0.13663198,0.07049212,0.061270513,0.10948767,-0.046942364,0.06624337,-0.09821309,-0.072213225,-0.0686276,0.10163935,0.058566578,0.04202513,0.060571034,-0.052067526,0.092334166,-0.032396756,0.03652308,-0.09797179,-0.13328695,0.032617703,0.086621724,-0.06644792,0.11033641,-0.10313241,0.04295473,0.07589828,0.08498167,0.16224436,0.06250007,-0.08906139,-0.092691794,-0.14526388,0.10154453,0.05368427,-0.09277414,0.064547144,0.11832043,-0.078412294,0.089620985,0.1019106,-0.020587057,0.070954986,-0.09406491,0.09876866,-0.11062061,-0.032949068
0.12604824,0.026519781,0.073657736,-0.10011864,0.04039803,-0.030376041,0.02645924,-0.09229285,0.11744843,-0.022688664,-0.07414268,-0.097342916,0.032956008,-0.049334895,0.060310893,0.13652934,0.101935126,0.053411167,0.09034173,0.11140378,0.032184668,0.10120298,0.11836663,-0.08762905,-0.028800733,-0.042651333,0.05833183,-0.0721102,0.039162707,0.06963842,0.14398037,-0.037367325,-0.11032298,-0.033923764,-0.07055929,0.05356727,0.075675264,0.03605264,0.08279179,0.073221855,-0.049875844,0.04700082,0.08381607,-0.05042946,0.103789255,0.025997031,0.11476056,0.059301037,-0.07583667,0.06218181,0.1072579,-0.023717372,-0.11816614,-0.031031359,0.062086135,-0.16608652,-0.1173876,0.10760169,-0.10578487,-0.06293977,-0.044099625,0.034445792,-0.056256965,0.055967145,-0.056305956,0.08495162,-0.10877788,-0.073710024,-0.11942371,0.13236359,0.09351786,-0.089626096,-0.10183767,0.12788713,-0.041386846,0.15057594,0.029782193,-0.12019113,-0.13013746,-0.05243717,-0.07698146,0.11450333,0.060886312,0.0628481,0.12589476,0.032222018,0.051123433,0.061965946,-0.10277712,0.120410174,0.113466695,-0.08050097,-0.07477179,-0.036757853,-0.0398396,0.06748844,-0.033332262,-0.13908975,0.057152264,-0.092232384,-0.048097305,0.0658299,0.057240747,0.07561975,-0.07055449,0.06277801,-0.068386525,0.07278896,-0.038197923,0.086569995,0.06691532,0.12326596,-0.0654455,-0.09948856,0.055553667,-0.052430034,-0.09031014,0.052098826,-0.050392363,-0.07735838,0.1055611,0.08247522,-0.053404532,0.06571234,-0.07265353,-0.088254005,-0.027363237,0.05371879,-0.020095294,0.10444548,-0.10533059,0.062400762,-0.09502117,0.0773183,0.06379048,-0.031716466,0.105473615,0.060691785,-0.115714476,0.027456803,0.06495149,-0.050850525,0.11080265,0.10646589,-0.021776713,0.12329115,-0.066158876,0.09581472,-0.051086467,0.09210416,0.05664236,-0.07399248,0.09820053,0.05167546,-0.046989676,0.048837107,0.052255783,-0.062559366,0.031448532,-0.072432846,0.058646314,0.12858307,-0.03121955,0.12582153,0.06130598,-0.017823791,0.030543651,0.052386105,-0.02621956,0.058766045,0.09459026,0.13192724,-0.06365148,-0.062788844,0.08323581,0.069966905,-0.046165686,-0.058919147,0.12387296,0.074205786,-0.035742655,-0.08130444,-0.058795903,-0.028491363,0.1091092,0.102333315,0.021620603,-0.09662836,-0.06887944,0.124873936,-0.11628576,0.0976618,-0.080410786,-0.020651951,0.09985946,-0.1001608,-0.05106527,-0.060548116,0.07811847,-0.04199564,0.055185232,-0.059166133,0.07133746,-0.13143043,-0.1608837,0.05768019,0.113246866,0.053254254,-0.079689145,0.080043845,-0.0835287,-0.12189345,-0.07439221,0.0355003,0.121116415,0.056902584,0.05745713,-0.04293,0.12958016,-0.03935114,0.068256624,-0.0673524,-0.08658376,0.11137437,0.092800766,-0.10057732,0.08318517,-0.08567337,0.099598646,0.043387793,0.101582,0.16548252,0.10073607,-0.068496734,-0.08491143,-0.122049436,0.055239283,0.023670692,-0.045888923,0.046749245,0.10559213,-0.09331789,0.0511331,0.10719275,-0.064813085,0.073465586,-0.11743448,0.115395315,-0.11540546,-0.101052836
0.090990774,0.13650669,0.040258598,-0.050261438,0.10515283,-0.061475065,0.1063837,-0.11525506,0.06101165,-0.049430612,-0.06100449,-0.12573308,0.08313276,-0.094549425,0.056120038,0.15000682,0.0869673,0.12514697,0.07112895,0.097382344,0.103621654,0.07066593,0.04470149,-0.05817561,-0.100547865,-0.1142904,0.09569561,-0.08030241,-0.023840394,0.07383041,0.118994094,-0.10208816,-0.09114641,-0.046722464,-0.09007608,0.062814385,0.092411034,0.058262683,0.03892693,0.13434644,-0.09432274,0.07114586,0.10184932,-0.090985045,0.028451283,0.10618377,0.08931206,0.02849743,-0.10981256,0.0839088,0.08146424,0.005491552,-0.06120541,-0.11220612,0.116947144,-0.114408456,-0.11519759,0.08337653,-0.10916854,-0.025191972,-0.09636114,0.0608218,-0.0647326,0.037091255,-0.07778425,0.1236201,-0.07189168,-0.08646368,-0.07520962,0.09576624,0.0859467,-0.114851885,-0.024151163,0.113607265,-0.08006511,0.15384394,0.0359566,-0.09187951,-0.07322813,-0.0510773,-0.06974192,0.1068439,0.085604824,0.0767133,0.049923785,0.03370896,0.14899854,0.08669365,-0.026270168,0.06396927,0.13762504,-0.10565984,-0.11805769,-0.08626317,-0.08321997,0.09655811,-0.104072995,-0.0709606,0.11814609,-0.123497665,-0.10627358,0.052649315,0.082174204,0.07220592,-0.041190866,0.07803585,-0.07737643,0.03876298,-0.08928407,0.09214059,0.047649927,0.04582805,-0.07557347,-0.056800414,0.02889257,-0.13375874,-0.12425245,0.12211249,-0.034161128,-0.06816055,0.1465469,0.046620864,-0.11028529,0.059087243,-0.06603443,-0.039480656,-0.097916506,0.02869398,-0.011081948,0.072577246,-0.047526613,0.048816364,-0.14315099,0.075623706,0.08780907,-0.08710689,0.049879406,0.07850665,-0.09917234,0.07231202,0.07779468,-0.10387981,0.06694275,0.08085033,-0.061826263,0.060329583,-0.10909386,0.110983685,-0.09784065,0.07165699,0.03989925,-0.088153474,0.130394,0.09981738,-0.119382,0.06929174,0.1278116,-0.047268286,0.10054367,-0.08117565,0.07294342,0.030165704,-0.037795532,0.049756385,0.024310429,-0.023502579,0.08475648,0.09737438,-0.13129239,0.08274527,0.07344007,0.10823813,-0.077665426,-0.06159015,0.09401176,0.056955975,-0.11884212,-0.059198167,0.09504591,0.1153247,-0.06782708,-0.094356924,-0.054481488,-0.012718232,0.05033672,0.06382451,0.053184204,-0.095421925,-0.10414243,0.07595259,-0.060573585,0.036776412,-0.09708202,-0.07179012,0.06657129,-0.06338701,-0.07547901,-0.1397788,0.040294524,-0.1039009,0.07595581,-0.059032053,0.03047891,-0.10753893,-0.10976861,0.05528058,0.1347345,0.09248164,-0.06925915,0.07731898,-0.09461643,-0.06507536,-0.08901523,0.03916312,0.10217863,0.05590979,0.058581818,-0.06391219,0.07808119,-0.0634419,0.1259734,-0.11243824,-0.08656273,0.112573184,0.117345415,-0.13609031,0.040547155,-0.09213042,0.035430405,0.08037228,0.03156437,0.12289,0.1155639,-0.103234865,-0.09324193,-0.07375513,0.103557855,0.09698528,-0.12804934,0.10278964,0.07100842,-0.074444346,0.08413064,0.084552266,-0.0832465,0.074006446,-0.05028619,0.055518605,-0.037309058,-0.0886207
