0,1,2,3,4,5,6,7,8,9,10,11,12,13,14,15,16,17,18,19,20,21,22,23,24,25,26,27,28,29,30,31,32,33,34,35,36,37,38,39,40,41,42,43,44,45,46,47,48,49,50,51,52,53,54,55,56,57,58,59,60,61,62,63,64,65,66,67,68,69,70,71,72,73,74,75,76,77,78,79,80,81,82,83,84,85,86,87,88,89,90,91,92,93,94,95,96,97,98,99,100,101,102,103,104,105,106,107,108,109,110,111,112,113,114,115,116,117,118,119,120,121,122,123,124,125,126,127,128,129,130,131,132,133,134,135,136,137,138,139,140,141,142,143,144,145,146,147,148,149,150,151,152,153,154,155,156,157,158,159,160,161,162,163,164,165,166,167,168,169,170,171,172,173,174,175,176,177,178,179,180,181,182,183,184,185,186,187,188,189,190,191,192,193,194,195,196,197,198,199,200,201,202,203,204,205,206,207,208,209,210,211,212,213,214,215,216,217,218,219,220,221,222,223,224,225,226,227,228,229,230,231,232,233,234,235,236,237,238,239,240,241,242,243,244,245,246,247,248,249
-0.14338854,-0.17494816,-0.13607639,0.095172584,-0.10302835,0.13833266,-0.13874605,0.18481734,-0.17347649,0.17684786,0.17418212,0.13546549,-0.13412069,0.17602478,-0.11281694,-0.14425778,-0.15776664,-0.13375843,-0.1653195,-0.10831779,-0.14095362,-0.08756864,-0.09841397,0.14589912,0.10917414,0.18707603,-0.13013698,0.17673466,-0.019788945,-0.09384134,-0.20743997,0.17695196,0.1761757,0.15802939,0.10980674,-0.18360725,-0.11704408,-0.1440324,-0.11624686,-0.17317599,0.20407225,-0.14451294,-0.15976173,0.1203776,-0.16768986,-0.09763754,-0.109674945,-0.110568225,0.09795885,-0.12900354,-0.17772311,0.0027773832,0.14342257,0.15794963,-0.16701376,0.17967269,0.17676227,-0.16154999,0.15863305,0.17534462,0.18655682,-0.12293166,0.18033558,-0.14962965,0.18424286,-0.1949546,0.18221657,0.15328248,0.11919366,-0.20150818,-0.12584773,0.13958693,0.17102733,-0.135639,0.17205909,-0.17844498,-0.10423459,0.16469525,0.1280561,0.11951049,0.098298706,-0.1299872,-0.12993269,-0.12466688,-0.15259917,-0.13988273,-0.13581039,-0.120787434,0.12905265,-0.14180839,-0.09586606,0.18354495,0.11681716,0.16455297,0.091204055,-0.17503099,0.16162732,0.12077104,-0.16681902,0.16675225,0.12112081,-0.1526819,-0.12816271,-0.17206378,0.10427595,-0.1107142,0.14828901,-0.16114633,0.08590092,-0.10290306,-0.12297902,-0.14811246,0.15976286,0.100370966,-0.1697667,0.116570495,0.2111065,-0.13744144,0.116711766,0.09582613,-0.13252546,-0.16911146,0.16208763,-0.18483093,0.10894689,0.11293959,0.09322893,-0.1023157,0.090402156,-0.11660244,0.0882598,-0.16604474,0.13034408,-0.1537887,-0.08965886,0.15249334,-0.11902987,-0.16113463,0.12826827,-0.18072313,-0.119121976,0.15729782,-0.11658278,-0.12030572,0.10475466,-0.13957167,0.17487104,-0.14527948,0.1959057,-0.12162343,-0.08237676,0.11958451,-0.14470348,-0.10917736,0.1406529,-0.15946718,-0.107217215,0.13412789,-0.14427002,0.17648864,-0.14268462,-0.1144848,0.1177319,-0.14350364,-0.09633676,0.08042425,-0.12724103,-0.12796274,0.10458524,-0.14617671,-0.11874839,-0.16215833,0.19607465,0.16268338,-0.10354644,-0.13613015,0.1210605,0.09749264,-0.14343527,-0.115701415,0.13358404,0.18588322,0.0875237,0.052742504,-0.11195566,-0.16378509,-0.11644953,0.1387831,0.14032058,-0.105208576,0.1206188,-0.11834989,0.12148743,0.12791245,-0.12544303,0.17326963,0.09176061,0.18766691,-0.15273394,0.11873019,-0.16045208,0.15190801,-0.17193596,0.18485798,0.18857959,-0.13523471,-0.1973858,-0.11193326,0.11832497,-0.099081114,0.12564933,0.14169948,0.17366928,-0.12702814,-0.11387569,-0.13500355,-0.09117397,0.100452855,-0.10371027,0.1285196,-0.07514208,0.14966276,0.15639347,-0.11153097,-0.13497296,0.13314591,-0.14930464,0.16396244,-0.15605184,-0.079963006,-0.11620826,-0.15830183,-0.08484079,0.12575923,0.09807785,0.19313917,-0.10214835,-0.16402033,0.10938103,-0.14385653,-0.15915903,0.13860826,-0.0900981,-0.17241502,0.15144049,-0.11295446,0.13645956,-0.1732863,0.1375943,0.10785463
-0.07585876,-0.16774336,-0.14808737,0.078259595,-0.18003264,0.08957068,-0.12694532,0.19038408,-0.123933315,0.18262789,0.111068286,0.11175266,-0.15135068,0.11620895,-0.17483455,-0.13177006,-0.161311,-0.13476309,-0.14250174,-0.11950158,-0.17113069,-0.16153373,-0.1726213,0.10019559,0.10066849,0.1226237,-0.12285713,0.18846661,-0.0065843016,-0.15407029,-0.117965445,0.1788125,0.18038018,0.11837744,0.11719165,-0.15302517,-0.1443752,-0.12052845,-0.123987034,-0.18578412,0.19626865,-0.1302034,-0.11509789,0.09198297,-0.1680306,-0.130752,-0.06657371,-0.100944586,0.084393516,-0.099628724,-0.14418134,0.02151816,0.16781205,0.12900378,-0.17144631,0.18017699,0.08088156,-0.15920722,0.16944915,0.11616664,0.13971959,-0.07715838,0.15475187,-0.17010903,0.16011047,-0.13653481,0.1449135,0.13908081,0.16884172,-0.19857612,-0.096678406,0.13462083,0.102493346,-0.099607654,0.16173075,-0.17461948,-0.15450113,0.08799224,0.14756778,0.12550162,0.13741751,-0.14535752,-0.12559737,-0.10137991,-0.10210708,-0.14435187,-0.14288677,-0.111888394,0.14321306,-0.1366722,-0.16186842,0.1335632,0.1543431,0.080268584,0.06980832,-0.15424371,0.12468689,0.15919496,-0.15528604,0.16151202,0.12323077,-0.11724959,-0.13151103,-0.16377039,0.17446284,-0.15537177,0.15547813,-0.114509046,0.15157521,-0.13438082,-0.10265343,-0.1805584,0.13736705,0.09828374,-0.11695915,0.14817244,0.19114126,-0.118974075,0.1692516,0.14297505,-0.18269859,-0.093903795,0.1295883,-0.12140355,0.09991054,0.10843308,0.14808251,-0.15307261,0.0074892035,-0.10966061,0.10481276,-0.09491496,0.12453102,-0.11158185,-0.08266079,0.16650818,-0.107800424,-0.09080837,0.09157902,-0.119830355,-0.17301942,0.1892332,-0.16448641,-0.13765797,0.08347722,-0.086954236,0.15170301,-0.17126554,0.1858387,-0.12616491,-0.16532005,0.0850498,-0.068856575,-0.09933109,0.10308857,-0.104719676,-0.10265587,0.14301991,-0.14711228,0.16070868,-0.12596934,-0.16208832,0.08000399,-0.052992597,-0.10540993,0.14875196,-0.09864844,-0.14470023,0.15344162,-0.20495328,-0.1378087,-0.17018425,0.1776953,0.1700476,-0.15016071,-0.14813603,0.12729605,0.09345947,-0.11482075,-0.10024399,0.0783976,0.18274237,0.1369795,0.090631306,-0.17866026,-0.18574905,-0.103036724,0.117870726,0.180353,-0.13352641,0.16163692,-0.10292784,0.095875286,0.10461625,-0.18741287,0.09999694,0.14753877,0.21065727,-0.19808426,0.14963436,-0.1799658,0.1374969,-0.17321147,0.17380479,0.14276671,-0.16490631,-0.16744812,-0.09521384,0.1387481,-0.09672695,0.16430575,0.13970445,0.17343195,-0.11251463,-0.102189995,-0.14166898,-0.15824834,0.12700446,-0.12964396,0.17786469,-0.08212903,0.11521363,0.07641945,-0.085190065,-0.14071646,0.16477786,-0.14119738,0.119276986,-0.0809763,-0.17150132,-0.15695797,-0.1487957,-0.1495739,0.14124613,0.1489557,0.17956269,-0.09304736,-0.17498127,0.08837491,-0.14088012,-0.16508538,0.14784342,-0.09129944,-0.10760123,0.12718195,-0.17125802,0.116362475,-0.15590732,0.13294019,0.1050191
-0.13370907,-0.14802334,-0.12650207,0.017274983,-0.12414806,0.12554792,-0.08172129,0.15103355,-0.1405753,0.11013274,0.14197716,0.18043637,-0.108958416,0.121925145,-0.15313557,-0.1375583,-0.13640997,-0.07688366,-0.13186224,-0.1577073,-0.07606573,-0.10676312,-0.14087018,0.083529994,0.1289781,0.19358546,-0.1464226,0.12642968,-0.08212597,-0.085452855,-0.1773519,0.091565445,0.1319489,0.16742218,0.097105466,-0.09368684,-0.12631795,-0.08408603,-0.10345829,-0.11698973,0.13767803,-0.08450598,-0.08534945,0.08966739,-0.15739232,-0.04508672,-0.12273557,-0.16925345,0.12017161,-0.1661994,-0.16222349,0.015437047,0.0845717,0.08625844,-0.09886749,0.10797702,0.14488314,-0.082761824,0.09475856,0.10549189,0.106156036,-0.1100123,0.12951528,-0.07086973,0.07106638,-0.12899794,0.11723249,0.11666526,0.12516996,-0.17913048,-0.13021564,0.09592108,0.14068364,-0.15293851,0.1652068,-0.2050592,-0.13547863,0.14996096,0.13378048,0.11427623,0.15143333,-0.11766758,-0.16979751,-0.15504122,-0.15194038,-0.13215148,-0.14266177,-0.13913068,0.07118941,-0.16256315,-0.1718066,0.13991225,0.1111801,0.14712454,0.14176123,-0.07546262,0.0878405,0.07987807,-0.11760733,0.12413035,0.17733231,-0.17974241,-0.13092932,-0.06978066,0.07345188,-0.15790102,0.09988459,-0.1243883,0.16774794,-0.12043308,-0.09058095,-0.12628342,0.14597532,0.14239168,-0.09424051,0.14753568,0.20211026,-0.1837682,0.08207978,0.09408402,-0.1821852,-0.12748311,0.14827581,-0.09300492,0.09935625,0.15008381,0.16186048,-0.10758871,0.03783423,-0.12231323,0.11767715,-0.115333535,0.17927639,-0.09090204,-0.16849996,0.1692295,-0.09841026,-0.16557322,0.14585927,-0.15545821,-0.09508528,0.09628993,-0.07213446,-0.11715788,0.098812334,-0.11457178,0.12698296,-0.1705693,0.14593764,-0.15584157,-0.14838195,0.07820621,-0.11573898,-0.07437987,0.087412946,-0.12542133,-0.12850909,0.09746537,-0.16663015,0.08926451,-0.104089126,-0.10719106,0.14257953,-0.13967825,-0.13221577,0.13270186,-0.14551196,-0.10437163,0.18559055,-0.15675953,-0.1604484,-0.15494293,0.100960754,0.16298227,-0.14812894,-0.09387578,0.12927124,0.14598702,-0.107727036,-0.105205454,0.13724104,0.14247546,0.17797191,0.09741265,-0.14139235,-0.17269021,-0.1449809,0.18249859,0.1603927,-0.05935971,0.08549104,-0.08547041,0.14249825,0.0848175,-0.11712376,0.119485654,0.07709709,0.1799122,-0.14446305,0.09722271,-0.16551882,0.14813164,-0.1241749,0.107684046,0.16782121,-0.118677706,-0.112416774,-0.08932067,0.0918861,-0.18072686,0.11146872,0.17303345,0.12317685,-0.13487975,-0.18665466,-0.10082615,-0.14532776,0.14923903,-0.16047324,0.08290347,-0.014823028,0.11919899,0.11227876,-0.17958812,-0.08920135,0.14721349,-0.14896582,0.111555494,-0.1264999,-0.13163427,-0.13857375,-0.15604289,-0.083027385,0.12093928,0.15829545,0.18379952,-0.07481773,-0.07999634,0.17458086,-0.114347115,-0.10347327,0.20460029,-0.15450121,-0.07762012,0.082185306,-0.096330106,0.13734001,-0.107756086,0.18219149,0.15280661
-0.15394494,-0.10283488,-0.16740635,0.1404177,-0.09056246,0.083968535,-0.09393938,0.206582,-0.14038762,0.16569066,0.12865712,0.13716415,-0.16104333,0.096357204,-0.09407733,-0.13711962,-0.07313201,-0.12087242,-0.14029397,-0.082576945,-0.08932952,-0.14871591,-0.16398096,0.18268876,0.084222645,0.102845736,-0.14739595,0.17503773,-0.044322558,-0.1500986,-0.2081608,0.1547656,0.093257055,0.13307104,0.12935986,-0.08962552,-0.10468884,-0.1341613,-0.10309563,-0.15807785,0.12467334,-0.079844065,-0.16562714,0.17575133,-0.11514612,-0.07797254,-0.17815198,-0.15960522,0.081771,-0.08166575,-0.11291055,0.0077251503,0.12419563,0.110602506,-0.16563782,0.15054119,0.07347415,-0.07832494,0.10553283,0.1198575,0.087900706,-0.113141015,0.09075617,-0.07028756,0.14749756,-0.10094163,0.12462892,0.20198113,0.118188545,-0.115428075,-0.1544059,0.154424,0.08572567,-0.20930073,0.14144684,-0.17500205,-0.14680314,0.108834386,0.06522923,0.08405002,0.1507903,-0.16578312,-0.14536744,-0.10994791,-0.1305064,-0.119064845,-0.16828303,-0.14125219,0.11530956,-0.09096474,-0.15021862,0.098276526,0.073291,0.11068917,0.09365859,-0.15469754,0.13262004,0.12728089,-0.17583485,0.11756353,0.14228846,-0.095101155,-0.08098981,-0.11863349,0.13013712,-0.084723026,0.098178275,-0.15816218,0.12849598,-0.07532379,-0.08979379,-0.0686206,0.09277807,0.1212875,-0.17017564,0.18473424,0.22329551,-0.16894251,0.14686929,0.13945909,-0.167992,-0.13059641,0.11419696,-0.15177023,0.13352151,0.117292106,0.14644963,-0.12933153,0.056496873,-0.09631129,0.15341802,-0.1756908,0.19291076,-0.1593967,-0.09003429,0.113613345,-0.12567347,-0.07855124,0.17239726,-0.14202763,-0.06983976,0.16048433,-0.16758847,-0.15626743,0.15684563,-0.09079342,0.13227518,-0.15191343,0.10591479,-0.15240604,-0.15377167,0.10698441,-0.16482952,-0.09478298,0.098513074,-0.106281966,-0.14295222,0.072269,-0.16358675,0.15456119,-0.14157316,-0.09566326,0.084202506,-0.073626004,-0.17157315,0.07063939,-0.08334273,-0.16582298,0.09384842,-0.1652273,-0.130874,-0.09601209,0.14210558,0.1398371,-0.07335435,-0.07395441,0.15555835,0.1261591,-0.16442634,-0.16914338,0.08601093,0.10848936,0.16349964,0.08824736,-0.102834456,-0.15860794,-0.17612003,0.14235486,0.17615037,-0.13832639,0.104215994,-0.09508706,0.139713,0.14604943,-0.14797293,0.17207623,0.066103466,0.19995144,-0.16105679,0.08706107,-0.16452041,0.104593545,-0.1427916,0.101325616,0.16086794,-0.086526245,-0.1647402,-0.07249683,0.15506297,-0.16724963,0.10735226,0.114147894,0.093988,-0.08450478,-0.101293474,-0.112056516,-0.099581204,0.08365207,-0.111412786,0.1026837,-0.10681333,0.06599754,0.13701797,-0.08980595,-0.1769355,0.1175768,-0.12833016,0.16744341,-0.0760989,-0.12613827,-0.12442075,-0.19351521,-0.13535845,0.17361073,0.06520667,0.15392415,-0.10458471,-0.13600393,0.101573765,-0.16922352,-0.06720474,0.20857807,-0.13617082,-0.14111179,0.11454571,-0.07657348,0.09347108,-0.09415359,0.16903138,0.14029811
-0.16069078,-0.1524118,-0.12952894,0.07301992,-0.15316173,0.05616582,-0.03698918,0.18919334,-0.08813643,0.114150144,0.106226966,0.12858368,-0.10058982,0.063718505,-0.15211119,-0.10672134,-0.088601634,-0.08041321,-0.11242269,-0.14754327,-0.074847706,-0.07863798,-0.14481348,0.12869446,0.16822176,0.18325631,-0.1628146,0.15800811,-0.07788415,-0.14182043,-0.18884115,0.16436845,0.10724564,0.11151092,0.12301709,-0.108118795,-0.09339407,-0.16341358,-0.11526508,-0.14566235,0.15282537,-0.07722654,-0.073622786,0.17339854,-0.13218144,-0.05849161,-0.12299397,-0.16031633,0.15380372,-0.12699401,-0.11081287,-0.027598849,0.1496216,0.07225402,-0.09909334,0.105807714,0.15070216,-0.14267303,0.13415302,0.096509,0.08757389,-0.121080816,0.08714151,-0.10775319,0.12195315,-0.16407953,0.1419861,0.18041281,0.116543025,-0.16167584,-0.09355929,0.11452508,0.09449558,-0.15911655,0.15306988,-0.13405648,-0.07398475,0.17410849,0.13867013,0.091284744,0.13481803,-0.07784667,-0.08991632,-0.12393421,-0.074317925,-0.12380924,-0.16270971,-0.11457027,0.09259476,-0.13603933,-0.17888291,0.16773817,0.09370217,0.045254,0.10676946,-0.1346056,0.11169476,0.13992596,-0.17918818,0.16136572,0.13248526,-0.08309033,-0.08159986,-0.1294935,0.12897962,-0.16047941,0.13073379,-0.1497427,0.09933879,-0.09737199,-0.15288591,-0.09534525,0.120385915,0.12405696,-0.077390306,0.11599228,0.1644789,-0.17645086,0.17663777,0.15234978,-0.17077774,-0.086064994,0.16279566,-0.100286,0.16170622,0.11619713,0.1372517,-0.1153712,0.07478225,-0.104968466,0.14833356,-0.09999891,0.10670059,-0.10329244,-0.090942465,0.16746607,-0.08758912,-0.08861614,0.14226371,-0.084955655,-0.08353129,0.118993014,-0.112491265,-0.1773396,0.14975278,-0.108406216,0.14603457,-0.1862461,0.17526677,-0.13703391,-0.11665168,0.13379373,-0.08779804,-0.14908934,0.0867091,-0.10530958,-0.16311611,0.15052229,-0.10422569,0.07292621,-0.10299952,-0.07918021,0.097145125,-0.11627619,-0.15301244,0.13258395,-0.15540174,-0.11074024,0.16578558,-0.13117361,-0.14056693,-0.07946929,0.1101153,0.16888975,-0.14606763,-0.07892278,0.1443439,0.095432304,-0.17316793,-0.101329625,0.13368647,0.07505202,0.15985197,0.025763799,-0.11389936,-0.11459856,-0.14158705,0.17895353,0.14499035,-0.13591582,0.07669771,-0.09443881,0.07474625,0.08824217,-0.1588653,0.12248546,0.1528455,0.1222981,-0.15871593,0.076373905,-0.10068048,0.11408031,-0.14210863,0.16408171,0.15950914,-0.14610708,-0.12302624,-0.10550641,0.13770802,-0.111754976,0.14109491,0.13927035,0.089035556,-0.14047538,-0.13144246,-0.12714468,-0.13265726,0.164529,-0.0783633,0.0986128,-0.114072375,0.14463793,0.10890003,-0.11541575,-0.08831294,0.13378079,-0.122752175,0.10320506,-0.16519952,-0.13003875,-0.15003465,-0.15797687,-0.12990266,0.09238957,0.12620403,0.15557536,-0.08409223,-0.0921724,0.14180754,-0.15733308,-0.07412947,0.15372361,-0.09369049,-0.09399614,0.08584174,-0.14287677,0.13257468,-0.13990982,0.123840466,0.10213833
-0.12943819,-0.14399594,-0.10054984,0.09322681,-0.15787064,0.09720144,-0.07802916,0.09854102,-0.10637094,0.10388744,0.12508737,0.08435179,-0.13203889,0.10462692,-0.11111981,-0.10449251,-0.15395199,-0.104363404,-0.060594704,-0.11649285,-0.14387766,-0.14113916,-0.107145585,0.17171721,0.120998874,0.088103466,-0.18984073,0.1677129,-0.055911303,-0.06981635,-0.17750284,0.08629786,0.15134947,0.1488485,0.095306724,-0.069231704,-0.11808184,-0.12483426,-0.03776001,-0.089412294,0.14611027,-0.14748138,-0.08959965,0.13262849,-0.087755196,-0.12572195,-0.06546406,-0.09498064,0.078908,-0.09229534,-0.13881856,0.018845044,0.1021216,0.121172,-0.11058487,0.12731682,0.1259726,-0.107848264,0.14784308,0.104307264,0.13169438,-0.11978245,0.1421968,-0.05599639,0.14182138,-0.1268844,0.15836564,0.11311927,0.09550242,-0.15698367,-0.13031262,0.13801251,0.0541556,-0.14177695,0.13131295,-0.17975616,-0.13268287,0.09890428,0.08233309,0.14896679,0.115319245,-0.14351775,-0.098704375,-0.07938939,-0.100472316,-0.061972655,-0.121161446,-0.1526416,0.10113835,-0.15079878,-0.11406005,0.16906525,0.14615327,0.08572561,0.12086092,-0.14796947,0.12233474,0.11542813,-0.14015926,0.1489519,0.062106315,-0.0922758,-0.068416044,-0.11891242,0.06927009,-0.071235,0.10262434,-0.08755536,0.12392591,-0.094945766,-0.10698545,-0.110385284,0.14595541,0.1040671,-0.13887033,0.15681821,0.19502527,-0.14471178,0.14932537,0.1462578,-0.18975244,-0.110545166,0.0929507,-0.13110408,0.11349512,0.08044539,0.092540324,-0.12314969,0.07665777,-0.13944986,0.10175664,-0.08406021,0.18174264,-0.096576326,-0.11780214,0.14239444,-0.07400552,-0.12446049,0.15453789,-0.12340632,-0.107635416,0.16451524,-0.15303409,-0.12617841,0.1389415,-0.103571095,0.064502835,-0.13493417,0.13448955,-0.17579229,-0.08067882,0.14118563,-0.15543815,-0.086622454,0.07644591,-0.110862575,-0.053348545,0.05504964,-0.1208072,0.11499946,-0.1038906,-0.14712088,0.08085891,-0.07452512,-0.07847907,0.07171931,-0.12671842,-0.09958452,0.08060563,-0.11247046,-0.098521374,-0.10265261,0.09856726,0.09394056,-0.14367196,-0.14727277,0.099609844,0.10773242,-0.09827942,-0.08168511,0.06151756,0.1241583,0.07003961,0.03459943,-0.114862114,-0.14547402,-0.1712766,0.17789258,0.13972796,-0.15119138,0.15765914,-0.09145698,0.076346435,0.08743318,-0.15606773,0.11866156,0.12405765,0.11992346,-0.16941573,0.06093526,-0.08943984,0.10500867,-0.111213416,0.13998462,0.11281037,-0.14910021,-0.16483107,-0.13678522,0.11711533,-0.1426596,0.09968531,0.14106743,0.111157134,-0.06207225,-0.10549561,-0.11353854,-0.11498388,0.15601158,-0.12805822,0.10138936,-0.068003185,0.097512685,0.14196478,-0.15558802,-0.076915555,0.09155112,-0.075559966,0.18026218,-0.10860445,-0.14736924,-0.087390475,-0.1548214,-0.13459074,0.13654399,0.09312926,0.14790528,-0.14162734,-0.15954305,0.17547113,-0.16298628,-0.11518169,0.16049255,-0.07857271,-0.08901827,0.15066667,-0.06707074,0.15439725,-0.14794615,0.15399092,0.13101204
-0.13329394,-0.09140537,-0.08582936,0.15113108,-0.12285079,0.14702588,-0.13078766,0.16635357,-0.14698361,0.04601378,0.12733118,0.15538567,-0.1194236,0.096439056,-0.1917672,-0.18638644,-0.10673559,-0.09091754,-0.100399755,-0.10455161,-0.14717874,-0.08890162,-0.123751946,0.15585999,0.08615104,0.16432445,-0.1622183,0.09847612,-0.029553106,-0.08086751,-0.11376502,0.103519686,0.08861582,0.055240482,0.08624493,-0.10903998,-0.15141888,-0.11006107,-0.051337216,-0.092269026,0.122422054,-0.13176051,-0.087843396,0.15893027,-0.098103814,-0.10977771,-0.13072203,-0.12460851,0.1045157,-0.14602505,-0.08159781,0.017350327,0.076490596,0.15291944,-0.08007686,0.14383258,0.14934719,-0.07756792,0.10787692,0.12924683,0.09747419,-0.080100425,0.099934265,-0.09654374,0.12440959,-0.14482677,0.10788451,0.08743067,0.07498109,-0.19619504,-0.076708965,0.07303016,0.13660029,-0.16761653,0.056922857,-0.11435029,-0.062009983,0.098529,0.0695642,0.16304003,0.08105277,-0.17152819,-0.1011383,-0.14894342,-0.11208051,-0.124511905,-0.11662602,-0.08756184,0.14142694,-0.08293252,-0.07469503,0.14730005,0.07289094,0.11680769,0.14217247,-0.09877095,0.073122405,0.11838733,-0.14263482,0.11219017,0.11380774,-0.1456792,-0.09423527,-0.11874532,0.06981298,-0.16491185,0.060102668,-0.062378574,0.12343355,-0.12203058,-0.0719577,-0.12652084,0.15384828,0.102309085,-0.14529555,0.08659389,0.18793902,-0.14780463,0.08935392,0.13696435,-0.1511614,-0.121225335,0.15846057,-0.084135614,0.063524306,0.0780428,0.07149604,-0.11822814,0.089768305,-0.119505756,0.15199833,-0.0929615,0.20989588,-0.06824702,-0.10641691,0.10644452,-0.11333405,-0.07396479,0.0788666,-0.13911039,-0.0842607,0.098813884,-0.083355434,-0.1471229,0.054421067,-0.13621283,0.1276164,-0.13126478,0.119513705,-0.11297037,-0.12730378,0.10651897,-0.18949288,-0.16328166,0.11451673,-0.15157336,-0.1226244,0.11284918,-0.07958588,0.08656327,-0.13010342,-0.1493973,0.08895694,-0.1772207,-0.09837664,0.08426125,-0.10188785,-0.09634416,0.08709323,-0.13314866,-0.09855674,-0.16376731,0.09113852,0.15140688,-0.16148628,-0.1553488,0.12908475,0.06996695,-0.10065704,-0.1196912,0.15060228,0.09475645,0.1169113,0.10865372,-0.11612301,-0.1530549,-0.06875016,0.15629031,0.13668263,-0.12711692,0.12797643,-0.09530762,0.1563783,0.07905263,-0.1602104,0.07321187,0.07201515,0.17506044,-0.08482416,0.1227989,-0.15048027,0.09078912,-0.13200806,0.088908896,0.19324979,-0.09892262,-0.19205259,-0.13181838,0.079765506,-0.081325926,0.15269421,0.1542373,0.09989499,-0.0750584,-0.10475775,-0.14071146,-0.10641821,0.06863097,-0.11092977,0.12831701,-0.1408927,0.11355955,0.088325895,-0.12190667,-0.11719694,0.10780718,-0.07510216,0.19365169,-0.10723551,-0.06392789,-0.14021245,-0.20748022,-0.08371042,0.18554445,0.15088214,0.12797098,-0.15121982,-0.0920429,0.07918729,-0.06552026,-0.14569071,0.12456128,-0.10866741,-0.13047427,0.16481861,-0.1567623,0.107515976,-0.10753552,0.10263377,0.07952768
-0.19092768,-0.16851592,-0.064449355,0.089529045,-0.09445472,0.09337004,-0.1217402,0.16798787,-0.13790141,0.07294945,0.077463366,0.16235355,-0.11594684,0.07231606,-0.1048475,-0.15699662,-0.15325613,-0.10841013,-0.10997797,-0.08964263,-0.06707961,-0.079947464,-0.09947906,0.15925495,0.14196047,0.09912079,-0.13295773,0.15827796,-0.07085922,-0.058597673,-0.14918047,0.12415407,0.1230344,0.12039289,0.11057758,-0.07345063,-0.13563597,-0.10289562,-0.045926612,-0.068837985,0.16691278,-0.12512802,-0.06721,0.09996029,-0.15162252,-0.10911366,-0.09256024,-0.117637075,0.10570917,-0.06652843,-0.15602052,-0.02502026,0.09559532,0.09038692,-0.0982771,0.18434003,0.16008613,-0.121737525,0.118055865,0.11015112,0.08361293,-0.14662263,0.13802595,-0.12048734,0.090442576,-0.105946414,0.10958566,0.11049976,0.11933563,-0.15669931,-0.12117813,0.14131686,0.11250779,-0.13359757,0.13127139,-0.20605648,-0.1251799,0.09904598,0.1273581,0.11765335,0.09624783,-0.07163957,-0.054505024,-0.06488436,-0.0891174,-0.117726214,-0.16319545,-0.1193943,0.12105013,-0.12080868,-0.15319689,0.16325718,0.09416522,0.11916559,0.14124994,-0.13822015,0.12169004,0.11867657,-0.14404365,0.15175283,0.128735,-0.15455537,-0.10663594,-0.1295336,0.07463709,-0.112274066,0.09403569,-0.07963208,0.17104958,-0.08454775,-0.11740363,-0.12374712,0.1459033,0.1350669,-0.14501722,0.1320903,0.21089423,-0.104228795,0.15036812,0.14198755,-0.09262582,-0.102689624,0.12487548,-0.16993982,0.06486554,0.14775833,0.15814964,-0.07576699,0.08050466,-0.11116734,0.11554029,-0.08416063,0.17760642,-0.106051296,-0.14707445,0.12699202,-0.12882361,-0.14679594,0.13852893,-0.1081584,-0.06342955,0.1437521,-0.14318281,-0.16958849,0.15225178,-0.091512784,0.08723626,-0.10632112,0.095148124,-0.0919091,-0.057403233,0.08722978,-0.07442506,-0.11406874,0.07363821,-0.15128069,-0.12117519,0.14714292,-0.0964055,0.13449773,-0.09680633,-0.11420631,0.08609148,-0.14642355,-0.069815636,0.12483272,-0.13829231,-0.08662825,0.101526044,-0.09262094,-0.10769927,-0.11901779,0.13014336,0.14328185,-0.09325828,-0.113189876,0.10408609,0.12453939,-0.113863505,-0.094426244,0.057033803,0.16656455,0.122792915,0.058873948,-0.10745494,-0.13530944,-0.09817464,0.07769102,0.16053568,-0.10050225,0.093382515,-0.09434202,0.08174784,0.09004521,-0.11182926,0.15173444,0.096234016,0.12648895,-0.16319177,0.053785462,-0.16727856,0.05083386,-0.06938443,0.10078481,0.17244126,-0.07470639,-0.14219658,-0.14993773,0.10080656,-0.15821123,0.14613555,0.114981,0.11486108,-0.105539896,-0.09425524,-0.10358246,-0.12358875,0.11265737,-0.16166079,0.11310327,-0.101357356,0.14077766,0.08833175,-0.15039137,-0.1392944,0.13351937,-0.09268612,0.13873075,-0.09853529,-0.09924776,-0.116826504,-0.12514177,-0.14413162,0.18144037,0.11450788,0.1251951,-0.15385649,-0.082831606,0.10467958,-0.13662568,-0.07628587,0.19964227,-0.10053976,-0.112869956,0.1679264,-0.15744784,0.09413658,-0.13885698,0.10401795,0.08912498
-0.1264727,-0.084446095,-0.15156187,0.05164828,-0.12300967,0.04626304,-0.098503895,0.18597052,-0.072027005,0.07318985,0.0876771,0.17444187,-0.10668902,0.08963665,-0.17111719,-0.121598795,-0.14945777,-0.12309203,-0.11493723,-0.119729936,-0.09653659,-0.08030216,-0.0878613,0.07139714,0.11843675,0.08987127,-0.15173922,0.13816087,-0.03935335,-0.06546713,-0.13216668,0.08956643,0.118682235,0.07987691,0.13795164,-0.15083188,-0.079452656,-0.13934655,-0.09720674,-0.06923924,0.16970444,-0.07662626,-0.12763062,0.0855521,-0.13018328,-0.10842455,-0.13801031,-0.08184276,0.09377841,-0.104340635,-0.1545923,-0.0122261625,0.08717729,0.15120675,-0.11982835,0.18133385,0.10748763,-0.05515025,0.12864016,0.17379664,0.13562773,-0.07341164,0.086927265,-0.04725745,0.058672763,-0.083288066,0.08812979,0.10192943,0.07296906,-0.14555947,-0.072102614,0.06420172,0.09857479,-0.15174651,0.14772175,-0.14112453,-0.10320441,0.11991314,0.14027017,0.14771149,0.12722322,-0.08807496,-0.05710221,-0.1302443,-0.08263103,-0.050792757,-0.13324878,-0.09783835,0.04904194,-0.14410199,-0.08158424,0.063962914,0.087933406,0.15804902,0.109178446,-0.15542904,0.15439627,0.15845995,-0.089784175,0.08251684,0.1236021,-0.10040218,-0.06373338,-0.11023006,0.070414156,-0.14361005,0.07759632,-0.0886004,0.11062805,-0.07907603,-0.14084709,-0.056784455,0.07337888,0.15936281,-0.0705357,0.11177169,0.108974524,-0.09849594,0.118175924,0.07392153,-0.0926136,-0.0674023,0.11022514,-0.16350146,0.10323579,0.11834195,0.05617545,-0.15490471,0.005570123,-0.122743435,0.13279209,-0.12396004,0.10286176,-0.10216444,-0.1168364,0.10280955,-0.08391411,-0.079163484,0.14332755,-0.078473665,-0.12958102,0.13484628,-0.097207926,-0.16390555,0.15329422,-0.09498752,0.13034038,-0.12163984,0.15276761,-0.17142233,-0.13605098,0.10065295,-0.1515407,-0.15406974,0.06422064,-0.15252246,-0.09993159,0.05046397,-0.10482882,0.13530488,-0.0928308,-0.10087137,0.11787583,-0.07096597,-0.11399017,0.11634306,-0.10038955,-0.0716092,0.06554169,-0.14096479,-0.081365615,-0.12961505,0.090508945,0.10825052,-0.05737611,-0.09681442,0.12296356,0.147153,-0.081490956,-0.07699688,0.13545094,0.08525846,0.105846405,0.041211016,-0.14928882,-0.11104122,-0.12393757,0.14572427,0.12491884,-0.15207273,0.11166712,-0.12419228,0.078400254,0.12999131,-0.13360856,0.15795363,0.08960029,0.10890674,-0.0989273,0.12179525,-0.12219206,0.05363039,-0.058771748,0.087777786,0.107711285,-0.15035006,-0.09244296,-0.13253057,0.06056606,-0.055182263,0.122913465,0.07634308,0.12605913,-0.12197511,-0.1517957,-0.055827275,-0.13083526,0.0664126,-0.090541475,0.14178102,-0.16085038,0.06128289,0.11444927,-0.106683895,-0.15028669,0.06932222,-0.056347292,0.18143976,-0.14827059,-0.05060754,-0.14025149,-0.12551612,-0.100921385,0.18254949,0.090187386,0.14202347,-0.14204168,-0.13608406,0.082824804,-0.111266434,-0.087469645,0.18098237,-0.09065108,-0.06092201,0.11856075,-0.12468434,0.061019324,-0.09459896,0.08932497,0.056657214
-0.09913237,-0.1262351,-0.12579875,0.12405803,-0.16234908,0.13165338,-0.093615115,0.1739046,-0.08889674,0.13928595,0.07600491,0.109558284,-0.13142857,0.058940966,-0.13789259,-0.14784648,-0.14589092,-0.1318168,-0.12980203,-0.11141298,-0.068730496,-0.12292083,-0.096794866,0.08038896,0.10001244,0.15283616,-0.1366311,0.093026586,0.004569046,-0.069654495,-0.16703874,0.10999232,0.0832551,0.07930612,0.119093865,-0.12263614,-0.06656612,-0.13517255,-0.12658687,-0.16290663,0.115079656,-0.117439434,-0.15246463,0.083023615,-0.14154018,-0.05557762,-0.12582247,-0.050189048,0.09482932,-0.12605509,-0.12277906,0.043241296,0.10711842,0.119241565,-0.06359025,0.1493899,0.11952264,-0.12187532,0.11653198,0.1200132,0.09671109,-0.13091667,0.079120085,-0.11144695,0.12823428,-0.09911529,0.10477828,0.0739612,0.104915224,-0.18184723,-0.052298345,0.117502935,0.10565832,-0.21863462,0.12662405,-0.11548204,-0.055391688,0.10406773,0.06431419,0.080243826,0.06987492,-0.078361765,-0.14090182,-0.05364183,-0.11013676,-0.072235204,-0.1583721,-0.06195808,0.09915982,-0.1366573,-0.07390907,0.11916706,0.15062767,0.09952906,0.13978447,-0.13015895,0.06963194,0.116318315,-0.14694388,0.111063376,0.06903802,-0.115987524,-0.15264758,-0.123808905,0.10348831,-0.14189932,0.1479085,-0.084467985,0.13795497,-0.10489913,-0.12361641,-0.13767207,0.07996246,0.08329243,-0.080985874,0.10850475,0.1901267,-0.081867,0.14988449,0.13492697,-0.08310801,-0.09760278,0.08713663,-0.1232784,0.09294453,0.08998216,0.12648599,-0.07400891,0.06440586,-0.12077834,0.12852536,-0.071281016,0.1611543,-0.13115446,-0.09061095,0.06644807,-0.100911,-0.122632645,0.119759455,-0.07377682,-0.12513067,0.13444474,-0.12859343,-0.15013938,0.10837421,-0.052023754,0.115541466,-0.11928888,0.067065865,-0.090287015,-0.07338529,0.14182332,-0.12426376,-0.1266304,0.1353105,-0.13211536,-0.14712425,0.06333596,-0.061094217,0.059191775,-0.14719705,-0.06819193,0.12112319,-0.08389652,-0.13020995,0.12753896,-0.053410083,-0.11207249,0.12187333,-0.09501828,-0.13685603,-0.057476845,0.15921015,0.12212459,-0.15491125,-0.09321167,0.10775912,0.08529813,-0.122138456,-0.10037151,0.085512675,0.08000869,0.09175796,0.052674256,-0.07258865,-0.082942925,-0.10689083,0.1178407,0.12341916,-0.08431588,0.0778731,-0.12462448,0.1832833,0.13983102,-0.13592342,0.16200197,0.14362186,0.11108716,-0.12597075,0.12323483,-0.09264099,0.0786405,-0.04856604,0.13120387,0.23200792,-0.15804172,-0.12981631,-0.119341515,0.13064215,-0.061770167,0.12031884,0.06965308,0.076583356,-0.11818717,-0.13381475,-0.06058912,-0.09706867,0.080887586,-0.1318389,0.09116109,-0.14556979,0.115798384,0.13662979,-0.07522064,-0.06794803,0.07897022,-0.09480252,0.11909549,-0.04877373,-0.13644262,-0.09524897,-0.1503151,-0.055931292,0.13290322,0.12745248,0.10523058,-0.13114128,-0.05777018,0.13878189,-0.12042988,-0.054049097,0.17397505,-0.11191673,-0.08863132,0.12889135,-0.04886596,0.1268511,-0.119147204,0.13296115,0.05357491
-0.1629916,-0.09544358,-0.15436085,0.069267675,-0.11077515,0.040741563,-0.08960399,0.14924888,-0.12184474,0.08628979,0.111968786,0.17504895,-0.0872038,0.08540928,-0.1042065,-0.13542469,-0.12175939,-0.07929368,-0.13457151,-0.064332955,-0.092059165,-0.08475907,-0.13637266,0.10139988,0.12628351,0.12515675,-0.17085396,0.1352024,-0.034283146,-0.0948572,-0.14110608,0.13293873,0.16613097,0.07078601,0.12218144,-0.09591222,-0.09258884,-0.084410295,-0.09622177,-0.1399009,0.1659494,-0.13150719,-0.12088091,0.08886038,-0.1433129,-0.071932435,-0.13702968,-0.074583404,0.13036038,-0.104813695,-0.12437281,-0.02641318,0.08941462,0.06382906,-0.118860185,0.14084952,0.101525225,-0.08083235,0.10723642,0.10403992,0.091119155,-0.08021112,0.15766604,-0.10077191,0.08965918,-0.15406816,0.14141168,0.119814456,0.074014574,-0.11193308,-0.13927193,0.080678076,0.08102058,-0.10849896,0.07662499,-0.16216059,-0.090731606,0.10604353,0.15299726,0.09863403,0.06642452,-0.16254622,-0.09507059,-0.121533595,-0.14495297,-0.13011386,-0.1049026,-0.12399714,0.114027806,-0.16821434,-0.12964873,0.09989226,0.14698222,0.12123225,0.10005334,-0.08027178,0.11466225,0.097457916,-0.12692285,0.096339956,0.13535397,-0.06407705,-0.1323235,-0.085973695,0.14366454,-0.14082222,0.12844273,-0.08508847,0.11809249,-0.0999565,-0.072821826,-0.062970705,0.077034816,0.120395824,-0.13998297,0.09472044,0.16225445,-0.15717721,0.057417616,0.105808444,-0.08655836,-0.076817416,0.16619618,-0.13894689,0.053655308,0.059546795,0.12060291,-0.15989202,0.0053970236,-0.12846103,0.12790962,-0.10407046,0.14395945,-0.04862145,-0.11655426,0.10385043,-0.07550091,-0.093504004,0.10791736,-0.14749445,-0.13710116,0.12777501,-0.09282823,-0.14449978,0.114290655,-0.09560611,0.116237104,-0.08805314,0.11313817,-0.07569519,-0.12813696,0.11789767,-0.14199993,-0.16176286,0.15723257,-0.10934798,-0.11713094,0.10153443,-0.1677147,0.12151981,-0.085547514,-0.16916189,0.13458957,-0.0716043,-0.14410236,0.14140618,-0.11900917,-0.12593928,0.14428405,-0.078816265,-0.11975906,-0.13906991,0.1480061,0.15207578,-0.12151653,-0.122491546,0.14204377,0.13821402,-0.15976141,-0.14060725,0.13786678,0.09548654,0.155486,0.08754281,-0.11596123,-0.15381493,-0.06831083,0.16791429,0.08263251,-0.072147556,0.08851223,-0.09011293,0.12963992,0.06798862,-0.13636409,0.115464196,0.075960696,0.11051073,-0.1618948,0.14041823,-0.08419352,0.09508485,-0.15508848,0.14909464,0.102310315,-0.13934378,-0.071661435,-0.10899852,0.07100419,-0.075014204,0.06694055,0.1336153,0.1279015,-0.091354355,-0.10155886,-0.075458996,-0.08462444,0.15715061,-0.16233791,0.10089401,-0.035534304,0.10553276,0.065885335,-0.096568674,-0.0886733,0.076168336,-0.059902374,0.18096726,-0.07149447,-0.14419292,-0.10277364,-0.15064088,-0.109976575,0.12407059,0.07378248,0.084951505,-0.13826704,-0.094622746,0.11917937,-0.10706973,-0.106560156,0.14449757,-0.15130162,-0.13895696,0.15907839,-0.14680474,0.12723197,-0.14255702,0.071292005,0.13858917
-0.09565289,-0.11592794,-0.14482364,0.053986143,-0.12068379,0.0749708,-0.07359832,0.07252857,-0.15574817,0.09015807,0.10406724,0.1823064,-0.11235619,0.05850703,-0.118275285,-0.14035368,-0.079280086,-0.09245503,-0.13126552,-0.11156558,-0.09459841,-0.09914379,-0.159314,0.095802315,0.13888496,0.116154335,-0.121970356,0.09831559,-0.08539678,-0.070838034,-0.09264774,0.0540501,0.14848384,0.13282812,0.091372564,-0.09651625,-0.08899063,-0.11064577,-0.10758514,-0.07224236,0.107736506,-0.07130334,-0.056455202,0.08992655,-0.08900007,-0.113463745,-0.11425355,-0.06398896,0.08402054,-0.10141694,-0.09934711,0.041919466,0.12890702,0.11442449,-0.065080054,0.116179556,0.08281134,-0.1206862,0.12894344,0.06693735,0.0733185,-0.12643929,0.055995315,-0.11146226,0.14311317,-0.15097508,0.0980879,0.10719517,0.13167866,-0.18079261,-0.09714695,0.14380366,0.07514266,-0.19358689,0.1474191,-0.19192189,-0.11641347,0.06353029,0.1533143,0.13005966,0.08806965,-0.15571381,-0.114037134,-0.13337496,-0.08795612,-0.07948576,-0.10507573,-0.13213599,0.09350087,-0.14007431,-0.10828208,0.06438047,0.100027956,0.15949793,0.1053238,-0.1486773,0.12209614,0.12888019,-0.14290991,0.086675346,0.06805985,-0.12943085,-0.06700579,-0.08897026,0.1163404,-0.15001912,0.08144701,-0.12658873,0.08393663,-0.08324736,-0.055471774,-0.105129555,0.074245036,0.11857257,-0.14191972,0.111866646,0.102102205,-0.10955322,0.10684432,0.09574349,-0.1265088,-0.116781965,0.16776475,-0.08515779,0.12633908,0.14672081,0.043028064,-0.107855916,0.07836703,-0.117685206,0.113126256,-0.06918646,0.096104056,-0.070742585,-0.07257041,0.114709824,-0.12716235,-0.13180137,0.101534985,-0.06475648,-0.10667173,0.15946876,-0.13128914,-0.089578435,0.0961402,-0.14098693,0.09900584,-0.15564589,0.1389708,-0.13374332,-0.063660055,0.05515393,-0.07210698,-0.09837417,0.107824124,-0.089199826,-0.12239167,0.040900208,-0.10419909,0.08723167,-0.062103968,-0.13595918,0.058789615,-0.08881673,-0.15702331,0.04990208,-0.12580584,-0.10230082,0.12282976,-0.12806463,-0.053028278,-0.10233856,0.11783645,0.113815874,-0.102597475,-0.13650897,0.1395686,0.12222635,-0.08166405,-0.119855255,0.1280119,0.114686504,0.0617858,0.028558536,-0.061257925,-0.07601592,-0.07279002,0.07531469,0.12442187,-0.12794067,0.08758185,-0.1281905,0.12408614,0.13345884,-0.16921797,0.10552331,0.08924979,0.104209594,-0.17173766,0.123407915,-0.116859876,0.13825615,-0.11078936,0.15913625,0.16962384,-0.16107038,-0.1389081,-0.057423428,0.06559207,-0.0873236,0.06699399,0.08523184,0.10844231,-0.09505945,-0.15104495,-0.14204015,-0.15076943,0.08014758,-0.11559534,0.09427503,-0.05336192,0.13843918,0.14863838,-0.113285065,-0.12503846,0.065243214,-0.06129066,0.12189407,-0.11646065,-0.041452084,-0.06602525,-0.16614121,-0.12144425,0.09095121,0.046895944,0.0894006,-0.08397753,-0.10149683,0.109251745,-0.11069523,-0.1227478,0.13626567,-0.121081,-0.08483092,0.107342094,-0.08110784,0.14371775,-0.12730323,0.08360218,0.13584319
-0.13145791,-0.090804055,-0.11779127,0.08095037,-0.08519652,0.08133669,-0.051789645,0.14293657,-0.11936719,0.104859844,0.06407683,0.12035301,-0.09197291,0.09426692,-0.13839747,-0.105115905,-0.119805895,-0.08239877,-0.13295153,-0.14621975,-0.12515153,-0.0609526,-0.14172907,0.06934512,0.061247624,0.11342623,-0.13785595,0.10401732,-0.07478818,-0.11964711,-0.13826151,0.14207539,0.09279032,0.12556288,0.13804182,-0.073431954,-0.06024939,-0.08029412,-0.0862102,-0.09387679,0.17093481,-0.14821155,-0.10752222,0.14114529,-0.07742073,-0.09738729,-0.10393649,-0.10762443,0.09454302,-0.13886409,-0.15575844,0.05717301,0.0682016,0.119521186,-0.14950894,0.13742104,0.09745353,-0.1333818,0.14110862,0.06977409,0.13337696,-0.10200407,0.117989816,-0.11769909,0.13352875,-0.08054128,0.10841437,0.119998656,0.11149238,-0.13003886,-0.0511326,0.074591875,0.11081094,-0.20458058,0.06583772,-0.1665287,-0.13020128,0.12505531,0.12661043,0.1627929,0.0693741,-0.17696147,-0.10210127,-0.047387194,-0.12592404,-0.04172574,-0.119101435,-0.115404405,0.112636544,-0.0794366,-0.10675048,0.10176069,0.14462037,0.061162814,0.12467544,-0.13431142,0.07211633,0.15893883,-0.14859124,0.11702325,0.09564482,-0.05513837,-0.14882496,-0.12156409,0.10902091,-0.085682176,0.09245582,-0.07168333,0.15476516,-0.090832934,-0.11408787,-0.10743421,0.069755234,0.08257776,-0.15063737,0.069782116,0.19504474,-0.105869934,0.10085858,0.16870369,-0.118099324,-0.14976466,0.11017397,-0.06394981,0.070023246,0.0690619,0.09052528,-0.14969131,0.07838398,-0.11623175,0.08884264,-0.12787017,0.16330287,-0.061217956,-0.14389262,0.12703177,-0.14717077,-0.107033245,0.11744264,-0.076956436,-0.07833897,0.0717225,-0.15844284,-0.16321295,0.14692537,-0.13811953,0.09046187,-0.12913297,0.07198797,-0.07264386,-0.16778924,0.11658412,-0.16161527,-0.07008402,0.08789568,-0.10735372,-0.113334544,0.06374042,-0.11948279,0.09904744,-0.06797262,-0.11755593,0.15290934,-0.17009205,-0.12668943,0.14624552,-0.089349665,-0.1441208,0.12543172,-0.16585773,-0.10055696,-0.15510923,0.13962369,0.13002077,-0.07735281,-0.12836243,0.08905299,0.08265817,-0.118614,-0.16491349,0.11145095,0.06213334,0.09466411,0.042019777,-0.14267862,-0.11346341,-0.16376898,0.15109406,0.11765475,-0.100600205,0.1406873,-0.084353715,0.1713498,0.11435283,-0.15361737,0.105038,0.07718706,0.14103806,-0.09848352,0.07161,-0.117388025,0.05548896,-0.11952404,0.10707965,0.118289545,-0.14487551,-0.14321505,-0.08069135,0.1199112,-0.14337525,0.1363302,0.09648245,0.14720002,-0.093762904,-0.12448838,-0.1385278,-0.09019807,0.05761455,-0.1555888,0.09289733,-0.1292364,0.09832478,0.06505617,-0.07280658,-0.08285662,0.099428795,-0.13910268,0.14757092,-0.07030544,-0.074160054,-0.13298224,-0.18847486,-0.11549734,0.08717346,0.111354664,0.09312945,-0.15843481,-0.070186146,0.16111597,-0.056479756,-0.13655089,0.16753544,-0.06573599,-0.15425578,0.15351282,-0.13795926,0.11760999,-0.13867894,0.099691845,0.11176454
-0.097478494,-0.061531644,-0.09402178,0.112867385,-0.1167027,0.093069606,-0.14477718,0.15606539,-0.051978134,0.050986737,0.08840387,0.10992736,-0.060515214,0.13185027,-0.07261586,-0.06828519,-0.061938893,-0.08932337,-0.120192,-0.089771435,-0.11154326,-0.0824796,-0.1393955,0.08886781,0.12604314,0.11236509,-0.13342708,0.11509109,0.017323455,-0.10042422,-0.107796766,0.112460196,0.10675561,0.1351564,0.06976683,-0.14399636,-0.07664244,-0.15883724,-0.08090943,-0.12752123,0.12996197,-0.1465893,-0.09162071,0.069855936,-0.054124206,-0.1291646,-0.055202592,-0.14142133,0.068829015,-0.08109154,-0.0857013,0.04773022,0.04116122,0.11896336,-0.065525584,0.10563589,0.15530063,-0.1162491,0.05861602,0.054955572,0.15316197,-0.11777357,0.060521197,-0.125406,0.100176804,-0.09298893,0.10598387,0.091179386,0.059208598,-0.1027533,-0.04966679,0.14577898,0.04217963,-0.09692921,0.14871585,-0.10819601,-0.05410772,0.09365732,0.13083509,0.1077546,0.12093123,-0.1172507,-0.067962855,-0.120819956,-0.12992662,-0.07125048,-0.14298329,-0.07653832,0.06170393,-0.102210715,-0.1382472,0.11066763,0.056760304,0.11327676,0.14802337,-0.13537762,0.1401359,0.040312376,-0.09838964,0.13724205,0.056028593,-0.076816805,-0.10779505,-0.11671837,0.05597235,-0.095747784,0.12111823,-0.085895255,0.06333964,-0.11553938,-0.09099475,-0.08657019,0.059597198,0.11267016,-0.12920359,0.12922801,0.1441505,-0.08360367,0.0715108,0.09767953,-0.12133706,-0.12548657,0.12029133,-0.15243213,0.10549915,0.119631544,0.13885325,-0.09295405,0.050022274,-0.133656,0.12733717,-0.12915325,0.112982035,-0.07926026,-0.079357505,0.15462399,-0.06532435,-0.07803201,0.101660825,-0.087042324,-0.0834066,0.14301749,-0.08898998,-0.14705221,0.12942031,-0.14727087,0.06872511,-0.17014566,0.08281154,-0.110547595,-0.14147732,0.07669639,-0.098896764,-0.13094148,0.0787529,-0.048922792,-0.0929685,0.054250978,-0.12876621,0.1320676,-0.09185779,-0.13874911,0.05724694,-0.06459661,-0.10685348,0.07873848,-0.1164261,-0.117168784,0.119049996,-0.09187163,-0.031550437,-0.14149483,0.064956255,0.13501376,-0.09069072,-0.13496864,0.14814371,0.082427956,-0.15876098,-0.1206259,0.071973264,0.08827364,0.13093588,0.05421456,-0.12916781,-0.062545955,-0.14428626,0.14396559,0.12422644,-0.15466122,0.085332416,-0.1347123,0.09698682,0.057137646,-0.111984186,0.13798885,0.044152126,0.12397112,-0.1480218,0.070517525,-0.119996086,0.087915234,-0.054941587,0.1587956,0.11998191,-0.1442405,-0.06569106,-0.08287441,0.04633525,-0.14020364,0.1137126,0.124522895,0.06286283,-0.11071907,-0.1248906,-0.13347629,-0.08546082,0.08480081,-0.09309281,0.11930389,-0.036237754,0.13670555,0.064224154,-0.10738481,-0.131761,0.08915119,-0.12438014,0.11896519,-0.06786272,-0.14341782,-0.13431665,-0.13006629,-0.05963094,0.13019322,0.11524015,0.10571742,-0.0991794,-0.08419527,0.062411815,-0.09423148,-0.07263891,0.16615467,-0.07916261,-0.123130806,0.10272966,-0.0960622,0.10885337,-0.051989555,0.1449947,0.11113623
-0.08564129,-0.10316674,-0.056721058,0.070372775,-0.077020064,0.10995946,-0.1254135,0.10444835,-0.118597634,0.14064817,0.09825274,0.1414689,-0.08686406,0.14704429,-0.18333736,-0.098268606,-0.10703286,-0.15315564,-0.11018115,-0.11717684,-0.10906697,-0.09079661,-0.14172849,0.16208056,0.11575622,0.113483824,-0.1678695,0.08050631,-0.032818537,-0.10909351,-0.18596707,0.10640805,0.08961637,0.12483159,0.10840124,-0.11140752,-0.12793547,-0.15044829,-0.08439857,-0.1618033,0.11557601,-0.118737265,-0.1416728,0.09624446,-0.11265319,-0.11237645,-0.142881,-0.09294551,0.13584064,-0.11059858,-0.11148336,0.04406184,0.04544887,0.08258808,-0.1380591,0.11599103,0.12161259,-0.052483354,0.108019136,0.105141416,0.15125388,-0.0705915,0.09030708,-0.14257209,0.087635204,-0.16260311,0.11009261,0.1481182,0.10966214,-0.11538106,-0.10032419,0.14407252,0.04740828,-0.18910879,0.14171818,-0.11190657,-0.10665649,0.098430164,0.079636514,0.07948364,0.07750306,-0.13403206,-0.10714174,-0.056075368,-0.06322361,-0.14164595,-0.12412741,-0.1328907,0.08301207,-0.09679629,-0.16742343,0.07848585,0.09161512,0.06742951,0.1400521,-0.08762742,0.08215407,0.12239961,-0.11790948,0.11544943,0.10313456,-0.073238574,-0.05432874,-0.12945929,0.06732455,-0.12691167,0.12630004,-0.07006284,0.076943986,-0.09447356,-0.09581107,-0.11686738,0.10238325,0.11206487,-0.0892465,0.15607995,0.13807334,-0.10312092,0.06790225,0.12551256,-0.15902111,-0.07600745,0.0675714,-0.13474354,0.06680855,0.12933537,0.09151293,-0.07778215,0.06307422,-0.14984126,0.059933834,-0.101133555,0.10574393,-0.085703544,-0.103788316,0.059276666,-0.12709567,-0.0672506,0.05816022,-0.09535464,-0.09686979,0.14962968,-0.11104756,-0.14493823,0.11094205,-0.06351384,0.078574225,-0.09444425,0.1547013,-0.11665485,-0.106253736,0.12669544,-0.12684283,-0.06585452,0.09109519,-0.07214809,-0.07615157,0.13841441,-0.11421117,0.14536746,-0.06662437,-0.11880641,0.05475373,-0.15660855,-0.07598126,0.1367768,-0.124891564,-0.16630618,0.06275075,-0.13854615,-0.05826472,-0.09267709,0.07060198,0.06594808,-0.08154077,-0.1435755,0.14007656,0.10482514,-0.07901078,-0.1401443,0.11764293,0.12303162,0.066327944,0.04324294,-0.066225335,-0.15563197,-0.13883579,0.1579026,0.15065359,-0.094685614,0.165979,-0.09018979,0.14202382,0.08207152,-0.1494241,0.13551547,0.13073313,0.12788662,-0.13312101,0.08936435,-0.11918733,0.09167632,-0.11486804,0.1703887,0.14529563,-0.11997716,-0.08322521,-0.07978329,0.11160355,-0.08719595,0.067883685,0.09176201,0.14024037,-0.048927497,-0.14708933,-0.10337462,-0.056992788,0.09271275,-0.12126859,0.069008544,-0.12092473,0.05281976,0.07098782,-0.11862961,-0.08089801,0.091357395,-0.12938838,0.19450071,-0.098898746,-0.077091716,-0.13852312,-0.19582453,-0.10274671,0.13855085,0.06826111,0.09747789,-0.13809945,-0.07482317,0.14958559,-0.122284606,-0.1505002,0.1222639,-0.057562433,-0.09526858,0.12129371,-0.14446759,0.06064998,-0.07420819,0.14209531,0.07956046
-0.081508815,-0.097062856,-0.11408108,0.10530423,-0.0781714,0.1216507,-0.06108008,0.08709162,-0.06904743,0.07626608,0.13130668,0.16407695,-0.091231994,0.13432765,-0.16968836,-0.15171908,-0.15346679,-0.0936409,-0.12794021,-0.050886013,-0.13219334,-0.12368267,-0.11138637,0.14538956,0.06557458,0.07826247,-0.14585239,0.09107,-0.03211451,-0.096412525,-0.09634849,0.10719335,0.07160138,0.12194571,0.0943434,-0.055494234,-0.055786524,-0.06869915,-0.039026596,-0.12669426,0.1137826,-0.12170764,-0.07180929,0.11024787,-0.08920599,-0.08596431,-0.063422106,-0.05294405,0.10750778,-0.067219384,-0.115594715,0.004225719,0.114050515,0.134526,-0.11616673,0.14556621,0.08597729,-0.10977381,0.09138472,0.09865368,0.10504999,-0.13635468,0.123130724,-0.06467508,0.1314422,-0.12893091,0.09700666,0.13424505,0.07163401,-0.1492199,-0.09658659,0.0991435,0.07120483,-0.16644716,0.119048156,-0.1949255,-0.06171855,0.16985995,0.09880558,0.12276139,0.06410224,-0.09611082,-0.13785762,-0.1417098,-0.12924331,-0.05486614,-0.08107637,-0.106576785,0.0924097,-0.15332529,-0.13809927,0.12846832,0.07587378,0.048212525,0.16555947,-0.11356384,0.13224447,0.08932995,-0.06984329,0.1105391,0.09293269,-0.06431705,-0.06433543,-0.04785944,0.058589686,-0.11787275,0.06267534,-0.088543676,0.11713075,-0.12323351,-0.09739044,-0.13823962,0.13930334,0.07291286,-0.06208362,0.10292364,0.098094955,-0.08673292,0.07750964,0.0704379,-0.08141593,-0.14373869,0.14531906,-0.07527154,0.050525986,0.15056954,0.07850894,-0.052873954,0.047426008,-0.08613298,0.1463567,-0.06581522,0.12903275,-0.072784424,-0.08912089,0.07495093,-0.11043514,-0.07702466,0.0947958,-0.13597046,-0.14836016,0.079957,-0.09646033,-0.10352074,0.06596941,-0.056421515,0.08530942,-0.10919097,0.08453531,-0.10093161,-0.14523424,0.10592812,-0.14855227,-0.07911052,0.15237474,-0.071280144,-0.12750429,0.044922672,-0.12334065,0.07862968,-0.05724389,-0.12497925,0.13418591,-0.101793565,-0.0623953,0.119504064,-0.06548183,-0.11351774,0.06143555,-0.1105905,-0.07378728,-0.06298045,0.122479245,0.09319501,-0.11871333,-0.13767374,0.08940248,0.056002814,-0.08489505,-0.093506224,0.13180763,0.06958224,0.14296906,0.040017605,-0.06790149,-0.080320284,-0.08926146,0.16087477,0.09881944,-0.15029868,0.14253753,-0.07796108,0.119685635,0.07842996,-0.13408963,0.12563719,0.048914015,0.06531596,-0.12896986,0.106442355,-0.1350029,0.09323689,-0.13233864,0.1358924,0.11874503,-0.11762323,-0.14212997,-0.090162314,0.09747206,-0.12775576,0.14888607,0.07814459,0.112856135,-0.10237161,-0.15310606,-0.12967323,-0.15818553,0.065859325,-0.101063296,0.08353548,-0.0893917,0.12443607,0.100400336,-0.12611169,-0.113633424,0.12690881,-0.08444992,0.09939427,-0.07943472,-0.08954943,-0.13525668,-0.09860109,-0.092538014,0.06037078,0.109304816,0.080069914,-0.10368851,-0.08098586,0.093232624,-0.12617905,-0.14427197,0.14214952,-0.064718984,-0.10659052,0.11590498,-0.15136187,0.16112487,-0.085787565,0.07966316,0.09456759
-0.15240334,-0.06625932,-0.07503015,0.07351882,-0.16294156,0.11733349,-0.06613275,0.17200226,-0.101571046,0.05593235,0.08697972,0.11707092,-0.10733417,0.050053492,-0.10240763,-0.086799465,-0.09809958,-0.10531205,-0.12658246,-0.1345801,-0.039882097,-0.043663874,-0.08963959,0.06361829,0.10043547,0.09742492,-0.11055212,0.17505813,-0.04181263,-0.08604477,-0.16194618,0.11482218,0.06303814,0.090988845,0.07269663,-0.07406784,-0.13833845,-0.11587486,-0.07336003,-0.1309948,0.12065334,-0.13216528,-0.06943958,0.13113172,-0.10506515,-0.121749826,-0.18226324,-0.09123538,0.14567378,-0.07748435,-0.12223121,0.029337432,0.07942954,0.15425491,-0.1125212,0.14777327,0.168835,-0.06512051,0.09087025,0.10957249,0.035874832,-0.122056104,0.12540266,-0.08343934,0.10478505,-0.08402306,0.08980915,0.16048858,0.12636799,-0.13409716,-0.10948163,0.10414448,0.09412269,-0.20057777,0.054481983,-0.19922677,-0.09903377,0.109889545,0.10789568,0.05334453,0.09844742,-0.13642856,-0.10394403,-0.04705737,-0.053449538,-0.065497525,-0.118090965,-0.04530507,0.09956322,-0.11519453,-0.12571102,0.051955536,0.057950944,0.13402107,0.16661246,-0.0745072,0.12583484,0.16456665,-0.12884215,0.11202129,0.08527101,-0.1377645,-0.10308296,-0.07397434,0.066110976,-0.1047902,0.08819497,-0.10772336,0.0707232,-0.05450738,-0.06576737,-0.07423239,0.1203361,0.09060305,-0.12570503,0.08461145,0.18142386,-0.12996499,0.09514737,0.0804328,-0.092340805,-0.1133926,0.07668948,-0.09786609,0.07870776,0.14101936,0.12637877,-0.052480783,0.022176355,-0.122128144,0.10013893,-0.098967515,0.11803084,-0.039785735,-0.075000405,0.0864445,-0.07725971,-0.047413547,0.0871165,-0.07009233,-0.12706259,0.08381677,-0.13414599,-0.14188625,0.12028356,-0.113754086,0.08216084,-0.1177316,0.1318802,-0.14698218,-0.101727374,0.039797276,-0.07571125,-0.04278612,0.10984545,-0.0766451,-0.12475894,0.03544669,-0.10072441,0.108234555,-0.13902655,-0.06921298,0.052280493,-0.13951527,-0.058150604,0.03789707,-0.05974602,-0.06129652,0.12116353,-0.11293778,-0.08363615,-0.12111973,0.077453785,0.08793251,-0.098634675,-0.042447872,0.078199476,0.06280872,-0.09258307,-0.116532974,0.11940173,0.14238794,0.12865755,0.027681367,-0.092061415,-0.1316269,-0.1225057,0.10337624,0.13105612,-0.0798655,0.100419804,-0.11515064,0.1237078,0.123935185,-0.13292933,0.079610825,0.072100036,0.16712676,-0.10528464,0.080716364,-0.07362077,0.08987562,-0.12502971,0.08661212,0.14370178,-0.091287754,-0.12869109,-0.08134975,0.12143085,-0.06947761,0.11390186,0.08025991,0.11105777,-0.09948713,-0.09957326,-0.07722657,-0.055192444,0.099076405,-0.08724573,0.12064669,-0.094264016,0.081121564,0.112356074,-0.054719325,-0.13784155,0.071821496,-0.093134485,0.09353106,-0.1238965,-0.0779482,-0.116521165,-0.10406004,-0.1102393,0.08639836,0.1249725,0.15640834,-0.10100524,-0.064463995,0.062450524,-0.058427304,-0.13970989,0.13027294,-0.118938774,-0.08109584,0.062309634,-0.11954612,0.09880775,-0.07324741,0.15661502,0.116677225
-0.12756462,-0.080616355,-0.13060825,0.04289561,-0.14946651,0.104754575,-0.09862176,0.09552392,-0.117540404,0.14091124,0.13011341,0.13818415,-0.13663395,0.12943317,-0.14035746,-0.08566592,-0.09844271,-0.14117439,-0.121331446,-0.108926915,-0.06064314,-0.08076859,-0.14718246,0.0696414,0.09526106,0.16463736,-0.13858126,0.14614117,-0.057661667,-0.12143196,-0.18119931,0.12909766,0.08273109,0.049240965,0.13038447,-0.12981185,-0.105954744,-0.042434353,-0.13269925,-0.07486748,0.17129923,-0.049937245,-0.12670127,0.14304711,-0.06784058,-0.14600194,-0.12373939,-0.10056368,0.06393875,-0.1199199,-0.062234767,-0.027662095,0.120480336,0.14635085,-0.09401794,0.16177285,0.07965068,-0.12216227,0.071263894,0.08417391,0.059245504,-0.15202865,0.13226447,-0.043609753,0.061626654,-0.062905565,0.13213602,0.115574695,0.09363339,-0.19412479,-0.13430983,0.12815386,0.107831776,-0.11254226,0.055608492,-0.12382896,-0.09469375,0.16278526,0.15091173,0.1288359,0.10771478,-0.1278529,-0.051129512,-0.082468115,-0.12543453,-0.06474654,-0.10378682,-0.13570613,0.08749025,-0.086949445,-0.15886281,0.14381966,0.08775358,0.12444997,0.08067549,-0.06955792,0.07057752,0.15831986,-0.07907545,0.07469402,0.0630386,-0.1001896,-0.10216024,-0.13287589,0.09371897,-0.11613786,0.14288975,-0.13081661,0.09814482,-0.077452175,-0.08266162,-0.09846408,0.10923813,0.13100162,-0.050739452,0.13350265,0.15922298,-0.105610885,0.09469026,0.080930635,-0.10233178,-0.07918609,0.104331255,-0.12118274,0.057957258,0.06307075,0.08694091,-0.11668015,-0.0018765979,-0.11751613,0.12373535,-0.062182732,0.09629224,-0.04889362,-0.12378204,0.14934482,-0.08353829,-0.097252674,0.13633746,-0.08022381,-0.08496521,0.062848926,-0.08690362,-0.08263381,0.054337952,-0.10928653,0.110038556,-0.093724795,0.08966482,-0.15436329,-0.10201037,0.075018845,-0.05181613,-0.056388985,0.05163012,-0.03944957,-0.08859982,0.07762716,-0.1121812,0.107018426,-0.09193219,-0.08260269,0.05425754,-0.12989976,-0.07650609,0.088309035,-0.123935506,-0.09551324,0.11509198,-0.119057916,-0.06710859,-0.08269507,0.0762087,0.11534316,-0.13212761,-0.12637928,0.0658926,0.044386815,-0.11663277,-0.06922273,0.08929424,0.1364031,0.09618853,0.01676711,-0.069369875,-0.14649062,-0.104382664,0.13717404,0.1301066,-0.12976587,0.14541455,-0.09996492,0.09793534,0.068012886,-0.15824686,0.13694265,0.07805061,0.17674059,-0.14824314,0.10288854,-0.11022899,0.086464964,-0.05399248,0.09400179,0.1609615,-0.0913051,-0.09937206,-0.05183557,0.05326251,-0.13681056,0.12164746,0.13977604,0.09282303,-0.06402106,-0.12737042,-0.15211843,-0.054781593,0.054716542,-0.1029162,0.07674266,-0.13207252,0.093335845,0.12444549,-0.05877335,-0.111425005,0.059303243,-0.048748415,0.15981998,-0.067885496,-0.12014878,-0.09139895,-0.20378602,-0.10090763,0.11549816,0.09345354,0.10331708,-0.10117264,-0.10007148,0.09036894,-0.12946665,-0.14010285,0.137683,-0.1287775,-0.12545443,0.11602429,-0.089926265,0.13049729,-0.045580745,0.1101936,0.08356613
-0.15252493,-0.16040696,-0.048736807,0.06182161,-0.09946705,0.10910205,-0.09715171,0.1729968,-0.11350228,0.09910832,0.07113582,0.14835508,-0.124616854,0.07380763,-0.1655823,-0.12611945,-0.08726764,-0.11573127,-0.05133164,-0.13859248,-0.06744072,-0.079745635,-0.116327554,0.06486036,0.087055534,0.12252888,-0.08013085,0.12206702,-0.015438316,-0.108913235,-0.1709085,0.103662886,0.14659497,0.11701633,0.11795172,-0.06123603,-0.07130524,-0.0538268,-0.12192392,-0.12948906,0.14540207,-0.10465616,-0.082013786,0.12734213,-0.06795491,-0.08167098,-0.09903919,-0.07493394,0.09789122,-0.13986239,-0.11304556,-0.017841632,0.054680303,0.06630422,-0.11765182,0.12550834,0.09719391,-0.06881306,0.07443305,0.08331748,0.110820204,-0.086073324,0.12654157,-0.12497489,0.11992183,-0.07313802,0.062445145,0.10082943,0.07685707,-0.120632954,-0.091253944,0.09039828,0.10200034,-0.17540516,0.08710898,-0.122105725,-0.11232187,0.12580581,0.12662202,0.13528635,0.064919695,-0.074685186,-0.05181035,-0.072368845,-0.1358988,-0.05220633,-0.12624615,-0.11256969,0.14177693,-0.072569005,-0.073055476,0.12729326,0.11465054,0.14580962,0.16587654,-0.14100096,0.081123196,0.10606962,-0.08727381,0.124464914,0.06959323,-0.12386474,-0.14307922,-0.059174642,0.07623459,-0.111107126,0.09301794,-0.09815657,0.10563128,-0.10382552,-0.11383658,-0.11899988,0.097521506,0.13822034,-0.07624545,0.14134376,0.15175423,-0.07260771,0.08340826,0.091825165,-0.082837805,-0.077071115,0.16562347,-0.103283875,0.090257086,0.07880712,0.118236974,-0.12711008,0.014759176,-0.11780133,0.09009477,-0.058643423,0.08513091,-0.11570194,-0.13116115,0.092722476,-0.12208488,-0.10614669,0.08031892,-0.112252,-0.080622226,0.07925219,-0.11152311,-0.14525083,0.0823908,-0.08929987,0.08042582,-0.12576005,0.063804194,-0.07447826,-0.058664974,0.110042535,-0.07105458,-0.109645255,0.12974133,-0.082924046,-0.113034055,0.045275494,-0.1398866,0.0697845,-0.14357068,-0.14012252,0.12231762,-0.1292226,-0.11904882,0.10724985,-0.06961334,-0.11826442,0.068987675,-0.13172004,-0.1344598,-0.08150327,0.08859883,0.05020958,-0.0546686,-0.056432754,0.14633104,0.076375455,-0.09801114,-0.15491197,0.072215654,0.1376498,0.13170058,0.102064535,-0.11568009,-0.07711466,-0.14425033,0.13143335,0.120046765,-0.09901868,0.07444779,-0.061472632,0.12434603,0.09641031,-0.06694862,0.08669574,0.10707399,0.13403162,-0.0951095,0.043968815,-0.13752578,0.07251042,-0.10141385,0.105295956,0.18309271,-0.0792726,-0.11674423,-0.046319515,0.09112334,-0.113857314,0.12302889,0.090678185,0.14412989,-0.070098214,-0.092015,-0.07733708,-0.07927417,0.0876687,-0.13077147,0.050070494,-0.13906363,0.1357431,0.08116401,-0.09285443,-0.06621569,0.114720985,-0.10156514,0.09857312,-0.09206562,-0.057636257,-0.06361503,-0.18170175,-0.13062888,0.099817425,0.12285659,0.12777433,-0.06776058,-0.07679792,0.10629623,-0.1199258,-0.049173817,0.16958629,-0.14190488,-0.07634759,0.096973054,-0.095077984,0.09404802,-0.13428523,0.11107915,0.056877997
-0.12888312,-0.09627723,-0.1333724,0.093742065,-0.12431476,0.04890609,-0.069169216,0.069636375,-0.09945475,0.13875836,0.08313726,0.17779095,-0.028733274,0.033974566,-0.11279614,-0.109741636,-0.054884676,-0.08057263,-0.062216524,-0.05391773,-0.06719608,-0.12523705,-0.07404904,0.13762312,0.06970568,0.052832346,-0.06884687,0.14009503,0.010677526,-0.06343584,-0.14302525,0.112309396,0.15162191,0.06097605,0.14833443,-0.05042188,-0.0612383,-0.11130204,-0.041377686,-0.13051818,0.11857785,-0.043882445,-0.116251804,0.08303035,-0.05118446,-0.13315076,-0.058843173,-0.09769319,0.12544218,-0.07700791,-0.1059491,-0.01983657,0.09756894,0.12205483,-0.11635265,0.16024429,0.12689903,-0.09694536,0.05623728,0.055970572,0.12513952,-0.12909324,0.12913673,-0.12133622,0.043384332,-0.053810567,0.087764636,0.11323192,0.12266528,-0.13341907,-0.08567875,0.1303997,0.08173405,-0.13120478,0.08364439,-0.16323906,-0.10946741,0.089252874,0.04898811,0.13752538,0.09862159,-0.16613543,-0.11635487,-0.11274722,-0.10782254,-0.10488826,-0.06090197,-0.10616811,0.077985615,-0.095383234,-0.087308876,0.13130698,0.12857744,0.1265294,0.13839042,-0.13251033,0.08034026,0.14927933,-0.10601794,0.10293298,0.10587696,-0.05020988,-0.049332414,-0.11243871,0.09726927,-0.128217,0.039765835,-0.077695236,0.082386374,-0.061383158,-0.092789985,-0.12906195,0.1204614,0.0713562,-0.061380114,0.101632655,0.12995173,-0.08546699,0.10265437,0.14851353,-0.06793162,-0.114462554,0.09057696,-0.15174668,0.11602516,0.09697675,0.07492433,-0.12119647,0.05895254,-0.114691794,0.120456025,-0.12104997,0.09637714,-0.11481471,-0.048336517,0.11702367,-0.07654993,-0.11023408,0.12596458,-0.12127844,-0.06155238,0.069701746,-0.093616284,-0.13407587,0.12411293,-0.056871954,0.06120102,-0.09566551,0.14532638,-0.10077214,-0.047143254,0.099951945,-0.075067386,-0.065061264,0.11913787,-0.077608585,-0.04635139,0.10974053,-0.09548017,0.12321501,-0.09269234,-0.06889338,0.103973135,-0.12604767,-0.057288732,0.09146624,-0.046329252,-0.13292736,0.12490422,-0.08917596,-0.10173297,-0.13839267,0.11327946,0.081974186,-0.12893128,-0.1315854,0.11974401,0.117813915,-0.06782863,-0.10409431,0.10448637,0.053152815,0.06099818,0.053139873,-0.080479875,-0.14606735,-0.06863142,0.15833971,0.12565413,-0.052519344,0.0921129,-0.074796714,0.12378385,0.05851674,-0.17235014,0.12510563,0.12590781,0.163797,-0.12199709,0.09469684,-0.15248066,0.05099291,-0.046240676,0.06798999,0.17170948,-0.08348261,-0.08796374,-0.12613766,0.12871712,-0.059656847,0.05728346,0.12093336,0.09550376,-0.13475583,-0.1296128,-0.1007041,-0.10872391,0.0783572,-0.1286555,0.10507204,-0.11210379,0.112379864,0.15342733,-0.11899154,-0.050437424,0.11003232,-0.13657767,0.12634325,-0.07264683,-0.04663,-0.0820752,-0.14807115,-0.08983073,0.14062591,0.08263888,0.110172644,-0.10678509,-0.12398534,0.16421409,-0.109432206,-0.07656939,0.15989909,-0.11986749,-0.0908543,0.14396095,-0.13511053,0.077800594,-0.107700855,0.14842856,0.03732138
-0.07376192,-0.16740702,-0.0882698,0.10778846,-0.118944876,0.13946702,-0.067539036,0.08261974,-0.04361026,0.10517749,0.11962501,0.09346228,-0.037723262,0.09550015,-0.08852649,-0.08419685,-0.044503435,-0.11812326,-0.056173705,-0.105067864,-0.08598618,-0.07656849,-0.1285038,0.0460793,0.108184196,0.053606097,-0.1258422,0.11753782,-0.0729766,-0.08711671,-0.08546951,0.12119788,0.06639564,0.08869664,0.12365595,-0.06305988,-0.06486217,-0.08654806,-0.0555837,-0.12981372,0.14606537,-0.04106358,-0.076036975,0.13738914,-0.078160964,-0.15997441,-0.114820674,-0.09875338,0.096876726,-0.07379448,-0.066211104,-0.044316884,0.070259795,0.12655908,-0.057251245,0.1842161,0.0779851,-0.13371336,0.076736175,0.05667061,0.11914363,-0.08853004,0.092354745,-0.0740494,0.095983595,-0.12832892,0.041688908,0.121629484,0.119287096,-0.12870076,-0.11625412,0.053394135,0.09477254,-0.140676,0.053815905,-0.14799276,-0.057382967,0.089072034,0.09494554,0.11114998,0.10654915,-0.12865967,-0.10616563,-0.089414775,-0.099831566,-0.085007966,-0.10563735,-0.080118105,0.07360973,-0.09842617,-0.17262623,0.064296536,0.1317173,0.16191044,0.15499687,-0.09883086,0.08622362,0.10184702,-0.1480415,0.13282482,0.08546835,-0.099773765,-0.11415706,-0.042755213,0.12116817,-0.10780266,0.048195977,-0.11787979,0.058986623,-0.11774247,-0.053703148,-0.062263988,0.0554131,0.15020674,-0.09824678,0.093187004,0.10849982,-0.09115955,0.072327614,0.12698407,-0.18195593,-0.06693253,0.084228195,-0.11134168,0.10917206,0.12546368,0.100739,-0.13998604,-0.0054828096,-0.034960724,0.079540245,-0.11115899,0.17054705,-0.10109219,-0.09555185,0.07378555,-0.10503108,-0.07153027,0.110546336,-0.055727087,-0.04184153,0.14271823,-0.039548267,-0.12917642,0.067802325,-0.087133706,0.10117412,-0.15599984,0.09020431,-0.09872504,-0.07164991,0.12979414,-0.11009548,-0.106508225,0.0831906,-0.095001,-0.14817815,0.07884935,-0.09420995,0.12636289,-0.07101962,-0.13293509,0.07226343,-0.101363614,-0.048640896,0.06543776,-0.10885178,-0.08236231,0.083655804,-0.07279876,-0.0975525,-0.08949906,0.07567062,0.12613003,-0.05644339,-0.060161266,0.12304368,0.052597623,-0.1314737,-0.1378948,0.09486035,0.07510497,0.05262334,0.076975666,-0.09648246,-0.110960566,-0.12181211,0.120671265,0.121040344,-0.15702645,0.13527933,-0.06422227,0.17639112,0.122839786,-0.1496094,0.14644937,0.12627925,0.117612295,-0.0677798,0.069652356,-0.10812923,0.096684255,-0.0955591,0.085570656,0.13265571,-0.110934064,-0.114066556,-0.06285142,0.11554452,-0.08548393,0.13612942,0.12055467,0.098675154,-0.0969903,-0.05423486,-0.039701346,-0.04976565,0.101868734,-0.1388141,0.08971815,-0.14587133,0.052291166,0.07021556,-0.062396076,-0.0637068,0.11221269,-0.09316492,0.17345619,-0.12667267,-0.12319089,-0.13781978,-0.11153139,-0.06581677,0.05595477,0.086865515,0.11526068,-0.08100867,-0.076339774,0.063071206,-0.11061725,-0.06600959,0.13204654,-0.07837867,-0.09294256,0.112119965,-0.045786157,0.06352996,-0.092600726,0.119215,0.057879765
-0.14361094,-0.079894066,-0.072035454,0.0849527,-0.11618071,0.10849118,-0.11299611,0.087565646,-0.09199168,0.10397994,0.1282674,0.14168572,-0.1127788,0.12955773,-0.071446024,-0.10685241,-0.14143912,-0.12242448,-0.09853155,-0.0562585,-0.085405104,-0.12086793,-0.1458815,0.15248722,0.13173378,0.13361222,-0.09897828,0.15244116,0.014137665,-0.09476543,-0.1276872,0.10051543,0.117208235,0.11635193,0.106834866,-0.064498365,-0.05436923,-0.08568647,-0.069642775,-0.1435983,0.1686883,-0.093150996,-0.10069043,0.08300292,-0.061183628,-0.14602377,-0.14762636,-0.10665935,0.08211975,-0.10317416,-0.10233777,0.02440546,0.14110991,0.07596875,-0.09388507,0.15017672,0.05363858,-0.08995206,0.105489805,0.12837845,0.063066565,-0.0727847,0.067672886,-0.061032396,0.13203464,-0.113452226,0.11776277,0.1388491,0.14277467,-0.17166972,-0.06994579,0.06351906,0.13197055,-0.19068275,0.062183294,-0.1396059,-0.119851194,0.1421433,0.12707974,0.14285216,0.11021062,-0.097466685,-0.11374112,-0.14383893,-0.06654787,-0.071119785,-0.10778171,-0.120290145,0.11549058,-0.059377667,-0.15971233,0.14137028,0.12988628,0.13946912,0.1245961,-0.06867978,0.11451105,0.06635607,-0.121466026,0.14938009,0.06749099,-0.063428745,-0.055338364,-0.040311716,0.09427221,-0.15434054,0.10998756,-0.13605163,0.061387174,-0.047016446,-0.13826129,-0.08780994,0.060516026,0.07190631,-0.1469557,0.060817514,0.13533482,-0.090192914,0.05180013,0.092530996,-0.08676281,-0.08875759,0.09037644,-0.14975701,0.07621685,0.08578838,0.05174053,-0.09616111,0.08564676,-0.12117349,0.0747896,-0.07687739,0.1407128,-0.04086181,-0.07412825,0.0890224,-0.04721783,-0.04366844,0.08430239,-0.12025868,-0.093728155,0.14576563,-0.049076933,-0.0951778,0.06885997,-0.1076469,0.10170579,-0.14431714,0.06632299,-0.063274,-0.06292305,0.12914029,-0.13692082,-0.1409221,0.12115646,-0.09708083,-0.05893894,0.07042369,-0.10268494,0.11267394,-0.04810692,-0.1457135,0.14844191,-0.1457955,-0.1310907,0.116313316,-0.13068423,-0.14250238,0.100837745,-0.118385956,-0.0754664,-0.057958134,0.07076629,0.09598796,-0.079873405,-0.097403675,0.13258415,0.11775002,-0.078610644,-0.11447434,0.06620396,0.12377229,0.06761149,0.033110574,-0.06229699,-0.0690314,-0.13241217,0.09600742,0.12828468,-0.153218,0.09672012,-0.10110598,0.17228054,0.12393629,-0.14522575,0.13364668,0.11556418,0.14668296,-0.15162197,0.12577811,-0.13315159,0.113842666,-0.10066494,0.15720297,0.16087197,-0.12595528,-0.08968235,-0.089690425,0.07695066,-0.13078524,0.055990554,0.12311827,0.09281303,-0.14119872,-0.098938845,-0.09510949,-0.1483052,0.15010135,-0.14331199,0.09038551,-0.068349816,0.1062807,0.12615909,-0.11303663,-0.08891168,0.09802709,-0.10219091,0.10792758,-0.11087146,-0.046543494,-0.09009227,-0.1481724,-0.11292837,0.16757977,0.06732121,0.14316085,-0.10639251,-0.06800749,0.10862627,-0.079727165,-0.061543748,0.1548327,-0.07495927,-0.13402355,0.06615726,-0.15085854,0.09647535,-0.067586266,0.07673322,0.098085865
-0.13737185,-0.14035358,-0.11563294,0.06688534,-0.09663391,0.14245608,-0.0663644,0.13797742,-0.0968069,0.09119686,0.07450627,0.06316364,-0.103313185,0.1073488,-0.08733365,-0.054788023,-0.06901946,-0.055380717,-0.086686805,-0.090059996,-0.067735136,-0.08769924,-0.09181778,0.089276224,0.06312999,0.036702584,-0.13331537,0.13830476,-0.0826059,-0.12707232,-0.10704964,0.06339721,0.13456534,0.07243507,0.0857576,-0.118957736,-0.057039764,-0.095445365,-0.08556972,-0.08875203,0.09467294,-0.104728006,-0.10212247,0.09795136,-0.13397978,-0.12494085,-0.16313526,-0.100722045,0.039655056,-0.1033657,-0.050335072,0.037272397,0.036344346,0.04524704,-0.098429106,0.10861001,0.1463069,-0.034699228,0.056873284,0.05573587,0.12596832,-0.08206966,0.14146274,-0.11363583,0.09790283,-0.123011,0.046135187,0.12794498,0.030577144,-0.10447915,-0.059315033,0.11068306,0.12250176,-0.13156629,0.048279513,-0.15559523,-0.05718911,0.07229668,0.13400517,0.111532226,0.103625946,-0.13703306,-0.09526935,-0.097602695,-0.07523409,-0.059255175,-0.07766183,-0.043806754,0.12774722,-0.06651075,-0.15078655,0.09510393,0.04246217,0.14946362,0.07676442,-0.10567351,0.13220307,0.10743898,-0.1418041,0.13555418,0.10101332,-0.0708192,-0.057213463,-0.06204606,0.105261534,-0.061540958,0.04156585,-0.10008479,0.08079998,-0.07608841,-0.08210184,-0.096134886,0.106684014,0.14591952,-0.036121745,0.06615234,0.15560627,-0.12195402,0.10265539,0.05109735,-0.11064866,-0.09552755,0.1063813,-0.078032844,0.10452172,0.14578007,0.13413358,-0.050911598,0.007619733,-0.12967733,0.10839521,-0.06245416,0.0969577,-0.05939434,-0.036817733,0.035729393,-0.1287623,-0.13048097,0.12299273,-0.10058964,-0.036543194,0.056930218,-0.087942615,-0.10281865,0.08357846,-0.09321173,0.04750375,-0.10832669,0.067425594,-0.1288359,-0.12036967,0.121317804,-0.13024147,-0.089301445,0.049207337,-0.04719911,-0.059167895,0.061358105,-0.061956365,0.07671703,-0.09031223,-0.1018106,0.07949753,-0.14132631,-0.12099824,0.1281833,-0.045122065,-0.062456544,0.056980878,-0.11129074,-0.06131772,-0.057901893,0.059678834,0.10582294,-0.051666807,-0.03791482,0.049013138,0.087666154,-0.15488127,-0.053203624,0.10238873,0.08219524,0.037674174,0.096941516,-0.061212596,-0.094507985,-0.16384995,0.13169746,0.11982803,-0.078366116,0.07047983,-0.06466976,0.09622949,0.08037055,-0.1693603,0.11911292,0.084596686,0.13884838,-0.07647831,0.09427134,-0.09827831,0.086038895,-0.060770035,0.12210494,0.13721484,-0.098050535,-0.09174621,-0.060892567,0.06922677,-0.09483414,0.06865423,0.057469916,0.100859314,-0.05763737,-0.08898419,-0.05667481,-0.094957374,0.12561646,-0.08226426,0.06668669,-0.060720004,0.1228898,0.055567596,-0.07847377,-0.10772802,0.09556665,-0.034182273,0.16014837,-0.091356464,-0.04264845,-0.1258334,-0.13671936,-0.08484057,0.1377688,0.06043958,0.106708504,-0.05784049,-0.034064837,0.09994504,-0.12675251,-0.11973387,0.11061694,-0.08053477,-0.14740944,0.10602334,-0.092320636,0.047873862,-0.06054609,0.16363154,0.096335456
-0.09840446,-0.09868507,-0.05561617,0.038954146,-0.07742735,0.078875914,-0.10736007,0.12521946,-0.12323788,0.12656148,0.07975394,0.10548197,-0.070396654,0.065006875,-0.13991407,-0.07080393,-0.09226275,-0.08364356,-0.10625757,-0.13507354,-0.074053966,-0.10432575,-0.119427554,0.07888324,0.12271188,0.11836626,-0.05182472,0.09665977,-0.06517648,-0.07382544,-0.15594256,0.11058389,0.14117791,0.094210744,0.10438998,-0.108822145,-0.04186771,-0.12686542,-0.09257314,-0.117745265,0.09730152,-0.10723007,-0.051530134,0.08529341,-0.075790636,-0.08094499,-0.051797528,-0.13389644,0.13256174,-0.050456878,-0.13605823,-0.010134231,0.065638885,0.08775187,-0.0877486,0.14496505,0.061612274,-0.12158239,0.1354954,0.10450454,0.118957154,-0.08337721,0.13845561,-0.053254362,0.06811397,-0.145801,0.0826527,0.13448407,0.13085711,-0.0854177,-0.09954121,0.09162813,0.05898436,-0.10140735,0.10224575,-0.123314105,-0.10845409,0.12588458,0.14491476,0.10103459,0.079561085,-0.13508056,-0.056511182,-0.044230223,-0.13147278,-0.045676064,-0.091379344,-0.102757454,0.09752808,-0.05749972,-0.14262755,0.076141946,0.1482759,0.12032665,0.15116686,-0.14041676,0.10325966,0.11547334,-0.07220222,0.14195009,0.09392992,-0.05858592,-0.066144176,-0.13808466,0.09951798,-0.11242784,0.1086985,-0.09267567,0.06597446,-0.059853572,-0.08518886,-0.078200795,0.1132226,0.11251702,-0.13026889,0.17066482,0.10901296,-0.10890145,0.050637014,0.05808591,-0.11668824,-0.06123979,0.14257757,-0.07272762,0.05925871,0.13380443,0.09532098,-0.12865809,0.0054240013,-0.1442407,0.06606326,-0.13278036,0.10910903,-0.087691054,-0.06921553,0.10346351,-0.048314348,-0.11077504,0.08639747,-0.07913422,-0.06434787,0.14423832,-0.112666875,-0.15674393,0.11023858,-0.07344041,0.07064368,-0.137871,0.09300356,-0.14074917,-0.071478255,0.10832702,-0.121145934,-0.12047645,0.12183496,-0.08050325,-0.1195966,0.10617165,-0.14626235,0.07236272,-0.11363471,-0.04462941,0.10154374,-0.10925639,-0.08275323,0.040873818,-0.13471524,-0.08633994,0.082153104,-0.08506071,-0.13329762,-0.14026953,0.124760106,0.05231055,-0.11691571,-0.10352688,0.1086091,0.098111555,-0.09643459,-0.08076024,0.06518295,0.1476201,0.052423514,0.092008784,-0.12054487,-0.08986107,-0.06399134,0.13003384,0.11717563,-0.060761794,0.053933613,-0.11140395,0.15896888,0.08885283,-0.107940204,0.110594876,0.06640017,0.10989046,-0.13193682,0.0989891,-0.07884016,0.06861868,-0.13133271,0.079123445,0.1849651,-0.085985124,-0.06945245,-0.11198579,0.08838921,-0.11585911,0.12717478,0.12046824,0.08862884,-0.11848516,-0.10898008,-0.07197269,-0.086110786,0.047093876,-0.0685459,0.08677933,-0.049280003,0.08273108,0.07695119,-0.08641753,-0.13545294,0.13437979,-0.113972925,0.14101395,-0.13364439,-0.14110854,-0.11838632,-0.12846354,-0.047138818,0.08996192,0.11315037,0.0716968,-0.087844364,-0.06391492,0.08250655,-0.07635895,-0.10067122,0.149033,-0.061409995,-0.13445885,0.10166208,-0.12959802,0.08167068,-0.14041498,0.108070664,0.086400494
0.25855467,0.21319604,0.21187633,-0.20227729,0.24883713,-0.14033489,0.24607517,-0.22167769,0.20060396,-0.24803472,-0.20382139,-0.2691966,0.20636839,-0.19465181,0.1911494,0.27234644,0.22524963,0.2057507,0.18310578,0.2271742,0.23208863,0.21889615,0.20688409,-0.23509946,-0.23275585,-0.22986929,0.2407809,-0.21426883,0.04517056,0.23087783,0.31976852,-0.23695602,-0.22658741,-0.2292756,-0.22698161,0.21952987,0.22152366,0.23790476,0.2259734,0.25420725,-0.23283291,0.2016332,0.21886946,-0.20943761,0.24248666,0.26511577,0.2781005,0.20478003,-0.22506036,0.24205989,0.24621552,0.0313285,-0.18878672,-0.2058589,0.23044562,-0.34294173,-0.26282108,0.19685267,-0.19031443,-0.26651272,-0.24856386,0.25337753,-0.24734466,0.22541994,-0.23701884,0.22880097,-0.2189112,-0.2600712,-0.20588411,0.28692773,0.1998638,-0.21791427,-0.19267768,0.32021466,-0.23773648,0.33912656,0.19555373,-0.26163846,-0.2363279,-0.20895089,-0.21550223,0.2506772,0.22226144,0.20719267,0.17712492,0.20651625,0.27214855,0.21954308,-0.18343052,0.19542946,0.27741864,-0.24981621,-0.19997948,-0.26285392,-0.20449464,0.268736,-0.24453187,-0.2664201,0.19626923,-0.23995094,-0.18415646,0.22160034,0.22867717,0.23487881,-0.21655478,0.19447471,-0.24612331,0.2219013,-0.19866109,0.21599361,0.21118295,0.17837982,-0.2465609,-0.2217652,0.20598646,-0.23633927,-0.28974095,0.2633492,-0.20949775,-0.19132322,0.2807509,0.25448608,-0.23660876,0.24781263,-0.21882771,-0.24291791,-0.24237028,0.20513915,-0.09986425,0.26258224,-0.23964785,0.23137918,-0.28829107,0.1887138,0.21757984,-0.23143062,0.22914453,0.22637254,-0.24708359,0.18657936,0.20988974,-0.19167875,0.24510941,0.2987188,-0.21814473,0.208847,-0.18199547,0.2539463,-0.22542264,0.23827787,0.24113591,-0.21885978,0.26043376,0.2123062,-0.22217645,0.20106411,0.2431499,-0.21173945,0.23652211,-0.23043017,0.19371328,0.20992576,-0.2015133,0.29065016,0.25169578,-0.23696396,0.19983532,0.21837664,-0.21600474,0.26027462,0.22612958,0.22347924,-0.24208581,-0.17689253,0.22302766,0.19449818,-0.24001974,-0.22762394,0.26268637,0.25247884,-0.23349787,-0.22392967,-0.25094616,-0.11192753,0.20746727,0.22338098,0.205754,-0.24734497,-0.19292772,0.28396457,-0.23648547,0.22170573,-0.23465589,-0.20497096,0.29517877,-0.26587105,-0.2187132,-0.30075827,0.21695468,-0.2242443,0.21210273,-0.22028704,0.23905827,-0.2350355,-0.35743523,0.22571458,0.24449393,0.20780374,-0.21116403,0.2558559,-0.18926135,-0.19593449,-0.18146685,0.23649055,0.23898208,0.23251987,0.22647966,-0.19719984,0.26180938,-0.18830678,0.22760482,-0.2033282,-0.27277553,0.24208803,0.21680725,-0.22770852,0.18744092,-0.26227722,0.19073239,0.22512019,0.21991561,0.3292345,0.21920972,-0.29847008,-0.19799523,-0.26020527,0.25625885,0.23189847,-0.2670728,0.19508675,0.22942105,-0.29032287,0.1960319,0.2772105,-0.22162803,0.23968336,-0.22870067,0.17532288,-0.24466586,-0.19434214
-0.12446057,-0.08386063,-0.09869288,0.049507383,-0.09482574,0.059076414,-0.12889007,0.17962258,-0.070093185,0.10277775,0.1245135,0.12016974,-0.03669343,0.054583605,-0.17498456,-0.12919214,-0.073090516,-0.0811613,-0.1097691,-0.10939012,-0.062126495,-0.06348264,-0.1076978,0.07600706,0.08438873,0.04474491,-0.10923416,0.105434336,-0.027036855,-0.07886827,-0.0931786,0.045797806,0.07170618,0.064445086,0.105531834,-0.12305953,-0.0941132,-0.13159955,-0.13408732,-0.13782069,0.08068166,-0.06321036,-0.08290472,0.09444885,-0.051897023,-0.08348304,-0.113706835,-0.12683025,0.09511691,-0.14266324,-0.07173366,0.008893966,0.106169835,0.12470513,-0.0812097,0.13353437,0.0453959,-0.09107103,0.08383143,0.070379324,0.0817177,-0.10879751,0.05965948,-0.07301074,0.12899221,-0.065544315,0.060810782,0.07263661,0.096205406,-0.1642636,-0.04626156,0.14566289,0.042975605,-0.129759,0.0870033,-0.12536636,-0.1318219,0.1145917,0.08369862,0.095237106,0.06874921,-0.15557726,-0.04967952,-0.032663576,-0.055005338,-0.035712264,-0.088981315,-0.07143394,0.05993346,-0.08751931,-0.103234455,0.08644538,0.1316056,0.1068526,0.06717481,-0.06048324,0.11086908,0.11880357,-0.14170909,0.096286595,0.08948033,-0.09942357,-0.102614865,-0.033153497,0.06360162,-0.10406762,0.054257296,-0.048459034,0.1285241,-0.07200628,-0.13197482,-0.08881999,0.09819193,0.12978376,-0.09055934,0.089242585,0.1714003,-0.10871535,0.05931762,0.11865797,-0.0896651,-0.05460003,0.07135338,-0.06820179,0.08309778,0.06009427,0.08831673,-0.11894173,0.101157375,-0.04880222,0.07946941,-0.059442952,0.14593619,-0.11779473,-0.08431847,0.057277482,-0.05452673,-0.076287195,0.11645419,-0.10761976,-0.12600172,0.11196996,-0.07887718,-0.12813827,0.10151512,-0.1206506,0.07202978,-0.11820792,0.09372085,-0.11229464,-0.1396037,0.11390042,-0.08410794,-0.095478214,0.09892095,-0.051694557,-0.1352878,0.02941206,-0.09427804,0.07868558,-0.07301651,-0.053222254,0.10866061,-0.16641355,-0.0845515,0.06364453,-0.13995616,-0.13054498,0.108293995,-0.0782827,-0.045124155,-0.105393015,0.103469014,0.09078308,-0.06666543,-0.06653385,0.1227757,0.076378636,-0.14835596,-0.08832844,0.074940644,0.12538329,0.06863143,0.12001378,-0.07677588,-0.13216172,-0.14621215,0.1408792,0.06818634,-0.13477547,0.12766913,-0.13397393,0.16689941,0.12827703,-0.1079126,0.07530856,0.091809355,0.084632196,-0.14551935,0.043271285,-0.14209118,0.037615314,-0.119321324,0.1259407,0.15681909,-0.11860522,-0.042083748,-0.055183794,0.039238524,-0.09975758,0.10602945,0.036694724,0.058361817,-0.090608895,-0.12769839,-0.10635519,-0.14073473,0.11035272,-0.06779211,0.14567612,-0.038769294,0.062241778,0.07160422,-0.07329284,-0.12236608,0.071533516,-0.08831265,0.13603345,-0.10921547,-0.13165522,-0.0832565,-0.1766982,-0.11842153,0.07141442,0.05785477,0.13423285,-0.06508829,-0.059757255,0.12671721,-0.056205776,-0.13366716,0.18659157,-0.11383517,-0.08703369,0.1267518,-0.09490073,0.13176773,-0.06415135,0.10617381,0.10624345
-0.14517206,-0.12765484,-0.10855178,0.11901922,-0.085871845,0.08078398,-0.13488486,0.10543876,-0.043552894,0.033626232,0.09949097,0.16132645,-0.08724111,0.06628174,-0.095384,-0.08865281,-0.10012778,-0.109546095,-0.12668678,-0.1404876,-0.071211755,-0.034436148,-0.068738125,0.12862086,0.04331619,0.119324535,-0.107062094,0.12022314,-0.026551891,-0.096145995,-0.13481495,0.043613162,0.097755,0.0995576,0.12022035,-0.046756245,-0.13307971,-0.08671302,-0.12525812,-0.13134162,0.11055137,-0.047263436,-0.113267384,0.10641881,-0.13987437,-0.06810827,-0.06987484,-0.0523182,0.09352262,-0.15236537,-0.06328668,-0.006895572,0.10975811,0.15095828,-0.04379821,0.14586423,0.07277184,-0.040839598,0.058206167,0.08469236,0.14540893,-0.15328673,0.09585522,-0.0681878,0.08689031,-0.064400576,0.04568252,0.14980514,0.09006906,-0.10701584,-0.07099484,0.1410351,0.09731347,-0.086097345,0.12135142,-0.18537176,-0.10271754,0.070644744,0.12094423,0.13641961,0.11634839,-0.075925045,-0.08512389,-0.053055752,-0.12243034,-0.0971445,-0.0915646,-0.049902324,0.0968306,-0.10040197,-0.10342393,0.105430566,0.12735398,0.1127792,0.09080637,-0.10629131,0.12914735,0.11252402,-0.10999245,0.12880988,0.098569356,-0.10886503,-0.13111904,-0.0840201,0.047005836,-0.11816894,0.056445826,-0.10788333,0.104503274,-0.105034195,-0.04066402,-0.033821065,0.08970273,0.054838944,-0.07073434,0.11556934,0.16464381,-0.07195543,0.14325888,0.07682422,-0.09634477,-0.07444845,0.11232428,-0.12616423,0.12680815,0.12754191,0.07982619,-0.1335058,0.110997036,-0.11102744,0.121803835,-0.075101994,0.18348694,-0.11761252,-0.07291987,0.1311775,-0.08179789,-0.06801846,0.044023026,-0.09708557,-0.10198995,0.07558784,-0.04350709,-0.10511058,0.050633542,-0.103308134,0.1408857,-0.18239084,0.06775921,-0.10740987,-0.06455589,0.06046133,-0.06251267,-0.057141867,0.08106356,-0.05119933,-0.08702781,0.036988996,-0.06621705,0.08344013,-0.11781124,-0.078139685,0.056818325,-0.11600048,-0.058774695,0.06736193,-0.08171526,-0.12734094,0.042898986,-0.087167114,-0.11610238,-0.068717465,0.11864222,0.07437804,-0.14321844,-0.081726104,0.054004148,0.0880528,-0.15268487,-0.1396653,0.08756707,0.10888416,0.13546665,0.09145037,-0.062186174,-0.09061351,-0.06928319,0.0956968,0.06566503,-0.11006342,0.14498068,-0.13019904,0.14048977,0.082391724,-0.16099563,0.14033508,0.124796875,0.098824136,-0.09732958,0.088290066,-0.12711337,0.097509824,-0.07190919,0.10557542,0.1713257,-0.14538212,-0.09467182,-0.07793395,0.120442934,-0.08022245,0.060670495,0.0800427,0.10485169,-0.092769325,-0.13065183,-0.05422322,-0.10500872,0.06830846,-0.11206944,0.12515834,-0.13457505,0.12199861,0.15935306,-0.045111075,-0.10306119,0.0771,-0.06067394,0.13818714,-0.10579053,-0.084751494,-0.10543466,-0.10030027,-0.046940405,0.14745124,0.12881422,0.10408927,-0.078995906,-0.032881543,0.10654036,-0.13125227,-0.065497205,0.09389866,-0.04224821,-0.13178541,0.097522214,-0.1014603,0.071908616,-0.09652026,0.08746759,0.09810412
-0.1185261,-0.14669013,-0.0711061,0.037151705,-0.13917057,0.109692335,-0.033729352,0.08158372,-0.12967663,0.13814336,0.066633835,0.13979469,-0.0985992,0.10616972,-0.1004563,-0.12851042,-0.039484542,-0.08707386,-0.054607414,-0.10130996,-0.056105785,-0.063866295,-0.10755313,0.073646896,0.07188056,0.16243286,-0.13161817,0.105553605,-0.027521463,-0.055310722,-0.19220343,0.11135941,0.06711636,0.13809173,0.060819115,-0.11253677,-0.041935753,-0.08112398,-0.07096384,-0.0558507,0.11687104,-0.13709842,-0.108218096,0.13101627,-0.108428225,-0.027347594,-0.056120813,-0.04598108,0.091953635,-0.047645953,-0.09293046,0.04052335,0.11556647,0.118285775,-0.07851877,0.1330806,0.0834849,-0.12764832,0.08706152,0.07509775,0.06980283,-0.06369322,0.079032615,-0.058531716,0.11486118,-0.11277132,0.09915835,0.07728041,0.12919545,-0.09449373,-0.10880938,0.11514654,0.094314724,-0.07452999,0.09346796,-0.14544713,-0.1026678,0.10744661,0.12025342,0.0897455,0.11082636,-0.055964667,-0.055667154,-0.02780918,-0.12362292,-0.04001376,-0.075079136,-0.112088926,0.084876426,-0.1282855,-0.09734091,0.037627988,0.07301642,0.06416387,0.14340635,-0.09169935,0.117050834,0.13650471,-0.07785567,0.16233808,0.103822894,-0.038343437,-0.055128854,-0.12229846,0.06285865,-0.1168155,0.057201084,-0.12517403,0.15445621,-0.04022524,-0.056031868,-0.08518913,0.05248349,0.054358285,-0.038949467,0.16314894,0.14018273,-0.108688794,0.080122896,0.12799446,-0.123219244,-0.09397305,0.13537385,-0.079861365,0.043599337,0.11482936,0.040767185,-0.1386797,0.07462913,-0.058351815,0.06056711,-0.08898623,0.16973487,-0.07122391,-0.106927186,0.120337896,-0.11243103,-0.12856096,0.12236242,-0.082429685,-0.050620824,0.10907883,-0.1104134,-0.1392545,0.09037844,-0.10671368,0.12594853,-0.15864243,0.100518644,-0.104619145,-0.12721631,0.07967058,-0.116581626,-0.11853952,0.060113873,-0.065123275,-0.06356396,0.11317965,-0.07257062,0.08811398,-0.114261575,-0.10195576,0.08029099,-0.09869334,-0.117744684,0.08850731,-0.11051781,-0.10599429,0.06439027,-0.10078756,-0.055554748,-0.13406715,0.121248186,0.1397646,-0.12273702,-0.040162995,0.09915626,0.1315436,-0.10926228,-0.09136174,0.05302798,0.115160026,0.106570095,0.024199395,-0.04365829,-0.046772234,-0.15005752,0.11362515,0.11020717,-0.12878172,0.13185185,-0.095654406,0.065104924,0.09306085,-0.0967198,0.077422395,0.08169025,0.1370283,-0.069360256,0.12933381,-0.11890153,0.03291642,-0.11669343,0.14051425,0.14452773,-0.0709202,-0.07526614,-0.047680266,0.03593119,-0.06770676,0.086678855,0.114237875,0.09638818,-0.108535305,-0.12676331,-0.057467077,-0.037662175,0.0773201,-0.08960412,0.10471126,-0.108979166,0.11882852,0.11324547,-0.083777115,-0.12058872,0.1094739,-0.10057672,0.16246723,-0.08291042,-0.11593029,-0.040954582,-0.14010979,-0.094757155,0.1406222,0.099059835,0.16227387,-0.12680683,-0.07133294,0.12259464,-0.09598578,-0.10267553,0.19079837,-0.10440081,-0.13531582,0.081234165,-0.05726365,0.042996727,-0.11191365,0.11574097,0.105496824
