0,1,2,3,4,5,6,7,8,9,10,11,12,13,14,15,16,17,18,19,20,21,22,23,24,25,26,27,28,29,30,31,32,33,34,35,36,37,38,39,40,41,42,43,44,45,46,47,48,49,50,51,52,53,54,55,56,57,58,59,60,61,62,63,64,65,66,67,68,69,70,71,72,73,74,75,76,77,78,79,80,81,82,83,84,85,86,87,88,89,90,91,92,93,94,95,96,97,98,99,100,101,102,103,104,105,106,107,108,109,110,111,112,113,114,115,116,117,118,119,120,121,122,123,124,125,126,127,128,129,130,131,132,133,134,135,136,137,138,139,140,141,142,143,144,145,146,147,148,149,150,151,152,153,154,155,156,157,158,159,160,161,162,163,164,165,166,167,168,169,170,171,172,173,174,175,176,177,178,179,180,181,182,183,184,185,186,187,188,189,190,191,192,193,194,195,196,197,198,199,200,201,202,203,204,205,206,207,208,209,210,211,212,213,214,215,216,217,218,219,220,221,222,223,224,225,226,227,228,229,230,231,232,233,234,235,236,237,238,239,240,241,242,243,244,245,246,247,248,249
0.3953051,0.499845,0.30629045,-0.48678035,1.3522706,1.0672947,1.9574221,1.396618,0.34160993,0.6178308,1.013242,0.20472603,-0.36046675,0.4193769,-0.897159,1.1773593,-1.0007803,1.0480919,0.6814012,-0.44628778,0.8493594,-0.8320032,0.6729701,-0.48543093,0.9799876,0.10696286,-0.5053865,0.43660048,0.47790086,1.2834653,1.0679078,1.288928,0.81667775,-1.0041816,0.7256598,1.2674359,-0.87559664,0.27440882,1.1491607,-0.37911925,1.0719314,-0.5381772,-0.9923948,1.4077257,-0.99589187,-1.0808183,0.9850175,-1.105979,0.67764217,0.35549775,0.89239705,1.0929961,-0.376503,0.9512918,1.0907593,0.9306049,-1.1360666,0.5859993,-0.33276084,0.64366376,0.72467077,0.7887506,-1.0564045,-0.78547263,-1.3745743,1.0107788,0.8991958,1.2260077,-0.7536863,0.48846975,-0.5024482,-0.2731595,1.2240744,1.4600511,0.6604896,-0.33205402,1.17004,0.2724218,1.3423207,1.0215483,0.77333057,-0.889588,-1.1378843,-0.8654569,-0.95399666,-0.8197419,-0.63797855,1.0594499,0.8113786,-0.28459704,-0.90384877,1.177015,0.81877077,-0.67728674,-0.68990153,-0.9218237,0.32499248,-1.0729293,0.16399352,-0.7665125,1.1436871,0.840195,0.6166169,0.43782106,-0.32119086,0.60739976,-1.0094249,-0.9931852,-0.58887225,1.0941132,-0.9281266,0.8875619,-1.3868164,0.6123151,0.93567693,-1.1628985,-0.34646535,-0.8625104,0.90187204,0.93778104,0.9349229,0.9683791,1.0901879,-0.48023507,0.8250295,1.0306413,-1.0331225,0.31440014,0.9738029,-0.43775216,0.8646295,-0.9808698,-0.8886658,0.5877683,-1.0239837,0.8347907,0.8963,0.07925611,0.477801,1.1884023,0.40737352,-1.1856614,1.0718005,0.8539593,0.683901,-0.8125939,-0.37308028,1.1994153,-0.93255407,-0.3545941,-0.6438888,-1.0863703,0.49863333,-0.60542,0.8317045,-1.3895903,0.2922478,0.028855275,0.9780211,1.0613985,0.3732205,-0.5637219,0.9277992,0.9200818,-0.0022942773,0.47401804,1.469779,-0.98962903,0.367297,-1.425927,0.49495926,-1.1171378,1.37863,1.6305724,0.84935105,-0.81145704,0.113697976,0.9569844,-1.1180671,-0.9049302,-0.65413874,-1.3169785,-0.3338171,1.0010135,-0.9961903,-0.86396664,-0.9264567,-0.37257233,0.69859266,-0.34881574,1.1285357,0.32272592,0.73016685,-0.60905653,0.61425054,0.29720837,1.2301654,0.5648875,0.9705489,0.56942266,-1.0429476,0.31591278,-0.9454368,1.0065175,-0.36415076,-0.7888232,-0.48582047,1.2159853,0.63284355,1.0454035,-0.66699576,-1.0161784,-0.441415,-0.87616587,-1.4356052,-0.3425216,-1.1074166,-1.1113554,-1.4043319,-0.70042914,-0.47277907,0.80930775,-0.4698895,0.8430748,1.3527945,-0.49432796,1.256481,0.40421897,0.9403019,-1.2259487,-0.4580922,-0.7607655,-0.4668985,-0.3580767,-0.33386856,-0.4351996,1.4292984,1.2384145,0.30616978,0.3436407,1.1788974,-0.8632935,0.49544722,1.0041841,0.61228484,-1.2531769,-0.4031323,-0.5105623,0.9497,-0.4364695
0.40104502,0.5244412,0.37340236,-0.49105206,1.3299335,1.0479834,1.8092749,1.3492706,0.29488626,0.53474224,0.85997194,0.19813578,-0.4123981,0.4690753,-0.7828561,1.161174,-0.8566998,1.0387802,0.7279061,-0.38914797,0.85661906,-0.7810923,0.62120056,-0.41407594,0.87804055,0.18055241,-0.5238722,0.3852429,0.48634633,1.0942452,0.9458183,1.2589709,0.7661584,-1.0076314,0.6493076,1.1635765,-0.8486532,0.25310248,1.0234272,-0.332104,0.9935971,-0.37961352,-1.0117313,1.2856025,-0.8445482,-0.9648539,0.99273455,-1.0577648,0.57672286,0.34926984,0.8766399,1.1240286,-0.34644035,0.9628179,1.154431,0.94013834,-1.013221,0.58888566,-0.3621079,0.6424962,0.7251953,0.7278297,-0.9881974,-0.67966306,-1.3079747,0.9172602,0.7622916,1.2542032,-0.5856029,0.48128363,-0.580055,-0.3270385,1.1784643,1.3419938,0.6181307,-0.38091585,1.143353,0.35713762,1.3452705,0.99319935,0.7972968,-0.8263831,-1.0610671,-0.84563357,-0.8875594,-0.78908145,-0.61095756,1.05597,0.8374391,-0.36028853,-0.82881564,1.1147069,0.818307,-0.60552746,-0.74400795,-0.8550142,0.35351342,-1.0300263,0.17031457,-0.7413364,1.0082835,0.84188783,0.6070162,0.41002017,-0.33235693,0.6509392,-0.92638355,-0.93049693,-0.6127109,1.110749,-0.9633705,0.93430614,-1.2878786,0.564161,0.8907588,-1.1120231,-0.29488605,-0.81830776,0.80394477,0.9218001,0.8460052,0.90093637,1.0107359,-0.4968748,0.7796214,1.048016,-0.9460374,0.3111812,0.8131023,-0.40811008,0.7992921,-0.9074819,-0.8333815,0.49079528,-0.9854625,0.8162676,0.9314473,0.05282605,0.51847583,1.0061955,0.41115126,-1.2142689,0.9750599,0.83876586,0.70251226,-0.7966927,-0.39174965,1.1259866,-0.9718353,-0.3290878,-0.6056352,-0.9376008,0.5328466,-0.63147426,0.8046313,-1.4007312,0.3408537,0.12942517,1.0019207,1.0998862,0.2708709,-0.64097804,0.8680691,0.8222586,0.014367485,0.53248805,1.3617051,-0.956485,0.37072074,-1.3175797,0.5077418,-1.0557263,1.2780223,1.5047725,0.77007544,-0.7866606,0.10435572,0.9326852,-1.041635,-0.8856582,-0.6424406,-1.319621,-0.19525364,0.9091323,-0.86203045,-0.7395452,-0.9152827,-0.42199984,0.67729336,-0.36196506,1.141379,0.36184594,0.65569955,-0.62028337,0.6123271,0.231983,1.1502985,0.55182946,0.99199533,0.5572312,-0.88926166,0.34860057,-0.90178055,0.9658083,-0.3846904,-0.72234184,-0.5293366,1.1128792,0.5566622,1.0086896,-0.74088395,-1.0604215,-0.43772322,-0.90391374,-1.340197,-0.41343027,-1.1193575,-1.0793042,-1.4206474,-0.6970371,-0.50056076,0.7807972,-0.4853397,0.883132,1.3181398,-0.4708738,1.1753594,0.36834484,0.8472106,-1.1836655,-0.46847147,-0.71357644,-0.387935,-0.28506395,-0.2634852,-0.4053505,1.2042668,1.1717043,0.26675105,0.32429466,1.0996467,-0.9227313,0.46027827,1.0063983,0.5963573,-1.2342016,-0.4497391,-0.51050407,0.8850257,-0.4339784
0.31217727,0.46752673,0.31466624,-0.44401744,1.3582214,0.962098,1.7174537,1.3529416,0.2871115,0.51492614,0.87903196,0.19454221,-0.4152738,0.40614346,-0.8342815,1.1903287,-0.86509377,1.0429611,0.71263933,-0.44690073,0.7988744,-0.7379898,0.6175684,-0.40410614,0.93870485,0.12186485,-0.4627237,0.37472734,0.5059251,1.1325747,0.9467028,1.3252763,0.7113362,-0.9987748,0.65052634,1.219408,-0.8368476,0.23905368,1.0609484,-0.35438225,0.98621327,-0.46973354,-1.0329907,1.3233329,-0.86372477,-1.0573738,1.0213734,-0.99127924,0.65834475,0.2950895,0.91546077,1.1157272,-0.40184864,0.8816792,1.1591927,0.93350405,-1.1405418,0.4964478,-0.35732254,0.6480443,0.6785469,0.684691,-1.0213747,-0.68568987,-1.3073615,0.85238826,0.78852516,1.152853,-0.6185832,0.48824918,-0.45239517,-0.2671059,1.2630112,1.3382533,0.6317669,-0.38303578,1.1516838,0.2861791,1.3370929,0.90987056,0.76242733,-0.85717005,-1.0723329,-0.8721163,-0.9503174,-0.7665775,-0.6131089,1.0937996,0.8350932,-0.28973296,-0.75221854,1.0680826,0.7549381,-0.5645681,-0.71235746,-0.860161,0.33464727,-1.0581772,0.24847157,-0.680339,1.0514982,0.8447663,0.5671297,0.44942847,-0.35044488,0.63031566,-1.0185171,-0.8985158,-0.5900865,1.1086102,-0.87008876,0.82305694,-1.3150095,0.54815453,0.8506557,-1.1037464,-0.33022672,-0.88936895,0.73477,0.957374,0.7932521,0.88799006,1.0951741,-0.52182174,0.81535035,1.069389,-0.9560583,0.3649074,0.88665366,-0.45177633,0.7618921,-0.86037236,-0.8058955,0.5328898,-0.94440836,0.77358,0.85251987,0.083381295,0.4740954,1.0225029,0.3625967,-1.1418788,0.998288,0.804513,0.7175907,-0.74532986,-0.35415816,1.071508,-0.9682143,-0.33300176,-0.6212164,-0.94178766,0.4841824,-0.5872294,0.7653406,-1.3744882,0.2909548,0.12801844,0.9850297,1.0982561,0.22698148,-0.59441066,0.85223556,0.879469,0.022685314,0.461944,1.3976731,-0.9168306,0.30165777,-1.2603118,0.47879487,-1.0769341,1.2734307,1.5102023,0.7656999,-0.7903885,0.04015511,0.94195485,-1.1243759,-0.9110517,-0.6622016,-1.2208297,-0.21968277,1.0187476,-0.8356117,-0.76986706,-0.9407813,-0.46444127,0.6694129,-0.40462983,1.1571616,0.39599356,0.6645476,-0.62593275,0.5645042,0.16556627,1.1778911,0.5986717,1.0258951,0.5579904,-0.89539254,0.27951318,-0.92570275,0.96356654,-0.3178766,-0.7051495,-0.48493326,1.1907883,0.54555476,1.0125285,-0.66565835,-1.0305777,-0.48473442,-0.90033704,-1.3706349,-0.3891939,-1.1434312,-1.0692164,-1.4003915,-0.67991644,-0.5020971,0.73680353,-0.4640619,0.8149582,1.2351475,-0.47826076,1.1478494,0.3461173,0.8908942,-1.0966021,-0.46946347,-0.74923694,-0.37766394,-0.36185402,-0.33661807,-0.3955127,1.1889224,1.1390013,0.33381015,0.3938924,1.0449696,-0.8721405,0.5215306,0.895595,0.6620801,-1.1565208,-0.38993633,-0.49985173,0.87554395,-0.46154392
0.3893384,0.49851108,0.33338135,-0.49329454,1.306799,0.9013572,1.6062671,1.3281245,0.26542458,0.52777225,0.8574637,0.17284963,-0.42220157,0.4559187,-0.7075623,1.1713316,-0.85205895,1.0643666,0.6693699,-0.4761153,0.70940256,-0.7518492,0.6322407,-0.4520818,0.8655772,0.09424642,-0.50454956,0.4238004,0.40934417,1.0857632,0.8949752,1.1959381,0.7341438,-0.8797778,0.700763,1.155134,-0.84561867,0.22127008,1.0612592,-0.31001535,0.9940871,-0.46254838,-0.9864602,1.2865821,-0.84496737,-1.023979,1.0649983,-0.9545765,0.6285868,0.36733902,0.83843964,1.1926367,-0.3665042,0.873993,1.1442958,0.8051458,-1.0988432,0.5850577,-0.29360157,0.52328396,0.5760756,0.6815991,-0.96208394,-0.63541096,-1.2606256,0.88588524,0.72771794,1.2048475,-0.60084134,0.44490463,-0.564241,-0.33050904,1.2233797,1.312856,0.6036243,-0.4145273,1.182259,0.29452112,1.306963,0.96117276,0.7164528,-0.8936196,-1.105535,-0.77585864,-0.84926116,-0.75548047,-0.63164514,1.005779,0.76156366,-0.34508356,-0.6948924,0.95376736,0.73223937,-0.57702065,-0.74314475,-0.88374627,0.3493234,-1.0470431,0.18014547,-0.6007303,0.969509,0.7916924,0.561841,0.3856995,-0.29704264,0.5295885,-0.945035,-0.8550839,-0.5811323,1.1390787,-0.89986485,0.81920654,-1.3289906,0.60277396,0.804735,-1.0606678,-0.31840226,-0.762826,0.7345191,0.9620809,0.77760047,0.8921131,1.0186486,-0.5146449,0.7232802,1.0277168,-0.98267627,0.36325023,0.7453042,-0.4243694,0.7766056,-0.87416005,-0.8244981,0.43011776,-0.949386,0.8598329,0.81922334,0.1026115,0.46189317,0.95812804,0.33960548,-1.1763203,0.9218952,0.76699376,0.7172787,-0.8395933,-0.40615293,1.0775409,-0.89169586,-0.30030683,-0.6451734,-0.818163,0.44108883,-0.60350287,0.7106081,-1.3150233,0.27377442,0.025031792,0.9662627,1.0960798,0.28577346,-0.55742127,0.9084185,0.7981959,0.040073015,0.46414146,1.3655459,-0.81143975,0.34302583,-1.1651552,0.43671486,-0.99989784,1.3058312,1.453864,0.7186813,-0.7148889,0.086814955,0.94471765,-1.0761119,-0.82228297,-0.63616806,-1.2740716,-0.23405686,0.981854,-0.8378032,-0.75046986,-0.9300235,-0.45592922,0.65369844,-0.37953937,1.1331494,0.34563392,0.676632,-0.6037005,0.6381883,0.17349201,1.135352,0.5844574,0.96345395,0.57651806,-0.8596255,0.3439174,-0.94161236,0.8937266,-0.3414275,-0.698888,-0.5000737,1.1041813,0.5095793,0.938093,-0.64267385,-1.1149832,-0.45066068,-0.9227877,-1.273267,-0.405454,-1.0847193,-1.0107476,-1.3387426,-0.6127482,-0.5059094,0.6823591,-0.42039886,0.81474483,1.2593468,-0.49721736,1.0397362,0.3966846,0.8543563,-1.0515441,-0.4832329,-0.7739844,-0.38603997,-0.30810544,-0.30661646,-0.4489406,1.1536002,1.1329492,0.26767126,0.35657656,0.9620528,-0.88586307,0.4498042,0.94884294,0.6518695,-1.209989,-0.33699048,-0.5062797,0.87319916,-0.39145926
0.3967098,0.51368713,0.38728222,-0.4753649,1.1997516,0.90494066,1.6481237,1.2790247,0.28542295,0.40478373,0.7691873,0.13795166,-0.39236665,0.42510512,-0.68981534,1.1340264,-0.7324522,1.0686933,0.7473343,-0.43888167,0.7374962,-0.6901175,0.57886004,-0.46528238,0.78275734,0.0879739,-0.51339865,0.42671597,0.37666816,1.0738968,0.8527156,1.23464,0.666003,-0.9006725,0.6587375,1.1177287,-0.8918205,0.2141878,1.0336695,-0.31513655,0.97988373,-0.3914571,-0.9510892,1.253524,-0.7802913,-1.0487182,1.0178163,-1.0510685,0.5519477,0.2996822,0.8061035,1.0784539,-0.43565658,0.81974816,1.0863856,0.76096725,-1.0552465,0.47808242,-0.29535013,0.5913435,0.66887033,0.5938385,-1.0486863,-0.6125833,-1.1524911,0.7894985,0.6951496,1.193787,-0.6184685,0.47864774,-0.5310975,-0.26058185,1.1620497,1.2922595,0.64559793,-0.30543366,1.1457759,0.38829035,1.2098083,0.88960737,0.71210843,-0.8495735,-0.9828764,-0.78930944,-0.8238863,-0.6904344,-0.6058,0.9318854,0.76440376,-0.2898729,-0.6788838,0.95347005,0.6788518,-0.51724434,-0.7333902,-0.7817484,0.29561555,-1.085948,0.22098485,-0.5738934,0.91695535,0.72973406,0.66947913,0.40129337,-0.38798806,0.52853745,-1.0107907,-0.7890119,-0.52320653,1.102754,-0.78186536,0.8006426,-1.1958356,0.50477666,0.72977465,-0.9985806,-0.34254515,-0.71204764,0.6793158,0.96887743,0.7216585,0.8504339,1.004126,-0.45734397,0.70684206,1.009849,-0.89868057,0.29365438,0.7386995,-0.41249382,0.7154322,-0.77686995,-0.7514956,0.47671947,-0.91169685,0.79627264,0.90767556,0.06453915,0.5114113,0.95455265,0.34589088,-1.0712082,0.85201985,0.71729153,0.7638086,-0.76173335,-0.38816604,1.0694059,-0.8598969,-0.3592861,-0.579286,-0.8492852,0.49351722,-0.5667727,0.6683174,-1.2749882,0.30686104,0.055372473,0.94094807,1.0815601,0.19013429,-0.5723565,0.85468864,0.74332356,0.0065934565,0.46164104,1.2577506,-0.8118767,0.35703158,-1.1778419,0.4349376,-0.92152506,1.2422737,1.3633589,0.7021449,-0.6930652,0.076500945,0.93119335,-1.0753063,-0.8343095,-0.67339396,-1.2245796,-0.29703683,0.8733616,-0.7189414,-0.6342544,-0.8656416,-0.43038273,0.547848,-0.38523808,0.9768807,0.3741254,0.56683975,-0.7057403,0.6798,0.12176228,1.0768843,0.60497797,0.8700038,0.5377246,-0.83905476,0.34149793,-0.9068767,0.8680358,-0.29483402,-0.57784915,-0.58505136,1.1901027,0.5218236,0.9614152,-0.77856624,-1.0669255,-0.46945488,-0.85531706,-1.3190213,-0.4148527,-0.99077433,-0.9709353,-1.2608365,-0.6011547,-0.44845405,0.7048847,-0.41736102,0.8485692,1.1306971,-0.51842684,0.9756953,0.3979461,0.8022968,-1.0009376,-0.51296246,-0.7579174,-0.30318734,-0.26699743,-0.3113629,-0.4518669,1.1494098,1.1522521,0.3177312,0.4087464,0.96530086,-0.82958186,0.38919792,0.9363866,0.5811885,-1.2325902,-0.4220193,-0.47211963,0.7810104,-0.50070333
0.39105982,0.44254583,0.29368514,-0.43033457,1.1737101,0.8935324,1.7626398,1.3322449,0.3310973,0.48830828,0.8086139,0.20291339,-0.32706594,0.40737292,-0.6513854,1.1675919,-0.80307245,1.0083866,0.6634424,-0.4135258,0.80474764,-0.7641592,0.59175473,-0.42087266,0.8502312,0.05365729,-0.50319505,0.42441428,0.46770525,0.95543605,0.75071794,1.2227958,0.6526236,-0.8961589,0.6014938,1.2082059,-0.9071634,0.1830986,0.9548132,-0.29271698,0.7944102,-0.39744848,-0.96816486,1.1253196,-0.78763306,-0.90381193,0.981016,-0.905027,0.5369307,0.3597066,0.8106683,1.0077748,-0.3647668,0.76038474,1.0477309,0.73064375,-1.0142705,0.46246904,-0.3165188,0.5996687,0.65528816,0.6391473,-0.97205424,-0.58612627,-1.1618398,0.8370473,0.66305524,1.129503,-0.61764866,0.45045197,-0.49451193,-0.31396735,1.0727489,1.2261194,0.6206146,-0.38952503,1.0280509,0.27647156,1.2267189,0.8829193,0.64842314,-0.79065835,-0.9949001,-0.8302068,-0.7750437,-0.6184857,-0.6366981,0.9640889,0.76796037,-0.2770711,-0.70343363,1.0230224,0.6725187,-0.5815069,-0.6755271,-0.7225368,0.3056331,-1.0236169,0.17502654,-0.6538468,0.974147,0.76074445,0.5535089,0.3306606,-0.3503539,0.53578293,-0.9081803,-0.76566464,-0.50067484,0.98753226,-0.7542058,0.6991708,-1.2131754,0.53168887,0.71938264,-1.0359012,-0.33677688,-0.8484064,0.6545361,0.90257406,0.76588756,0.93440825,0.97166026,-0.48396018,0.6953711,0.997607,-0.8363952,0.34406307,0.8557706,-0.44364557,0.7160578,-0.8234824,-0.6990935,0.43234366,-0.8714939,0.7974658,0.8741917,0.07085599,0.47165084,0.9675689,0.35996044,-1.0480492,0.9150276,0.6912739,0.6896374,-0.7213702,-0.36765796,1.0414559,-0.8080204,-0.3121596,-0.6534007,-0.8687532,0.4965373,-0.51207995,0.68856186,-1.2957948,0.30825943,0.102349095,0.9691891,0.9825203,0.22513011,-0.5705715,0.8433808,0.7483525,0.06915318,0.42625198,1.2783083,-0.87951845,0.33627975,-1.2077732,0.5261008,-0.8441211,1.1911795,1.3591926,0.6514142,-0.61397827,0.09984487,1.023387,-0.9380061,-0.7882421,-0.589583,-1.2134922,-0.15258661,0.93113554,-0.7926616,-0.68060863,-0.8032548,-0.38983962,0.5874806,-0.39801866,1.000891,0.34354877,0.6181508,-0.5921487,0.5315307,0.2850592,0.9814079,0.62016624,0.901749,0.57770026,-0.8909733,0.34689277,-0.80777305,0.8919302,-0.2896882,-0.6597594,-0.57435757,1.1146797,0.41936982,0.9295134,-0.69246775,-1.0373993,-0.50916106,-0.7899898,-1.1401787,-0.39355367,-1.0435978,-0.87130195,-1.3218045,-0.6631715,-0.4787553,0.6593946,-0.41359136,0.8089597,1.2585576,-0.49602318,0.98823965,0.31839994,0.8639666,-0.9438824,-0.4302153,-0.72828364,-0.35328567,-0.25813517,-0.2972734,-0.42824575,1.0386606,1.1656096,0.24118403,0.31506175,1.0026375,-0.7769266,0.45661336,0.92417747,0.5715812,-1.1035869,-0.3317567,-0.4519355,0.73226357,-0.45780274
0.39867437,0.53365403,0.34891763,-0.46344814,1.229716,0.9158848,1.464068,1.2540377,0.34310696,0.43115795,0.7795793,0.11236204,-0.3898336,0.47445834,-0.7632656,1.1376779,-0.79149884,1.1233327,0.68418425,-0.4407969,0.6150052,-0.6145725,0.60744786,-0.42696235,0.67603743,0.078341305,-0.4913483,0.41276807,0.363887,1.0494915,0.7995545,1.293331,0.6295911,-0.93484104,0.68833095,1.1114901,-0.888514,0.20817661,1.0791476,-0.36454555,0.8033673,-0.46831158,-0.94020206,1.1279869,-0.7437547,-1.0002874,0.88874674,-0.97269464,0.57955295,0.33839518,0.73385257,1.0066007,-0.36346972,0.81798786,1.0414742,0.8349302,-1.0075823,0.47700697,-0.3429702,0.41739082,0.56749904,0.59673256,-0.948518,-0.5456477,-1.1565304,0.80187356,0.6969312,1.1806246,-0.5424155,0.48034486,-0.49062797,-0.3180872,1.2179254,1.2163585,0.62250257,-0.38296026,1.0242622,0.30865476,1.3066391,0.93354535,0.7114124,-0.850821,-1.052311,-0.74927694,-0.860189,-0.72353935,-0.54279625,0.9065448,0.820383,-0.3046424,-0.664681,0.8869117,0.65683293,-0.5261064,-0.71782243,-0.71299165,0.30890796,-0.98339456,0.1741736,-0.60103834,0.87326396,0.67223233,0.5737235,0.40137184,-0.28930616,0.5030955,-0.92253464,-0.8375279,-0.537501,1.0027435,-0.79956686,0.73807305,-1.2333246,0.46564993,0.80849594,-1.0465587,-0.28216577,-0.69049734,0.6972705,0.8564039,0.6392085,0.8325721,0.99617153,-0.49921602,0.6643565,1.0716048,-0.7875547,0.3567436,0.714597,-0.41306567,0.5800818,-0.71925235,-0.7262463,0.4105336,-0.97132665,0.79384935,0.87628233,0.06443473,0.5274176,0.84009516,0.33575037,-1.1604356,0.9408078,0.6059104,0.6942044,-0.8784079,-0.34224987,0.94185585,-0.8429933,-0.326949,-0.59089494,-0.7274546,0.45731,-0.5122869,0.68120307,-1.2933108,0.2797068,0.088357896,0.9292663,1.016077,0.23527694,-0.59016126,0.7251721,0.70659006,0.0078757005,0.4362691,1.2321696,-0.7539186,0.33301926,-1.0752665,0.533142,-0.9134776,1.2942775,1.3687747,0.679807,-0.727625,0.037864566,0.928986,-0.9734816,-0.7769574,-0.59625816,-1.1191474,-0.22857046,1.0166738,-0.7313671,-0.66310936,-0.9671424,-0.42547137,0.6005676,-0.4530352,1.0734863,0.31928954,0.6269203,-0.6550216,0.6688573,0.23588197,0.9030235,0.62287587,0.95626,0.66136986,-0.7570438,0.29557943,-0.7745221,0.7448874,-0.2854386,-0.6030602,-0.5306965,1.0452906,0.5614236,0.9221857,-0.6736076,-0.99672216,-0.5084824,-0.8314898,-1.1930715,-0.45025885,-1.1344877,-0.8696742,-1.3173943,-0.5128524,-0.46549803,0.5376104,-0.48740026,0.76944405,1.1321952,-0.508943,1.0185313,0.38536617,0.6262744,-1.19021,-0.5159506,-0.84676594,-0.27852052,-0.29234546,-0.28332835,-0.44749033,1.219108,1.0446122,0.3300453,0.3912207,0.9481742,-0.7044036,0.47785264,0.7976336,0.645144,-1.1159279,-0.42003763,-0.4803761,0.81567025,-0.39523143
0.3859698,0.43696472,0.36785722,-0.4112917,1.086191,0.74484015,1.6387069,1.2342069,0.31943864,0.44804054,0.80968183,0.109966785,-0.43250734,0.38854867,-0.7071142,1.1037058,-0.7759363,1.0529625,0.7292393,-0.4066991,0.6696492,-0.7100801,0.52486163,-0.43616515,0.783959,0.07804945,-0.5823626,0.3823896,0.32979366,0.9673994,0.7893821,1.2073685,0.6385441,-0.8198514,0.64902824,1.1399138,-0.8427478,0.15605304,1.0330818,-0.34850875,0.86721635,-0.40661824,-0.9444071,1.1600962,-0.8151613,-0.95809305,0.9746176,-1.0193573,0.554863,0.30994672,0.75657845,1.0372676,-0.36257195,0.74964696,1.028372,0.7622051,-0.99251163,0.43848562,-0.3464801,0.5286231,0.62812036,0.5635461,-1.0178952,-0.56661886,-1.12801,0.872352,0.68014187,1.1893798,-0.54682857,0.4036099,-0.52616566,-0.31191388,1.1270767,1.2898362,0.6761166,-0.3882728,1.0361133,0.30705473,1.145729,0.7645656,0.62901986,-0.8367507,-0.9837165,-0.73963654,-0.72804445,-0.73695445,-0.63542247,0.9765165,0.812003,-0.34145156,-0.64852434,0.9217371,0.69330376,-0.54705006,-0.65058464,-0.7699407,0.32684112,-1.0190016,0.11120264,-0.57559824,0.9415391,0.7034508,0.62742937,0.39079404,-0.3388771,0.5123283,-0.88337517,-0.82659525,-0.5408385,1.0437872,-0.74548906,0.783336,-1.2763927,0.46303603,0.7793172,-0.9245062,-0.30394417,-0.7399026,0.6589319,0.92135835,0.74188095,0.8525734,0.9712201,-0.5254336,0.7003365,0.93321043,-0.8242484,0.32921925,0.7872238,-0.4727267,0.65969455,-0.80323046,-0.7178658,0.45896527,-0.86295646,0.77428377,0.84865534,0.08619752,0.5130199,0.95166725,0.32387188,-1.0259755,0.924813,0.6448922,0.73297936,-0.7696848,-0.35821283,0.94609815,-0.84133744,-0.31839827,-0.6624726,-0.80577344,0.48274165,-0.505869,0.6753074,-1.2161802,0.21121301,0.0399961,0.8849726,1.0032253,0.24241455,-0.58256793,0.8028403,0.801005,0.0387053,0.3840042,1.2963332,-0.81721133,0.3459478,-1.052114,0.5213263,-0.9158979,1.1764568,1.400915,0.6528622,-0.6257807,0.10486691,0.9687131,-0.92327327,-0.7773922,-0.62139386,-1.1444423,-0.2260075,0.8860265,-0.7140896,-0.6195273,-0.8356106,-0.37512237,0.5853181,-0.3634809,1.0356461,0.31437775,0.59979624,-0.6869746,0.6036537,0.25304377,1.0238944,0.611469,0.83656096,0.61412746,-0.7488772,0.34576806,-0.7952557,0.7883692,-0.36053646,-0.5679084,-0.5858079,1.1014005,0.44408315,0.9058558,-0.7427515,-1.0493109,-0.46885225,-0.81693655,-1.2320973,-0.42878634,-1.0854387,-0.9418121,-1.2084837,-0.5592152,-0.52100575,0.66086173,-0.4490811,0.79094875,1.1489489,-0.5391354,0.92507994,0.32404426,0.73322135,-1.0575043,-0.5131068,-0.73220396,-0.31531176,-0.27432856,-0.33175966,-0.4772768,1.0924623,1.1411347,0.2752501,0.39368784,0.9980122,-0.7431411,0.48852256,0.8473463,0.6385747,-1.0907152,-0.36524647,-0.4722875,0.7299291,-0.4951213
-0.16078763,-0.17890471,-0.18702155,0.20166075,-0.19680862,-0.2090274,-0.019513596,-0.07621439,-0.18587986,-0.26598477,0.47103268,0.27828664,0.20490447,-0.16811341,0.15581748,-0.12961744,0.21553752,-0.17655972,-0.16824856,0.16756363,0.49072126,-0.44527495,-0.2656266,0.17051269,0.49691713,0.33561128,0.18936272,-0.1648085,0.3686498,-0.25360325,-0.19623749,-0.16768606,-0.19616619,0.23602831,-0.13396798,-0.18981645,0.17377958,0.33310926,-0.16112167,0.19262435,-0.1983003,0.03890003,0.16948025,-0.23521152,-0.49870443,0.17889977,-0.18597528,0.08520739,-0.21050845,-0.19183323,-0.24012426,-0.16983017,0.16661829,-0.2273309,-0.17624831,-0.2210522,0.15994953,-0.30430314,0.18429373,0.40605003,0.49432003,-0.2533232,0.15638714,-0.39012703,0.09383172,-0.23291673,-0.2685537,-0.17352726,0.2710432,-0.1569595,0.16863364,0.1760113,-0.17383653,-0.18387057,-0.13321036,0.18076442,-0.221466,-0.1710986,-0.18050104,-0.22201972,-0.19404463,0.17353903,0.15994777,-0.5029242,0.2292071,0.2349571,0.14949334,0.38089716,-0.16845116,0.17989415,0.24355616,0.4607636,-0.25113252,0.2684294,0.13120139,0.2259511,-0.1795389,0.13967367,0.3324769,0.26683345,0.18853803,-0.2566384,-0.16399623,-0.19762436,0.20993975,-0.12447537,0.15186082,0.2504974,0.16895722,-0.19390337,0.2451211,-0.21456245,0.081521824,-0.2733023,-0.22362731,0.21209317,0.15726896,-0.4922161,-0.19861487,-0.18137024,0.5083497,-0.23198351,-0.23880182,0.18219663,-0.22364677,-0.16105221,0.21310917,-0.17911638,0.4397833,0.1746626,0.5043514,-0.5515995,0.25751787,-0.18020454,0.15731548,-0.1523055,-0.17671354,0.07941821,-0.16599366,0.3381833,-0.17714359,0.1666527,-0.20765883,-0.15480494,-0.15727112,0.13166809,0.18438141,-0.20307279,0.22719167,0.17152211,0.16721995,-0.4894099,-0.16845615,0.14973798,-0.26525804,0.18402265,-0.092492424,0.32456326,-0.1811778,-0.14748226,-0.30621058,0.17875975,-0.23690253,0.51554686,-0.30282995,0.21200271,-0.08409582,-0.5325075,-0.17403196,-0.14674035,-0.16175823,0.23744681,-0.2112222,-0.05039028,-0.26078245,0.19401376,0.05835631,-0.15432312,0.21440658,-0.078854956,0.17185873,0.10466061,0.11232483,-0.14946516,-0.5352249,0.22306521,0.1682792,0.16837093,-0.2411846,0.16192907,-0.15260695,-0.17676362,-0.2433845,0.1838317,-0.1736961,-0.29951727,-0.21735795,-0.16713503,-0.22918424,-0.15635209,-0.49666706,-0.15603644,0.23006904,0.4955409,0.17295454,0.23764896,0.13468266,-0.033425406,-0.115061685,-0.22210135,0.164016,0.16310222,0.18164006,0.16775995,0.22341499,0.17370608,0.15368198,0.23724,0.14899027,-0.43404782,0.14075227,0.43078128,0.19100203,-0.182474,0.15085018,0.17513043,-0.20199656,-0.17015164,0.42777625,0.114388295,0.17040431,0.16281125,0.110540174,0.20369372,0.19436966,0.17977014,-0.17265946,-0.1366537,-0.15610863,-0.19980979,0.10867723,0.25223377,-0.17336796,-0.24439274,-0.17160405,0.20306566,0.16498198,0.17993997,-0.24800855,0.1399277
0.4340919,0.58361566,0.3791565,-0.4228599,0.9185029,0.62398964,1.3718464,1.2217188,0.3637696,0.4370006,0.7019755,0.15905641,-0.39718977,0.45796984,-0.5827604,1.1091386,-0.5850512,0.93812525,0.74520385,-0.39983985,0.63392985,-0.67360616,0.5831758,-0.48699546,0.6550166,-0.0060151643,-0.4802377,0.45131576,0.306326,0.7908237,0.7961627,1.09856,0.48530897,-0.6466092,0.6486368,0.96920264,-0.8451095,0.112634175,1.0323219,-0.3634662,0.8101753,-0.28188387,-0.9416076,1.1217173,-0.8005465,-0.91203296,0.9889358,-0.9464284,0.54205066,0.36903673,0.7629484,0.98549587,-0.35513598,0.75113505,1.0308441,0.54947627,-1.0088584,0.5553247,-0.24869178,0.4321468,0.5073562,0.51902485,-0.95718455,-0.45560455,-1.1842147,0.8157873,0.5681552,1.0190516,-0.43365726,0.47805533,-0.53467596,-0.35616207,0.9977066,1.1974351,0.6157018,-0.39913142,1.0760266,0.3089988,1.0373409,0.60897404,0.46230578,-0.78382504,-0.9973293,-0.6377399,-0.5653366,-0.6135295,-0.5808704,0.80286896,0.7334615,-0.3001655,-0.46603394,0.8072344,0.56265056,-0.3999907,-0.6713706,-0.71012217,0.3324492,-1.0604502,0.11472221,-0.5738972,0.94205195,0.6669089,0.49183214,0.34952012,-0.34296632,0.47562602,-0.9149003,-0.5361709,-0.52899784,0.96364695,-0.6896964,0.6659352,-1.197378,0.5501318,0.5965842,-0.8050463,-0.33615556,-0.727719,0.6082617,0.856298,0.553892,0.78398746,0.7117189,-0.451457,0.6495974,1.0700057,-0.86141455,0.39329544,0.67110103,-0.43044174,0.6107458,-0.66994745,-0.68310773,0.35407746,-0.88338226,0.7229157,0.8943884,0.028524717,0.48775774,0.7394924,0.3058832,-1.066863,0.7120675,0.66959393,0.6479427,-0.8038202,-0.31458464,0.96087784,-0.6199926,-0.37128553,-0.6504722,-0.7705692,0.52618897,-0.4209275,0.62111586,-0.9435773,0.27324095,-0.027599271,0.9026994,1.0346156,0.21516326,-0.5908951,0.7013753,0.71498376,0.0727843,0.41976973,1.2631565,-0.74772805,0.3515603,-1.0796143,0.47422576,-0.6648982,0.9735239,1.2636011,0.44788587,-0.522178,0.06888732,0.9582669,-0.90808654,-0.71473235,-0.64389455,-1.1021533,-0.12650885,0.8720757,-0.70056343,-0.48705372,-0.90267545,-0.42625797,0.62220275,-0.36726737,0.9692836,0.3157516,0.6276445,-0.6476944,0.54774976,0.20238191,0.94404966,0.64339006,0.75153977,0.54441863,-0.7307678,0.35083726,-0.77401924,0.81885505,-0.3492727,-0.4495805,-0.51238006,1.0508475,0.31302458,0.7007775,-0.7379963,-0.96238667,-0.4522825,-0.81246096,-1.2378908,-0.3864378,-1.0226352,-0.8384182,-1.2983721,-0.41870943,-0.50559443,0.5293374,-0.46428666,0.7553542,1.0634626,-0.5311112,0.7949924,0.39157307,0.6075853,-0.9925944,-0.5040423,-0.7719131,-0.32082108,-0.2874773,-0.29790708,-0.4901319,0.96526057,1.0016155,0.22812307,0.37938967,0.9656491,-0.7956482,0.49592972,0.8884711,0.60526437,-1.0641934,-0.34274977,-0.4943406,0.5922456,-0.42546412
0.30744517,0.5538071,0.27696517,-0.47164983,1.1815058,0.837024,1.4908925,1.2385885,0.36221847,0.36458078,0.6231065,0.1939607,-0.41587833,0.44657347,-0.6990792,1.1103288,-0.8059682,0.9767839,0.6582855,-0.45942625,0.5861751,-0.58986497,0.52795446,-0.45473257,0.6925361,0.05026779,-0.523935,0.42420855,0.282103,0.9797526,0.8523427,1.176149,0.6025553,-0.79600835,0.7030885,1.0502251,-0.82617676,0.186797,1.0185059,-0.29402545,0.8700885,-0.4077645,-0.9284917,1.2742653,-0.64982164,-0.9192196,0.9819059,-0.9545714,0.5163846,0.33801097,0.7588634,1.1000983,-0.39590478,0.7935184,1.1151345,0.7520584,-0.98599523,0.4231972,-0.28683913,0.35719377,0.42166606,0.56334347,-0.99469495,-0.5208941,-1.0213767,0.8274239,0.7082313,1.1258651,-0.55976665,0.44760343,-0.55134994,-0.25056323,1.1218232,1.3075035,0.6055161,-0.36530071,1.1221008,0.3101627,1.2493906,0.8571616,0.673843,-0.8867995,-0.95341814,-0.633223,-0.847587,-0.70289594,-0.56310326,0.7892552,0.79911494,-0.25050196,-0.6991811,0.73228866,0.6277004,-0.49641278,-0.68539125,-0.81564015,0.33878177,-0.9839488,0.10316661,-0.5113495,0.79286885,0.7135407,0.61705923,0.43100795,-0.35541743,0.47993082,-0.97535753,-0.7975139,-0.57396615,1.0502772,-0.8012764,0.8179637,-1.2174727,0.5222553,0.7430096,-0.97052276,-0.29015505,-0.62003285,0.661069,0.9223315,0.5909445,0.82977545,0.94444203,-0.5815255,0.6788229,0.9278605,-0.8524722,0.28609186,0.5844929,-0.43780017,0.579161,-0.65431565,-0.6728579,0.41896456,-0.9048334,0.86825174,0.8580732,0.016578551,0.45755807,0.766905,0.24898061,-1.1549723,0.8246139,0.6617869,0.73864263,-0.76122975,-0.3358756,0.97076666,-0.8538,-0.29487085,-0.5685482,-0.6428151,0.52251244,-0.5212338,0.67873216,-1.2211157,0.2843832,-0.013309643,0.8791579,1.0280364,0.19209549,-0.54877996,0.7949918,0.64057577,-0.04128189,0.318759,1.2037137,-0.6310978,0.29667056,-0.9012632,0.39104483,-0.86674374,1.2019961,1.1992517,0.63558394,-0.676114,0.08981138,0.9786271,-1.0003256,-0.7135016,-0.62359494,-1.1557859,-0.25981504,0.9052646,-0.59456986,-0.6143319,-0.8545514,-0.38098067,0.5372687,-0.36253947,1.075667,0.40715617,0.61307365,-0.5878313,0.5576024,0.20069502,0.9646906,0.56167245,0.8143948,0.605016,-0.63522834,0.3184252,-0.78444815,0.6550265,-0.30129445,-0.61646354,-0.4376992,1.0173813,0.487249,0.93841726,-0.6804204,-1.0604496,-0.51108676,-0.85274374,-1.2495958,-0.43310153,-0.968921,-0.91806763,-1.3349518,-0.48669997,-0.4955717,0.5106142,-0.40490618,0.8311456,0.99052745,-0.51159656,0.9976645,0.30340052,0.61793846,-1.0849371,-0.5237406,-0.6854479,-0.28207192,-0.26964816,-0.31582117,-0.521418,1.0735925,1.0932441,0.2538343,0.3362926,0.79428947,-0.8459675,0.49533027,0.88470674,0.62472814,-1.149642,-0.3853678,-0.5400253,0.7862573,-0.45371386
-0.16070831,-0.18522023,-0.18906954,0.20237406,0.0144268265,0.4245851,-0.17209516,-0.19495271,-0.18616563,-0.10780621,-0.23774989,-0.30262554,0.21220322,-0.16919485,-0.42904553,-0.19857955,-0.4713668,-0.165267,-0.16840793,0.16572818,-0.2577343,0.25653902,-0.26137313,0.17166774,-0.25784016,0.005249426,0.1905425,-0.16821712,-0.2784022,0.2557537,-0.20645507,-0.06873403,0.44564524,-0.34950736,-0.14193895,0.0007113678,0.17780432,-0.034488447,-0.16465105,0.19229026,-0.19309188,-0.38446507,0.17492735,-0.2175322,0.19271934,0.1835874,-0.2110233,0.19491358,-0.1833156,-0.19372097,-0.25008446,-0.19716835,0.15797062,-0.26004937,-0.186198,0.53719926,0.16570853,-0.15846795,0.1852211,-0.22178017,-0.26557383,0.4132929,0.16398375,0.2678826,0.16906075,-0.2257745,0.44589975,-0.15759028,-0.4053525,-0.15853252,0.17180178,0.17665417,-0.12805599,-0.15468165,-0.1336718,0.18143547,-0.163045,-0.1727816,0.05924355,0.4413893,0.44025996,0.18170854,0.15815148,0.23108265,-0.5143361,0.25170118,0.15711306,-0.2608368,-0.1729079,0.18039842,-0.4543342,-0.2565422,0.43916008,-0.37089875,0.13536885,0.26486287,-0.17980218,0.18135464,-0.31029475,0.17268272,-0.23413964,-0.21842887,-0.17037217,-0.20970443,0.21675374,-0.2710783,0.17183131,-0.5188639,0.17151698,-0.21104796,0.24524711,-0.25880593,0.1877172,-0.18851389,0.4064947,-0.35925117,0.1575558,0.22413875,-0.26552987,-0.20905936,-0.2606752,-0.017130382,0.355708,0.18276814,-0.26101154,-0.15084036,0.17061019,-0.18104696,-0.22998424,0.18054298,-0.25805286,0.24480344,0.24713038,-0.30235642,0.16271317,-0.1589814,-0.17487961,0.20822679,-0.16519897,-0.25265807,-0.28196472,0.1765817,0.30655316,-0.25198737,-0.15724872,0.13793081,0.19765514,-0.0657712,-0.40335122,0.17388043,0.17024776,0.23934975,-0.17107882,-0.3919772,-0.24786215,-0.08990833,-0.31293166,-0.29199642,-0.17553654,-0.14750385,0.31242007,0.1809881,-0.24184039,-0.24036042,-0.028327111,0.03837204,-0.21179566,0.2326955,-0.1746296,0.19166312,-0.161307,-0.49034557,0.0898132,-0.18022142,0.43290406,-0.47594467,0.3286971,-0.1594198,0.25500655,0.2548345,0.17801145,0.19904082,-0.3735803,-0.1317359,0.22616251,-0.44672376,0.156003,0.17358689,-0.1661689,0.16305514,-0.14236538,-0.17712237,-0.2420206,0.18385863,-0.17625706,-0.11222922,-0.19386876,-0.16718955,0.2804469,-0.16101214,0.24940759,-0.15629046,0.24687319,-0.20427263,0.17314652,-0.41127604,0.13614553,-0.20366022,0.39806068,0.28551978,0.16402209,0.16779757,0.18726318,0.17051947,0.056998167,0.17345513,0.13621952,0.24723253,0.14467542,0.25087792,0.14321758,-0.24578781,0.19743425,-0.18859874,-0.20237452,0.17577793,0.33550233,-0.17097066,-0.2589904,0.06200367,0.17497705,0.16524066,0.3077793,-0.3451992,0.20535453,0.18041113,0.19312486,-0.14175186,0.37201425,-0.20308442,-0.22645904,0.23419206,-0.17409365,-0.1996575,-0.17512773,0.21790016,0.16451369,0.18132262,0.48023129,0.13767526
0.3500224,0.46389726,0.33200306,-0.4374225,1.1605773,0.7690086,1.4518845,1.2369527,0.32654858,0.38801917,0.73120534,0.191512,-0.31877753,0.39568618,-0.6954658,1.1111414,-0.7868512,0.95395225,0.66413856,-0.42962664,0.6336223,-0.6137267,0.5491746,-0.47735116,0.6737708,0.07667295,-0.49610385,0.35949698,0.32287344,0.9903951,0.6957628,1.1361754,0.6040488,-0.81458837,0.6506004,1.031542,-0.85734946,0.14475182,0.99483174,-0.2622324,0.80879307,-0.37708497,-0.9599954,1.1298032,-0.77225566,-0.93335974,0.90541106,-0.9149231,0.49758917,0.33576432,0.7562717,1.0335588,-0.3568191,0.7686635,1.0479845,0.7114966,-0.8833221,0.47637329,-0.29604697,0.44809547,0.5357021,0.6230594,-0.9422406,-0.5839588,-1.1216213,0.72434574,0.732511,1.0411059,-0.5355105,0.43335563,-0.50138605,-0.34009233,1.1006136,1.1099409,0.65878594,-0.33929408,0.9455969,0.28239188,1.2244552,0.8529612,0.7069644,-0.84067583,-0.9839582,-0.6788774,-0.72234946,-0.6622861,-0.6045538,0.81508034,0.7974264,-0.23295802,-0.6557108,0.85517144,0.6179439,-0.54990494,-0.61719686,-0.7065163,0.3294922,-1.0062183,0.101244554,-0.6062292,0.8819192,0.6943141,0.58908933,0.4437702,-0.31658518,0.43844888,-0.9950715,-0.7449768,-0.59117645,0.99316186,-0.6896521,0.6748578,-1.1381487,0.5076861,0.7117738,-0.93511915,-0.3386864,-0.7180997,0.6468189,0.8796915,0.659259,0.84579724,0.92784315,-0.4865771,0.6801894,0.96882933,-0.73822004,0.30982545,0.6895795,-0.46304014,0.5892389,-0.7076152,-0.70733297,0.37491214,-0.83393645,0.776576,0.83484983,0.059493966,0.50872046,0.84253675,0.33181515,-1.0011132,0.8755683,0.6613075,0.6693298,-0.71044827,-0.27631053,0.8925254,-0.81606543,-0.29642126,-0.6078324,-0.76410717,0.48968145,-0.4963068,0.65206844,-1.1748375,0.2661731,0.09513959,0.8985343,0.9524911,0.22954139,-0.57548183,0.715175,0.7230867,0.023976704,0.39154693,1.1488131,-0.6903747,0.32487527,-1.0879347,0.5046173,-0.86569184,1.1883662,1.306996,0.57543796,-0.6263718,0.095222026,0.8244091,-0.9572816,-0.77126557,-0.6879781,-1.1343607,-0.16949303,0.92720455,-0.6848886,-0.64067775,-0.8653005,-0.42601234,0.51599956,-0.39077157,1.0033321,0.34436,0.5706289,-0.63568264,0.6052924,0.18704283,0.9190518,0.6188815,0.84923255,0.6320166,-0.7146999,0.35681602,-0.7864774,0.7979928,-0.37813193,-0.5946434,-0.49565807,1.1078002,0.4068604,0.8561991,-0.6745996,-1.0000994,-0.42637253,-0.83102095,-1.0728903,-0.3832856,-1.0258137,-0.7771397,-1.2033792,-0.5387973,-0.4938768,0.5803674,-0.42499426,0.79225314,1.0832492,-0.5053838,1.0090103,0.3742764,0.70440495,-0.98921037,-0.4601858,-0.6800701,-0.3086532,-0.28507134,-0.28402975,-0.40989003,1.0277227,1.1051782,0.19871126,0.39450064,0.9523207,-0.7569587,0.39403182,0.7597573,0.569057,-1.0893704,-0.42604628,-0.4764307,0.7095535,-0.46593153
0.29025024,0.5183544,0.3180578,-0.46866837,1.0338513,0.78564477,1.4616262,1.2497241,0.32045326,0.38522592,0.6971465,0.14472306,-0.36859575,0.4555954,-0.6132277,1.0404569,-0.7183379,0.9864444,0.726272,-0.36820906,0.66463476,-0.6259469,0.56688285,-0.4955894,0.67626154,0.0833072,-0.4145994,0.414319,0.3727242,0.9765817,0.831039,1.1414747,0.6233839,-0.75027394,0.61143607,0.9840435,-0.7991414,0.20517331,1.0518117,-0.30902112,0.89915264,-0.42855868,-0.9131612,1.1740389,-0.70274603,-0.9831502,0.9791006,-0.996872,0.5541715,0.35115877,0.714662,1.0207862,-0.37373564,0.86918306,1.0599895,0.75608516,-0.9339693,0.43540606,-0.28684884,0.40072167,0.4978094,0.53314143,-1.019371,-0.45434013,-1.1354741,0.8133822,0.5649482,1.0474092,-0.50005543,0.43127486,-0.47408837,-0.26562724,1.0630472,1.2755419,0.6175415,-0.338226,1.0295391,0.29217178,1.0950875,0.7160598,0.55068195,-0.9008644,-0.9437229,-0.6544187,-0.730251,-0.737647,-0.5040605,0.8784074,0.7780534,-0.27269843,-0.58090115,0.76621866,0.6186112,-0.45817107,-0.6759763,-0.8053824,0.34282568,-0.9555249,0.055241767,-0.5491605,0.83386755,0.7262323,0.57458234,0.3260486,-0.32650557,0.45938298,-0.929866,-0.6803409,-0.53695416,0.95448184,-0.7410837,0.76175034,-1.1335536,0.54150534,0.6745549,-0.9009608,-0.30687895,-0.66619194,0.6848304,0.85757315,0.65159327,0.77437115,0.90872264,-0.491946,0.7230834,0.93216497,-0.792951,0.2669357,0.6003591,-0.4413828,0.53704065,-0.6881123,-0.7425367,0.41814047,-0.8226879,0.7907166,0.8777174,0.0038344592,0.44383556,0.74788994,0.29965103,-1.0139475,0.82208043,0.72350293,0.64420307,-0.71201336,-0.30153722,0.8992262,-0.70368695,-0.32297462,-0.565016,-0.7192609,0.50072736,-0.45076445,0.66683084,-1.137926,0.2552915,-0.011045053,0.8860041,1.0110425,0.19386764,-0.54058796,0.8041372,0.65812206,0.026534703,0.36277488,1.197174,-0.6247605,0.34662658,-0.99740756,0.42768404,-0.8036831,1.1076711,1.2743893,0.5566325,-0.5897988,0.102243826,0.89936864,-0.94195056,-0.7446065,-0.667634,-1.1199918,-0.25026318,0.89856875,-0.65843797,-0.6112894,-0.82490563,-0.3930588,0.5505906,-0.30892396,1.008634,0.38927618,0.61201936,-0.5959587,0.5901099,0.22145118,0.9171694,0.67040575,0.8257441,0.62315977,-0.67537034,0.33539805,-0.840908,0.75382584,-0.33817676,-0.5450249,-0.44456583,0.9872805,0.4507809,0.7990338,-0.6884832,-1.0112923,-0.45944625,-0.74773246,-1.204786,-0.41467088,-1.0259228,-0.9336241,-1.3324555,-0.5085701,-0.5036402,0.5722668,-0.47388563,0.73390126,1.0195608,-0.5199412,0.86654925,0.30359483,0.60945106,-1.0898948,-0.48581195,-0.67060393,-0.2944296,-0.2642563,-0.23837613,-0.4447837,0.99794686,1.0521407,0.27943563,0.3669585,0.9297388,-0.7409014,0.4044961,0.7618396,0.5958012,-1.1328677,-0.38206476,-0.42653465,0.6590298,-0.3899946
0.33723068,0.42993078,0.26110354,-0.40370595,0.9809022,0.6823439,1.3393573,1.1187768,0.3183231,0.33781302,0.6632695,0.10734373,-0.33988675,0.3825663,-0.6373048,0.9548782,-0.6612482,0.96458113,0.65022963,-0.4514066,0.53971237,-0.49549043,0.4266019,-0.40577146,0.58977544,0.057274573,-0.44612795,0.46717748,0.23825319,0.87322706,0.64013857,0.9947182,0.5568868,-0.670129,0.56628937,0.9969961,-0.76402676,0.14973842,0.96155137,-0.29524198,0.6861193,-0.34048164,-0.905281,1.030517,-0.65942365,-0.91026837,0.8603898,-0.84580326,0.45799258,0.28319606,0.59362924,0.9611534,-0.38079846,0.6266657,0.96615684,0.66157997,-0.8650546,0.38542467,-0.28158057,0.35870448,0.3879247,0.5318767,-0.928978,-0.43305394,-1.0234824,0.6343195,0.55332685,0.99123836,-0.48516724,0.46234316,-0.5324012,-0.29631093,0.98578244,1.043893,0.6140657,-0.3821001,0.9471339,0.3405684,0.9974483,0.7384184,0.60623425,-0.80238384,-0.8577191,-0.64974284,-0.625243,-0.5254326,-0.4984859,0.7138182,0.7416039,-0.2598639,-0.61940074,0.75788313,0.6298211,-0.45679972,-0.6681744,-0.59173095,0.32046902,-0.9150665,0.06965753,-0.4669338,0.8157816,0.6150042,0.49189898,0.37358704,-0.29422724,0.3636225,-0.87754774,-0.6426124,-0.5235841,0.9512547,-0.62330306,0.6224076,-1.0877624,0.44350573,0.7080172,-0.79140174,-0.31313097,-0.6189401,0.5612422,0.8598494,0.50811297,0.8113306,0.82163006,-0.4277961,0.51444954,0.95667034,-0.69098014,0.35470533,0.59004676,-0.37930968,0.54804784,-0.5873258,-0.57539046,0.3079034,-0.7890398,0.6912417,0.84227115,0.067379855,0.43615463,0.7395646,0.18876483,-0.9461834,0.76328474,0.5611848,0.6035713,-0.7317343,-0.29026958,0.84127295,-0.6997809,-0.31713122,-0.5279674,-0.63382584,0.42374662,-0.46817553,0.49012193,-1.0311486,0.16303334,-0.07125716,0.7785947,0.9534947,0.30719724,-0.54647493,0.63820446,0.5794734,0.013849876,0.385016,1.0560557,-0.5515729,0.33508155,-0.8871897,0.4686144,-0.7117279,0.9938004,1.1973107,0.5416818,-0.5297562,0.15870625,0.88930315,-0.78834814,-0.6570218,-0.5616052,-1.0179633,-0.21159533,0.8284113,-0.556152,-0.57200664,-0.82546085,-0.34476754,0.49172533,-0.34926623,0.97054553,0.2827383,0.52429736,-0.60109997,0.60472953,0.15591909,0.83361113,0.56364274,0.76966524,0.60424054,-0.64221525,0.348571,-0.67304355,0.70746654,-0.28048286,-0.55273354,-0.47154424,0.9980186,0.43111733,0.788138,-0.67680407,-0.94991904,-0.42237076,-0.7791598,-1.0362638,-0.42323053,-0.96143234,-0.7296534,-1.1328933,-0.4056343,-0.5130703,0.4714181,-0.44573307,0.7740654,0.94751734,-0.43519008,0.87349516,0.37060747,0.59276325,-0.92685944,-0.42182076,-0.6006439,-0.24874826,-0.25253236,-0.22685826,-0.45467308,0.9066206,1.0309693,0.25707728,0.40018725,0.78027666,-0.67304045,0.37085384,0.6648767,0.5979825,-0.95254594,-0.36897203,-0.54325044,0.6883642,-0.41180098
0.39323112,0.43167734,0.3375764,-0.45655397,1.1000807,0.79146904,1.2775546,0.99753606,0.2837331,0.3359049,0.53558195,0.17228879,-0.34283197,0.47014126,-0.68924123,0.97253937,-0.77121764,0.9947487,0.707943,-0.39546907,0.4701763,-0.52070916,0.52671903,-0.4730219,0.5539812,0.107547,-0.49524444,0.34957644,0.30951777,0.9709671,0.6912557,1.2068151,0.6075063,-0.77403843,0.6611864,1.1378987,-0.81916505,0.18241997,0.9205915,-0.3585225,0.7958037,-0.3381141,-0.8522206,1.0686057,-0.6070302,-0.8907508,0.98414165,-0.9301872,0.49181905,0.29578125,0.63059646,0.96322757,-0.4368741,0.6974281,1.0427274,0.750574,-0.97808164,0.34021556,-0.32270005,0.3337761,0.49440318,0.55553675,-0.8718538,-0.38499632,-1.0350252,0.7685759,0.6395558,1.0502217,-0.53947616,0.47471297,-0.5187825,-0.29985556,1.1387796,1.1727759,0.5896428,-0.3039508,0.99495095,0.32706714,1.1598217,0.72897387,0.580985,-0.7794851,-0.9882516,-0.54639703,-0.7743707,-0.5946638,-0.59891975,0.6827076,0.7305668,-0.34236455,-0.61686826,0.6366145,0.6348376,-0.40308353,-0.7148103,-0.6375653,0.32571924,-0.9035339,0.13775383,-0.5237086,0.7297835,0.6760437,0.61898524,0.38473603,-0.3122187,0.46270597,-0.84140724,-0.78826344,-0.6084927,0.94603926,-0.6279285,0.6221849,-1.0572231,0.40734214,0.72075784,-0.9665277,-0.26014075,-0.5389936,0.542648,0.8904869,0.5049326,0.7586866,0.918274,-0.51935345,0.60570747,0.9200856,-0.80814266,0.35155252,0.52698845,-0.36896893,0.53205955,-0.55107653,-0.5813744,0.3575325,-0.79869306,0.791011,0.849185,0.09001561,0.4577737,0.66978544,0.2739401,-1.031119,0.87859225,0.6883913,0.7269214,-0.7134286,-0.34557313,0.9353286,-0.82900655,-0.3740603,-0.62179303,-0.55405676,0.5338653,-0.52454257,0.6145331,-1.1541883,0.26483715,0.038474582,0.89290106,1.0582463,0.19601595,-0.5627103,0.67841613,0.5647146,-0.0494566,0.35275602,1.0060261,-0.5217413,0.2905192,-0.9604613,0.4559227,-0.89192194,1.1213543,1.0618658,0.56269366,-0.5826888,0.052265245,0.920834,-0.9042917,-0.6105551,-0.6444874,-0.95611113,-0.20748006,0.8904354,-0.5655966,-0.6129213,-0.8943605,-0.38080192,0.512405,-0.35003662,1.0291451,0.3795189,0.5232863,-0.6735786,0.6397882,0.15509383,0.8277812,0.639507,0.82553965,0.63695496,-0.54415137,0.27477574,-0.690176,0.654683,-0.34846112,-0.476411,-0.44798937,0.93575853,0.47071207,0.928899,-0.69911623,-1.0111244,-0.45483872,-0.73626995,-1.0905505,-0.43123418,-0.9196328,-0.8341595,-1.2069776,-0.40278542,-0.43499294,0.48729703,-0.39922288,0.7651272,0.93103015,-0.55227506,0.9805935,0.3498989,0.54262906,-0.99952215,-0.44157976,-0.6726992,-0.30245394,-0.22992992,-0.28814074,-0.4889284,1.0823472,0.971571,0.19035694,0.36366263,0.732851,-0.6775819,0.44057304,0.72792387,0.6545327,-1.0627236,-0.42861834,-0.5024545,0.6876414,-0.45607507
0.34834498,0.43478236,0.27000064,-0.41032675,0.9711411,0.7480597,1.3419954,1.1883799,0.25567725,0.41943458,0.7060808,0.14842717,-0.39044523,0.44044182,-0.64982855,1.0249399,-0.72841996,0.88917285,0.67687154,-0.42943373,0.58185756,-0.536542,0.4686179,-0.40852636,0.64312065,0.056598976,-0.41949874,0.38651618,0.34262037,0.8329643,0.6273484,1.1083223,0.57827806,-0.69733346,0.68555444,1.0232774,-0.7587482,0.17557518,0.96423775,-0.32646626,0.7126021,-0.3321475,-0.9417089,1.0123811,-0.6217301,-0.8836994,0.93777674,-0.94528896,0.44056612,0.32763818,0.57694274,0.91246533,-0.37100902,0.59862185,0.9792731,0.67372453,-1.0066924,0.348415,-0.2561597,0.41042522,0.45831564,0.52371913,-1.0055165,-0.48529533,-1.0443109,0.6009604,0.5984625,1.0250462,-0.5217369,0.41684207,-0.513796,-0.30450898,1.0900815,1.0671381,0.57295173,-0.37744364,0.9203835,0.28195092,1.0816199,0.70608675,0.54858744,-0.7066382,-0.9348382,-0.5779081,-0.6964547,-0.55899304,-0.54578614,0.8030426,0.69279116,-0.28903598,-0.62388253,0.80077034,0.6039567,-0.4466592,-0.62632877,-0.60731655,0.2697789,-1.0131042,0.069485836,-0.4511155,0.8046561,0.63084483,0.6017616,0.32968873,-0.270115,0.39515662,-0.8975007,-0.69691205,-0.57723147,0.9181501,-0.6767539,0.62119937,-1.1479112,0.4122239,0.6824863,-0.8340763,-0.34693924,-0.5651483,0.52294654,0.86747503,0.6016533,0.7536222,0.81802243,-0.46031478,0.5829195,1.0109968,-0.7327816,0.37291428,0.63979065,-0.4337533,0.4931635,-0.62150335,-0.56479734,0.29687002,-0.86780214,0.75745714,0.8767374,0.03702056,0.47315198,0.73984826,0.253207,-1.008745,0.75549614,0.5847098,0.67243147,-0.71388215,-0.32467952,0.91437465,-0.7573837,-0.36523134,-0.6225935,-0.6879425,0.5246035,-0.44610447,0.59844667,-1.1068598,0.2355994,-0.024960192,0.83284223,0.92021275,0.22450624,-0.60662895,0.6563209,0.6276944,0.051317584,0.36133403,1.1651871,-0.655911,0.27928975,-0.9956256,0.46737722,-0.775693,1.099428,1.2577252,0.54627883,-0.60074264,0.045162715,0.8557319,-0.82767314,-0.7417885,-0.5370318,-1.0610667,-0.2634266,0.86386174,-0.5998371,-0.5655926,-0.82063276,-0.41270328,0.43942145,-0.3628927,1.0170149,0.37234083,0.49125353,-0.6608234,0.5920917,0.20876345,0.77052534,0.58632326,0.78594905,0.6463658,-0.6948601,0.2877338,-0.6959591,0.7209272,-0.3563055,-0.5371348,-0.46492684,1.0956306,0.3909696,0.8511414,-0.65358055,-1.0011151,-0.4228207,-0.8195387,-1.0788411,-0.4474317,-1.005363,-0.70394546,-1.1427977,-0.47207212,-0.45764518,0.50499886,-0.4741016,0.7246053,0.9528235,-0.42996293,0.83732814,0.36683142,0.5768845,-0.975006,-0.42633304,-0.648504,-0.21945973,-0.31399462,-0.2989011,-0.44150105,0.9358599,0.9924634,0.22168986,0.31625783,0.83432317,-0.68851167,0.45108953,0.72269493,0.62963516,-0.9860099,-0.38917318,-0.48269996,0.74665433,-0.39558154
0.34272406,0.45911682,0.34646085,-0.5014635,1.0236293,0.7591635,1.3275883,1.2117649,0.3544773,0.3608734,0.6260562,0.1613412,-0.36615908,0.45262194,-0.61545247,0.98827475,-0.7400651,0.9891647,0.6854958,-0.42421812,0.6077909,-0.65046835,0.47908965,-0.47144398,0.7104957,0.12456757,-0.46225697,0.33600098,0.33253205,0.94177926,0.64250576,1.1267297,0.56867033,-0.7896133,0.6108092,0.9934188,-0.77645665,0.14548114,0.94440544,-0.3143276,0.76362085,-0.35566232,-0.8675005,0.98242664,-0.66720885,-0.86539745,0.91318196,-0.9633578,0.3954652,0.27459154,0.6660768,0.9446848,-0.3907642,0.702238,0.9064273,0.75386596,-0.9315181,0.3521048,-0.33568755,0.4310429,0.5372334,0.4861434,-0.966285,-0.44674894,-1.0752416,0.72626245,0.6248359,1.0898752,-0.5428965,0.4221119,-0.49409905,-0.33705118,1.052327,1.0201923,0.6079168,-0.325506,0.9403499,0.3386257,1.1420813,0.82082146,0.6064642,-0.80182564,-0.922723,-0.658466,-0.7462374,-0.5382372,-0.4908379,0.7761459,0.70258975,-0.2688261,-0.5771342,0.71777534,0.60581374,-0.5006232,-0.7041726,-0.61795276,0.31800887,-0.97491384,0.13784492,-0.49506074,0.83312726,0.6408089,0.55151427,0.39554176,-0.3428509,0.4053887,-0.8364991,-0.7438043,-0.5145638,0.9226604,-0.6034732,0.5741616,-1.1173129,0.39760005,0.72224265,-0.9025129,-0.31239513,-0.6357187,0.5590753,0.8116755,0.54770285,0.8022184,0.90053624,-0.4602817,0.55608714,1.0040827,-0.76700664,0.297365,0.6861242,-0.42328644,0.56076366,-0.65304697,-0.5445794,0.33988157,-0.85773116,0.7227177,0.78799784,0.031116616,0.5083591,0.78606987,0.30084333,-1.0089809,0.83812916,0.5758205,0.632687,-0.76546985,-0.36688438,0.94535625,-0.71502966,-0.36520103,-0.5882764,-0.663102,0.47783673,-0.47181392,0.5918669,-1.1504018,0.1920359,0.06937814,0.84284735,0.9466708,0.16849658,-0.63154304,0.6996483,0.6664172,-0.02184901,0.34631097,1.0981232,-0.6813468,0.3006113,-1.0140887,0.45979536,-0.8050554,1.0579747,1.1830009,0.56025153,-0.55700225,0.06563379,0.8368079,-0.83163536,-0.7193826,-0.56169456,-1.0235345,-0.25579348,0.95860994,-0.6377389,-0.5130134,-0.91060996,-0.41780654,0.5144345,-0.35596672,0.94909036,0.345517,0.50159174,-0.5993453,0.5078471,0.17585444,0.85893184,0.6004858,0.84031266,0.5931719,-0.62223756,0.33817688,-0.665838,0.7205971,-0.2808363,-0.53917605,-0.4361135,0.942328,0.41893482,0.78112084,-0.723759,-0.90295476,-0.44064477,-0.85473,-1.0613906,-0.41598964,-0.99164224,-0.6785537,-1.0961665,-0.45854294,-0.5067421,0.55513614,-0.4791596,0.6671932,1.003878,-0.50377446,0.8619719,0.31112435,0.6710475,-1.0574132,-0.44735596,-0.688249,-0.26591343,-0.27036184,-0.2674354,-0.46188858,1.0952383,0.98324466,0.24664798,0.3063006,0.918391,-0.6191056,0.43404388,0.76706696,0.5476738,-0.90931344,-0.3060712,-0.47200394,0.70873505,-0.40346676
0.35804185,0.45464772,0.2974464,-0.46266875,1.1663799,0.78597444,1.3559693,1.17894,0.2801093,0.4063609,0.6946668,0.20532985,-0.31184,0.5039441,-0.63226354,1.1075569,-0.67303956,0.95598716,0.7197691,-0.36045372,0.56407684,-0.59469986,0.49212804,-0.39118716,0.6726617,0.07341683,-0.45101514,0.4046081,0.31814855,0.8687395,0.74394435,1.1675841,0.5549788,-0.75597924,0.579915,1.0464942,-0.8347679,0.17741285,0.90431595,-0.3352827,0.68877083,-0.3887392,-0.82234496,1.0269628,-0.64269817,-0.8406317,0.8604491,-0.8698537,0.49942753,0.28641805,0.6402424,0.9234418,-0.349323,0.7388412,0.9071232,0.7849418,-0.9730342,0.39432082,-0.26655734,0.4073567,0.44674194,0.5393411,-0.88827085,-0.50880176,-1.033881,0.78626263,0.5854177,1.11083,-0.48708627,0.4025356,-0.46891445,-0.29875657,1.1402469,1.1179103,0.5820506,-0.34185147,0.93791544,0.2847006,1.2438723,0.76864547,0.649535,-0.7496263,-0.9778162,-0.61774623,-0.72066593,-0.6105757,-0.6118412,0.7298867,0.7522106,-0.23394723,-0.6010157,0.7916407,0.5991058,-0.43740788,-0.7362905,-0.61954826,0.27780572,-0.8936774,0.15947782,-0.48105338,0.87061286,0.6085939,0.48308715,0.33207166,-0.3200799,0.43442655,-0.80762804,-0.6904823,-0.5905526,0.88802254,-0.65942115,0.6215912,-1.1111443,0.44966623,0.7409315,-1.0239831,-0.28003973,-0.6539651,0.61636245,0.84572905,0.6269202,0.81991833,0.87613755,-0.4385877,0.59435636,0.97667575,-0.7754917,0.27629197,0.63111883,-0.381344,0.52498627,-0.69080025,-0.6459698,0.3996019,-0.8267369,0.7741803,0.86049587,0.04374157,0.47972888,0.76065725,0.28651822,-0.93466115,0.8477537,0.56036186,0.7291442,-0.70412517,-0.31497803,0.8949904,-0.807794,-0.30802315,-0.60103005,-0.6435513,0.53965366,-0.47935134,0.57715124,-1.2242181,0.29102364,0.11465407,0.8955781,0.96082145,0.24083252,-0.62808704,0.6533801,0.64233285,0.0068557495,0.359278,1.0730199,-0.66928494,0.35120156,-1.0435354,0.43945548,-0.8406007,1.185515,1.301977,0.5616897,-0.5707095,0.07205726,0.8989773,-0.89243704,-0.6944413,-0.62394094,-1.0076782,-0.19249907,0.80688983,-0.6230059,-0.6265946,-0.84080964,-0.39412192,0.52644634,-0.3585545,1.012494,0.37078616,0.54597807,-0.6173435,0.6237435,0.19988535,0.7827146,0.5170111,0.81247854,0.5448975,-0.66296124,0.25458705,-0.67904586,0.71895957,-0.2679852,-0.5339492,-0.4442928,1.0228225,0.35373956,0.8386706,-0.67573,-0.890709,-0.47169653,-0.84107083,-1.0195072,-0.39985487,-0.9780557,-0.7769147,-1.1571814,-0.52845263,-0.49687818,0.56558526,-0.4069261,0.76398504,0.96706516,-0.4781284,1.0049143,0.33917788,0.6693173,-1.0357621,-0.40792814,-0.69587004,-0.34992695,-0.2409982,-0.26986772,-0.40272442,1.1151503,1.0200047,0.17932168,0.37005776,0.8176586,-0.62904257,0.47485504,0.7306443,0.6106107,-0.992524,-0.38919103,-0.5028768,0.734406,-0.4211882
0.4590827,0.5419454,0.39806375,-0.49296317,0.8060247,0.5930019,1.0510223,0.7464235,0.44459617,0.00959469,0.39952332,-0.04493244,-0.4729461,0.5543313,-0.6288625,0.74168587,-0.6433816,0.8075774,0.6027944,-0.5603385,0.34639838,-0.39495894,0.0134193385,-0.48482427,0.4341288,0.15869525,-0.566708,0.55256677,0.14142396,0.7155948,0.24068673,0.8433861,0.53300256,-0.6060475,0.75027245,0.7313815,-0.7449262,0.25412616,0.74998057,-0.45112306,0.40899497,-0.48492926,-0.69151086,0.9074274,-0.44363537,-0.6852777,0.7578278,-0.6537667,-0.033554986,0.4227043,0.25678593,0.71876055,-0.51506144,0.3016447,0.7817161,0.6558581,-0.7555076,-0.012902775,-0.44425222,0.28595495,0.3549385,0.54833,-0.6825057,-0.29040086,-0.79383105,0.38524762,0.55225027,0.8415196,-0.43876877,0.5856158,-0.5427029,-0.3918683,0.82163006,0.9347803,0.6086765,-0.42743382,0.69015974,0.41795084,0.8744453,0.57852256,0.54790837,-0.86909133,-0.85808307,-0.44054684,-0.62929356,-0.2262268,-0.62851757,0.54703534,0.81601274,-0.44626018,-0.52131075,0.5269788,0.52660185,-0.47386852,-0.62982315,-0.285116,0.4639042,-0.72456443,0.058276523,-0.10701615,0.5888029,0.17244545,0.6366237,0.54669917,-0.47855613,0.05580361,-0.6695111,-0.57615113,-0.5089787,0.785079,-0.2751753,0.24207465,-0.81981015,0.11709416,0.56153864,-0.6808102,-0.41409782,-0.37269518,0.1799714,0.67363185,0.35831535,0.61541814,0.72296995,-0.49984467,0.1724875,0.73626673,-0.44382688,0.50541335,0.32197773,-0.46533996,0.40027058,-0.4188364,-0.24238981,-0.005289822,-0.7749603,0.60220385,0.71189886,0.4382956,0.5845369,0.48572025,-0.15381673,-0.8651941,0.6499993,0.15144058,0.6745961,-0.71679264,-0.43790326,0.7306882,-0.6501286,-0.43960413,-0.5957504,-0.41341305,0.53725046,-0.4507438,0.20900634,-0.8416946,-0.16680332,-0.10210192,0.70009667,0.81524336,0.25450253,-0.5210691,0.27518928,0.42761323,-0.11713434,0.3586892,0.7521223,-0.39857602,0.4930171,-0.70373607,0.6085937,-0.6783478,0.81432056,0.8299357,0.5069146,-0.6154504,0.32231176,0.7292723,-0.61216563,-0.46937665,-0.62871885,-0.71911585,-0.3054483,0.7637711,-0.39154032,-0.49230447,-0.7343238,-0.51080513,0.10570237,-0.5416447,0.78123844,0.43754613,0.1347802,-0.69078815,0.63158625,-0.07648582,0.5895448,0.52805465,0.68862766,0.4798554,-0.4022525,0.48151693,-0.374168,0.5163193,-0.43683594,-0.5213751,-0.63793087,0.618988,0.498206,0.7105094,-0.61772656,-0.79010946,-0.4958032,-0.70611596,-0.92524326,-0.510892,-0.7216453,-0.37714738,-1.0199037,-0.24724595,-0.6099337,0.2995255,-0.621153,0.76921844,0.65916145,-0.5616987,0.72866285,0.4900734,0.3665725,-0.8211653,-0.47980073,-0.69947666,0.12712386,-0.28703436,-0.40340334,-0.46948278,0.7927807,0.87955683,0.37140697,0.51280653,0.61820024,-0.32057518,0.5214722,0.46435514,0.59142107,-0.7937854,-0.4835065,-0.6388562,0.5464037,-0.6338728
0.3401149,0.4730273,0.2904797,-0.4501733,0.99012315,0.6808595,1.3797041,1.1518029,0.2495591,0.32750887,0.63215566,0.13187467,-0.35226688,0.46152583,-0.6490485,1.0348494,-0.64019907,0.9142099,0.68757117,-0.36616328,0.6127847,-0.56905514,0.48141205,-0.48546004,0.67805165,0.11297505,-0.44143486,0.37339476,0.29478246,0.84684193,0.6928405,1.0627505,0.5129094,-0.7061408,0.5742361,0.8415323,-0.8114143,0.20951477,1.03552,-0.34448084,0.69609284,-0.37037823,-0.9585631,0.9686859,-0.6405186,-0.9542844,0.9811935,-0.910313,0.40997764,0.26223168,0.67345715,0.97361976,-0.35744104,0.70232576,0.94613343,0.66339433,-0.93415064,0.38928863,-0.30743378,0.46921074,0.45368534,0.5110082,-0.89668864,-0.46996182,-1.1162162,0.6317096,0.62312984,1.0236582,-0.43567875,0.39385977,-0.56380403,-0.27708802,0.9739248,1.0927383,0.6303043,-0.35282052,0.93705064,0.26625964,1.031474,0.6363927,0.5988053,-0.83935297,-0.9870757,-0.58540326,-0.6568411,-0.5917466,-0.51955235,0.7427407,0.72842693,-0.25324172,-0.5456219,0.7784381,0.5682666,-0.42381737,-0.69443697,-0.6032016,0.26963213,-0.95847,0.07790411,-0.4743253,0.8429192,0.59212786,0.61110586,0.3715471,-0.3054761,0.46432704,-0.85764307,-0.62151897,-0.58560133,0.9480445,-0.70361197,0.584406,-1.1130983,0.4175052,0.632845,-0.8439447,-0.33565226,-0.62693554,0.5864664,0.8456053,0.5822619,0.6658882,0.78235567,-0.46439183,0.62227875,0.86417776,-0.68424904,0.3284668,0.63744706,-0.45211366,0.50556105,-0.63798726,-0.59441334,0.31074286,-0.867439,0.7621383,0.85122913,0.10958732,0.4830628,0.7578761,0.23940969,-1.0381154,0.7704034,0.60016376,0.6928597,-0.68266666,-0.36743438,0.8457005,-0.716136,-0.34365544,-0.5303919,-0.653321,0.486226,-0.49141765,0.5398161,-1.0190947,0.17964189,-0.014154062,0.8435996,0.8813592,0.2386084,-0.5766789,0.7181177,0.631895,-0.044039454,0.33147204,1.0778314,-0.63758177,0.30482158,-0.9436836,0.45837635,-0.77113545,0.9515627,1.2505252,0.5321771,-0.5860747,0.12726738,0.7976112,-0.84820473,-0.76799804,-0.6379682,-1.1134387,-0.1752139,0.8711676,-0.5645427,-0.5375296,-0.8409671,-0.31233993,0.5061269,-0.41567174,0.92205906,0.3155391,0.4717896,-0.62215966,0.5986538,0.19230652,0.7307119,0.58268154,0.70594066,0.58381677,-0.6718482,0.31613714,-0.6407961,0.6584395,-0.32057247,-0.4468603,-0.47784153,1.0036138,0.42930907,0.7495346,-0.610118,-0.9954488,-0.45584357,-0.77032006,-1.0047675,-0.38607904,-0.9619256,-0.73713684,-1.0571035,-0.46197477,-0.5012977,0.530959,-0.4603328,0.76401615,1.0054302,-0.5006847,0.7372179,0.35502622,0.6011055,-0.9076688,-0.4389032,-0.74151874,-0.31178737,-0.22428969,-0.26500177,-0.40754926,0.9159354,0.9998725,0.2311069,0.35484678,0.9194587,-0.672362,0.40209538,0.6968772,0.64074236,-0.9303557,-0.40310386,-0.49492866,0.6134571,-0.42018503
0.44915286,0.5332626,0.35498598,-0.44533148,0.96295553,0.57156444,1.130764,1.0320578,0.3661665,0.33100078,0.54295963,0.12650104,-0.45556918,0.45717898,-0.47667277,0.97414243,-0.5630931,0.8770663,0.6631176,-0.38955456,0.49144307,-0.41633287,0.38654158,-0.49389732,0.56557304,0.0432017,-0.4819547,0.40327436,0.19470568,0.7951712,0.48712188,0.91677654,0.38228542,-0.6580166,0.6903028,0.876691,-0.7439719,0.04567436,0.90464205,-0.36857596,0.5629759,-0.27880296,-0.7987213,0.7713654,-0.53304195,-0.8544637,0.7702255,-0.8339653,0.34029827,0.36659947,0.5051639,0.7313297,-0.41352895,0.47803643,0.74067384,0.5339461,-0.94081265,0.38040835,-0.35985336,0.2688359,0.3546671,0.399608,-0.8287891,-0.37946457,-0.93385667,0.48979154,0.47847685,0.9393571,-0.44603646,0.5031646,-0.5195834,-0.38687193,0.97509634,0.83756024,0.5543531,-0.33410695,0.7038353,0.3506022,0.9633133,0.58742493,0.45472142,-0.77630746,-0.9094834,-0.43640828,-0.4705938,-0.4850978,-0.5008248,0.62789404,0.7929576,-0.2623929,-0.4376684,0.55209637,0.4922216,-0.36950377,-0.65310574,-0.5005346,0.40370384,-0.8185406,0.07458503,-0.36735114,0.6827122,0.4346893,0.62072057,0.43949848,-0.37971,0.32200113,-0.83371466,-0.5693692,-0.49549332,0.8401954,-0.504571,0.44191605,-1.0017861,0.33831668,0.59537715,-0.6808117,-0.3216553,-0.51648873,0.42372996,0.7612673,0.5287731,0.6633884,0.74452955,-0.4483,0.42983007,0.7702574,-0.558411,0.37368152,0.44943115,-0.44817582,0.45893717,-0.529952,-0.3817936,0.3144785,-0.7932914,0.67550856,0.7496544,0.026799753,0.4815516,0.6200073,0.23216274,-0.94512135,0.66498065,0.4763418,0.67416215,-0.73481673,-0.36850426,0.7111624,-0.56845,-0.33894104,-0.66940504,-0.5844335,0.45933202,-0.34740737,0.40714,-0.9303638,0.24180241,-0.039128188,0.7795419,0.91971093,0.26988754,-0.54100925,0.47842506,0.5290017,0.099675104,0.20505668,0.94765735,-0.48734316,0.3793214,-0.8331441,0.49449372,-0.59679544,0.95700085,1.0863459,0.4848388,-0.46653706,0.049962446,0.8445514,-0.70143545,-0.6784468,-0.58965904,-0.92246825,-0.10719042,0.778838,-0.43599528,-0.39095807,-0.7480779,-0.37958944,0.33765966,-0.38053164,0.89631164,0.35434482,0.404277,-0.6219034,0.60394263,0.1986157,0.65942764,0.5726109,0.67414385,0.59954554,-0.5014485,0.3699927,-0.48277944,0.54118395,-0.40396956,-0.44793668,-0.46692243,0.89532167,0.2711055,0.69382566,-0.6231275,-0.77953655,-0.5322044,-0.7685336,-0.9117261,-0.41503263,-0.94343805,-0.56562006,-0.86769134,-0.31307626,-0.51623684,0.45640883,-0.44390526,0.74464405,0.90375745,-0.5621765,0.6652626,0.4128286,0.5537355,-0.9191936,-0.50687,-0.6473076,-0.20327523,-0.20918661,-0.37064806,-0.4673442,0.89277935,0.8749178,0.09924491,0.43276504,0.73298824,-0.48225546,0.5118201,0.5184079,0.59662837,-0.7118709,-0.42653713,-0.5103175,0.48759472,-0.4528408
0.3703872,0.49673042,0.31661937,-0.48746973,0.9961792,0.7099741,1.3237897,1.0875354,0.30082923,0.35057288,0.6895558,0.11651784,-0.3744225,0.38107127,-0.5458966,1.0228065,-0.6137329,0.9007022,0.655558,-0.41888928,0.6038651,-0.56725687,0.502515,-0.38846433,0.6154412,0.13286018,-0.43886784,0.3479858,0.38491404,0.8329787,0.7255254,1.0329404,0.5504794,-0.6811139,0.60835594,0.98022944,-0.76363105,0.17910622,0.9903747,-0.3058028,0.75106794,-0.3309862,-0.8639708,1.0033026,-0.74689734,-0.8956037,0.92701906,-0.8682486,0.47832352,0.36595005,0.6718321,0.9805684,-0.32057762,0.6554249,1.0261886,0.6257077,-0.9500742,0.44918385,-0.346815,0.4213835,0.54997844,0.46344033,-0.93570733,-0.5954289,-1.0674033,0.69007933,0.5000338,1.0441633,-0.4681443,0.36502498,-0.51130915,-0.26279736,1.0138996,1.064997,0.61934626,-0.3558048,0.9167602,0.3407225,1.0685241,0.65914404,0.54062796,-0.70362824,-0.8788261,-0.6379328,-0.61637473,-0.6493885,-0.5620937,0.69864035,0.7794035,-0.25111377,-0.53725517,0.7949856,0.55652505,-0.4211709,-0.66292727,-0.6268201,0.29202217,-1.015909,0.13385424,-0.4830772,0.78232354,0.668692,0.5241366,0.37041214,-0.35196218,0.48464483,-0.9252335,-0.66553384,-0.5905305,0.9620085,-0.6062821,0.5942814,-1.074223,0.47716993,0.61069214,-0.8003963,-0.34635252,-0.6761679,0.58989936,0.8577708,0.6024483,0.77719235,0.8178938,-0.4629108,0.5774653,0.9087388,-0.7416824,0.30790275,0.6711867,-0.37643406,0.5994248,-0.6628092,-0.60298914,0.30301926,-0.84309375,0.7393724,0.76762974,0.07981345,0.5053399,0.8236906,0.27380508,-0.97175854,0.78152436,0.5777269,0.71602863,-0.7280253,-0.33422232,0.93736994,-0.6499753,-0.32408676,-0.51495343,-0.7046423,0.480381,-0.4038385,0.61556566,-1.0276647,0.22652975,0.08206457,0.8731009,0.9904707,0.19879057,-0.6325901,0.6240138,0.69296515,-0.040577542,0.3573785,1.0908834,-0.7110569,0.3741435,-1.0212665,0.4365238,-0.7530076,1.0196028,1.1177875,0.5463524,-0.4897391,0.030919807,0.8380788,-0.81677717,-0.7551786,-0.6059816,-1.1023693,-0.17799415,0.84083056,-0.63246924,-0.51080227,-0.80613554,-0.4317876,0.5246634,-0.35019764,0.9287875,0.36793697,0.5067903,-0.6588727,0.6454609,0.1542583,0.8740589,0.6196893,0.75057304,0.5523117,-0.69578123,0.37036148,-0.71821135,0.71419317,-0.36458018,-0.42559278,-0.44731158,1.0081177,0.31664056,0.7088323,-0.7255697,-1.0135086,-0.44342914,-0.77365285,-1.0584279,-0.38892505,-0.9118169,-0.7216886,-1.1647248,-0.44848692,-0.40792814,0.51807207,-0.4475177,0.7259936,0.92740804,-0.4758592,0.8396377,0.35533938,0.60892016,-0.8510784,-0.42866564,-0.6725435,-0.24200243,-0.25836605,-0.3219869,-0.46023852,0.95567536,1.0147327,0.1401939,0.34332317,0.81400543,-0.71628326,0.40973836,0.7237435,0.62181425,-1.0062355,-0.37745887,-0.50099206,0.65896386,-0.4302872
0.4184592,0.48805645,0.324415,-0.49565247,0.9264571,0.49205145,1.223808,0.9954769,0.29196063,0.36956662,0.56681,0.17354703,-0.37188387,0.47098276,-0.40305287,0.9291385,-0.5151325,0.8505338,0.6396382,-0.43337396,0.51978445,-0.5032845,0.4135774,-0.45121908,0.5950581,-0.020664498,-0.5223089,0.3328451,0.26184043,0.7544874,0.6043518,0.89087504,0.3587964,-0.5452556,0.6923666,0.80120933,-0.77340716,0.063485004,0.90204793,-0.29743493,0.6497027,-0.23835716,-0.81566316,0.7949449,-0.5888307,-0.87010187,0.78342736,-0.91712403,0.43509,0.36207673,0.5591345,0.7867376,-0.37518552,0.597248,0.8465477,0.4443399,-0.9632284,0.41723832,-0.2798636,0.31355926,0.4430804,0.38547698,-0.8277551,-0.38076705,-0.99962586,0.5307437,0.44301006,0.959105,-0.36492714,0.45587626,-0.53972304,-0.33981422,0.9429483,0.92719644,0.60907483,-0.317213,0.8596952,0.3648726,0.9063066,0.57632124,0.4389315,-0.8248665,-0.77318877,-0.47546998,-0.5055418,-0.46143696,-0.6262075,0.7091631,0.7380966,-0.30401963,-0.39467967,0.74117714,0.45161575,-0.37893313,-0.63020176,-0.5611158,0.37558347,-0.94114524,0.07789528,-0.37862515,0.7334834,0.48679823,0.6033607,0.452792,-0.38833395,0.42438662,-0.90042233,-0.52216715,-0.51252,0.91325563,-0.5823372,0.4626662,-1.0864477,0.37884918,0.4984363,-0.6024059,-0.30676913,-0.5333145,0.47681877,0.8081636,0.54366994,0.67869496,0.67616576,-0.5707464,0.4688361,0.83901125,-0.6141391,0.40866026,0.5098954,-0.35694116,0.44918555,-0.59083956,-0.46630967,0.31047127,-0.91963214,0.720033,0.793784,-0.005383012,0.47658142,0.7232158,0.29305518,-0.94782096,0.62997156,0.48031464,0.5789348,-0.7510359,-0.3617143,0.7846258,-0.5718222,-0.36730123,-0.59902376,-0.6168746,0.45501217,-0.2662886,0.48304215,-0.893166,0.18591768,-0.032965116,0.82015204,0.8791218,0.20831655,-0.54780596,0.5770309,0.53366125,0.026480895,0.27285823,1.0018364,-0.5560572,0.33858287,-0.88011616,0.48716983,-0.57541925,0.8545382,1.1447333,0.39203963,-0.41286853,0.011051761,0.8674677,-0.68316996,-0.68151695,-0.56272984,-1.0507001,-0.071191646,0.7105695,-0.4714897,-0.43907434,-0.7400606,-0.4470526,0.40132102,-0.4326025,0.82443804,0.40109053,0.45626235,-0.5884444,0.5772184,0.17224766,0.699265,0.60816187,0.6082666,0.61230755,-0.5398613,0.37500444,-0.5719989,0.61048526,-0.34735578,-0.4111928,-0.52763414,0.9550536,0.22827181,0.59479314,-0.63549834,-0.8549058,-0.54510987,-0.70673317,-0.9585515,-0.37092835,-0.89173305,-0.67543346,-0.94489825,-0.37855253,-0.46497136,0.48876303,-0.5295994,0.83225745,0.9170142,-0.517895,0.6478829,0.4007311,0.57458943,-0.80878055,-0.51418746,-0.603416,-0.2500571,-0.17403693,-0.27797332,-0.5007692,0.749186,0.9827871,0.080627605,0.38884643,0.8268133,-0.5648366,0.44660246,0.603751,0.63618463,-0.84727436,-0.36676982,-0.5191611,0.48078603,-0.39202634
0.39640054,0.5043392,0.32935944,-0.42470968,0.9327936,0.6740971,1.2749199,1.0156024,0.3215016,0.33634907,0.6241117,0.14258954,-0.34336,0.4025883,-0.5586985,0.98096293,-0.6469166,0.89828,0.65277815,-0.43681195,0.5035605,-0.50853485,0.4503557,-0.44257826,0.5552593,0.091274455,-0.47796297,0.34647334,0.30529815,0.74347687,0.5822177,1.0552316,0.4625388,-0.6099242,0.5730651,0.8600612,-0.8117204,0.13738301,0.9630176,-0.31248313,0.6910937,-0.25585654,-0.87431955,0.93401283,-0.5615849,-0.9064828,0.8412185,-0.8878103,0.44142872,0.31033334,0.5119366,0.8505946,-0.39137128,0.6029255,0.8603719,0.6092598,-0.9396332,0.34603032,-0.28029206,0.35671338,0.42680335,0.39049393,-0.8409571,-0.49689502,-0.9959507,0.59665674,0.53995734,0.9290121,-0.44379964,0.49084857,-0.47293958,-0.26312214,0.959837,1.0848501,0.5901922,-0.2999126,0.86260676,0.3286691,0.99130934,0.6282024,0.5497326,-0.855368,-0.8518944,-0.5232473,-0.5418198,-0.5651023,-0.49743006,0.7311461,0.720258,-0.2745781,-0.5167818,0.6227419,0.50944555,-0.34321374,-0.6889451,-0.5448148,0.2507772,-0.9421645,0.14036815,-0.44846433,0.6705175,0.5579614,0.6299075,0.3987298,-0.35952652,0.4717612,-0.869757,-0.6625349,-0.577389,0.9003855,-0.63478374,0.5494286,-1.0368701,0.34703848,0.6243025,-0.7748782,-0.28854775,-0.5174,0.49817875,0.85703516,0.51787883,0.63552684,0.78021854,-0.44295058,0.5235902,0.8310421,-0.6118659,0.28148246,0.47620568,-0.3526533,0.5434812,-0.5663931,-0.5727379,0.29782608,-0.80597526,0.79126066,0.80254406,0.10186261,0.46703207,0.6262132,0.30935708,-0.969741,0.69728315,0.5815565,0.64310914,-0.6420535,-0.34609398,0.7673062,-0.6760961,-0.30285582,-0.6117692,-0.55911756,0.46954095,-0.41377184,0.50269884,-0.94257957,0.1939945,0.043878395,0.85618687,0.8712952,0.17108312,-0.5036046,0.5764144,0.5823307,-0.049010262,0.35360494,1.0256588,-0.6018404,0.24082008,-0.86518836,0.44093302,-0.709504,0.9189688,1.1657046,0.44981578,-0.5080853,0.013884578,0.75435317,-0.84542835,-0.6858012,-0.5655843,-1.0323427,-0.07545971,0.8162581,-0.567744,-0.48413715,-0.78140277,-0.3952314,0.3781374,-0.37758523,0.9234979,0.35978386,0.47953236,-0.57638097,0.56427467,0.14833461,0.7481197,0.57520276,0.66714025,0.5348722,-0.61895454,0.34885725,-0.625303,0.6446819,-0.28489855,-0.39950508,-0.4786889,0.94396913,0.35426626,0.7193701,-0.6270825,-0.84115803,-0.44840968,-0.750475,-0.88324124,-0.37682563,-0.9380444,-0.65667224,-1.1015252,-0.3885025,-0.46927693,0.47940192,-0.47342128,0.6868186,0.90797323,-0.48259282,0.7694353,0.40453374,0.5425438,-0.8922819,-0.4712082,-0.6408482,-0.22232337,-0.19122836,-0.2608137,-0.41767508,0.88336074,0.97843087,0.15361273,0.30571806,0.7938834,-0.6297085,0.47147548,0.6493916,0.5363127,-0.94295627,-0.43639034,-0.4707426,0.53400856,-0.38447127
-0.19143303,-0.19246627,-0.21627246,0.21703582,-0.20552672,-0.26462543,-0.19611421,-0.2179028,-0.2128349,0.4043423,-0.27386406,0.02536291,0.17750835,-0.20515992,0.24766777,-0.21765238,0.26616794,-0.1827547,-0.1841195,0.21878645,-0.27844024,0.288143,0.38857728,0.20295662,-0.26060128,-0.34683898,0.18683243,-0.1881318,-0.2410678,-0.15016773,0.5376418,-0.21193667,-0.28297845,0.23139243,-0.14866474,-0.10860613,0.19165856,-0.305095,-0.1796172,0.2143739,0.60300976,0.29398006,0.17784616,0.117914096,0.29527733,0.18817283,-0.15529655,0.1059183,0.4140829,-0.22096686,0.5468482,-0.044642903,0.23414893,0.51343614,-0.10022919,-0.24239926,0.17384504,0.3980082,0.1938526,-0.30180985,-0.22225016,-0.22085193,0.17016171,0.11636869,0.23257275,0.46686718,-0.23646101,-0.18515453,0.20395614,-0.17850542,0.18541652,0.21105726,-0.20914808,-0.06523012,-0.15427972,0.20233077,-0.0134973675,-0.20301698,-0.18563521,-0.23575474,-0.26674956,0.19101557,0.19235542,0.28775495,0.24047178,-0.44313648,0.15026928,-0.2820049,-0.18706639,0.2100194,0.24782488,-0.24535885,-0.2565579,0.10096013,0.16127482,-0.51207054,-0.21374038,0.17439573,-0.111778595,-0.46079922,-0.27842522,0.4548269,-0.17894667,-0.18019342,0.15944397,0.4070656,0.15906991,0.27787495,0.18624493,-0.19792849,-0.5018703,0.45472187,0.2060573,0.36597806,-0.26336488,0.25607988,0.18618934,0.2851921,0.48297337,-0.16981423,-0.24467993,-0.03556442,-0.21703947,0.21575366,0.43880135,-0.16486862,-0.33362877,-0.20680396,-0.2669489,0.17256813,-0.3068447,0.3004048,-0.46201476,0.40906385,0.1730763,-0.16102028,-0.19825895,-0.31140658,-0.19672406,-0.23537417,0.34786528,0.18806385,-0.25761384,0.45030436,-0.1894121,0.1638246,0.15686744,0.01477953,0.25714776,0.19939476,0.18702994,0.27943212,-0.18948515,0.26476467,0.44731745,0.20313229,0.33948672,-0.045653153,-0.19170913,-0.14820094,0.013130659,0.20735581,0.540192,-0.27129707,0.3407908,-0.28279778,-0.20803855,0.2812813,-0.20728742,0.2564871,-0.18799238,0.2800905,-0.2167735,-0.23349091,-0.27916142,0.26808557,-0.29337016,-0.16949758,-0.120619155,0.13633639,0.19933197,0.20507368,0.28794256,-0.1605328,0.27942222,0.20760468,0.17459773,0.18556271,0.4161185,0.18610755,-0.17051004,-0.21091071,0.40685096,0.20482905,-0.19225755,0.35691142,0.47019133,-0.18289442,-0.2624248,-0.17013803,0.2735912,-0.18820347,-0.54333067,-0.29735598,0.20569664,0.27281296,0.18069462,-0.12778963,-0.3022429,-0.22960861,0.18019418,0.14492224,0.20398648,0.2175106,-0.05014456,0.19720013,0.1839511,-0.57695895,0.06631085,0.21218602,0.18841757,-0.2739287,0.20872964,-0.19928424,-0.23443653,0.20096004,-0.26783967,-0.19240628,-0.22650376,0.23347178,0.18880908,0.18156339,-0.4016023,0.12356955,0.16867211,0.21120217,-0.24490367,-0.14896592,-0.1851369,-0.19080983,-0.2400373,-0.58075696,-0.19957827,0.27925053,-0.18999599,-0.01980244,0.19212437,0.23436601,-0.24652316,0.20688969
0.39842778,0.48587722,0.36138293,-0.41074228,0.9395361,0.75374377,1.3041278,1.0097195,0.26010835,0.1147285,0.6397764,0.12550595,-0.4445811,0.40257215,-0.5164166,0.82025945,-0.5898515,0.8721506,0.59857196,-0.43805107,0.5511663,-0.55626684,0.15696919,-0.40589017,0.62554723,0.09544796,-0.55514336,0.42916548,0.27430832,0.8166202,0.3863561,0.8943054,0.5564045,-0.726262,0.6186729,0.81528366,-0.62718,0.122672684,0.84860337,-0.3588806,0.37016296,-0.30118185,-0.75975114,0.6801677,-0.6887694,-0.78247535,0.6337642,-0.7838326,0.19528915,0.3269663,0.39877483,0.5954906,-0.45831725,0.3574931,0.6722185,0.5898271,-0.8182457,0.20774703,-0.338499,0.36383748,0.4615128,0.5050732,-0.81119573,-0.48433322,-0.96706647,0.34598938,0.5997171,0.8990074,-0.48609915,0.4839012,-0.43287015,-0.3401156,0.96057475,0.7247987,0.57536614,-0.42957973,0.5695962,0.3809718,0.916664,0.65391207,0.5368448,-0.68889165,-0.84340084,-0.54674774,-0.66039747,-0.3183664,-0.6118465,0.8812824,0.68976307,-0.25927502,-0.50953835,0.82810456,0.48704627,-0.5073697,-0.6248896,-0.32928568,0.3836473,-0.7156159,0.08209503,-0.19833162,0.8363473,0.2695774,0.5463557,0.40372112,-0.40197316,0.19470161,-0.7862218,-0.6383413,-0.5331085,0.73465514,-0.38117638,0.3289293,-0.91627157,0.24276775,0.59262246,-0.7946518,-0.33799338,-0.61785007,0.30371177,0.6046134,0.596618,0.5900459,0.8298151,-0.4648627,0.29367304,0.9311715,-0.4018727,0.31682503,0.5788389,-0.40477273,0.55483896,-0.60287976,-0.27956286,0.09859116,-0.8876694,0.6514225,0.8381213,0.15567842,0.47862846,0.74158037,0.0951153,-0.8997303,0.7858967,0.34380624,0.69329816,-0.7711405,-0.36502984,0.6037032,-0.67159367,-0.31407642,-0.58909875,-0.64706874,0.4359287,-0.380131,0.29501635,-0.99356174,0.12023466,-0.03343833,0.8138238,0.8048346,0.22987452,-0.6157155,0.3437122,0.62099785,-0.006063993,0.38436428,1.0129274,-0.6383428,0.36517826,-1.0637821,0.50369567,-0.6784201,0.9159683,1.0653034,0.5374654,-0.5246909,0.13074534,0.74230725,-0.48150682,-0.64725184,-0.56317586,-0.8802558,-0.15389574,0.7581452,-0.61746746,-0.47019362,-0.8103654,-0.39622498,0.22397017,-0.435841,0.9186656,0.31593856,0.22313641,-0.6685111,0.6198596,0.02041456,0.50119907,0.5675512,0.7579305,0.5391815,-0.6059304,0.31011212,-0.4157625,0.7657806,-0.38106215,-0.44553897,-0.49327454,0.76685554,0.38572666,0.8059688,-0.65377307,-0.6979038,-0.5212559,-0.8047396,-0.6144544,-0.44503355,-0.9171801,-0.35187116,-0.8684264,-0.44651544,-0.39914912,0.5326549,-0.48394513,0.7445543,0.9371715,-0.54275846,0.74443644,0.4454325,0.66166484,-0.8725633,-0.5373189,-0.676098,-0.15960252,-0.27500477,-0.32000977,-0.43409163,0.94125175,0.8925694,0.24248728,0.41706282,1.0102656,-0.3458362,0.43031767,0.46731013,0.68013185,-0.6766645,-0.4488928,-0.56068796,0.5773615,-0.43647465
0.39984643,0.5071692,0.35891563,-0.4913396,0.91057813,0.6887676,0.99743724,0.8582195,0.41245458,0.2550759,0.46908584,0.12481093,-0.44052362,0.4027018,-0.52123946,0.9081581,-0.5995985,0.8859811,0.7182865,-0.41323105,0.38954866,-0.3878081,0.40456492,-0.47088024,0.47501865,0.04089889,-0.5675963,0.3628735,0.2504439,0.8585383,0.54554164,0.9534937,0.48304084,-0.730635,0.64409876,0.89756894,-0.6995258,0.12773903,0.8195091,-0.33443025,0.67473984,-0.2947854,-0.80904853,0.90333974,-0.48961627,-0.8770732,0.8432135,-0.84006965,0.41195658,0.33356223,0.5040435,0.87735087,-0.445464,0.584536,0.87373906,0.6088545,-0.90748096,0.34322244,-0.27737302,0.28436422,0.3508202,0.47545448,-0.826799,-0.34875113,-0.8878717,0.59090734,0.49235132,0.9167884,-0.43613747,0.46079442,-0.57312506,-0.38410753,0.9906198,0.9180594,0.61684257,-0.38701144,0.8358507,0.4306051,0.9804287,0.59762174,0.56015,-0.7314147,-0.89771706,-0.42556447,-0.61526287,-0.51867414,-0.5402201,0.576432,0.70883787,-0.28579527,-0.52594614,0.57400113,0.5636734,-0.36067933,-0.6729812,-0.50435203,0.43800524,-0.82050735,0.10884143,-0.38665745,0.58469373,0.479922,0.5497368,0.47280508,-0.3434757,0.31199917,-0.89447623,-0.60371345,-0.541765,0.8838276,-0.54255456,0.5289963,-0.93369955,0.39506197,0.6525422,-0.82493305,-0.35765982,-0.39538714,0.4448703,0.7440348,0.41162947,0.6520739,0.7901983,-0.52253586,0.45941517,0.7728611,-0.6288466,0.33255196,0.4649739,-0.49277395,0.40828204,-0.48313448,-0.47334018,0.27018553,-0.85271585,0.65201664,0.7642306,0.08690114,0.44367698,0.51098216,0.15596281,-0.94695675,0.7310197,0.4710431,0.67560226,-0.7259514,-0.4153659,0.6912046,-0.6708993,-0.4543268,-0.54552734,-0.41538316,0.51641726,-0.46105075,0.42997977,-0.97856396,0.13071923,-0.036637176,0.8504816,0.861316,0.20227438,-0.5959255,0.50603044,0.42882684,-0.046443243,0.31768593,0.9018268,-0.4826342,0.36950263,-0.7065327,0.47876355,-0.7377149,0.970469,0.9180493,0.45363024,-0.46950066,0.081194304,0.7885509,-0.7760783,-0.6033363,-0.6156398,-0.86404413,-0.13719906,0.81572056,-0.41095117,-0.52940285,-0.748667,-0.4489324,0.3560817,-0.33623078,0.86777765,0.40286955,0.41994798,-0.62402874,0.6898034,0.1016709,0.6817148,0.6646485,0.68770033,0.56245136,-0.44261578,0.2978338,-0.6341089,0.5021903,-0.42988595,-0.4112098,-0.4943813,0.9012719,0.31104267,0.7456307,-0.662301,-0.9678277,-0.53513324,-0.7963835,-1.0096145,-0.43175355,-0.8281765,-0.5677272,-1.0491188,-0.35991138,-0.46696746,0.36347055,-0.45103395,0.84463775,0.74560267,-0.5745036,0.79415363,0.34616753,0.42950746,-0.8052762,-0.5162152,-0.6101641,-0.2511881,-0.2247012,-0.35806417,-0.46209368,0.88570976,0.9517937,0.19046809,0.43791243,0.62952536,-0.51023626,0.46328688,0.5908306,0.6340607,-0.82167363,-0.40699574,-0.51094246,0.6469511,-0.41052467
0.4520693,0.5107162,0.33539096,-0.41673437,1.0369182,0.65730655,1.1900225,1.0664409,0.3033418,0.2588254,0.57328457,0.13988009,-0.32194495,0.46108583,-0.58031756,0.9611008,-0.6109725,0.9397006,0.65486574,-0.39908722,0.5355488,-0.5110546,0.39252228,-0.39432225,0.62990683,0.07537855,-0.46021876,0.439229,0.35794932,0.74153847,0.50675845,1.0897254,0.45004183,-0.672752,0.67835826,0.9154292,-0.74082065,0.17605035,0.84620064,-0.37923467,0.6312845,-0.3506162,-0.80007315,0.8900835,-0.63827527,-0.79568774,0.7859814,-0.82891583,0.33766437,0.32642427,0.5642456,0.7805478,-0.4325575,0.6094934,0.85954994,0.653294,-0.8371236,0.33656594,-0.27251163,0.39814866,0.4780951,0.48057076,-0.90686643,-0.49447447,-1.0465063,0.5488635,0.5408763,1.0624492,-0.4912704,0.4369131,-0.46236676,-0.31806967,0.98618215,1.0038501,0.55801,-0.30649588,0.91127515,0.3292288,1.0885468,0.68708736,0.5187805,-0.7241766,-0.8925994,-0.650909,-0.6337716,-0.48197857,-0.6228332,0.6659997,0.7380989,-0.27446687,-0.5471298,0.70846564,0.4914227,-0.3535344,-0.65280354,-0.50209796,0.33723053,-0.9012965,0.16864197,-0.39782026,0.75378776,0.49226263,0.50269496,0.33116844,-0.3077033,0.3173927,-0.80490226,-0.57705355,-0.56104046,0.83216006,-0.50279635,0.48818892,-1.0608923,0.35274237,0.58110476,-0.7689167,-0.3688069,-0.6261648,0.43782464,0.74629134,0.5407958,0.7167074,0.7722448,-0.39537427,0.41424438,0.9300168,-0.6798766,0.38792455,0.60023016,-0.3695648,0.5219278,-0.5850215,-0.47722852,0.31771705,-0.78404534,0.64856017,0.81328404,0.083785065,0.47119728,0.66700095,0.20141108,-0.9784887,0.7630253,0.4517462,0.6728939,-0.7427108,-0.3179728,0.86972654,-0.63225985,-0.3158815,-0.57263845,-0.60071546,0.45246354,-0.41649204,0.48605084,-1.0644928,0.14676534,0.030123178,0.8750202,0.917342,0.11762229,-0.607401,0.51105016,0.54339874,-0.025823269,0.42015582,1.0257964,-0.61748785,0.29651845,-0.9468626,0.42363578,-0.65138936,0.9449503,1.1154172,0.48675415,-0.46320188,0.115797155,0.784359,-0.704552,-0.6004963,-0.54558307,-0.9921003,-0.20107824,0.84425396,-0.5722054,-0.44467655,-0.8245545,-0.4035995,0.42854697,-0.41867295,0.9406021,0.32533795,0.38993064,-0.5892104,0.5029019,0.104112536,0.7433163,0.5897103,0.7149322,0.53639984,-0.584666,0.37594435,-0.57756996,0.6548838,-0.39471972,-0.40681735,-0.4528356,0.82328016,0.388269,0.75599897,-0.6569501,-0.9182077,-0.38346538,-0.7537019,-0.9860885,-0.4368417,-0.93824977,-0.5688858,-1.1129428,-0.47244984,-0.382632,0.4929948,-0.40692624,0.6914872,0.89834076,-0.48571795,0.8311431,0.38358107,0.5850923,-1.0104258,-0.42310858,-0.702566,-0.21595305,-0.20888011,-0.3070482,-0.43450746,0.91292155,0.8989599,0.23043439,0.41544363,0.78810316,-0.53061324,0.46108958,0.65972733,0.6010518,-0.7948612,-0.35550264,-0.50661343,0.56548774,-0.4193516
0.4213317,0.4692761,0.3962617,-0.43431893,0.8379979,0.5586088,1.1878514,0.9533648,0.32887816,0.3168893,0.46885535,0.14011185,-0.3699997,0.46269354,-0.37751102,0.96085507,-0.45882115,0.81435,0.64076483,-0.4312394,0.41889316,-0.49684596,0.36691976,-0.5280694,0.50077254,0.10314915,-0.5345747,0.37784615,0.26108152,0.61598986,0.61916107,0.8747004,0.33236945,-0.53372073,0.6303387,0.71654606,-0.7720959,0.15628757,0.94784635,-0.37452477,0.63962996,-0.21587908,-0.8337226,0.9740889,-0.5650811,-0.8880634,0.93257684,-0.8857598,0.36443892,0.360449,0.59726447,0.897636,-0.38526177,0.58199173,1.0070227,0.5397872,-0.87773377,0.29178545,-0.25367415,0.3016534,0.3273699,0.43055904,-0.8897945,-0.38479248,-0.86626595,0.5818279,0.44399273,0.96832,-0.3128773,0.38197523,-0.55468506,-0.30620593,0.8810053,0.99702096,0.6258309,-0.3925388,0.8319471,0.2858036,0.88025033,0.47903666,0.40709922,-0.80935454,-0.83553994,-0.49074927,-0.48696992,-0.48924297,-0.5927319,0.5794532,0.7630697,-0.27388492,-0.40375343,0.6999574,0.39964244,-0.3299059,-0.6794127,-0.6066326,0.37559947,-0.9175413,0.054366026,-0.39639902,0.63133353,0.5484405,0.6305128,0.36967474,-0.31570128,0.34260157,-0.8823491,-0.4780368,-0.5160146,1.033348,-0.5731203,0.5970928,-1.0108794,0.3321428,0.51509255,-0.60698664,-0.3256792,-0.5220536,0.49049753,0.85999167,0.458657,0.6242279,0.59491915,-0.56670487,0.5088824,0.8523669,-0.6693799,0.36172706,0.4415767,-0.45517766,0.4707231,-0.5382548,-0.5310257,0.31466845,-0.7882259,0.7312325,0.8209281,0.07364054,0.46965438,0.67962885,0.2157481,-0.919152,0.59070045,0.5517373,0.6659584,-0.6219301,-0.32433262,0.7857849,-0.5117685,-0.36256206,-0.6032534,-0.5310614,0.46587995,-0.3424402,0.5093359,-0.7840889,0.22947124,0.06948493,0.82993704,0.8273122,0.116355695,-0.6099121,0.6654786,0.47316512,-0.028226327,0.2707749,0.9498237,-0.531667,0.39838544,-0.81358135,0.5012649,-0.5797411,0.7607035,0.98605,0.38223803,-0.45098013,0.08152154,0.78740287,-0.8014381,-0.61240906,-0.55361307,-0.9122835,-0.12782066,0.7719997,-0.5284545,-0.3562834,-0.77383226,-0.42536256,0.39406624,-0.31126836,0.8386295,0.32891098,0.37152112,-0.64781255,0.6170037,0.13862404,0.73394614,0.6133516,0.5600313,0.6181719,-0.5483119,0.3756206,-0.65369475,0.48636338,-0.34149954,-0.3748936,-0.56398314,0.8642134,0.34161308,0.59973,-0.70299554,-0.9641879,-0.5371731,-0.77492154,-0.93786556,-0.42136472,-0.8115225,-0.7436949,-1.1536615,-0.4176893,-0.4706998,0.42177033,-0.40525723,0.6960365,0.76951593,-0.47503835,0.6704758,0.3824744,0.55133754,-0.73965865,-0.46525127,-0.68870264,-0.25826877,-0.16012163,-0.24089874,-0.49539325,0.7733949,0.9568235,0.113679655,0.3975455,0.7344328,-0.64077806,0.47580072,0.6624879,0.67768866,-0.9530982,-0.38922632,-0.57948726,0.44427437,-0.4092166
